{"learner":{"attributes":{"best_iteration":"105","best_score":"-0.275553"},"feature_names":[],"feature_types":[],"gradient_booster":{"model":{"gbtree_model_param":{"num_parallel_tree":"1","num_trees":"156"},"iteration_indptr":[0,1,2,3,4,5,6,7,8,9,10,11,12,13,14,15,16,17,18,19,20,21,22,23,24,25,26,27,28,29,30,31,32,33,34,35,36,37,38,39,40,41,42,43,44,45,46,47,48,49,50,51,52,53,54,55,56,57,58,59,60,61,62,63,64,65,66,67,68,69,70,71,72,73,74,75,76,77,78,79,80,81,82,83,84,85,86,87,88,89,90,91,92,93,94,95,96,97,98,99,100,101,102,103,104,105,106,107,108,109,110,111,112,113,114,115,116,117,118,119,120,121,122,123,124,125,126,127,128,129,130,131,132,133,134,135,136,137,138,139,140,141,142,143,144,145,146,147,148,149,150,151,152,153,154,155,156],"tree_info":[0,0,0,0,0,0,0,0,0,0,0,0,0,0,0,0,0,0,0,0,0,0,0,0,0,0,0,0,0,0,0,0,0,0,0,0,0,0,0,0,0,0,0,0,0,0,0,0,0,0,0,0,0,0,0,0,0,0,0,0,0,0,0,0,0,0,0,0,0,0,0,0,0,0,0,0,0,0,0,0,0,0,0,0,0,0,0,0,0,0,0,0,0,0,0,0,0,0,0,0,0,0,0,0,0,0,0,0,0,0,0,0,0,0,0,0,0,0,0,0,0,0,0,0,0,0,0,0,0,0,0,0,0,0,0,0,0,0,0,0,0,0,0,0,0,0,0,0,0,0,0,0,0,0,0,0],"trees":[{"base_weights":[-3.309028E-9,-3.6920583E-1,2.2306083E-1,-2.6206604E-1,-3.6935827E-1,2.0984334E-1,1.0509024E0,-3.158151E-1,5.5857267E-2,-3.1148487E-1,-3.6954603E-1,3.978961E-1,1.4779644E-1,1.6152811E0,4.316528E-1,1.1180778E-2,-3.4850106E-1,4.8134553E-1,-3.5456812E-1,-3.704327E-1,-3.572301E-1,4.7283873E-1,1.8070486E-1,7.581233E-2,4.4878986E-1,1.3324255E0,2.8723493E0,1.7492833E0,3.1006667E-1,-3.6369637E-2,-2.6329362E-1,-3.2608606E-2,1.4776967E-1,-3.669207E-2,-2.5544757E-1,-3.34258E-1,-3.706978E-1,-3.1141457E-1,-3.6194775E-1,4.6609318E-1,2.7537515E0,1.5762372E-1,1.4613101E0,1.7995471E-1,-7.828307E-2,3.770917E-1,3.167022E0,1.08765E0,1.9289305E0,1.5058932E0,3.543234E0,1.9935135E0,-8.641056E-3,-4.0625166E-2,7.896584E-1,-1.7579272E-2,-3.31262E-2,-3.50748E-2,-1.111741E-1,5.950718E-2,-3.4469965E-1,-3.5964483E-1,-3.710159E-2,-3.57674E-1,-5.9655793E-2,-3.6336312E-1,-3.383525E-1,5.374045E-1,3.5198897E-1,5.407618E0,1.8494393E0,4.6575055E-2,3.4276727E-1,5.008089E-1,1.7309694E0,1.4078915E-1,9.268238E-1,-1.2516223E-1,1.2622789E-1,1.7715363E-1,6.9747496E-1,1.2319382E0,5.875758E0,9.3449354E-1,1.6470393E0,2.5298252E0,1.0355791E0,1.9275597E0,1.147813E0,3.21834E0,7.2648656E-1,5.1041704E-1,2.2404196E0,-1.0990521E-1,1.2947085E0,5.048422E-1,1.8424433E0,1.9302128E-2,-3.254239E-2,-3.4738982E-1,-6.441382E-3,-3.637559E-1,-2.4693918E-1,-3.280842E-1,-3.7106335E-2,7.159807E-2,-1.6452052E-1,-3.6523145E-1,-3.3965793E-1,-2.2155626E-1,-3.6885407E-2,4.7362447E-1,1.1035076E0,2.7178785E-1,5.16243E-1,3.5763565E-1,6.434559E-1,2.2378788E0,9.6376985E-1,5.007285E-1,8.289497E-4,6.026059E-1,2.3284923E-1,1.3606033E-1,2.8313297E-1,3.788755E-2,1.8851626E0,1.102141E-1,4.4823924E-1,1.216956E0,6.390397E-1,-2.034706E-1,-4.989923E-2,6.103456E-2,7.5361085E-1,3.2168075E-1,8.715319E-2,5.2993596E-1,8.983315E-1,3.6363661E0,8.203819E-1,7.617383E0,1.6966755E0,8.4509206E-1,1.5643708E0,1.992459E0,2.6843956E-1,3.5553277E0,1.890708E0,7.558817E-1,2.6397934E0,9.7493514E-2,2.349709E0,4.952228E-1,1.4534738E0,2.0452695E0,3.5764878E0,8.562269E-3,8.501419E-2,2.78746E0,1.636933E0,-1.9934033E-1,-5.0528996E-2,2.8594908E-1,7.3242426E-1,2.2971667E-1,6.868919E-1,3.163703E0,2.420407E-1,-3.5988502E-2,-2.78774E-2,-3.1654555E-2,-3.689721E-2,-7.1682036E-5,-3.6490582E-2,-3.687347E-2,-2.1782411E-2,1.010492E-2,-3.6286265E-2,-3.480655E-2,-3.6785837E-2,-2.3938742E-2,-3.6408674E-2,3.0131793E-2,-3.6450863E-2,5.176864E-2,9.384656E-3,1.0085066E-1,1.665501E-1,2.0117681E-2,4.7326814E-2,1.5452628E-1,4.9066838E-2,1.7596346E-1,4.1764122E-1,1.3894883E-2,1.874325E-1,5.046803E-5,1.12404145E-1,-3.0846691E-3,2.3225091E-2,5.4055434E-2,3.3890256E-1,2.2078458E-2,8.77202E-2,8.889369E-3,3.64523E-2,2.2216313E-1,1.1958834E-1,7.6399953E-3,3.1318568E-2,1.4844875E-1,1.7649738E-2,1.0971862E-1,1.8669157E-1,4.8710253E-2,1.1571046E-1,-4.7855796E-3,-2.460845E-2,1.9605209E-1,-6.453328E-3,-3.020004E-3,2.583021E-2,1.6512342E-1,4.36765E-2,1.9669501E-2,4.888703E-2,7.570335E-3,1.20807245E-1,9.550615E-2,4.1434217E-2,1.1493224E-1,5.7587612E-2,6.77687E-1,2.2727266E-1,1.8433326E-1,6.0925152E-2,7.7755845E-1,4.2130953E-1,1.1105281E-1,5.074744E-1,7.806231E-2,1.4138559E-1,8.51242E-2,2.627786E-1,2.7924606E-1,1.5310358E-1,5.6610852E-3,9.6510015E-2,4.2614976E-1,2.658094E-1,1.2505846E-1,2.4114263E-1,5.567179E-2,2.026995E-1,3.7871957E-1,9.513634E-2,1.4385073E-1,2.6854345E-1,2.5803113E-2,7.2894126E-2,1.6618167E-1,7.1009584E-2,3.4583598E-1,1.4384516E-1,3.8233373E-1,1.5458481E-1,3.885375E-1,1.9006582E-1,1.1028377E-1,2.5948396E-1,-2.4909208E-2,-9.236853E-3,5.9310157E-2,-7.1717724E-3,-8.2639E-3,1.474245E-1,5.3242493E-2,1.6286688E-2,8.1435405E-2,1.7926859E-2,5.0748855E-1,2.6910752E-1,-6.62984E-5,1.415219E-1],"categories":[],"categories_nodes":[],"categories_segments":[],"categories_sizes":[],"default_left":[0,0,0,0,0,0,0,0,0,0,0,0,0,0,0,0,0,0,0,0,0,0,0,0,0,0,0,0,0,0,0,0,0,0,0,0,0,0,0,0,0,0,0,0,0,0,0,0,0,0,0,0,0,0,0,0,0,0,0,0,0,0,0,0,0,0,0,0,0,0,0,0,0,0,0,0,0,0,0,0,0,0,0,0,0,0,0,0,0,0,0,0,0,0,0,0,0,0,0,0,0,0,0,0,0,0,0,0,0,0,0,0,0,0,0,0,0,0,0,0,0,0,0,0,0,0,0,0,0,0,0,0,0,0,0,0,0,0,0,0,0,0,0,0,0,0,0,0,0,0,0,0,0,0,0,0,0,0,0,0,0,0,0,0,0,0,0,0,0,0,0,0,0,0,0,0,0,0,0,0,0,0,0,0,0,0,0,0,0,0,0,0,0,0,0,0,0,0,0,0,0,0,0,0,0,0,0,0,0,0,0,0,0,0,0,0,0,0,0,0,0,0,0,0,0,0,0,0,0,0,0,0,0,0,0,0,0,0,0,0,0,0,0,0,0,0,0,0,0,0,0,0,0,0,0,0,0,0,0,0,0,0,0,0,0,0,0,0,0,0,0,0,0,0,0,0,0,0,0,0,0,0,0,0,0],"id":0,"left_children":[1,3,5,7,9,11,13,15,-1,17,19,21,23,25,27,-1,29,31,33,35,37,39,41,43,45,47,49,51,53,-1,55,-1,-1,-1,57,59,61,63,65,67,69,71,73,75,77,79,81,83,85,87,89,91,-1,93,95,-1,-1,-1,97,-1,99,101,-1,103,105,107,109,111,113,115,117,119,121,123,125,127,129,131,133,135,137,139,141,143,145,147,149,151,153,155,-1,157,159,161,163,165,167,-1,-1,169,-1,171,173,175,-1,-1,177,179,181,183,-1,185,187,189,191,-1,-1,193,195,197,199,201,203,-1,205,-1,207,209,211,213,215,217,219,221,223,225,227,229,231,233,235,237,239,241,243,245,247,249,251,253,255,-1,257,259,261,263,265,-1,-1,267,269,271,273,-1,275,277,279,281,283,-1,-1,-1,-1,-1,-1,-1,-1,-1,-1,-1,-1,-1,-1,-1,-1,-1,-1,-1,-1,-1,-1,-1,-1,-1,-1,-1,-1,-1,-1,-1,-1,-1,-1,-1,-1,-1,-1,-1,-1,-1,-1,-1,-1,-1,-1,-1,-1,-1,-1,-1,-1,-1,-1,-1,-1,-1,-1,-1,-1,-1,-1,-1,-1,-1,-1,-1,-1,-1,-1,-1,-1,-1,-1,-1,-1,-1,-1,-1,-1,-1,-1,-1,-1,-1,-1,-1,-1,-1,-1,-1,-1,-1,-1,-1,-1,-1,-1,-1,-1,-1,-1,-1,-1,-1,-1,-1,-1,-1,-1,-1,-1,-1,-1,-1,-1],"loss_changes":[1.6092238E4,1.1044922E0,1.3326011E3,4.94013E0,6.8359375E-1,1.3988872E3,6.6822925E2,1.4646473E0,0E0,8.505146E0,6.689453E-1,4.840542E2,1.9532662E3,3.5209717E2,1.4588557E2,0E0,2.724266E-2,1.0940166E1,1.903305E-1,5.3027344E-1,9.5648193E-1,3.389463E2,2.2535504E2,1.1675603E3,3.389735E3,1.1748413E2,1.6242664E2,3.46938E1,1.4097437E2,0E0,4.8817754E-2,0E0,0E0,0E0,3.5973608E-1,5.1249275E0,1.0449219E-1,5.4407425E0,2.6611328E-2,1.7922168E2,1.4599396E2,1.541425E2,3.4099213E1,1.2697963E3,2.8131683E2,1.0858318E3,2.33577E3,4.8408813E1,1.2460419E2,7.148941E0,1.2413379E2,2.375708E1,0E0,4.501061E1,1.0521681E2,0E0,0E0,0E0,9.1007286E-1,0E0,3.5614014E-1,8.0397034E-1,0E0,3.5152435E-2,6.1367245E0,6.2561035E-2,8.7301826E-1,4.8932812E2,1.1160925E2,7.077301E0,1.5044662E1,9.739632E1,8.014453E1,5.416622E0,2.1176514E1,3.8773187E2,1.7982288E2,1.4067303E2,2.2376526E2,1.3577036E2,2.1872827E2,2.562809E2,1.3408574E3,2.4581451E1,5.8513397E1,8.569159E1,4.1527992E1,8.567223E0,6.461174E0,4.0580322E1,0E0,1.5146532E0,1.4584747E1,2.443295E0,1.9022095E1,1.3866432E1,1.5782535E2,0E0,0E0,3.2578278E-1,0E0,3.4100342E-1,2.062006E0,5.11322E-1,0E0,0E0,3.5131288E0,4.736328E-2,7.0157623E-1,4.445107E0,0E0,2.0401953E2,7.1624756E1,8.1025635E1,7.245502E1,0E0,0E0,2.4172165E1,1.250733E1,1.3375989E2,3.123483E1,1.4254092E2,1.5175293E1,0E0,3.7863398E-1,0E0,1.9143768E1,2.5750125E2,1.0503578E3,8.171338E1,8.507651E1,7.75618E1,3.582632E2,8.924003E1,1.4574905E2,8.361447E1,8.249753E1,1.7425446E2,2.3898193E2,1.4733359E2,4.7471558E1,3.779248E1,1.0524693E2,1.3746704E1,4.023082E1,3.226947E1,3.7822547E0,2.2253235E1,2.6650116E1,2.0136963E1,2.3519318E1,0E0,1.643425E0,5.325794E-1,2.5370102E0,1.9892479E1,3.719812E1,0E0,0E0,2.085057E1,1.248671E1,9.562454E-1,3.8474584E0,0E0,1.16098175E1,2.1999526E0,1.0724075E1,2.3377472E1,9.966652E0,0E0,0E0,0E0,0E0,0E0,0E0,0E0,0E0,0E0,0E0,0E0,0E0,0E0,0E0,0E0,0E0,0E0,0E0,0E0,0E0,0E0,0E0,0E0,0E0,0E0,0E0,0E0,0E0,0E0,0E0,0E0,0E0,0E0,0E0,0E0,0E0,0E0,0E0,0E0,0E0,0E0,0E0,0E0,0E0,0E0,0E0,0E0,0E0,0E0,0E0,0E0,0E0,0E0,0E0,0E0,0E0,0E0,0E0,0E0,0E0,0E0,0E0,0E0,0E0,0E0,0E0,0E0,0E0,0E0,0E0,0E0,0E0,0E0,0E0,0E0,0E0,0E0,0E0,0E0,0E0,0E0,0E0,0E0,0E0,0E0,0E0,0E0,0E0,0E0,0E0,0E0,0E0,0E0,0E0,0E0,0E0,0E0,0E0,0E0,0E0,0E0,0E0,0E0,0E0,0E0,0E0,0E0,0E0,0E0,0E0,0E0,0E0,0E0,0E0,0E0,0E0],"parents":[2147483647,0,0,1,1,2,2,3,3,4,4,5,5,6,6,7,7,9,9,10,10,11,11,12,12,13,13,14,14,16,16,17,17,18,18,19,19,20,20,21,21,22,22,23,23,24,24,25,25,26,26,27,27,28,28,30,30,34,34,35,35,36,36,37,37,38,38,39,39,40,40,41,41,42,42,43,43,44,44,45,45,46,46,47,47,48,48,49,49,50,50,51,51,53,53,54,54,58,58,60,60,61,61,63,63,64,64,65,65,66,66,67,67,68,68,69,69,70,70,71,71,72,72,73,73,74,74,75,75,76,76,77,77,78,78,79,79,80,80,81,81,82,82,83,83,84,84,85,85,86,86,87,87,88,88,89,89,91,91,92,92,93,93,94,94,95,95,96,96,99,99,101,101,102,102,103,103,106,106,107,107,108,108,109,109,111,111,112,112,113,113,114,114,117,117,118,118,119,119,120,120,121,121,122,122,124,124,126,126,127,127,128,128,129,129,130,130,131,131,132,132,133,133,134,134,135,135,136,136,137,137,138,138,139,139,140,140,141,141,142,142,143,143,144,144,145,145,146,146,147,147,148,148,149,149,150,150,152,152,153,153,154,154,155,155,156,156,159,159,160,160,161,161,162,162,164,164,165,165,166,166,167,167,168,168],"right_children":[2,4,6,8,10,12,14,16,-1,18,20,22,24,26,28,-1,30,32,34,36,38,40,42,44,46,48,50,52,54,-1,56,-1,-1,-1,58,60,62,64,66,68,70,72,74,76,78,80,82,84,86,88,90,92,-1,94,96,-1,-1,-1,98,-1,100,102,-1,104,106,108,110,112,114,116,118,120,122,124,126,128,130,132,134,136,138,140,142,144,146,148,150,152,154,156,-1,158,160,162,164,166,168,-1,-1,170,-1,172,174,176,-1,-1,178,180,182,184,-1,186,188,190,192,-1,-1,194,196,198,200,202,204,-1,206,-1,208,210,212,214,216,218,220,222,224,226,228,230,232,234,236,238,240,242,244,246,248,250,252,254,256,-1,258,260,262,264,266,-1,-1,268,270,272,274,-1,276,278,280,282,284,-1,-1,-1,-1,-1,-1,-1,-1,-1,-1,-1,-1,-1,-1,-1,-1,-1,-1,-1,-1,-1,-1,-1,-1,-1,-1,-1,-1,-1,-1,-1,-1,-1,-1,-1,-1,-1,-1,-1,-1,-1,-1,-1,-1,-1,-1,-1,-1,-1,-1,-1,-1,-1,-1,-1,-1,-1,-1,-1,-1,-1,-1,-1,-1,-1,-1,-1,-1,-1,-1,-1,-1,-1,-1,-1,-1,-1,-1,-1,-1,-1,-1,-1,-1,-1,-1,-1,-1,-1,-1,-1,-1,-1,-1,-1,-1,-1,-1,-1,-1,-1,-1,-1,-1,-1,-1,-1,-1,-1,-1,-1,-1,-1,-1,-1,-1],"split_conditions":[1.1662222E-3,1.2874474E-3,6.894063E-1,1E0,2.7318296E-1,4.612404E-2,6.3416135E-1,4.0601504E-1,5.5857267E-2,7.4028224E-3,1E0,3.3333334E-1,1E0,1.3047785E-1,6.666667E-1,1.1180778E-2,7.3433584E-1,6.793248E-2,9.6343584E-2,2.8342544E-3,3.3620688E-1,3.75911E-1,3.4896427E-1,6.666667E-1,4.1074523E-1,5.1724136E-1,1.7057385E-1,1E0,8.2220703E-1,-3.6369637E-2,6.666667E-1,-3.2608606E-2,1.4776967E-1,-3.669207E-2,6.9827586E-1,2.748205E-3,3.7137906E-3,3.1896552E-1,4.50359E-1,3.0066077E-2,4.2130807E-3,7.607978E-2,3.3333334E-1,4.0851688E-1,1E0,8.34365E-2,1.0925837E-1,3.911003E-1,6.666667E-1,6.8922305E-1,1E0,5.263158E-1,-8.641056E-3,1E0,1.275068E-1,-1.7579272E-2,-3.31262E-2,-3.50748E-2,2.376826E-2,5.950718E-2,7.894737E-1,3.773193E-1,-3.710159E-2,6.666667E-1,2.5476602E-1,7.982456E-1,4.7016588E-1,2.8917054E-2,4.055435E-2,1.8692745E-1,4.827586E-1,2.946274E-3,1.772716E-2,5.340596E-1,1.3903166E-2,7.5E-1,2.3479576E-1,1.7814198E-1,4.4832373E-1,7.0689654E-1,7.69559E-2,3.2889897E-3,1.4055051E-1,4.827586E-1,4.051724E-1,8.2220703E-1,8.69027E-2,1.738054E-1,7.368421E-1,5.56391E-1,7.2648656E-1,4.051724E-1,6.766917E-1,4.827586E-1,4.307997E-2,3.119584E-2,7.1929824E-1,1.9302128E-2,-3.254239E-2,9.408269E-2,-6.441382E-3,2.6772214E-2,3.911003E-1,5.001238E-2,-3.7106335E-2,7.159807E-2,7.531328E-1,5.174548E-2,8.0075186E-1,7.3433584E-1,-3.6885407E-2,2.2214426E-2,7.556391E-1,1.4804709E-1,7.303788E-2,3.5763565E-1,6.434559E-1,1.8692745E-1,6.1206895E-1,1.4855162E-3,1E0,4.1625623E-2,8.6206895E-1,1.3606033E-1,2.5253776E-3,3.788755E-2,4.9517206E-3,2.053234E-1,7.6724136E-1,1.3632303E-1,5.9818184E-1,1.6186465E-1,9.829165E-3,9.824993E-2,1.637931E-1,8.140369E-2,2.7605423E-1,8.734181E-3,1.467645E-1,7.406015E-1,6.812212E-3,1.330574E-1,1E0,6.9571674E-2,6.102757E-1,5.49641E-2,7.230576E-1,6.9571674E-2,2.376826E-2,8.189655E-1,9.903441E-2,9.7493514E-2,6.1278194E-1,2.305026E-1,7.6942354E-1,1.637931E-1,4.4045556E-1,8.562269E-3,8.501419E-2,4.1346867E-2,7.769424E-1,1.1487992E-1,2.7234465E-2,2.8594908E-1,1.637931E-1,2.7234465E-2,1E0,4.774436E-1,3.8351077E-1,-3.5988502E-2,-2.78774E-2,-3.1654555E-2,-3.689721E-2,-7.1682036E-5,-3.6490582E-2,-3.687347E-2,-2.1782411E-2,1.010492E-2,-3.6286265E-2,-3.480655E-2,-3.6785837E-2,-2.3938742E-2,-3.6408674E-2,3.0131793E-2,-3.6450863E-2,5.176864E-2,9.384656E-3,1.0085066E-1,1.665501E-1,2.0117681E-2,4.7326814E-2,1.5452628E-1,4.9066838E-2,1.7596346E-1,4.1764122E-1,1.3894883E-2,1.874325E-1,5.046803E-5,1.12404145E-1,-3.0846691E-3,2.3225091E-2,5.4055434E-2,3.3890256E-1,2.2078458E-2,8.77202E-2,8.889369E-3,3.64523E-2,2.2216313E-1,1.1958834E-1,7.6399953E-3,3.1318568E-2,1.4844875E-1,1.7649738E-2,1.0971862E-1,1.8669157E-1,4.8710253E-2,1.1571046E-1,-4.7855796E-3,-2.460845E-2,1.9605209E-1,-6.453328E-3,-3.020004E-3,2.583021E-2,1.6512342E-1,4.36765E-2,1.9669501E-2,4.888703E-2,7.570335E-3,1.20807245E-1,9.550615E-2,4.1434217E-2,1.1493224E-1,5.7587612E-2,6.77687E-1,2.2727266E-1,1.8433326E-1,6.0925152E-2,7.7755845E-1,4.2130953E-1,1.1105281E-1,5.074744E-1,7.806231E-2,1.4138559E-1,8.51242E-2,2.627786E-1,2.7924606E-1,1.5310358E-1,5.6610852E-3,9.6510015E-2,4.2614976E-1,2.658094E-1,1.2505846E-1,2.4114263E-1,5.567179E-2,2.026995E-1,3.7871957E-1,9.513634E-2,1.4385073E-1,2.6854345E-1,2.5803113E-2,7.2894126E-2,1.6618167E-1,7.1009584E-2,3.4583598E-1,1.4384516E-1,3.8233373E-1,1.5458481E-1,3.885375E-1,1.9006582E-1,1.1028377E-1,2.5948396E-1,-2.4909208E-2,-9.236853E-3,5.9310157E-2,-7.1717724E-3,-8.2639E-3,1.474245E-1,5.3242493E-2,1.6286688E-2,8.1435405E-2,1.7926859E-2,5.0748855E-1,2.6910752E-1,-6.62984E-5,1.415219E-1],"split_indices":[2,5,2,13,12,13,13,12,0,5,13,1,13,5,1,0,12,13,13,13,10,2,2,1,5,10,13,13,2,0,1,0,0,0,10,5,5,10,5,13,13,2,6,2,1,5,2,13,1,12,1,12,0,1,5,0,0,0,5,0,12,13,0,6,5,12,5,13,13,5,10,5,5,2,13,10,13,2,2,10,2,2,2,10,10,2,5,5,12,12,0,10,12,10,5,5,12,0,0,5,0,13,13,5,0,0,12,5,12,12,0,13,12,2,5,0,0,5,10,5,1,13,10,0,5,0,5,2,10,13,2,13,5,2,10,2,2,2,2,12,2,2,1,5,12,5,12,5,5,10,5,0,12,5,12,10,5,0,0,5,12,5,5,0,10,5,13,12,5,0,0,0,0,0,0,0,0,0,0,0,0,0,0,0,0,0,0,0,0,0,0,0,0,0,0,0,0,0,0,0,0,0,0,0,0,0,0,0,0,0,0,0,0,0,0,0,0,0,0,0,0,0,0,0,0,0,0,0,0,0,0,0,0,0,0,0,0,0,0,0,0,0,0,0,0,0,0,0,0,0,0,0,0,0,0,0,0,0,0,0,0,0,0,0,0,0,0,0,0,0,0,0,0,0,0,0,0,0,0,0,0,0,0,0,0],"split_type":[0,0,0,0,0,0,0,0,0,0,0,0,0,0,0,0,0,0,0,0,0,0,0,0,0,0,0,0,0,0,0,0,0,0,0,0,0,0,0,0,0,0,0,0,0,0,0,0,0,0,0,0,0,0,0,0,0,0,0,0,0,0,0,0,0,0,0,0,0,0,0,0,0,0,0,0,0,0,0,0,0,0,0,0,0,0,0,0,0,0,0,0,0,0,0,0,0,0,0,0,0,0,0,0,0,0,0,0,0,0,0,0,0,0,0,0,0,0,0,0,0,0,0,0,0,0,0,0,0,0,0,0,0,0,0,0,0,0,0,0,0,0,0,0,0,0,0,0,0,0,0,0,0,0,0,0,0,0,0,0,0,0,0,0,0,0,0,0,0,0,0,0,0,0,0,0,0,0,0,0,0,0,0,0,0,0,0,0,0,0,0,0,0,0,0,0,0,0,0,0,0,0,0,0,0,0,0,0,0,0,0,0,0,0,0,0,0,0,0,0,0,0,0,0,0,0,0,0,0,0,0,0,0,0,0,0,0,0,0,0,0,0,0,0,0,0,0,0,0,0,0,0,0,0,0,0,0,0,0,0,0,0,0,0,0,0,0,0,0,0,0,0,0,0,0,0,0,0,0,0,0,0,0,0,0],"sum_hessian":[1.95398E5,7.3591E4,1.21807E5,1.07E2,7.3484E4,1.19894E5,1.913E3,1.01E2,6E0,2.43E2,7.3241E4,2.9743E4,9.0151E4,1E3,9.13E2,7E0,9.4E1,1.2E1,2.31E2,6.8295E4,4.946E3,2.2112E4,7.631E3,7.2753E4,1.7398E4,8.18E2,1.82E2,7.6E1,8.37E2,7.7E1,1.7E1,7E0,5E0,2.03E2,2.8E1,5.06E2,6.7789E4,4.68E2,4.478E3,2.2048E4,6.4E1,7.497E3,1.34E2,4.3413E4,2.934E4,1.6952E4,4.46E2,5.82E2,2.36E2,6.1E1,1.21E2,6.7E1,9E0,4.84E2,3.53E2,9E0,8E0,1.6E1,1.2E1,5E0,5.01E2,1.928E3,6.5861E4,3.95E2,7.3E1,4.211E3,2.67E2,1.3566E4,8.482E3,1.5E1,4.9E1,4.687E3,2.81E3,3E1,1.04E2,4.1251E4,2.162E3,2.3869E4,5.471E3,1.0439E4,6.513E3,2.61E2,1.85E2,4.59E2,1.23E2,1.4E2,9.6E1,2.6E1,3.5E1,1.13E2,8E0,1E1,5.7E1,4.61E2,2.3E1,2.79E2,7.4E1,5E0,7E0,4.96E2,5E0,1.858E3,7E1,1.31E2,2.64E2,8E0,6.5E1,3.89E3,3.21E2,5.7E1,2.1E2,1.2194E4,1.372E3,5.701E3,2.781E3,7E0,8E0,3.3E1,1.6E1,4.28E2,4.259E3,8.34E2,1.976E3,5E0,2.5E1,1.1E1,9.3E1,3.7521E4,3.73E3,1.075E3,1.087E3,1.1697E4,1.2172E4,4.957E3,5.14E2,4.005E3,6.434E3,3.553E3,2.96E3,3.7E1,2.24E2,1.3E2,5.5E1,4.04E2,5.5E1,9.8E1,2.5E1,5.2E1,8.8E1,8.3E1,1.3E1,9E0,1.7E1,1.2E1,2.3E1,2.8E1,8.5E1,5E0,5E0,2.8E1,2.9E1,1.83E2,2.78E2,5E0,1.8E1,1.12E2,1.67E2,4E1,3.4E1,4.16E2,8E1,1.91E2,1.667E3,2.3E1,4.7E1,9.4E1,3.7E1,2.8E1,3.7E1,5.34E2,3.356E3,6.5E1,2.56E2,1.2E1,4.5E1,1.0926E4,1.268E3,1.176E3,1.96E2,4.223E3,1.478E3,6.6E1,2.715E3,2.8E1,5E0,9E0,7E0,2.38E2,1.9E2,3.747E3,5.12E2,8.17E2,1.7E1,1.941E3,3.5E1,8E0,1.7E1,6.1E1,3.2E1,3.2164E4,5.357E3,7.74E2,2.956E3,9.1E2,1.65E2,8.42E2,2.45E2,2.515E3,9.182E3,8.7E1,1.2085E4,3.39E3,1.567E3,1.33E2,3.81E2,2.293E3,1.712E3,6.37E3,6.4E1,7.58E2,2.795E3,1.663E3,1.297E3,1E1,2.7E1,3.7E1,1.87E2,1.23E2,7E0,4.8E1,7E0,3.65E2,3.9E1,3.4E1,2.1E1,3.4E1,6.4E1,2E1,5E0,2.7E1,2.5E1,4.1E1,4.7E1,7.3E1,1E1,7E0,6E0,6E0,1.1E1,7E0,5E0,1.7E1,6E0,7E0,2.1E1,7.5E1,1E1,1.1E1,1.7E1,2E1,9E0,1.24E2,5.9E1,8E0,2.7E2,9E0,9E0,1.9E1,9.3E1,1.33E2,3.4E1,6E0,3.4E1,2.9E1,5E0],"tree_param":{"num_deleted":"0","num_feature":"16","num_nodes":"285","size_leaf_vector":"1"}},{"base_weights":[8.091195E-5,6.1824255E0,-1.7547202E-3,3.371018E-1,6.502207E-1,3.2114807E-1,-3.508519E-2,2.1553786E-1,7.1515536E-1,-8.343078E-2,7.019695E-2,2.125469E-2,2.529941E-1,4.9945274E-1,8.321574E-1,-1.11202724E-1,-3.6374863E-2,2.1296816E-1,-1.4234023E-1,-2.122489E-2,1.0943623E-1,3.0098248E-1,1.519353E-1,2.575983E-1,6.472977E-1,1.2436714E0,6.697909E-1,-5.5322144E-2,-1.5488271E-1,3.01694E-2,-1.087566E-1,1.9016242E-1,1.4610162E0,-2.1092011E-1,6.396498E-2,-1.3922939E-2,-2.6901954E-1,1.8306412E-3,1.6828616E-1,1.9827783E-1,3.3381206E-1,-2.2986984E-2,1.8896304E-1,3.2066268E-1,-1.9477484E-1,-9.999003E-2,6.7306244E-1,8.1776154E-1,1.2990123E0,5.21301E-1,9.474052E-1,1.5307093E-1,-6.44485E-2,-2.0176172E-1,-1.0749023E-1,7.267922E-2,-8.587261E-2,-1.6572738E-1,-5.9579168E-2,1.7697865E-1,5.4632264E-1,9.7628427E-1,2.9686522E0,6.4937794E-1,-2.2405636E-1,9.7490825E-2,-1.5072957E-1,-3.4668595E-2,8.7076694E-2,-3.011815E-2,-1.2633453E-2,5.023072E-2,-1.4484169E-1,2.6572785E-1,-2.3501996E-2,3.0056518E-1,1.7667867E-1,4.2220977E-1,2.8716138E-1,-1.8903314E-1,1.9177273E-2,1.0898952E-1,2.3864421E-1,2.4774149E-1,5.872404E-1,-2.9827252E-2,-8.8511184E-2,-1.8076885E-1,9.960388E-3,7.272535E-1,2.638806E-1,2.3111756E-1,9.2192006E-1,1.5006518E0,1.2434323E0,3.4017983E-1,6.145846E-1,8.326196E-1,1.697356E0,-9.263264E-2,2.3405245E-1,-7.226256E-2,1.5320155E-1,-1.7970543E-1,-2.6381114E-1,-4.570602E-2,-2.2168326E-1,5.844174E-2,4.1326073E-1,-1.3005207E-1,-5.4786246E-2,-1.4748389E-1,-2.7426052E-1,2.7903628E-1,-7.843372E-2,3.1211007E-1,1.5986751E-1,2.75243E-1,8.578319E-1,1.1225404E0,-6.207027E-2,5.5312047E0,1.1463058E0,2.1460333E-1,5.724802E-1,-2.5360548E-1,-7.564901E-2,2.3388234E-1,4.5585915E-2,-2.8975308E-1,3.257586E-1,-1.8240238E-3,-1.6300255E-2,1.7107693E-2,-3.5419688E-3,1.4264091E-2,-5.2224137E-3,-5.2081365E-3,-2.8033545E-2,9.345692E-3,3.3029843E-2,3.5923142E-3,-2.4694817E-2,9.554976E-3,3.6310572E-2,-5.8561475E-3,1.837947E-2,3.6301497E-2,5.7730693E-2,-3.8924775E-4,3.1126833E-2,2.6743723E-2,-2.1546619E-2,8.228891E-4,3.2126527E-2,6.766997E-4,1.4170662E-2,2.8722448E-2,1.4443642E-2,8.188429E-2,2.0254275E-2,7.9646416E-2,9.3425205E-3,9.702991E-3,-2.9171297E-2,3.831946E-3,-2.7095882E-2,5.033722E-2,7.976784E-2,-4.947604E-4,5.4997332E-2,3.1710483E-2,6.3617113E-3,1.5983712E-2,9.898072E-2,1.9363303E-1,1.2855022E-1,7.741722E-2,1.3150823E-1,4.4836447E-2,-3.205899E-2,7.880955E-2,5.2864935E-2,5.9040304E-2,9.977802E-2,2.5060225E-1,8.6753026E-2,-2.5828365E-2,-1.4290008E-3,1.38252E-2,3.1786628E-2,-1.8522452E-4,-9.510518E-3,1.8781485E-2,-1.5146409E-2,3.012127E-4,-1.8790117E-2,-1.7588869E-2,-2.8054236E-2,-7.8096846E-3,1.9402929E-3,-2.0861594E-2,-2.9807359E-2,2.2856295E-2,3.2146946E-3,-2.0967174E-2,6.066974E-2,-1.1327764E-2,-2.2888066E-2,1.4423628E-2,-6.104769E-3,-1.9210113E-2,-1.0411713E-2,-8.589067E-3,-3.0879145E-2,2.2337217E-2,9.912679E-2,-5.694825E-3,-1.898522E-2,2.813129E-2,1.5784124E-1,5.424496E-5,1.7312098E-2,3.9703738E-2,7.7702785E-3,9.0776294E-2,-3.6588725E-2,1.482993E-1,6.687056E-2,-1.8855223E-2,1.04445174E-1,6.402259E-1,4.055639E-1,1.4166422E-1,-3.4518402E-2,3.0155366E-2,7.6771565E-2,1.1962286E-2,-2.619341E-2,4.5501697E-3,-3.1087259E-2,4.104511E-2,1.024772E-2,-2.6594084E-3,2.1932123E-2,-2.9876191E-2,4.929622E-3,-1.8114217E-2,3.8289145E-2],"categories":[],"categories_nodes":[],"categories_segments":[],"categories_sizes":[],"default_left":[0,0,0,0,0,0,0,0,0,0,0,0,0,0,0,0,0,0,0,0,0,0,0,0,0,0,0,0,0,0,0,0,0,0,0,0,0,0,0,0,0,0,0,0,0,0,0,0,0,0,0,0,0,0,0,0,0,0,0,0,0,0,0,0,0,0,0,0,0,0,0,0,0,0,0,0,0,0,0,0,0,0,0,0,0,0,0,0,0,0,0,0,0,0,0,0,0,0,0,0,0,0,0,0,0,0,0,0,0,0,0,0,0,0,0,0,0,0,0,0,0,0,0,0,0,0,0,0,0,0,0,0,0,0,0,0,0,0,0,0,0,0,0,0,0,0,0,0,0,0,0,0,0,0,0,0,0,0,0,0,0,0,0,0,0,0,0,0,0,0,0,0,0,0,0,0,0,0,0,0,0,0,0,0,0,0,0,0,0,0,0,0,0,0,0,0,0,0,0,0,0,0,0,0,0,0,0,0,0,0,0,0,0,0,0,0,0,0,0,0,0,0,0,0,0,0,0,0,0,0,0,0,0,0,0,0,0,0,0,0,0,0,0,0,0,0,0,0,0],"id":1,"left_children":[1,3,5,-1,-1,7,9,11,13,15,17,19,21,23,25,27,29,31,33,35,37,39,41,43,45,47,49,51,53,55,57,59,61,63,65,67,69,71,73,75,77,79,81,83,85,87,89,91,93,95,97,99,101,103,105,107,109,111,113,115,117,119,121,123,125,127,129,131,133,-1,-1,135,137,139,141,143,145,147,149,151,153,155,157,159,161,-1,163,165,-1,167,169,171,173,175,177,179,181,183,185,187,189,191,193,195,197,199,201,203,205,207,209,211,213,215,217,219,221,223,225,227,229,231,233,-1,235,237,239,241,243,245,247,-1,-1,-1,-1,-1,-1,-1,-1,-1,-1,-1,-1,-1,-1,-1,-1,-1,-1,-1,-1,-1,-1,-1,-1,-1,-1,-1,-1,-1,-1,-1,-1,-1,-1,-1,-1,-1,-1,-1,-1,-1,-1,-1,-1,-1,-1,-1,-1,-1,-1,-1,-1,-1,-1,-1,-1,-1,-1,-1,-1,-1,-1,-1,-1,-1,-1,-1,-1,-1,-1,-1,-1,-1,-1,-1,-1,-1,-1,-1,-1,-1,-1,-1,-1,-1,-1,-1,-1,-1,-1,-1,-1,-1,-1,-1,-1,-1,-1,-1,-1,-1,-1,-1,-1,-1,-1,-1,-1,-1,-1,-1,-1,-1,-1,-1,-1,-1,-1],"loss_changes":[2.2174988E3,3.0224854E1,2.10238E3,0E0,0E0,7.6037354E2,9.012589E2,1.0489429E2,9.707739E1,1.5857367E2,1.6908691E3,8.73405E0,5.8562256E1,4.8498474E1,1.664076E2,1.8624896E2,2.1693283E2,9.484392E2,3.1681E2,2.844225E0,4.7997885E0,2.7558594E1,2.5219208E1,1.4840279E1,1.6317413E1,1.5602051E1,7.358374E1,6.3684456E1,9.513208E1,1.1576227E2,6.043068E1,1.536117E2,4.3411963E2,1.9006042E2,4.0228897E1,3.2088332E0,1.684568E-1,1.9168936E0,9.163443E0,4.336815E0,2.547528E1,4.771451E0,1.2739815E1,8.699337E0,6.7747426E-1,4.8557112E-1,1.790207E1,4.9196587E0,5.1271973E0,1.9609528E1,5.2388977E1,2.7977596E1,5.456372E1,2.9418213E1,1.5026831E2,8.3257805E1,8.634174E0,1.9747894E1,7.395375E1,7.294324E1,9.839426E1,6.901669E1,6.707892E2,2.788903E1,7.25708E1,3.4204033E1,5.01079E1,2.6745884E0,2.6916778E0,0E0,0E0,1.9294274E0,8.274859E-1,3.5843124E0,2.213072E0,4.388817E0,2.7611122E0,1.9455994E1,2.853003E1,1.7227182E0,1.7965683E0,4.122715E0,9.024834E0,9.101038E0,9.947422E0,0E0,1.2724801E0,4.2533392E-1,0E0,1.0950562E1,7.4629707E0,1.814673E-1,3.5150185E0,9.696533E0,1.5625061E1,2.880928E1,1.1109375E1,2.11734E1,5.285222E1,4.5254693E0,8.443134E0,4.9802567E1,1.1755026E1,2.3791443E1,8.253235E0,2.9153288E1,7.4024963E0,7.374398E1,8.31503E1,4.281025E0,4.6133986E0,1.653891E1,9.320572E0,2.4002136E1,2.6250038E1,1.3788391E2,5.9171387E1,1.5030266E1,3.3510284E1,6.411551E1,8.174373E0,5.1152466E1,3.5164536E1,0E0,1.2568947E1,4.2940796E1,7.8382286E1,3.0863052E1,4.392167E1,1.8015747E0,5.021633E0,0E0,0E0,0E0,0E0,0E0,0E0,0E0,0E0,0E0,0E0,0E0,0E0,0E0,0E0,0E0,0E0,0E0,0E0,0E0,0E0,0E0,0E0,0E0,0E0,0E0,0E0,0E0,0E0,0E0,0E0,0E0,0E0,0E0,0E0,0E0,0E0,0E0,0E0,0E0,0E0,0E0,0E0,0E0,0E0,0E0,0E0,0E0,0E0,0E0,0E0,0E0,0E0,0E0,0E0,0E0,0E0,0E0,0E0,0E0,0E0,0E0,0E0,0E0,0E0,0E0,0E0,0E0,0E0,0E0,0E0,0E0,0E0,0E0,0E0,0E0,0E0,0E0,0E0,0E0,0E0,0E0,0E0,0E0,0E0,0E0,0E0,0E0,0E0,0E0,0E0,0E0,0E0,0E0,0E0,0E0,0E0,0E0,0E0,0E0,0E0,0E0,0E0,0E0,0E0,0E0,0E0,0E0,0E0,0E0,0E0,0E0,0E0,0E0,0E0,0E0,0E0,0E0,0E0],"parents":[2147483647,0,0,1,1,2,2,5,5,6,6,7,7,8,8,9,9,10,10,11,11,12,12,13,13,14,14,15,15,16,16,17,17,18,18,19,19,20,20,21,21,22,22,23,23,24,24,25,25,26,26,27,27,28,28,29,29,30,30,31,31,32,32,33,33,34,34,35,35,36,36,37,37,38,38,39,39,40,40,41,41,42,42,43,43,44,44,45,45,46,46,47,47,48,48,49,49,50,50,51,51,52,52,53,53,54,54,55,55,56,56,57,57,58,58,59,59,60,60,61,61,62,62,63,63,64,64,65,65,66,66,67,67,68,68,71,71,72,72,73,73,74,74,75,75,76,76,77,77,78,78,79,79,80,80,81,81,82,82,83,83,84,84,86,86,87,87,89,89,90,90,91,91,92,92,93,93,94,94,95,95,96,96,97,97,98,98,99,99,100,100,101,101,102,102,103,103,104,104,105,105,106,106,107,107,108,108,109,109,110,110,111,111,112,112,113,113,114,114,115,115,116,116,117,117,118,118,119,119,120,120,121,121,122,122,124,124,125,125,126,126,127,127,128,128,129,129,130,130],"right_children":[2,4,6,-1,-1,8,10,12,14,16,18,20,22,24,26,28,30,32,34,36,38,40,42,44,46,48,50,52,54,56,58,60,62,64,66,68,70,72,74,76,78,80,82,84,86,88,90,92,94,96,98,100,102,104,106,108,110,112,114,116,118,120,122,124,126,128,130,132,134,-1,-1,136,138,140,142,144,146,148,150,152,154,156,158,160,162,-1,164,166,-1,168,170,172,174,176,178,180,182,184,186,188,190,192,194,196,198,200,202,204,206,208,210,212,214,216,218,220,222,224,226,228,230,232,234,-1,236,238,240,242,244,246,248,-1,-1,-1,-1,-1,-1,-1,-1,-1,-1,-1,-1,-1,-1,-1,-1,-1,-1,-1,-1,-1,-1,-1,-1,-1,-1,-1,-1,-1,-1,-1,-1,-1,-1,-1,-1,-1,-1,-1,-1,-1,-1,-1,-1,-1,-1,-1,-1,-1,-1,-1,-1,-1,-1,-1,-1,-1,-1,-1,-1,-1,-1,-1,-1,-1,-1,-1,-1,-1,-1,-1,-1,-1,-1,-1,-1,-1,-1,-1,-1,-1,-1,-1,-1,-1,-1,-1,-1,-1,-1,-1,-1,-1,-1,-1,-1,-1,-1,-1,-1,-1,-1,-1,-1,-1,-1,-1,-1,-1,-1,-1,-1,-1,-1,-1,-1,-1,-1],"split_conditions":[2.5E-1,5.5203515E-1,8.3333336E-2,3.371018E-1,6.502207E-1,4.1666668E-2,4.5833334E-1,1.8692745E-1,1.8197574E-1,1.294875E-1,7.5E-1,1.384006E-1,6.2442183E-1,7.5E-1,2.0475365E-1,3.1578946E-1,6.315789E-1,1E0,8.333333E-1,1.3827316E-1,5.346901E-1,4.76642E-1,5E-1,5E-1,3.9772008E-2,4.151249E-1,4.6379566E-1,8.444163E-4,6.3877195E-2,2.9166666E-1,3.6370388E-1,3.8351077E-1,5.0977963E-1,6.122018E-3,7.368421E-1,4.473684E-1,1.5262824E-1,1E0,6.253469E-1,5E-1,5.7894737E-1,3.8351077E-1,4.4540727E-1,1.4291745E-1,1.2874474E-1,5.79556E-1,1.5136161E-1,5E-1,1.8965091E-1,4.379797E-1,5.858002E-1,3.3333334E-1,3.6098797E-2,3.3333334E-1,5E-1,2.5E-1,1.4629513E-1,2.9166666E-1,1.6666667E-1,9.829165E-3,7.083333E-1,6.186401E-1,8.606713E-1,3.7974098E-1,1.8197574E-1,8.75E-1,4.4788313E-1,9.903441E-2,1.3151784E-1,-3.011815E-2,-1.2633453E-2,4.9167436E-1,1.5696955E-1,1.395398E-1,1.5994059E-1,3.9107308E-1,1.9905917E-1,1E0,2.3669225E-1,1.6782774E-1,6.4842784E-1,2.1342622E-1,1E0,4E-1,5.8395004E-1,-2.9827252E-2,5.8649397E-1,1.2503095E-2,9.960388E-3,9.056365E-2,1.5647438E-1,1.8302724E-1,1.6909437E-1,5E-1,5.5263156E-1,7.368421E-1,4.8126733E-1,4.320074E-1,5.895005E-1,5.910914E-4,1.8568953E-3,3.3333334E-1,3.75E-1,3.7492085E-2,2.9215151E-2,1.0373855E-1,3.3333334E-1,1.6666667E-1,5.263158E-1,3.75E-1,1.3716267E-1,7.5E-1,2.1131518E-1,1.25E-1,9.2105263E-1,1.2286257E-2,6.666667E-1,1E0,7.255647E-1,8.226726E-1,6.96346E-1,5.8395004E-1,5.667244E-1,2.1460333E-1,2.5332489E-3,1.1526283E-2,7.894737E-1,1.02807686E-1,1.8692745E-1,9.166667E-1,8.75E-1,-1.8240238E-3,-1.6300255E-2,1.7107693E-2,-3.5419688E-3,1.4264091E-2,-5.2224137E-3,-5.2081365E-3,-2.8033545E-2,9.345692E-3,3.3029843E-2,3.5923142E-3,-2.4694817E-2,9.554976E-3,3.6310572E-2,-5.8561475E-3,1.837947E-2,3.6301497E-2,5.7730693E-2,-3.8924775E-4,3.1126833E-2,2.6743723E-2,-2.1546619E-2,8.228891E-4,3.2126527E-2,6.766997E-4,1.4170662E-2,2.8722448E-2,1.4443642E-2,8.188429E-2,2.0254275E-2,7.9646416E-2,9.3425205E-3,9.702991E-3,-2.9171297E-2,3.831946E-3,-2.7095882E-2,5.033722E-2,7.976784E-2,-4.947604E-4,5.4997332E-2,3.1710483E-2,6.3617113E-3,1.5983712E-2,9.898072E-2,1.9363303E-1,1.2855022E-1,7.741722E-2,1.3150823E-1,4.4836447E-2,-3.205899E-2,7.880955E-2,5.2864935E-2,5.9040304E-2,9.977802E-2,2.5060225E-1,8.6753026E-2,-2.5828365E-2,-1.4290008E-3,1.38252E-2,3.1786628E-2,-1.8522452E-4,-9.510518E-3,1.8781485E-2,-1.5146409E-2,3.012127E-4,-1.8790117E-2,-1.7588869E-2,-2.8054236E-2,-7.8096846E-3,1.9402929E-3,-2.0861594E-2,-2.9807359E-2,2.2856295E-2,3.2146946E-3,-2.0967174E-2,6.066974E-2,-1.1327764E-2,-2.2888066E-2,1.4423628E-2,-6.104769E-3,-1.9210113E-2,-1.0411713E-2,-8.589067E-3,-3.0879145E-2,2.2337217E-2,9.912679E-2,-5.694825E-3,-1.898522E-2,2.813129E-2,1.5784124E-1,5.424496E-5,1.7312098E-2,3.9703738E-2,7.7702785E-3,9.0776294E-2,-3.6588725E-2,1.482993E-1,6.687056E-2,-1.8855223E-2,1.04445174E-1,6.402259E-1,4.055639E-1,1.4166422E-1,-3.4518402E-2,3.0155366E-2,7.6771565E-2,1.1962286E-2,-2.619341E-2,4.5501697E-3,-3.1087259E-2,4.104511E-2,1.024772E-2,-2.6594084E-3,2.1932123E-2,-2.9876191E-2,4.929622E-3,-1.8114217E-2,3.8289145E-2],"split_indices":[14,11,0,0,0,0,0,5,5,5,0,5,11,14,5,9,9,9,0,8,11,11,14,9,8,11,8,8,5,0,5,5,5,8,9,9,8,14,11,14,9,5,5,8,5,11,8,14,5,5,11,6,8,0,9,0,8,0,0,5,0,11,8,11,5,0,5,5,8,0,0,11,5,8,5,11,5,14,5,8,5,8,14,3,11,0,11,5,0,8,5,8,8,14,9,9,11,11,11,8,5,0,0,8,5,5,0,0,9,0,5,14,8,0,9,8,0,14,8,8,11,11,5,0,8,8,9,8,5,0,0,0,0,0,0,0,0,0,0,0,0,0,0,0,0,0,0,0,0,0,0,0,0,0,0,0,0,0,0,0,0,0,0,0,0,0,0,0,0,0,0,0,0,0,0,0,0,0,0,0,0,0,0,0,0,0,0,0,0,0,0,0,0,0,0,0,0,0,0,0,0,0,0,0,0,0,0,0,0,0,0,0,0,0,0,0,0,0,0,0,0,0,0,0,0,0,0,0,0,0,0,0,0,0,0,0,0,0,0,0,0,0,0,0,0,0,0,0,0],"split_type":[0,0,0,0,0,0,0,0,0,0,0,0,0,0,0,0,0,0,0,0,0,0,0,0,0,0,0,0,0,0,0,0,0,0,0,0,0,0,0,0,0,0,0,0,0,0,0,0,0,0,0,0,0,0,0,0,0,0,0,0,0,0,0,0,0,0,0,0,0,0,0,0,0,0,0,0,0,0,0,0,0,0,0,0,0,0,0,0,0,0,0,0,0,0,0,0,0,0,0,0,0,0,0,0,0,0,0,0,0,0,0,0,0,0,0,0,0,0,0,0,0,0,0,0,0,0,0,0,0,0,0,0,0,0,0,0,0,0,0,0,0,0,0,0,0,0,0,0,0,0,0,0,0,0,0,0,0,0,0,0,0,0,0,0,0,0,0,0,0,0,0,0,0,0,0,0,0,0,0,0,0,0,0,0,0,0,0,0,0,0,0,0,0,0,0,0,0,0,0,0,0,0,0,0,0,0,0,0,0,0,0,0,0,0,0,0,0,0,0,0,0,0,0,0,0,0,0,0,0,0,0,0,0,0,0,0,0,0,0,0,0,0,0,0,0,0,0,0,0],"sum_hessian":[1.95398E5,5.7E1,1.95341E5,7E0,5E1,1.8276E4,1.77065E5,1.4414E4,3.862E3,1.21344E5,5.5721E4,2.33E3,1.2084E4,1.36E3,2.502E3,7.6307E4,4.5037E4,3.3331E4,2.239E4,1.573E3,7.57E2,8.192E3,3.892E3,5.17E2,8.43E2,7.06E2,1.796E3,3.3479E4,4.2828E4,2.3465E4,2.1572E4,3.2734E4,5.97E2,1.6804E4,5.586E3,1.529E3,4.4E1,2.68E2,4.89E2,1.986E3,6.206E3,6.8E2,3.212E3,4.54E2,6.3E1,2.8E1,8.15E2,8.3E1,6.23E2,1.172E3,6.24E2,1.404E3,3.2075E4,2.1529E4,2.1299E4,1.7174E4,6.291E3,9.993E3,1.1579E4,3.1567E4,1.167E3,4.53E2,1.44E2,2.52E2,1.6552E4,4.832E3,7.54E2,1.269E3,2.6E2,3.5E1,9E0,2.02E2,6.6E1,3.24E2,1.65E2,3.44E2,1.642E3,2.141E3,4.065E3,1.37E2,5.43E2,1.232E3,1.98E3,3.58E2,9.6E1,3.1E1,3.2E1,2E1,8E0,7.19E2,9.6E1,1.3E1,7E1,1.29E2,4.94E2,4E2,7.72E2,5.43E2,8.1E1,3.48E2,1.056E3,3.0964E4,1.111E3,1.5886E4,5.643E3,1.3822E4,7.477E3,1.6486E4,6.88E2,2.597E3,3.694E3,8.557E3,1.436E3,6.1E2,1.0969E4,3.546E3,2.8021E4,6.25E2,5.42E2,3.97E2,5.6E1,5.9E1,8.5E1,1.1E1,2.41E2,1.3803E4,2.749E3,1.331E3,3.501E3,5.84E2,1.7E2,1.126E3,1.43E2,1.54E2,1.06E2,1.06E2,9.6E1,4E1,2.6E1,8.9E1,2.35E2,1.31E2,3.4E1,8.1E1,2.63E2,4.8E1,1.594E3,1.552E3,5.89E2,3.11E2,3.754E3,7E0,1.3E2,5.25E2,1.8E1,2.99E2,9.33E2,1.305E3,6.75E2,2.5E1,3.33E2,6.7E1,2.9E1,1.7E1,1.5E1,6E0,1.4E1,1.74E2,5.45E2,5E1,4.6E1,8E0,5E0,6E0,6.4E1,4E1,8.9E1,6.7E1,4.27E2,3.44E2,5.6E1,2.53E2,5.19E2,2.22E2,3.21E2,4E1,4.1E1,1.11E2,2.37E2,4.94E2,5.62E2,7.585E3,2.3379E4,9.98E2,1.13E2,6.82E2,1.5204E4,9.04E2,4.739E3,9.23E3,4.592E3,6.388E3,1.089E3,2.206E3,1.428E4,1.63E2,5.25E2,2.222E3,3.75E2,1.12E2,3.582E3,4.216E3,4.341E3,2.23E2,1.213E3,5.67E2,4.3E1,9.197E3,1.772E3,3.463E3,8.3E1,2.152E3,2.5869E4,3.86E2,2.39E2,5.21E2,2.1E1,2.2E2,1.77E2,5.1E1,5E0,3.5E1,2.4E1,7.2E1,1.3E1,1.02E2,1.39E2,3.01E2,1.3502E4,1.815E3,9.34E2,5.67E2,7.64E2,2.474E3,1.027E3,5.69E2,1.5E1,1.7E1,1.53E2],"tree_param":{"num_deleted":"0","num_feature":"16","num_nodes":"249","size_leaf_vector":"1"}},{"base_weights":[9.799199E-5,-3.2551312E-1,1.968205E-1,-3.2632214E-1,6.713902E-1,1.2473423E-1,3.4065315E-1,-3.5505897E-1,-3.2491922E-1,1.0958222E0,3.1459445E-1,1.1395494E-1,1.128514E0,3.2613507E-1,1.3470097E0,-3.4978598E-1,-3.8089985E-1,-3.2001364E-1,-3.2905042E-1,2.9840067E-1,1.8149707E0,5.1142503E-2,7.3623663E-1,3.8219833E-1,7.245092E-2,8.2543975E-1,1.6495683E0,2.685296E-1,4.9236426E-1,5.391474E-1,3.607603E0,-3.3203375E-2,-3.575502E-1,-3.8207772E-1,-2.0709118E-2,-2.0683488E-1,-3.2032192E-1,-3.259579E-1,-3.3574942E-1,7.377115E-2,-2.7628837E-3,2.5198314E-2,2.9557136E-1,-5.8641925E-2,2.9477227E-2,4.223269E-2,9.449697E-2,3.0728742E-1,5.180434E-1,-1.0167685E-2,1.632459E-1,1.6493688E0,7.0106995E-1,2.208195E0,4.0279883E-1,2.5254133E-1,1.0286939E0,1.3686337E0,4.5364895E-1,9.392145E-1,2.5759593E-1,1.4205E0,5.955009E0,-3.6447678E-2,-3.421301E-2,-2.682248E-1,-3.842851E-2,-3.2305086E-1,1.4740305E-1,-3.2582337E-1,-3.1415012E-1,-3.387948E-1,-3.2509458E-1,-3.5087654E-1,-3.2004377E-1,3.8147531E-3,-1.8853515E-2,3.7540153E-1,2.3894702E-1,2.776226E-1,7.7904767E-1,-9.517961E-2,8.198917E-2,5.0875843E-2,4.161452E-1,4.4921383E-1,1.9628172E0,9.3915397E-1,4.5189768E-1,2.0891097E0,4.741499E-1,-4.6939544E-2,1.3459054E0,4.67617E-1,1.8640184E-1,8.1725883E-1,1.4644568E0,9.016458E-1,1.8715266E0,3.116717E-1,6.878963E-1,4.557118E-1,1.2394227E0,2.1769075E-1,1.8574259E-1,4.4254265E0,3.451007E-1,6.638997E-1,3.6616216E0,-3.700764E-2,-7.074324E-3,-3.531058E-2,-1.4540741E-1,-3.2775888E-1,-3.0994534E-1,-3.147766E-1,-2.4637507E-1,-3.4567982E-1,-3.279002E-2,-3.2721794E-1,-3.208729E-2,-3.4552792E-1,-4.0823784E-1,-3.130616E-2,-3.3494893E-1,1.6057844E-1,4.095618E-1,4.1842258E-1,2.212422E-1,-6.568767E-2,3.849362E-1,7.2276795E-1,1.3790603E0,-1.1970012E-1,-3.36449E-2,4.4478044E-2,6.6907287E-1,3.7457816E-2,2.570902E-1,3.6736977E-1,3.7231438E0,7.495731E-3,8.141007E-2,1.4649137E0,3.018895E0,1.5191261E-1,1.0493199E0,1.0074545E-1,6.539E-1,2.5285773E0,1.4511139E0,1.3378249E-1,-2.0252682E-1,5.8914346E-1,2.1642926E0,3.5685512E-1,6.959566E-1,2.712252E-1,7.421776E-2,7.403663E-1,2.688495E0,2.2297313E0,1.0766019E0,6.775317E-1,4.5560294E-1,1.1026366E0,3.175304E0,4.4676584E-1,6.41458E-2,3.4443066E-1,8.658545E-1,1.586229E-1,6.1063427E-1,-6.1336372E-2,1.372779E0,7.93671E-2,4.071226E-1,5.949291E-1,2.1542469E-1,-2.162655E-1,1.3979363E0,5.1887584E-1,2.0792718E0,-3.485782E-2,1.835834E-2,-3.2664843E-2,-3.4181114E-2,-2.4934655E-2,-3.1497937E-2,-3.1439144E-2,-3.4536455E-2,4.6638516E-3,-3.149786E-2,-3.2545343E-2,-3.5447117E-2,-3.2895274E-2,-3.207995E-2,-3.4698978E-2,-3.2473516E-2,-3.904668E-2,-4.4651713E-2,-3.407375E-2,-3.2121014E-2,4.4573336E-3,3.6299787E-2,5.6066085E-2,3.3756763E-2,-6.911813E-3,5.036347E-2,1.8791396E-2,3.501954E-2,-9.54114E-4,-3.307467E-2,1.0411606E-2,4.456558E-2,6.872601E-2,1.101763E-1,1.0887285E-1,2.0496638E-1,1.3020669E-2,-1.2877605E-2,-2.350899E-2,-1.1613995E-3,4.849812E-2,1.1798311E-3,1.4534178E-1,4.8144694E-2,3.0900678E-3,4.155793E-2,1.8524806E-1,1.7808361E-2,3.1307317E-2,6.723267E-2,5.3123516E-1,5.0204933E-2,7.094396E-2,1.9924624E-1,3.7430156E-2,4.8326802E-1,4.6583125E-3,3.1480238E-2,1.717765E-1,9.0366006E-2,2.4271447E-2,-9.766444E-3,8.9855425E-2,1.8024586E-2,2.7947238E-1,1.1027831E-1,6.846711E-2,2.1051458E-1,2.7927427E-2,-2.4968963E-2,1.9169943E-2,1.18631266E-1,2.8985727E-1,1.1594762E-1,5.2121397E-2,3.074702E-2,4.8534762E-2,9.40926E-2,1.1619034E-2,3.6358092E-2,3.0921288E-3,1.5279459E-2,6.915207E-2,1.9479679E-1,1.3850148E-1,4.1665387E-1,1.518127E-1,2.9841837E-1,5.2763052E-2,1.3302077E-1,4.8863813E-2,1.2948857E-1,1.4472398E-2,1.3452679E-1,3.6853763E-1,1.0529576E-2,3.8451668E-2,1.1297859E-1,1.3002361E-1,2.7845874E-3,1.6754226E-1,1.9688675E-2,1.0226661E-1,4.3604758E-2,1.6556712E-3,4.5844402E-2,8.05062E-2,1.6810816E-2,1.2904996E-2,-2.4149997E-2,1.8769793E-1,1.0361826E-1,1.9922925E-2,-8.237365E-3,-2.2998096E-4,5.9744995E-2,-3.9074857E-2,8.3759665E-2,-1.507427E-2,2.5720075E-1,9.7686894E-2,2.8351292E-1],"categories":[],"categories_nodes":[],"categories_segments":[],"categories_sizes":[],"default_left":[0,0,0,0,0,0,0,0,0,0,0,0,0,0,0,0,0,0,0,0,0,0,0,0,0,0,0,0,0,0,0,0,0,0,0,0,0,0,0,0,0,0,0,0,0,0,0,0,0,0,0,0,0,0,0,0,0,0,0,0,0,0,0,0,0,0,0,0,0,0,0,0,0,0,0,0,0,0,0,0,0,0,0,0,0,0,0,0,0,0,0,0,0,0,0,0,0,0,0,0,0,0,0,0,0,0,0,0,0,0,0,0,0,0,0,0,0,0,0,0,0,0,0,0,0,0,0,0,0,0,0,0,0,0,0,0,0,0,0,0,0,0,0,0,0,0,0,0,0,0,0,0,0,0,0,0,0,0,0,0,0,0,0,0,0,0,0,0,0,0,0,0,0,0,0,0,0,0,0,0,0,0,0,0,0,0,0,0,0,0,0,0,0,0,0,0,0,0,0,0,0,0,0,0,0,0,0,0,0,0,0,0,0,0,0,0,0,0,0,0,0,0,0,0,0,0,0,0,0,0,0,0,0,0,0,0,0,0,0,0,0,0,0,0,0,0,0,0,0,0,0,0,0,0,0,0,0,0,0,0,0,0,0,0,0,0,0,0,0,0,0,0,0,0,0,0,0,0,0,0,0,0,0,0,0,0,0,0,0,0,0,0,0,0,0,0,0,0,0,0,0,0,0,0,0],"id":2,"left_children":[1,3,5,7,9,11,13,15,17,19,21,23,25,27,29,31,33,35,37,39,41,43,45,47,49,51,53,55,57,59,61,-1,63,65,-1,67,69,71,73,-1,-1,-1,-1,75,-1,-1,-1,77,79,81,83,85,87,89,91,93,95,97,99,101,103,105,107,-1,-1,109,-1,111,-1,113,115,117,119,121,123,-1,-1,125,127,129,131,133,135,137,139,141,143,145,147,149,-1,151,153,155,157,159,161,163,165,167,169,171,173,175,-1,177,179,-1,181,-1,-1,-1,183,185,187,189,191,193,-1,195,-1,197,199,-1,201,203,205,207,209,211,213,215,217,219,221,223,225,227,229,231,233,-1,-1,235,237,239,241,243,245,247,249,-1,251,253,255,257,259,261,263,265,267,269,271,273,-1,275,277,279,281,283,285,287,289,291,293,295,297,-1,-1,299,301,-1,303,-1,-1,-1,-1,-1,-1,-1,-1,-1,-1,-1,-1,-1,-1,-1,-1,-1,-1,-1,-1,-1,-1,-1,-1,-1,-1,-1,-1,-1,-1,-1,-1,-1,-1,-1,-1,-1,-1,-1,-1,-1,-1,-1,-1,-1,-1,-1,-1,-1,-1,-1,-1,-1,-1,-1,-1,-1,-1,-1,-1,-1,-1,-1,-1,-1,-1,-1,-1,-1,-1,-1,-1,-1,-1,-1,-1,-1,-1,-1,-1,-1,-1,-1,-1,-1,-1,-1,-1,-1,-1,-1,-1,-1,-1,-1,-1,-1,-1,-1,-1,-1,-1,-1,-1,-1,-1,-1,-1,-1,-1,-1,-1,-1,-1,-1,-1,-1,-1,-1,-1,-1,-1],"loss_changes":[1.2516354E4,5.95708E1,1.2629067E3,2.849121E0,8.74139E0,8.778417E2,5.937051E2,3.3169556E-1,1.315918E0,1.4941948E1,3.7391505E0,8.9376587E2,1.347638E2,3.8374854E2,1.0536262E3,2.7355957E-1,3.6949158E-2,1.0537109E0,6.7822266E-1,2.0255783E0,2.4216747E1,6.057146E-1,4.527173E-1,1.0930713E2,5.2154083E2,5.4895813E1,2.1919788E2,3.6160425E2,3.4934985E2,4.7855118E1,7.719115E2,0E0,8.540344E-2,3.816986E-2,0E0,1.8057093E1,9.838867E-1,1.7871094E-1,2.7335205E0,0E0,0E0,0E0,0E0,2.083489E-1,0E0,0E0,0E0,3.2197083E1,2.3961755E2,2.8520465E2,9.41307E2,2.5827515E1,2.7873108E1,5.5860596E1,4.2054146E1,4.1474194E2,5.528235E1,1.00704956E2,3.2840576E2,2.4981827E1,1.5683708E1,2.5699243E2,9.020215E1,0E0,0E0,2.5541306E-1,0E0,4.024763E-1,0E0,4.1760254E-1,5.640869E-1,8.026123E-3,1.1401367E-1,1.7277832E0,5.079346E-1,0E0,0E0,2.5413208E1,1.091774E1,7.337744E1,6.0867065E1,2.856778E1,3.8465353E2,6.3451286E1,1.6422831E3,2.1239576E0,2.5023773E1,2.0915298E1,1.6603516E1,5.5210144E1,0E0,1.4921661E1,1.85433E1,1.7319958E2,2.1223041E2,5.7721466E1,5.666574E1,1.8364484E2,2.0601318E2,2.0575677E2,2.2756653E2,3.0789156E0,1.8818375E1,6.439804E0,0E0,5.9864166E1,3.576391E1,0E0,3.5123978E1,0E0,0E0,0E0,9.9977183E-1,1.23046875E-1,4.8701477E-1,6.774902E-2,2.8892412E0,5.7655334E-2,0E0,7.507324E-2,0E0,5.682373E-2,1.7530823E-1,0E0,3.878784E-2,1.1208066E1,3.2391083E1,1.2913559E1,1.3498001E1,7.0658627E0,2.5820389E1,2.181073E1,2.8141296E1,3.072731E1,2.394924E1,2.3636879E2,1.5367468E2,5.338092E1,1.7626112E2,1.6608276E2,7.5494336E2,0E0,0E0,1.4528435E1,7.973544E1,5.172055E-1,1.91866E1,2.4743257E0,1.7104385E1,4.3592957E1,4.2671127E1,0E0,1.4785631E0,4.044728E0,7.706421E0,3.733954E1,1.1505945E2,1.818153E2,3.2672447E1,2.224733E1,2.5054893E1,3.0903168E1,1.7953934E1,2.4555946E1,0E0,3.0717102E1,1.20188354E2,1.6882745E2,9.751115E1,2.4985797E2,1.6501782E2,1.0572705E0,3.7364311E0,4.084731E-1,1.4686874E1,2.8080807E0,8.105499E0,0E0,0E0,7.682535E0,3.8571156E1,0E0,6.3962975E0,0E0,0E0,0E0,0E0,0E0,0E0,0E0,0E0,0E0,0E0,0E0,0E0,0E0,0E0,0E0,0E0,0E0,0E0,0E0,0E0,0E0,0E0,0E0,0E0,0E0,0E0,0E0,0E0,0E0,0E0,0E0,0E0,0E0,0E0,0E0,0E0,0E0,0E0,0E0,0E0,0E0,0E0,0E0,0E0,0E0,0E0,0E0,0E0,0E0,0E0,0E0,0E0,0E0,0E0,0E0,0E0,0E0,0E0,0E0,0E0,0E0,0E0,0E0,0E0,0E0,0E0,0E0,0E0,0E0,0E0,0E0,0E0,0E0,0E0,0E0,0E0,0E0,0E0,0E0,0E0,0E0,0E0,0E0,0E0,0E0,0E0,0E0,0E0,0E0,0E0,0E0,0E0,0E0,0E0,0E0,0E0,0E0,0E0,0E0,0E0,0E0,0E0,0E0,0E0,0E0,0E0,0E0,0E0,0E0,0E0,0E0,0E0,0E0,0E0,0E0,0E0,0E0,0E0,0E0,0E0,0E0,0E0],"parents":[2147483647,0,0,1,1,2,2,3,3,4,4,5,5,6,6,7,7,8,8,9,9,10,10,11,11,12,12,13,13,14,14,15,15,16,16,17,17,18,18,19,19,20,20,21,21,22,22,23,23,24,24,25,25,26,26,27,27,28,28,29,29,30,30,32,32,33,33,35,35,36,36,37,37,38,38,43,43,47,47,48,48,49,49,50,50,51,51,52,52,53,53,54,54,55,55,56,56,57,57,58,58,59,59,60,60,61,61,62,62,65,65,67,67,69,69,70,70,71,71,72,72,73,73,74,74,77,77,78,78,79,79,80,80,81,81,82,82,83,83,84,84,85,85,86,86,87,87,88,88,89,89,91,91,92,92,93,93,94,94,95,95,96,96,97,97,98,98,99,99,100,100,101,101,102,102,103,103,105,105,106,106,108,108,112,112,113,113,114,114,115,115,116,116,117,117,119,119,121,121,122,122,124,124,125,125,126,126,127,127,128,128,129,129,130,130,131,131,132,132,133,133,134,134,135,135,136,136,137,137,138,138,139,139,140,140,143,143,144,144,145,145,146,146,147,147,148,148,149,149,150,150,152,152,153,153,154,154,155,155,156,156,157,157,158,158,159,159,160,160,161,161,162,162,163,163,165,165,166,166,167,167,168,168,169,169,170,170,171,171,172,172,173,173,174,174,175,175,176,176,179,179,180,180,182,182],"right_children":[2,4,6,8,10,12,14,16,18,20,22,24,26,28,30,32,34,36,38,40,42,44,46,48,50,52,54,56,58,60,62,-1,64,66,-1,68,70,72,74,-1,-1,-1,-1,76,-1,-1,-1,78,80,82,84,86,88,90,92,94,96,98,100,102,104,106,108,-1,-1,110,-1,112,-1,114,116,118,120,122,124,-1,-1,126,128,130,132,134,136,138,140,142,144,146,148,150,-1,152,154,156,158,160,162,164,166,168,170,172,174,176,-1,178,180,-1,182,-1,-1,-1,184,186,188,190,192,194,-1,196,-1,198,200,-1,202,204,206,208,210,212,214,216,218,220,222,224,226,228,230,232,234,-1,-1,236,238,240,242,244,246,248,250,-1,252,254,256,258,260,262,264,266,268,270,272,274,-1,276,278,280,282,284,286,288,290,292,294,296,298,-1,-1,300,302,-1,304,-1,-1,-1,-1,-1,-1,-1,-1,-1,-1,-1,-1,-1,-1,-1,-1,-1,-1,-1,-1,-1,-1,-1,-1,-1,-1,-1,-1,-1,-1,-1,-1,-1,-1,-1,-1,-1,-1,-1,-1,-1,-1,-1,-1,-1,-1,-1,-1,-1,-1,-1,-1,-1,-1,-1,-1,-1,-1,-1,-1,-1,-1,-1,-1,-1,-1,-1,-1,-1,-1,-1,-1,-1,-1,-1,-1,-1,-1,-1,-1,-1,-1,-1,-1,-1,-1,-1,-1,-1,-1,-1,-1,-1,-1,-1,-1,-1,-1,-1,-1,-1,-1,-1,-1,-1,-1,-1,-1,-1,-1,-1,-1,-1,-1,-1,-1,-1,-1,-1,-1,-1,-1],"split_conditions":[1.1662222E-3,8.333333E-1,6.666667E-1,8.3333336E-2,4.1269842E-1,7.3549557E-1,6.4534515E-1,4.1666668E-2,8.29639E-2,5.7261795E-1,8.2539684E-1,1.6666667E-1,8.676378E-2,6.666667E-1,5E-1,1.6824995E-1,6.9079554E-1,2.7318296E-1,4.5833334E-1,1.2286257E-2,2.857143E-1,6.9298244E-1,5.9458834E-1,4.1666668E-2,8.785799E-2,4.8621553E-1,3.75E-1,6.894063E-1,8.734181E-3,8.3333336E-2,9.4087064E-2,-3.3203375E-2,6.2442183E-1,9.52381E-2,-2.0709118E-2,7.095282E-1,3.9096475E-2,1.6666667E-1,7.5E-1,7.377115E-2,-2.7628837E-3,2.5198314E-2,2.9557136E-1,3.6098797E-2,2.9477227E-2,4.223269E-2,9.449697E-2,5.858002E-1,6.6541356E-1,4.5833334E-1,3.3333334E-1,5.557354E-1,3.9772008E-2,4.8068398E-1,7.5E-1,1.6666667E-1,8.929703E-2,8.333333E-1,8.682231E-2,4.3709528E-1,7.894737E-1,5.8047995E-3,1.2615235E-1,-3.6447678E-2,-3.421301E-2,5E-1,-3.842851E-2,1E0,1.4740305E-1,7.5E-1,7.6086956E-1,2.23137E-1,2.1975935E-1,6.4112306E-1,8.333333E-1,3.8147531E-3,-1.8853515E-2,1.6360566E-1,6.1385915E-2,1.6378101E-2,7.556391E-1,1.22651465E-1,9.5238096E-1,6.1138237E-1,6.4534515E-1,9.404925E-1,4.6867168E-1,5.2882206E-1,4.150306E-2,5.8395004E-1,4.741499E-1,1.09140806E-1,9.404925E-1,4.1666668E-2,1E0,4.1666666E-1,4.1269842E-1,9.206349E-1,1.7078319E-1,7.916667E-1,3.3143338E-2,3.9107308E-1,7.030075E-1,2.5396827E-1,1.8574259E-1,7.518797E-1,8.333333E-1,6.638997E-1,7.406015E-1,-3.700764E-2,-7.074324E-3,-3.531058E-2,1.4481739E-2,5E-1,9.3308E-3,8.333333E-1,4.5614034E-1,1.2645134E-1,-3.279002E-2,3.3333334E-1,-3.208729E-2,7.982456E-1,2.857143E-1,-3.130616E-2,3.0588982E-1,6.9423556E-1,2.1975935E-1,1.2645134E-1,2.0282324E-1,4.553515E-1,1.22651465E-1,2.58618E-1,5.8395004E-1,8.444163E-4,8.734181E-3,8.734181E-3,4.4862154E-1,1E0,2.0941524E-2,3.6566058E-1,1.4549221E-1,7.495731E-3,8.141007E-2,3.75E-1,3.809524E-1,5E-1,5.7393485E-1,5.823312E-1,6.666667E-1,2.2947013E-1,5.864662E-1,1.3378249E-1,4.1666666E-1,2.1511506E-1,7.431078E-1,8.785799E-2,6.716792E-1,8.2349494E-2,2.0833333E-1,9.5238096E-1,5.488722E-1,1.551615E-1,7.3549557E-1,7.769424E-1,4.5560294E-1,1.6297234E-2,7.5E-1,9.5238096E-1,5.69981E-3,6.528822E-1,8.75E-1,7.5062656E-1,4.271508E-1,6.867168E-1,8.226726E-1,1E0,5.4139686E-1,5.949291E-1,2.1542469E-1,7.819549E-1,7.2431076E-1,5.1887584E-1,7.669173E-1,-3.485782E-2,1.835834E-2,-3.2664843E-2,-3.4181114E-2,-2.4934655E-2,-3.1497937E-2,-3.1439144E-2,-3.4536455E-2,4.6638516E-3,-3.149786E-2,-3.2545343E-2,-3.5447117E-2,-3.2895274E-2,-3.207995E-2,-3.4698978E-2,-3.2473516E-2,-3.904668E-2,-4.4651713E-2,-3.407375E-2,-3.2121014E-2,4.4573336E-3,3.6299787E-2,5.6066085E-2,3.3756763E-2,-6.911813E-3,5.036347E-2,1.8791396E-2,3.501954E-2,-9.54114E-4,-3.307467E-2,1.0411606E-2,4.456558E-2,6.872601E-2,1.101763E-1,1.0887285E-1,2.0496638E-1,1.3020669E-2,-1.2877605E-2,-2.350899E-2,-1.1613995E-3,4.849812E-2,1.1798311E-3,1.4534178E-1,4.8144694E-2,3.0900678E-3,4.155793E-2,1.8524806E-1,1.7808361E-2,3.1307317E-2,6.723267E-2,5.3123516E-1,5.0204933E-2,7.094396E-2,1.9924624E-1,3.7430156E-2,4.8326802E-1,4.6583125E-3,3.1480238E-2,1.717765E-1,9.0366006E-2,2.4271447E-2,-9.766444E-3,8.9855425E-2,1.8024586E-2,2.7947238E-1,1.1027831E-1,6.846711E-2,2.1051458E-1,2.7927427E-2,-2.4968963E-2,1.9169943E-2,1.18631266E-1,2.8985727E-1,1.1594762E-1,5.2121397E-2,3.074702E-2,4.8534762E-2,9.40926E-2,1.1619034E-2,3.6358092E-2,3.0921288E-3,1.5279459E-2,6.915207E-2,1.9479679E-1,1.3850148E-1,4.1665387E-1,1.518127E-1,2.9841837E-1,5.2763052E-2,1.3302077E-1,4.8863813E-2,1.2948857E-1,1.4472398E-2,1.3452679E-1,3.6853763E-1,1.0529576E-2,3.8451668E-2,1.1297859E-1,1.3002361E-1,2.7845874E-3,1.6754226E-1,1.9688675E-2,1.0226661E-1,4.3604758E-2,1.6556712E-3,4.5844402E-2,8.05062E-2,1.6810816E-2,1.2904996E-2,-2.4149997E-2,1.8769793E-1,1.0361826E-1,1.9922925E-2,-8.237365E-3,-2.2998096E-4,5.9744995E-2,-3.9074857E-2,8.3759665E-2,-1.507427E-2,2.5720075E-1,9.7686894E-2,2.8351292E-1],"split_indices":[2,15,15,0,4,2,8,0,8,11,4,0,8,0,0,8,11,12,0,8,4,12,11,0,2,12,0,2,2,0,2,0,11,4,0,11,8,0,0,0,0,0,0,8,0,0,0,11,12,0,0,11,8,8,0,0,8,15,2,11,12,2,2,0,0,15,0,4,0,0,11,8,8,8,0,0,0,8,2,2,12,8,4,2,8,2,12,12,8,11,0,8,2,0,15,0,4,4,8,0,8,11,12,4,0,12,15,0,12,0,0,0,8,0,8,0,12,8,0,0,0,12,4,0,8,12,8,8,2,8,8,2,11,8,2,2,12,4,8,2,2,0,0,0,4,15,12,11,4,8,12,0,0,8,12,2,12,2,0,4,12,8,2,12,0,8,0,4,8,12,0,12,11,12,8,15,11,0,0,12,12,0,12,0,0,0,0,0,0,0,0,0,0,0,0,0,0,0,0,0,0,0,0,0,0,0,0,0,0,0,0,0,0,0,0,0,0,0,0,0,0,0,0,0,0,0,0,0,0,0,0,0,0,0,0,0,0,0,0,0,0,0,0,0,0,0,0,0,0,0,0,0,0,0,0,0,0,0,0,0,0,0,0,0,0,0,0,0,0,0,0,0,0,0,0,0,0,0,0,0,0,0,0,0,0,0,0,0,0,0,0,0,0,0,0,0,0,0,0,0,0,0,0,0,0],"split_type":[0,0,0,0,0,0,0,0,0,0,0,0,0,0,0,0,0,0,0,0,0,0,0,0,0,0,0,0,0,0,0,0,0,0,0,0,0,0,0,0,0,0,0,0,0,0,0,0,0,0,0,0,0,0,0,0,0,0,0,0,0,0,0,0,0,0,0,0,0,0,0,0,0,0,0,0,0,0,0,0,0,0,0,0,0,0,0,0,0,0,0,0,0,0,0,0,0,0,0,0,0,0,0,0,0,0,0,0,0,0,0,0,0,0,0,0,0,0,0,0,0,0,0,0,0,0,0,0,0,0,0,0,0,0,0,0,0,0,0,0,0,0,0,0,0,0,0,0,0,0,0,0,0,0,0,0,0,0,0,0,0,0,0,0,0,0,0,0,0,0,0,0,0,0,0,0,0,0,0,0,0,0,0,0,0,0,0,0,0,0,0,0,0,0,0,0,0,0,0,0,0,0,0,0,0,0,0,0,0,0,0,0,0,0,0,0,0,0,0,0,0,0,0,0,0,0,0,0,0,0,0,0,0,0,0,0,0,0,0,0,0,0,0,0,0,0,0,0,0,0,0,0,0,0,0,0,0,0,0,0,0,0,0,0,0,0,0,0,0,0,0,0,0,0,0,0,0,0,0,0,0,0,0,0,0,0,0,0,0,0,0,0,0,0,0,0,0,0,0,0,0,0,0,0,0],"sum_hessian":[1.95398E5,7.3591E4,1.21807E5,7.3532E4,5.9E1,8.1142E4,4.0665E4,3.411E3,7.0121E4,2.6E1,3.3E1,8.0281E4,8.61E2,4.0088E4,5.77E2,2.845E3,5.66E2,3.2092E4,3.8029E4,1.3E1,1.3E1,2.1E1,1.2E1,1.0756E4,6.9525E4,5.46E2,3.15E2,2.9773E4,1.0315E4,4.26E2,1.51E2,8.79E2,1.966E3,5.61E2,5E0,8.9E1,3.2003E4,2.6052E4,1.1977E4,5E0,8E0,6E0,7E0,1.5E1,6E0,6E0,6E0,6.935E3,3.821E3,3.6402E4,3.3123E4,7E1,4.76E2,2.17E2,9.8E1,2.9161E4,6.12E2,4.35E2,9.88E3,1.75E2,2.51E2,7.9E1,7.2E1,1.341E3,6.25E2,1.3E1,5.48E2,8.4E1,5E0,1.6893E4,1.511E4,1.617E3,2.4435E4,6.09E3,5.887E3,9E0,6E0,3.471E3,3.464E3,1.99E3,1.831E3,1.8935E4,1.7467E4,2.2934E4,1.0189E4,1.5E1,5.5E1,2.42E2,2.34E2,2.09E2,8E0,6.7E1,3.1E1,6.857E3,2.2304E4,4.14E2,1.98E2,2.27E2,2.08E2,6.153E3,3.727E3,6.8E1,1.07E2,2.46E2,5E0,2E1,5.9E1,5.4E1,1.8E1,8E0,5E0,7.1E1,1.3E1,1.504E4,1.853E3,1.4968E4,1.42E2,9.72E2,6.45E2,1.6207E4,8.228E3,5.577E3,5.13E2,4.024E3,1.863E3,4.77E2,2.994E3,3.09E2,3.155E3,4.74E2,1.516E3,1.676E3,1.55E2,1.3539E4,5.396E3,1.6419E4,1.048E3,2.1534E4,1.4E3,1.0042E4,1.47E2,8E0,7E0,3.9E1,1.6E1,3E1,2.12E2,8.6E1,1.48E2,1.22E2,8.7E1,6E0,6.1E1,1.7E1,1.4E1,4.619E3,2.238E3,1.27E4,9.604E3,3.99E2,1.5E1,6.5E1,1.33E2,2.15E2,1.2E1,1.32E2,7.6E1,3.98E3,2.173E3,1.273E3,2.454E3,2.4E1,4.4E1,1E1,9.7E1,1.43E2,1.03E2,1.1E1,9E0,3.9E1,2E1,8E0,1E1,8E0,5E0,1.3961E4,1.079E3,1.46E2,1.707E3,1.4793E4,1.75E2,2.7E1,1.15E2,3.06E2,6.66E2,1.2719E4,3.488E3,5.196E3,3.81E2,3.58E2,1.55E2,1.294E3,5.69E2,3.04E2,1.73E2,9.64E2,2.03E3,4.6E1,2.63E2,2.509E3,6.46E2,3.92E2,8.2E1,2.7E2,1.246E3,1.535E3,1.41E2,1.1E2,4.5E1,4.74E2,1.3065E4,5.31E2,4.865E3,1.133E3,1.5286E4,2.01E2,8.47E2,2.1168E4,3.66E2,6.5E1,1.335E3,8.526E3,1.516E3,9.8E1,4.9E1,1.7E1,2.2E1,7E0,9E0,1.9E1,1.1E1,3.6E1,1.76E2,5E1,3.6E1,9.7E1,5.1E1,1.02E2,2E1,4.1E1,4.6E1,5E0,5.6E1,1.1E1,6E0,7E0,7E0,1.065E3,3.554E3,1.205E3,1.033E3,4.742E3,7.958E3,6.193E3,3.411E3,3.85E2,1.4E1,9E0,6E0,3.5E1,3E1,4.3E1,9E1,1.66E2,4.9E1,2.7E1,1.05E2,6.5E1,1.1E1,3.649E3,3.31E2,6.1E1,2.112E3,1.26E2,1.147E3,1.797E3,6.57E2,1.7E1,7E0,3E1,1.4E1,5E0,5E0,3.7E1,6E1,8.2E1,6.1E1,3.3E1,7E1,3.4E1,5E0,9E0,1.1E1,5E0,5E0],"tree_param":{"num_deleted":"0","num_feature":"16","num_nodes":"305","size_leaf_vector":"1"}},{"base_weights":[1.4781463E-4,-2.9296497E-1,1.7723598E-1,-2.9370046E-1,6.1330026E-1,1.1232257E-1,3.0675676E-1,-2.921849E-1,-3.146762E-1,1.8687695E-1,3.8421327E-1,1.0258296E-1,1.0192865E0,2.9828674E-1,2.0722191E0,-3.0140775E-1,-2.884766E-1,4.3698337E-2,-3.1583092E-1,2.0681481E-1,1.709799E-1,2.5150943E-1,5.727384E-2,1.4418664E0,4.058727E-1,3.732019E-1,1.9116236E-1,1.2815842E-1,4.271231E0,-2.9242292E-1,-3.065937E-1,-2.8891236E-1,-2.5565386E-1,-3.1232342E-1,-3.7281147E-1,5.661633E-2,6.4017564E-1,2.366824E-1,1.0574778E0,1.4298163E-2,2.3321544E-1,1.2009043E0,2.6849265E0,1.4497125E-1,8.986863E-1,3.3487257E-1,6.132487E-1,4.1507056E-1,1.479161E-1,5.9919524E-1,4.8228305E-2,1.8077314E0,5.850836E0,-2.9405722E-1,-2.5457788E-1,-3.1006888E-1,-3.0006635E-1,-2.9434422E-1,-2.8740233E-1,-2.7030528E-1,4.562147E-2,-2.9387954E-1,-3.167633E-1,-4.1250706E-2,-3.304718E-1,2.0190607E-1,-5.6776628E-2,2.7238363E-2,8.639723E-2,6.473733E-2,3.1044447E-1,3.6490297E0,8.742866E-1,-4.282771E-2,9.773885E-2,1.759467E-1,1.2900523E0,1.0261533E0,1.7806633E0,1.0400023E0,3.4735255E0,1.2247322E-1,1.0593544E-1,4.613239E-1,2.5771995E0,4.4206846E-1,1.9527493E-1,3.0551064E-1,1.0207305E0,3.6307815E-1,1.2709253E0,1.5395627E0,1.3452321E-1,-2.5860539E-2,1.3820966E-1,-3.4914456E-2,3.2307425E-1,5.4885477E-1,4.2859232E-1,6.0289603E-1,3.391323E-1,-2.9251227E-1,-3.187869E-2,-2.9672844E-2,-1.5173063E-1,-3.03454E-2,-3.1486693E-1,-3.030841E-1,-2.813073E-2,-3.0486152E-1,-2.9320073E-1,-2.8156087E-2,-2.9002273E-1,-2.8140602E-1,-2.4204412E-1,1.2255472E-1,-2.8658262E-2,-3.0400681E-1,-2.2060916E-1,-3.130403E-2,-3.352743E-2,4.6878707E-2,-3.8851815E-1,-1.1354395E-3,4.1658584E-2,1.6250974E-2,-1.3546047E-1,-3.14729E-2,2.7195618E-1,3.6367524E-1,2.2414131E-1,1.1743535E-1,5.2719325E-1,1.093131E0,3.101668E-1,-6.450654E-2,3.2209226E-1,5.1666963E-1,4.2130783E-2,5.8031302E-2,3.3491045E-1,5.9721786E-1,2.8585494E0,5.887785E-1,1.1790628E0,1.4932501E0,3.545038E0,8.209579E-1,1.3521867E-1,5.129873E0,1.9222406E0,-1.8480787E-1,2.0336996E-1,1.24183394E-1,3.7814707E-1,3.4388251E0,-1.2966943E-2,3.9908272E-1,1.1750798E0,1.6497168E-1,8.5965294E-1,2.6692304E-1,1.5275071E0,7.8141534E-1,1.4083295E0,4.2498845E-1,1.8795711E-1,2.6180472E0,1.0144227E0,1.0698807E0,2.9885626E0,1.2137069E-1,7.5700444E-1,9.420368E-2,-6.601515E-2,6.208573E-1,-6.657281E-3,-2.1144195E-1,2.810625E-1,-2.952416E-2,-2.866444E-2,1.30720055E-2,-2.9984215E-2,-3.3062477E-2,-3.126603E-2,-2.986691E-2,-3.1436265E-2,-2.9313356E-2,-3.196917E-2,-2.9226845E-2,-3.0385915E-2,-2.9298602E-2,-2.8611137E-2,-2.8864095E-2,-2.398412E-2,-1.068713E-2,-2.9529115E-2,-2.4689673E-2,-3.0963747E-2,-3.0019227E-2,6.450327E-2,-4.1055508E-2,-3.2959346E-2,-1.8595077E-2,-2.0318183E-3,4.0626757E-2,-4.2770854E-3,2.413163E-2,1.5439788E-1,3.2637667E-2,7.2329186E-2,8.180134E-3,3.1623866E-2,3.6874387E-2,1.2692438E-1,-2.0264264E-3,3.988774E-2,4.3440945E-3,-9.0269055E-3,-9.942493E-3,4.9606245E-2,6.462561E-2,1.3377358E-2,1.26459915E-2,-1.2297415E-3,-4.964414E-3,1.04560135E-2,1.1980788E-2,4.635103E-2,2.238144E-1,3.316608E-2,6.159391E-1,1.8468123E-2,1.0395087E-2,7.391879E-2,1.8330167E-1,1.0386455E-1,1.95167E-1,8.628335E-2,1.3769701E-1,4.7279593E-1,1.2546122E-1,3.0520787E-2,3.7852028E-1,6.1833733E-1,3.1359425E-1,8.096485E-2,-3.4145191E-3,-2.9334603E-2,4.619519E-3,4.670895E-2,4.3471437E-2,-1.7926026E-2,1.3446891E-1,4.8395887E-1,3.775388E-2,9.9713735E-2,8.828059E-2,1.4920872E-1,3.5093331E-3,2.1770893E-2,1.1712189E-1,4.8758563E-2,1.3558005E-1,2.409638E-2,2.7672452E-1,7.8258805E-2,1.6892219E-2,1.11777E-1,1.1791193E-1,2.7222428E-1,4.155372E-2,2.58227E-1,-6.7934445E-3,2.4036882E-2,2.032417E-2,3.4116912E-1,7.682102E-2,1.8177308E-1,2.4910708E-1,8.527102E-2,9.751916E-2,3.325291E-1,8.645849E-3,3.30439E-2,1.10461116E-1,4.432945E-2,2.8306363E-2,-1.3509392E-2,-3.6701483E-3,-1.2271083E-2,-7.372608E-3,1.1275206E-1,5.921079E-2,-4.6754517E-2],"categories":[],"categories_nodes":[],"categories_segments":[],"categories_sizes":[],"default_left":[0,0,0,0,0,0,0,0,0,0,0,0,0,0,0,0,0,0,0,0,0,0,0,0,0,0,0,0,0,0,0,0,0,0,0,0,0,0,0,0,0,0,0,0,0,0,0,0,0,0,0,0,0,0,0,0,0,0,0,0,0,0,0,0,0,0,0,0,0,0,0,0,0,0,0,0,0,0,0,0,0,0,0,0,0,0,0,0,0,0,0,0,0,0,0,0,0,0,0,0,0,0,0,0,0,0,0,0,0,0,0,0,0,0,0,0,0,0,0,0,0,0,0,0,0,0,0,0,0,0,0,0,0,0,0,0,0,0,0,0,0,0,0,0,0,0,0,0,0,0,0,0,0,0,0,0,0,0,0,0,0,0,0,0,0,0,0,0,0,0,0,0,0,0,0,0,0,0,0,0,0,0,0,0,0,0,0,0,0,0,0,0,0,0,0,0,0,0,0,0,0,0,0,0,0,0,0,0,0,0,0,0,0,0,0,0,0,0,0,0,0,0,0,0,0,0,0,0,0,0,0,0,0,0,0,0,0,0,0,0,0,0,0,0,0,0,0,0,0,0,0,0,0,0,0,0,0,0,0,0,0,0,0,0,0,0,0,0,0,0,0,0,0,0,0,0,0,0,0,0,0,0,0,0,0,0,0,0,0,0,0,0,0,0,0],"id":3,"left_children":[1,3,5,7,9,11,13,15,17,-1,19,21,23,25,27,29,31,-1,33,35,-1,37,39,41,43,45,47,49,51,53,55,57,59,61,63,65,67,69,71,73,75,77,79,81,83,85,87,89,91,93,95,97,99,101,103,105,107,109,111,113,115,117,119,-1,121,123,125,-1,-1,127,129,131,133,135,137,139,141,143,145,147,149,-1,151,153,155,157,159,161,163,165,167,169,171,-1,-1,173,175,-1,177,-1,-1,179,-1,-1,181,-1,183,185,-1,187,189,-1,191,193,195,-1,-1,197,199,-1,-1,-1,201,-1,-1,-1,203,205,207,209,211,-1,-1,213,215,217,219,221,223,225,227,229,231,233,235,237,239,241,-1,243,245,247,249,-1,251,253,-1,255,257,259,261,263,265,267,269,271,273,275,277,279,281,283,285,287,289,291,-1,293,-1,-1,-1,-1,-1,-1,-1,-1,-1,-1,-1,-1,-1,-1,-1,-1,-1,-1,-1,-1,-1,-1,-1,-1,-1,-1,-1,-1,-1,-1,-1,-1,-1,-1,-1,-1,-1,-1,-1,-1,-1,-1,-1,-1,-1,-1,-1,-1,-1,-1,-1,-1,-1,-1,-1,-1,-1,-1,-1,-1,-1,-1,-1,-1,-1,-1,-1,-1,-1,-1,-1,-1,-1,-1,-1,-1,-1,-1,-1,-1,-1,-1,-1,-1,-1,-1,-1,-1,-1,-1,-1,-1,-1,-1,-1,-1,-1,-1,-1,-1,-1,-1,-1,-1,-1,-1,-1,-1,-1,-1,-1,-1,-1,-1,-1,-1,-1],"loss_changes":[1.014259E4,4.923291E1,1.0240828E3,2.2460938E0,1.6538694E1,7.166699E2,6.0747974E2,2.258789E0,4.4275208E0,0E0,1.1874544E1,5.417065E2,2.2285931E2,3.2473438E2,8.288051E2,8.2580566E-1,6.2597656E-1,0E0,8.6987305E-1,3.0229921E0,0E0,2.2353943E2,4.6543445E2,1.4953625E2,4.525697E1,2.1892212E2,1.6124127E2,3.886705E0,3.435365E2,3.7121582E-1,1.8908691E-1,3.1176758E-1,2.8815079E0,2.8808594E-1,3.3595276E-1,6.045576E-1,7.5239515E-1,2.3322058E2,1.5727505E2,2.3582327E2,7.311418E2,4.163623E1,1.02756714E2,9.648906E0,8.8373566E1,3.0726538E2,4.1074158E2,1.19505066E2,2.600374E2,1.0431015E1,2.0679107E0,1.8547285E2,3.649292E0,1.706543E-1,1.2815094E0,1.6101074E-1,1.6113281E-1,3.6499023E-2,4.9731445E-1,1.2639618E-1,1.2502481E1,6.133728E-1,1.5274048E-1,0E0,6.723693E0,7.372533E-1,3.843538E-1,0E0,0E0,1.1009832E2,5.9038574E1,8.21644E1,3.8795975E1,2.3235211E2,4.6836615E2,2.148649E2,6.731389E2,2.1509583E1,4.440262E1,8.046112E-1,1.3145984E2,0E0,6.411482E0,5.892599E0,5.8753586E1,3.655713E2,1.7950333E2,8.7722916E1,1.296886E2,2.7490784E1,5.0557434E1,8.731827E1,1.13145355E2,0E0,0E0,2.8731534E-1,2.4779677E0,0E0,4.3282597E1,0E0,0E0,1.965332E-2,0E0,0E0,3.8461075E0,0E0,5.871582E-2,9.213257E-2,0E0,8.039093E-2,5.1879883E-3,0E0,2.1850586E-1,6.27861E-2,1.2783966E0,0E0,0E0,1.8177032E-1,8.116035E0,0E0,0E0,0E0,3.6088943E-2,0E0,0E0,0E0,8.923891E-2,1.867207E1,6.7872025E1,1.065061E2,6.436618E1,0E0,0E0,2.8618805E1,2.6462307E0,7.709878E1,1.2082616E2,1.16813965E2,8.147657E1,3.2986107E1,1.3499115E2,1.8750578E2,1.6758052E3,6.340351E0,2.0593597E1,2.3169632E1,2.683023E1,3.8665695E0,0E0,1.3426514E1,3.797165E1,9.220847E-1,6.9834814E0,0E0,2.915719E0,4.922667E1,0E0,1.410304E2,5.8258667E1,5.8452225E1,4.4523193E1,5.092035E1,5.0474136E1,1.798681E2,1.585144E2,3.7217407E1,8.948532E0,4.530249E1,2.4513367E1,2.9357193E1,1.8451874E1,9.884413E1,3.0697968E1,6.4451194E-1,9.022796E-2,4.306166E0,0E0,5.010045E0,0E0,0E0,0E0,0E0,0E0,0E0,0E0,0E0,0E0,0E0,0E0,0E0,0E0,0E0,0E0,0E0,0E0,0E0,0E0,0E0,0E0,0E0,0E0,0E0,0E0,0E0,0E0,0E0,0E0,0E0,0E0,0E0,0E0,0E0,0E0,0E0,0E0,0E0,0E0,0E0,0E0,0E0,0E0,0E0,0E0,0E0,0E0,0E0,0E0,0E0,0E0,0E0,0E0,0E0,0E0,0E0,0E0,0E0,0E0,0E0,0E0,0E0,0E0,0E0,0E0,0E0,0E0,0E0,0E0,0E0,0E0,0E0,0E0,0E0,0E0,0E0,0E0,0E0,0E0,0E0,0E0,0E0,0E0,0E0,0E0,0E0,0E0,0E0,0E0,0E0,0E0,0E0,0E0,0E0,0E0,0E0,0E0,0E0,0E0,0E0,0E0,0E0,0E0,0E0,0E0,0E0,0E0,0E0,0E0,0E0,0E0,0E0,0E0,0E0,0E0,0E0,0E0],"parents":[2147483647,0,0,1,1,2,2,3,3,4,4,5,5,6,6,7,7,8,8,10,10,11,11,12,12,13,13,14,14,15,15,16,16,18,18,19,19,21,21,22,22,23,23,24,24,25,25,26,26,27,27,28,28,29,29,30,30,31,31,32,32,33,33,34,34,35,35,36,36,37,37,38,38,39,39,40,40,41,41,42,42,43,43,44,44,45,45,46,46,47,47,48,48,49,49,50,50,51,51,52,52,53,53,54,54,55,55,56,56,57,57,58,58,59,59,60,60,61,61,62,62,64,64,65,65,66,66,69,69,70,70,71,71,72,72,73,73,74,74,75,75,76,76,77,77,78,78,79,79,80,80,82,82,83,83,84,84,85,85,86,86,87,87,88,88,89,89,90,90,91,91,92,92,95,95,96,96,98,98,101,101,104,104,106,106,107,107,109,109,110,110,112,112,113,113,114,114,117,117,118,118,122,122,126,126,127,127,128,128,129,129,130,130,133,133,134,134,135,135,136,136,137,137,138,138,139,139,140,140,141,141,142,142,143,143,144,144,145,145,146,146,147,147,149,149,150,150,151,151,152,152,154,154,155,155,157,157,158,158,159,159,160,160,161,161,162,162,163,163,164,164,165,165,166,166,167,167,168,168,169,169,170,170,171,171,172,172,173,173,174,174,175,175,177,177],"right_children":[2,4,6,8,10,12,14,16,18,-1,20,22,24,26,28,30,32,-1,34,36,-1,38,40,42,44,46,48,50,52,54,56,58,60,62,64,66,68,70,72,74,76,78,80,82,84,86,88,90,92,94,96,98,100,102,104,106,108,110,112,114,116,118,120,-1,122,124,126,-1,-1,128,130,132,134,136,138,140,142,144,146,148,150,-1,152,154,156,158,160,162,164,166,168,170,172,-1,-1,174,176,-1,178,-1,-1,180,-1,-1,182,-1,184,186,-1,188,190,-1,192,194,196,-1,-1,198,200,-1,-1,-1,202,-1,-1,-1,204,206,208,210,212,-1,-1,214,216,218,220,222,224,226,228,230,232,234,236,238,240,242,-1,244,246,248,250,-1,252,254,-1,256,258,260,262,264,266,268,270,272,274,276,278,280,282,284,286,288,290,292,-1,294,-1,-1,-1,-1,-1,-1,-1,-1,-1,-1,-1,-1,-1,-1,-1,-1,-1,-1,-1,-1,-1,-1,-1,-1,-1,-1,-1,-1,-1,-1,-1,-1,-1,-1,-1,-1,-1,-1,-1,-1,-1,-1,-1,-1,-1,-1,-1,-1,-1,-1,-1,-1,-1,-1,-1,-1,-1,-1,-1,-1,-1,-1,-1,-1,-1,-1,-1,-1,-1,-1,-1,-1,-1,-1,-1,-1,-1,-1,-1,-1,-1,-1,-1,-1,-1,-1,-1,-1,-1,-1,-1,-1,-1,-1,-1,-1,-1,-1,-1,-1,-1,-1,-1,-1,-1,-1,-1,-1,-1,-1,-1,-1,-1,-1,-1,-1,-1],"split_conditions":[1.1662222E-3,8.333333E-1,6.666667E-1,1E0,2.033769E-2,7.3549557E-1,1E0,7.731463E-2,7.8947365E-2,1.8687695E-1,1E0,4.580002E-2,6.3416135E-1,1E0,6.6580385E-1,4.2105263E-1,1E0,4.3698337E-2,1E0,8.2539684E-1,1.709799E-1,2.886223E-1,1E0,4.7368422E-1,9.404925E-1,1E0,3.0066077E-2,2.0018189E-1,9.4087064E-2,7.3774284E-1,4.580002E-2,3.1578946E-1,7.1345973E-1,5.4139686E-1,5.7400554E-1,1E0,5.9458834E-1,6.666667E-1,4.2130807E-3,1.3537952E-1,9.2105263E-1,3.911003E-1,1.7057385E-1,4.680851E-1,6.315789E-1,1.6186465E-1,6.666667E-1,2.4146116E-1,7.799394E-3,1.1793358E-1,4.6841773E-1,5.8047995E-3,1.2615235E-1,6.602587E-2,3.1578946E-1,5.263158E-1,7.368421E-1,1.3157895E-1,4.2105263E-1,3.773193E-1,7.2201663E-1,6.666667E-1,1E0,-4.1250706E-2,5.7539314E-1,5.7261795E-1,3.783155E-2,2.7238363E-2,8.639723E-2,5.9282098E-2,3.0066077E-2,4.7368422E-1,3.0066077E-2,9.5238096E-1,3.1578946E-1,6.666667E-1,1.1177444E-1,1.6666667E-1,6.043016E-1,5.7894737E-1,6.052632E-1,1.2247322E-1,2.857143E-1,1.2698413E-1,1E0,3.5658693E-1,6.629954E-1,2.4146116E-1,8.333333E-1,6.1517113E-1,4.2130807E-3,6.5789473E-1,6.894063E-1,-2.5860539E-2,1.3820966E-1,8.333333E-1,5.649861E-1,5.4885477E-1,8.333333E-1,6.0289603E-1,3.391323E-1,6.160962E-1,-3.187869E-2,-2.9672844E-2,2.5125282E-2,-3.03454E-2,8.34956E-3,6.602587E-2,-2.813073E-2,3.3333334E-1,6.165147E-1,-2.8156087E-2,6.315789E-1,6.466235E-1,3.911003E-1,1.2255472E-1,-2.8658262E-2,4E-1,7.368421E-1,-3.130403E-2,-3.352743E-2,4.6878707E-2,6.2442183E-1,-1.1354395E-3,4.1658584E-2,1.6250974E-2,6.031746E-1,2.68218E-3,4.29627E-2,2.8917054E-2,1.1793358E-1,1.1743535E-1,5.2719325E-1,2.029939E-2,4.76642E-1,9.6343584E-2,1.3632303E-1,6.3416135E-1,3.9194176E-1,3.1746033E-1,4.1102905E-2,3.2889897E-3,1.2969084E-1,2.857143E-1,2.2222222E-1,5.30296E-1,3.6842105E-1,6E-1,1.3521867E-1,8.2220703E-1,3.809524E-1,4E-1,8.2220703E-1,1.24183394E-1,1E0,5.330712E-1,-1.2966943E-2,1.5095699E-1,1.8421052E-1,7.03379E-2,6.3416135E-1,3.2889897E-3,2.8947368E-1,2.53006E-2,7.368421E-1,6.142461E-1,1.7200153E-2,4.634389E-4,4.196191E-1,5.5272173E-2,6.6580385E-1,1E0,6.3416135E-1,3.4113201E-1,5.8533764E-1,5.3723407E-1,-6.657281E-3,8.734181E-3,2.810625E-1,-2.952416E-2,-2.866444E-2,1.30720055E-2,-2.9984215E-2,-3.3062477E-2,-3.126603E-2,-2.986691E-2,-3.1436265E-2,-2.9313356E-2,-3.196917E-2,-2.9226845E-2,-3.0385915E-2,-2.9298602E-2,-2.8611137E-2,-2.8864095E-2,-2.398412E-2,-1.068713E-2,-2.9529115E-2,-2.4689673E-2,-3.0963747E-2,-3.0019227E-2,6.450327E-2,-4.1055508E-2,-3.2959346E-2,-1.8595077E-2,-2.0318183E-3,4.0626757E-2,-4.2770854E-3,2.413163E-2,1.5439788E-1,3.2637667E-2,7.2329186E-2,8.180134E-3,3.1623866E-2,3.6874387E-2,1.2692438E-1,-2.0264264E-3,3.988774E-2,4.3440945E-3,-9.0269055E-3,-9.942493E-3,4.9606245E-2,6.462561E-2,1.3377358E-2,1.26459915E-2,-1.2297415E-3,-4.964414E-3,1.04560135E-2,1.1980788E-2,4.635103E-2,2.238144E-1,3.316608E-2,6.159391E-1,1.8468123E-2,1.0395087E-2,7.391879E-2,1.8330167E-1,1.0386455E-1,1.95167E-1,8.628335E-2,1.3769701E-1,4.7279593E-1,1.2546122E-1,3.0520787E-2,3.7852028E-1,6.1833733E-1,3.1359425E-1,8.096485E-2,-3.4145191E-3,-2.9334603E-2,4.619519E-3,4.670895E-2,4.3471437E-2,-1.7926026E-2,1.3446891E-1,4.8395887E-1,3.775388E-2,9.9713735E-2,8.828059E-2,1.4920872E-1,3.5093331E-3,2.1770893E-2,1.1712189E-1,4.8758563E-2,1.3558005E-1,2.409638E-2,2.7672452E-1,7.8258805E-2,1.6892219E-2,1.11777E-1,1.1791193E-1,2.7222428E-1,4.155372E-2,2.58227E-1,-6.7934445E-3,2.4036882E-2,2.032417E-2,3.4116912E-1,7.682102E-2,1.8177308E-1,2.4910708E-1,8.527102E-2,9.751916E-2,3.325291E-1,8.645849E-3,3.30439E-2,1.10461116E-1,4.432945E-2,2.8306363E-2,-1.3509392E-2,-3.6701483E-3,-1.2271083E-2,-7.372608E-3,1.1275206E-1,5.921079E-2,-4.6754517E-2],"split_indices":[2,15,15,13,13,2,9,13,9,0,6,13,13,15,13,9,4,0,9,4,0,2,13,9,2,13,13,2,2,11,13,9,11,11,11,15,11,6,13,2,9,13,13,11,9,13,6,2,2,2,2,2,2,13,9,9,9,9,9,13,11,4,6,0,11,11,13,0,0,2,13,9,13,4,9,6,2,15,11,9,9,0,4,4,13,2,2,2,15,11,13,9,2,0,0,15,11,0,15,0,0,11,0,0,13,0,13,13,0,6,13,0,9,11,13,0,0,3,9,0,0,0,11,0,0,0,4,2,13,13,2,0,0,13,11,13,13,13,13,4,2,2,2,4,4,11,9,3,0,2,4,3,2,0,13,11,0,13,9,2,13,2,9,2,9,11,2,13,2,13,13,13,13,2,11,11,0,2,0,0,0,0,0,0,0,0,0,0,0,0,0,0,0,0,0,0,0,0,0,0,0,0,0,0,0,0,0,0,0,0,0,0,0,0,0,0,0,0,0,0,0,0,0,0,0,0,0,0,0,0,0,0,0,0,0,0,0,0,0,0,0,0,0,0,0,0,0,0,0,0,0,0,0,0,0,0,0,0,0,0,0,0,0,0,0,0,0,0,0,0,0,0,0,0,0,0,0,0,0,0,0,0,0,0,0,0,0,0,0,0,0,0,0,0,0],"split_type":[0,0,0,0,0,0,0,0,0,0,0,0,0,0,0,0,0,0,0,0,0,0,0,0,0,0,0,0,0,0,0,0,0,0,0,0,0,0,0,0,0,0,0,0,0,0,0,0,0,0,0,0,0,0,0,0,0,0,0,0,0,0,0,0,0,0,0,0,0,0,0,0,0,0,0,0,0,0,0,0,0,0,0,0,0,0,0,0,0,0,0,0,0,0,0,0,0,0,0,0,0,0,0,0,0,0,0,0,0,0,0,0,0,0,0,0,0,0,0,0,0,0,0,0,0,0,0,0,0,0,0,0,0,0,0,0,0,0,0,0,0,0,0,0,0,0,0,0,0,0,0,0,0,0,0,0,0,0,0,0,0,0,0,0,0,0,0,0,0,0,0,0,0,0,0,0,0,0,0,0,0,0,0,0,0,0,0,0,0,0,0,0,0,0,0,0,0,0,0,0,0,0,0,0,0,0,0,0,0,0,0,0,0,0,0,0,0,0,0,0,0,0,0,0,0,0,0,0,0,0,0,0,0,0,0,0,0,0,0,0,0,0,0,0,0,0,0,0,0,0,0,0,0,0,0,0,0,0,0,0,0,0,0,0,0,0,0,0,0,0,0,0,0,0,0,0,0,0,0,0,0,0,0,0,0,0,0,0,0,0,0,0,0,0,0],"sum_hessian":[1.95398E5,7.3591E4,1.21807E5,7.3532E4,5.9E1,8.1142E4,4.0665E4,6.8591E4,4.941E3,8E0,5.1E1,8.0281E4,8.61E2,4.0472E4,1.93E2,1.9647E4,4.8944E4,7E0,4.934E3,4.6E1,5E0,1.8726E4,6.1555E4,5.09E2,3.52E2,2.3815E4,1.6657E4,1.03E2,9E1,7.211E3,1.2436E4,4.8295E4,6.49E2,4.654E3,2.8E2,3.5E1,1.1E1,1.8389E4,3.37E2,4.9472E4,1.2083E4,4.28E2,8.1E1,2.31E2,1.21E2,2.0538E4,3.277E3,2.695E3,1.3962E4,1.4E1,8.9E1,3.6E1,5.4E1,6.906E3,3.05E2,8.085E3,4.351E3,1.0463E4,3.7832E4,6.19E2,3E1,9.16E2,3.738E3,1.4E2,1.4E2,1.5E1,2E1,5E0,6E0,5.521E3,1.2868E4,2.1E1,3.16E2,2.9367E4,2.0105E4,1.1463E4,6.2E2,3.31E2,9.7E1,2.7E1,5.4E1,7E0,2.24E2,9.7E1,2.4E1,1.1616E4,8.922E3,1.868E3,1.409E3,2.542E3,1.53E2,1.32E2,1.383E4,7E0,7E0,6.9E1,2E1,9E0,2.7E1,4.9E1,5E0,6.512E3,3.94E2,2.15E2,9E1,3.426E3,4.659E3,3.735E3,6.16E2,1E3,9.463E3,1.1749E4,2.6083E4,4.38E2,1.81E2,6E0,2.4E1,8.02E2,1.14E2,3.127E3,6.11E2,9E0,1.31E2,8E0,7E0,5E0,1.5E1,3.771E3,1.75E3,7.957E3,4.911E3,9E0,1.2E1,2.27E2,8.9E1,2.7721E4,1.646E3,2.355E3,1.775E4,6.582E3,4.881E3,4.31E2,1.89E2,8.7E1,2.44E2,8.5E1,1.2E1,1.8E1,9E0,2.5E1,2.9E1,5.6E1,1.68E2,8E0,8.9E1,1.8E1,6E0,1.0974E4,6.42E2,8.534E3,3.88E2,1.812E3,5.6E1,8.73E2,5.36E2,1.877E3,6.65E2,2.3E1,1.3E2,1.01E2,3.1E1,1.3545E4,2.85E2,1.3E1,5.6E1,1.1E1,9E0,2.2E1,5E0,4.411E3,2.101E3,3.1E1,5.9E1,5.54E2,4.105E3,2.704E3,1.031E3,5.7E2,4.3E2,8.728E3,7.35E2,1.4798E4,1.1285E4,3.68E2,7E1,5.2E1,1.29E2,7.6E1,7.26E2,1.05E2,9E0,9.1E1,4E1,1E1,5E0,9.4E1,3.677E3,1.71E3,4E1,7.211E3,7.46E2,1.93E3,2.981E3,4.5E1,1.82E2,1.9E1,7E1,5.341E3,2.238E4,4.81E2,1.165E3,1.759E3,5.96E2,6.962E3,1.0788E4,1.986E3,4.596E3,1.827E3,3.054E3,5.9E1,3.72E2,8.4E1,1.05E2,2.1E1,6.6E1,4.1E1,2.03E2,4.8E1,3.7E1,5E0,7E0,9E0,9E0,1.3E1,1.2E1,1.3E1,1.6E1,2.4E1,3.2E1,1.06E2,6.2E1,8.1E1,8E0,8E0,1E1,1.0594E4,3.8E2,3.36E2,3.06E2,2.465E3,6.069E3,2.1E2,1.78E2,4.1E1,1.771E3,2E1,3.6E1,3.1E2,5.63E2,4.58E2,7.8E1,1.87E3,7E0,1.13E2,5.52E2,6E0,1.7E1,1.01E2,2.9E1,1.2E1,8.9E1,5E0,2.6E1,1.1608E4,1.937E3,1.34E2,1.51E2,7E0,6E0,3.8E1,1.8E1,5E0,6E0,5E0,1.7E1],"tree_param":{"num_deleted":"0","num_feature":"16","num_nodes":"295","size_leaf_vector":"1"}},{"base_weights":[1.9183508E-4,-4.541628E-2,2.778859E-1,5.542532E0,-4.674809E-2,4.3325487E-1,1.7771056E-1,3.3504757E-1,6.161535E-1,1.16332965E-2,-1.1237048E-1,3.8387814E-1,7.74165E-1,4.724833E-1,1.7471395E-1,1.0582161E-1,-3.1574316E-2,-1.7533125E-1,1.059566E-1,6.342345E-1,3.2252586E-1,6.294299E-1,3.4051864E0,3.6808828E-1,1.375295E-1,-2.8835684E-2,2.2355264E-1,-1.465763E-1,-1.1925249E-2,-1.9629714E-1,-6.0968097E-2,7.328365E-2,7.5131476E-1,7.39061E-1,3.3533812E-1,4.3940702E-1,2.1950467E-1,1.9737026E-1,9.9815977E-1,5.059058E-1,2.5073094E0,1.2684039E0,3.488949E-1,9.539926E-2,3.8567716E-1,4.089154E-1,-4.1273445E-2,2.0544063E-1,4.7401193E-1,-1.1945116E-1,-2.2000785E-1,-2.7004391E-2,1.3948993E-1,-2.1997799E-1,-1.5355897E-1,-8.92993E-2,1.736539E-1,8.174548E-3,1.2938993E-1,4.209453E0,4.4119856E-1,6.379722E-1,1.1888012E0,5.955751E-1,2.0010547E-1,5.11778E-1,3.319082E-1,2.1216623E-1,5.0897187E-1,1.5097925E-1,9.870655E-1,1.7408049E0,8.073824E-1,-2.6880521E-2,2.9878364E0,6.7990476E-1,2.6971574E0,3.142984E-1,6.8215334E-1,1.66053E-1,-3.568877E-2,3.41367E-1,4.627415E0,8.8274705E-1,-2.9285593E-2,-5.020119E-2,2.2178642E-1,2.6662895E-1,7.5625196E-2,3.234454E-1,9.341553E-1,-8.422615E-2,-1.4722335E-1,-1.6577147E-1,-2.436876E-1,-4.905895E-2,7.8807265E-2,8.7118924E-1,-4.4536436E-4,-1.6361225E-1,-2.4161434E-1,-9.68332E-2,-1.8008037E-1,2.2853836E-1,-9.9223286E-2,3.956893E-1,-1.7087772E-1,8.0012053E-1,-8.7145076E-4,9.3760796E-2,5.1526505E-1,2.4588466E0,4.642185E0,-7.804055E-2,6.9211525E-1,3.5628635E-1,7.2923285E-1,1.8700602E0,8.0298567E-1,1.1719038E0,4.480982E-1,2.6807377E-2,2.7990595E-1,6.176325E-1,4.3354824E-1,2.961133E-1,8.8188523E-1,2.2509108E-1,1.2870547E-1,1.0101024E0,2.0657822E-1,5.742828E-1,8.113271E-2,2.849444E-1,2.771266E-1,1.1199704E0,3.2428615E0,1.1254039E0,6.950873E-1,4.8247113E0,2.0613809E0,2.9948164E-2,1.2398697E0,3.847702E0,1.3829927E-2,3.672451E-1,6.394409E-2,3.6051556E-1,8.863808E-1,8.185745E-1,1.5489532E-1,1.27788E-1,-5.917886E-2,4.93015E-3,7.244864E-1,1.3913465E-1,5.5517274E-1,-2.8104722E-2,1.5857811E-1,-5.6749783E-3,5.2325215E-2,-7.528219E-3,2.3272717E-3,5.3402793E-2,1.6748863E-4,2.2351852E-2,6.6823065E-2,3.8063773E-3,1.4109703E-2,1.2575142E-2,4.822426E-2,5.2438747E-2,1.2702265E-1,-1.3962825E-2,3.6963334E-3,-1.563331E-2,-6.513157E-3,3.9099655E-3,-2.080949E-2,-2.3222633E-2,-2.6317999E-2,3.6289386E-4,-6.0618254E-3,4.1455696E-3,2.0202393E-2,1.3968539E-1,6.284544E-2,3.1131735E-2,-4.484126E-3,4.0460505E-2,-1.78209E-2,-2.020011E-2,-2.4362404E-2,-1.44647835E-2,-4.0111644E-3,-2.3884146E-2,-1.6097521E-2,1.0892805E-2,8.943364E-2,-1.529252E-2,-5.8284095E-3,7.212251E-2,1.8842401E-2,-2.0150278E-2,-1.4744996E-3,3.336506E-2,1.19994216E-1,-3.0449433E-2,2.0782852E-3,1.792399E-1,9.004827E-3,4.7256555E-2,2.3637317E-1,3.255884E-1,5.878038E-2,4.001319E-1,5.489239E-1,5.2791197E-2,-3.320425E-2,1.3707896E-1,4.578179E-2,2.628823E-2,1.0161187E-1,8.003293E-2,3.9032854E-2,4.1700345E-2,2.3921263E-1,7.39178E-2,2.3387896E-1,8.121441E-2,2.194635E-1,2.9450407E-2,1.04018986E-1,-5.2169897E-4,5.4006677E-2,2.215231E-2,6.268238E-2,4.32384E-2,8.031564E-2,7.038374E-2,3.37796E-2,2.899139E-2,1.4405574E-1,2.4974871E-2,1.1327507E-1,1.39153255E-2,2.4256969E-2,9.08421E-3,3.846177E-2,1.2760979E-1,4.0772017E-3,1.1553285E-2,5.4786563E-2,4.1163515E-2,1.5571061E-1,3.476362E-2,-2.1886242E-4,4.1650634E-2,-1.4077924E-2,3.720791E-1,9.475488E-2,2.597547E-1,5.248697E-1,4.0386654E-2,1.3447529E-1,5.2524526E-2,1.0512544E-1,1.8934661E-1,6.420056E-1,9.6540496E-2,3.7670317E-1,3.7790153E-2,-2.8909562E-2,1.869059E-1,5.5979032E-2,2.2085682E-1,4.8455524E-1,2.5696797E-2,6.62343E-2,2.1528115E-3,1.0681858E-1,2.0103656E-2,6.685489E-2,9.465675E-2,1.7466329E-2,4.1147932E-2,2.0651665E-1,1.4760002E-2,5.772242E-2,6.240251E-3,1.0214727E-1,-7.378598E-3,1.6977958E-2,-6.1301854E-3,1.6229358E-2,5.9516635E-2,1.3140006E-1],"categories":[],"categories_nodes":[],"categories_segments":[],"categories_sizes":[],"default_left":[0,0,0,0,0,0,0,0,0,0,0,0,0,0,0,0,0,0,0,0,0,0,0,0,0,0,0,0,0,0,0,0,0,0,0,0,0,0,0,0,0,0,0,0,0,0,0,0,0,0,0,0,0,0,0,0,0,0,0,0,0,0,0,0,0,0,0,0,0,0,0,0,0,0,0,0,0,0,0,0,0,0,0,0,0,0,0,0,0,0,0,0,0,0,0,0,0,0,0,0,0,0,0,0,0,0,0,0,0,0,0,0,0,0,0,0,0,0,0,0,0,0,0,0,0,0,0,0,0,0,0,0,0,0,0,0,0,0,0,0,0,0,0,0,0,0,0,0,0,0,0,0,0,0,0,0,0,0,0,0,0,0,0,0,0,0,0,0,0,0,0,0,0,0,0,0,0,0,0,0,0,0,0,0,0,0,0,0,0,0,0,0,0,0,0,0,0,0,0,0,0,0,0,0,0,0,0,0,0,0,0,0,0,0,0,0,0,0,0,0,0,0,0,0,0,0,0,0,0,0,0,0,0,0,0,0,0,0,0,0,0,0,0,0,0,0,0,0,0,0,0,0,0,0,0,0,0,0,0,0,0,0,0,0,0,0,0,0,0,0,0,0,0,0,0,0,0,0,0,0,0,0,0,0,0,0,0,0,0,0,0,0,0,0,0,0,0],"id":4,"left_children":[1,3,5,7,9,11,13,-1,-1,15,17,19,21,-1,23,25,27,29,31,33,35,37,39,41,43,45,47,49,51,53,55,57,59,61,63,65,67,69,71,-1,73,75,77,79,81,83,85,87,89,91,93,95,97,99,101,103,105,107,109,111,113,115,117,119,121,123,125,127,129,131,133,135,137,-1,139,141,143,145,147,149,151,153,155,157,159,161,163,165,167,169,171,173,175,177,179,181,183,185,187,189,191,193,195,197,199,201,203,205,207,209,211,213,215,217,219,221,223,225,227,229,231,233,235,237,239,241,243,245,247,249,251,253,255,-1,257,259,261,263,265,267,269,271,273,275,-1,277,279,281,283,285,287,289,291,293,295,-1,-1,-1,-1,-1,-1,-1,-1,-1,-1,-1,-1,-1,-1,-1,-1,-1,-1,-1,-1,-1,-1,-1,-1,-1,-1,-1,-1,-1,-1,-1,-1,-1,-1,-1,-1,-1,-1,-1,-1,-1,-1,-1,-1,-1,-1,-1,-1,-1,-1,-1,-1,-1,-1,-1,-1,-1,-1,-1,-1,-1,-1,-1,-1,-1,-1,-1,-1,-1,-1,-1,-1,-1,-1,-1,-1,-1,-1,-1,-1,-1,-1,-1,-1,-1,-1,-1,-1,-1,-1,-1,-1,-1,-1,-1,-1,-1,-1,-1,-1,-1,-1,-1,-1,-1,-1,-1,-1,-1,-1,-1,-1,-1,-1,-1,-1,-1,-1,-1,-1,-1,-1,-1,-1,-1,-1,-1,-1,-1,-1,-1,-1,-1,-1,-1,-1,-1,-1,-1,-1,-1,-1],"loss_changes":[2.4747612E3,1.2493022E3,4.2894873E2,3.363159E1,6.4284894E2,1.8158386E2,2.2755835E2,0E0,0E0,3.6138028E2,1.0859421E3,1.4479309E2,5.1803107E2,0E0,1.20397766E2,4.4271106E2,1.3755411E2,1.4700928E2,3.728044E2,5.793622E1,9.122424E1,2.0627301E2,9.274835E1,4.623108E1,1.4685968E2,7.0944244E1,6.748932E1,1.7667252E1,1.1871247E2,5.240918E1,6.3169827E1,6.1486732E1,9.1184875E2,6.170868E1,1.691401E1,2.746405E1,8.459061E0,2.1758562E1,9.762872E1,0E0,6.483508E1,4.525212E1,3.0292847E1,1.1126865E2,3.8165448E2,7.47739E1,2.9762321E1,1.103584E2,6.925716E1,6.3356323E0,3.0355225E0,1.103472E2,4.821575E2,4.0620117E1,2.7781738E1,2.6764114E1,7.8401794E1,5.5822136E1,1.24250916E2,4.1613647E1,1.0206778E2,2.8634644E1,6.447128E1,1.3499077E1,4.417863E0,1.7296143E1,2.7929718E1,4.21579E0,1.4793663E1,1.6687927E1,4.2842113E1,1.2878714E2,1.9145172E1,0E0,5.9827545E1,1.4884937E1,4.657315E1,3.1776321E1,1.5970879E1,5.6705795E1,1.6166636E1,2.6023642E2,5.508954E1,1.4199202E2,2.8825943E0,2.2581568E1,2.8589935E1,1.6335675E2,1.0945513E1,2.3735443E1,3.3348557E1,1.922778E1,2.7022095E0,6.346525E0,3.1084442E-1,2.3831161E1,3.752827E1,9.558557E1,5.474121E1,7.680113E1,1.8687744E0,1.5965878E1,1.4095612E1,2.0369118E1,1.806726E1,4.1899315E1,1.9192209E0,1.6012058E1,5.0664707E1,5.2041756E1,5.9184372E1,2.194683E1,7.892456E0,3.9577045E1,8.333052E1,1.6804665E1,2.0120056E1,6.727573E1,1.4146591E1,1.0359577E1,1.1788919E1,1.6793717E0,4.2967834E0,3.0549591E1,3.141446E1,9.13208E0,1.3513664E1,5.082321E0,5.100601E0,9.487961E0,1.8942804E0,1.214735E1,1.0814802E1,0E0,1.5148252E0,4.2215004E1,3.9436462E1,2.224759E1,2.4552078E1,4.8636353E1,5.0574516E1,2.3294969E0,8.367489E0,7.289978E0,0E0,6.426404E1,1.7867275E1,4.6798325E0,6.302887E0,6.56303E1,2.3564682E1,3.084785E1,1.2320005E1,1.1224553E1,7.118475E1,0E0,0E0,0E0,0E0,0E0,0E0,0E0,0E0,0E0,0E0,0E0,0E0,0E0,0E0,0E0,0E0,0E0,0E0,0E0,0E0,0E0,0E0,0E0,0E0,0E0,0E0,0E0,0E0,0E0,0E0,0E0,0E0,0E0,0E0,0E0,0E0,0E0,0E0,0E0,0E0,0E0,0E0,0E0,0E0,0E0,0E0,0E0,0E0,0E0,0E0,0E0,0E0,0E0,0E0,0E0,0E0,0E0,0E0,0E0,0E0,0E0,0E0,0E0,0E0,0E0,0E0,0E0,0E0,0E0,0E0,0E0,0E0,0E0,0E0,0E0,0E0,0E0,0E0,0E0,0E0,0E0,0E0,0E0,0E0,0E0,0E0,0E0,0E0,0E0,0E0,0E0,0E0,0E0,0E0,0E0,0E0,0E0,0E0,0E0,0E0,0E0,0E0,0E0,0E0,0E0,0E0,0E0,0E0,0E0,0E0,0E0,0E0,0E0,0E0,0E0,0E0,0E0,0E0,0E0,0E0,0E0,0E0,0E0,0E0,0E0,0E0,0E0,0E0,0E0,0E0,0E0,0E0,0E0,0E0,0E0,0E0,0E0,0E0,0E0,0E0,0E0,0E0],"parents":[2147483647,0,0,1,1,2,2,3,3,4,4,5,5,6,6,9,9,10,10,11,11,12,12,14,14,15,15,16,16,17,17,18,18,19,19,20,20,21,21,22,22,23,23,24,24,25,25,26,26,27,27,28,28,29,29,30,30,31,31,32,32,33,33,34,34,35,35,36,36,37,37,38,38,40,40,41,41,42,42,43,43,44,44,45,45,46,46,47,47,48,48,49,49,50,50,51,51,52,52,53,53,54,54,55,55,56,56,57,57,58,58,59,59,60,60,61,61,62,62,63,63,64,64,65,65,66,66,67,67,68,68,69,69,70,70,71,71,72,72,74,74,75,75,76,76,77,77,78,78,79,79,80,80,81,81,82,82,83,83,84,84,85,85,86,86,87,87,88,88,89,89,90,90,91,91,92,92,93,93,94,94,95,95,96,96,97,97,98,98,99,99,100,100,101,101,102,102,103,103,104,104,105,105,106,106,107,107,108,108,109,109,110,110,111,111,112,112,113,113,114,114,115,115,116,116,117,117,118,118,119,119,120,120,121,121,122,122,123,123,124,124,125,125,126,126,127,127,128,128,129,129,130,130,131,131,132,132,134,134,135,135,136,136,137,137,138,138,139,139,140,140,141,141,142,142,143,143,145,145,146,146,147,147,148,148,149,149,150,150,151,151,152,152,153,153,154,154],"right_children":[2,4,6,8,10,12,14,-1,-1,16,18,20,22,-1,24,26,28,30,32,34,36,38,40,42,44,46,48,50,52,54,56,58,60,62,64,66,68,70,72,-1,74,76,78,80,82,84,86,88,90,92,94,96,98,100,102,104,106,108,110,112,114,116,118,120,122,124,126,128,130,132,134,136,138,-1,140,142,144,146,148,150,152,154,156,158,160,162,164,166,168,170,172,174,176,178,180,182,184,186,188,190,192,194,196,198,200,202,204,206,208,210,212,214,216,218,220,222,224,226,228,230,232,234,236,238,240,242,244,246,248,250,252,254,256,-1,258,260,262,264,266,268,270,272,274,276,-1,278,280,282,284,286,288,290,292,294,296,-1,-1,-1,-1,-1,-1,-1,-1,-1,-1,-1,-1,-1,-1,-1,-1,-1,-1,-1,-1,-1,-1,-1,-1,-1,-1,-1,-1,-1,-1,-1,-1,-1,-1,-1,-1,-1,-1,-1,-1,-1,-1,-1,-1,-1,-1,-1,-1,-1,-1,-1,-1,-1,-1,-1,-1,-1,-1,-1,-1,-1,-1,-1,-1,-1,-1,-1,-1,-1,-1,-1,-1,-1,-1,-1,-1,-1,-1,-1,-1,-1,-1,-1,-1,-1,-1,-1,-1,-1,-1,-1,-1,-1,-1,-1,-1,-1,-1,-1,-1,-1,-1,-1,-1,-1,-1,-1,-1,-1,-1,-1,-1,-1,-1,-1,-1,-1,-1,-1,-1,-1,-1,-1,-1,-1,-1,-1,-1,-1,-1,-1,-1,-1,-1,-1,-1,-1,-1,-1,-1,-1,-1],"split_conditions":[8.333333E-1,2.5E-1,1E0,6.666667E-1,6.666667E-1,1E0,2.5E-1,3.3504757E-1,6.161535E-1,4.1625623E-2,1E0,3.9096475E-2,3.877982E-1,4.724833E-1,3.0066077E-2,1.5262824E-1,5.7660606E-2,1E0,6.4534515E-1,6.666667E-1,9.6343584E-2,3.5001054E-2,7.5E-1,1.4515978E-3,1E0,8.444163E-4,4.055435E-2,5.271943E-2,7.5E-1,6.165147E-1,6.165147E-1,9.3941316E-2,2.3275863E-1,7.0689654E-1,1.2543108E-1,2.6957992E-1,1E0,8.189655E-1,5E-1,5.059058E-1,7.2431076E-1,1.3826565E-3,2.6772214E-2,6.666667E-1,7.255647E-1,2.2214426E-2,9.4827586E-1,3.0066077E-2,3.7259868E-1,4.612404E-2,4.5614034E-1,3.9194176E-1,7.6724136E-1,1.6186465E-1,6.3416135E-1,1.9992983E-2,6.3416135E-1,1.3932869E-3,1E0,7.293233E-1,4.827586E-1,4.1379312E-1,7.6724136E-1,1E0,1.6186465E-1,3.0066077E-2,6.115685E-1,6.6580385E-1,1.637931E-1,3.5465485E-3,6.666667E-1,1.7036098E-1,7.5E-1,-2.6880521E-2,7.406015E-1,6.666667E-1,6.9924814E-1,2.2214426E-2,7.5E-1,3.4210527E-1,1.3467227E-1,7.198649E-2,7.268171E-1,1.0647604E-2,7.518797E-1,2.6772214E-2,2.2214426E-2,2.8917054E-2,5E-1,7.5E-1,7.5E-1,4.29627E-2,7.586207E-1,3.0172414E-1,5.5272173E-2,4.8370928E-1,6.6580385E-1,4.4360903E-1,7.304201E-3,1.2032933E-2,4.5864663E-1,2.016044E-1,6.6580385E-1,1.8001346E-2,7.6841884E-3,1.971712E-2,6.6580385E-1,8.444163E-4,1.4777285E-3,1.724138E-2,4.8068398E-1,7.218045E-1,7.669173E-1,3.6206895E-1,5.5172414E-1,7.468672E-1,7.16792E-1,1.0428541E-2,7.706767E-1,1.2086946E-1,7.3433584E-1,3.1961158E-2,7.669173E-1,2.029939E-2,5.576441E-1,1E0,7.406015E-1,5E-1,2.1131518E-1,7.518797E-1,2.7929068E-1,7.8070176E-1,7.5E-1,2.849444E-1,1.5917247E-2,1.637931E-1,2.7929068E-1,7.3433584E-1,1E0,7.3558897E-1,6.115685E-1,1.7817184E-2,3.9075363E-1,6.378446E-1,1.3829927E-2,2.029939E-2,2.5649145E-1,6.810345E-1,6.666667E-1,7.5E-1,6.6580385E-1,1.2086946E-1,4.0173104E-1,2.5121385E-2,7.9310346E-1,1.3913465E-1,5.5517274E-1,-2.8104722E-2,1.5857811E-1,-5.6749783E-3,5.2325215E-2,-7.528219E-3,2.3272717E-3,5.3402793E-2,1.6748863E-4,2.2351852E-2,6.6823065E-2,3.8063773E-3,1.4109703E-2,1.2575142E-2,4.822426E-2,5.2438747E-2,1.2702265E-1,-1.3962825E-2,3.6963334E-3,-1.563331E-2,-6.513157E-3,3.9099655E-3,-2.080949E-2,-2.3222633E-2,-2.6317999E-2,3.6289386E-4,-6.0618254E-3,4.1455696E-3,2.0202393E-2,1.3968539E-1,6.284544E-2,3.1131735E-2,-4.484126E-3,4.0460505E-2,-1.78209E-2,-2.020011E-2,-2.4362404E-2,-1.44647835E-2,-4.0111644E-3,-2.3884146E-2,-1.6097521E-2,1.0892805E-2,8.943364E-2,-1.529252E-2,-5.8284095E-3,7.212251E-2,1.8842401E-2,-2.0150278E-2,-1.4744996E-3,3.336506E-2,1.19994216E-1,-3.0449433E-2,2.0782852E-3,1.792399E-1,9.004827E-3,4.7256555E-2,2.3637317E-1,3.255884E-1,5.878038E-2,4.001319E-1,5.489239E-1,5.2791197E-2,-3.320425E-2,1.3707896E-1,4.578179E-2,2.628823E-2,1.0161187E-1,8.003293E-2,3.9032854E-2,4.1700345E-2,2.3921263E-1,7.39178E-2,2.3387896E-1,8.121441E-2,2.194635E-1,2.9450407E-2,1.04018986E-1,-5.2169897E-4,5.4006677E-2,2.215231E-2,6.268238E-2,4.32384E-2,8.031564E-2,7.038374E-2,3.37796E-2,2.899139E-2,1.4405574E-1,2.4974871E-2,1.1327507E-1,1.39153255E-2,2.4256969E-2,9.08421E-3,3.846177E-2,1.2760979E-1,4.0772017E-3,1.1553285E-2,5.4786563E-2,4.1163515E-2,1.5571061E-1,3.476362E-2,-2.1886242E-4,4.1650634E-2,-1.4077924E-2,3.720791E-1,9.475488E-2,2.597547E-1,5.248697E-1,4.0386654E-2,1.3447529E-1,5.2524526E-2,1.0512544E-1,1.8934661E-1,6.420056E-1,9.6540496E-2,3.7670317E-1,3.7790153E-2,-2.8909562E-2,1.869059E-1,5.5979032E-2,2.2085682E-1,4.8455524E-1,2.5696797E-2,6.62343E-2,2.1528115E-3,1.0681858E-1,2.0103656E-2,6.685489E-2,9.465675E-2,1.7466329E-2,4.1147932E-2,2.0651665E-1,1.4760002E-2,5.772242E-2,6.240251E-3,1.0214727E-1,-7.378598E-3,1.6977958E-2,-6.1301854E-3,1.6229358E-2,5.9516635E-2,1.3140006E-1],"split_indices":[15,14,15,1,1,13,14,0,0,13,13,8,8,0,13,8,13,1,8,1,13,8,14,13,13,8,13,13,10,13,13,8,10,10,13,8,1,10,14,0,12,13,13,1,8,13,10,13,8,13,12,13,10,13,13,13,13,8,1,12,10,10,10,1,13,13,8,13,10,8,1,8,14,0,12,6,12,13,14,12,13,8,12,13,12,13,13,13,15,14,14,13,10,10,13,12,13,12,8,8,12,8,13,13,8,8,13,8,8,10,8,12,12,10,10,12,12,8,12,13,12,8,12,13,12,1,12,14,8,12,8,12,10,0,8,10,8,12,1,12,8,8,8,12,0,13,8,10,1,10,13,13,8,8,10,0,0,0,0,0,0,0,0,0,0,0,0,0,0,0,0,0,0,0,0,0,0,0,0,0,0,0,0,0,0,0,0,0,0,0,0,0,0,0,0,0,0,0,0,0,0,0,0,0,0,0,0,0,0,0,0,0,0,0,0,0,0,0,0,0,0,0,0,0,0,0,0,0,0,0,0,0,0,0,0,0,0,0,0,0,0,0,0,0,0,0,0,0,0,0,0,0,0,0,0,0,0,0,0,0,0,0,0,0,0,0,0,0,0,0,0,0,0,0,0,0,0,0,0,0,0,0,0,0,0,0,0,0,0,0,0,0,0,0,0,0,0],"split_type":[0,0,0,0,0,0,0,0,0,0,0,0,0,0,0,0,0,0,0,0,0,0,0,0,0,0,0,0,0,0,0,0,0,0,0,0,0,0,0,0,0,0,0,0,0,0,0,0,0,0,0,0,0,0,0,0,0,0,0,0,0,0,0,0,0,0,0,0,0,0,0,0,0,0,0,0,0,0,0,0,0,0,0,0,0,0,0,0,0,0,0,0,0,0,0,0,0,0,0,0,0,0,0,0,0,0,0,0,0,0,0,0,0,0,0,0,0,0,0,0,0,0,0,0,0,0,0,0,0,0,0,0,0,0,0,0,0,0,0,0,0,0,0,0,0,0,0,0,0,0,0,0,0,0,0,0,0,0,0,0,0,0,0,0,0,0,0,0,0,0,0,0,0,0,0,0,0,0,0,0,0,0,0,0,0,0,0,0,0,0,0,0,0,0,0,0,0,0,0,0,0,0,0,0,0,0,0,0,0,0,0,0,0,0,0,0,0,0,0,0,0,0,0,0,0,0,0,0,0,0,0,0,0,0,0,0,0,0,0,0,0,0,0,0,0,0,0,0,0,0,0,0,0,0,0,0,0,0,0,0,0,0,0,0,0,0,0,0,0,0,0,0,0,0,0,0,0,0,0,0,0,0,0,0,0,0,0,0,0,0,0,0,0,0,0,0,0],"sum_hessian":[1.95398E5,1.67834E5,2.7564E4,3.9E1,1.67795E5,1.0804E4,1.676E4,1E1,2.9E1,8.8797E4,7.8998E4,9.439E3,1.365E3,1E1,1.675E4,2.7924E4,6.0873E4,6.1316E4,1.7682E4,1.856E3,7.583E3,1.295E3,7E1,2.7E3,1.405E4,1.3026E4,1.4898E4,8.882E3,5.1991E4,5.1816E4,9.5E3,1.6831E4,8.51E2,1.373E3,4.83E2,3.551E3,4.032E3,5.97E2,6.98E2,2.3E1,4.7E1,5.5E1,2.645E3,1.2012E4,2.038E3,3.59E2,1.2667E4,1.3895E4,1.003E3,6.488E3,2.394E3,4.7283E4,4.708E3,3.3339E4,1.8477E4,8.477E3,1.023E3,7.791E3,9.04E3,6.9E1,7.82E2,1.123E3,2.5E2,1.64E2,3.19E2,2.12E3,1.431E3,3.934E3,9.8E1,5.65E2,3.2E1,1.41E2,5.57E2,7E0,4E1,4E1,1.5E1,2.398E3,2.47E2,7.805E3,4.207E3,2.018E3,2E1,1.72E2,1.87E2,1.2252E4,4.15E2,9.443E3,4.452E3,7.57E2,2.46E2,2.862E3,3.626E3,7.3E2,1.664E3,3.9128E4,8.155E3,7.55E2,3.953E3,9.25E3,2.4089E4,5.888E3,1.2589E4,2.56E2,8.221E3,6.22E2,4.01E2,8.7E1,7.704E3,8.277E3,7.63E2,1.5E1,5.4E1,2.55E2,5.27E2,2.76E2,8.47E2,8.9E1,1.61E2,3.2E1,1.32E2,1.01E2,2.18E2,8.98E2,1.222E3,1.345E3,8.6E1,3.405E3,5.29E2,3.6E1,6.2E1,7.9E1,4.86E2,8E0,2.4E1,1.01E2,4E1,1.43E2,4.14E2,1.2E1,2.8E1,1.9E1,2.1E1,1E1,5E0,1.979E3,4.19E2,9.7E1,1.5E2,1.3E2,7.675E3,5.28E2,3.679E3,1.075E3,9.43E2,5E0,1.5E1,6.5E1,1.07E2,1.79E2,8E0,9.134E3,3.118E3,1.71E2,2.44E2,8.529E3,9.14E2,2.83E3,1.622E3,3.38E2,4.19E2,1.12E2,1.34E2,1.964E3,8.98E2,3.263E3,3.63E2,1.25E2,6.05E2,1.056E3,6.08E2,7.04E3,3.2088E4,6.259E3,1.896E3,2.37E2,5.18E2,4.92E2,3.461E3,2.31E2,9.019E3,1.168E3,2.2921E4,3.194E3,2.694E3,3.086E3,9.503E3,2.18E2,3.8E1,3.555E3,4.666E3,2.41E2,3.81E2,3.35E2,6.6E1,4.1E1,4.6E1,5.12E2,7.192E3,1.7E1,8.26E3,7.47E2,1.6E1,1E1,5E0,3.4E1,2E1,7.5E1,1.8E2,1.34E2,3.93E2,2.43E2,3.3E1,6.99E2,1.48E2,2.4E1,6.5E1,1.56E2,5E0,2.5E1,7E0,1.06E2,2.6E1,9.6E1,5E0,1.88E2,3E1,4.51E2,4.47E2,3.18E2,9.04E2,1.339E3,6E0,2.5E1,6.1E1,5.77E2,2.828E3,4.62E2,6.7E1,2.8E1,8E0,5E1,1.2E1,6.9E1,1E1,1.15E2,3.71E2,1.8E1,6E0,5E0,9.6E1,3.2E1,8E0,3.4E1,1.09E2,2.82E2,1.32E2,5E0,7E0,1.8E1,1E1,9E0,1E1,1E1,1.1E1,5E0,5E0,1.442E3,5.37E2,4.03E2,1.6E1,6.5E1,3.2E1,1.38E2,1.2E1,9.9E1,3.1E1,7.546E3,1.29E2,4.93E2,3.5E1,3.459E3,2.2E2,7.57E2,3.18E2,7.75E2,1.68E2],"tree_param":{"num_deleted":"0","num_feature":"16","num_nodes":"297","size_leaf_vector":"1"}},{"base_weights":[2.4017156E-4,-2.5418377E-1,1.5395392E-1,-2.548056E-1,5.121618E-1,1.4392474E-1,7.821121E-1,-2.6799774E-1,-2.4306582E-1,3.9961198E-1,1.4585082E-1,9.2192575E-2,2.4745283E-1,1.3668199E0,3.8564873E-1,-2.6269662E-1,-2.804023E-1,-2.4123342E-1,-2.7367228E-1,9.5693743E-1,2.3853204E-1,2.202771E-2,1.6169652E-1,2.3592699E-1,1.0362723E0,8.519578E-1,1.9551146E0,2.551319E-1,9.106169E-1,-2.6361868E-1,-2.4543454E-1,-2.827673E-1,-2.7460441E-2,-2.3854369E-1,-2.6020837E-1,-2.568346E-1,-2.870113E-1,1.5435144E-1,1.131082E-2,4.2351705E-1,3.4296233E-2,-3.040764E-2,1.5240197E-1,1.4903851E-1,7.483719E-1,3.0170307E-1,1.4204277E-1,2.9551528E0,7.773743E-1,6.065736E-1,1.4275694E0,3.2217815E0,1.7911837E0,1.6297247E-1,7.136593E-1,7.0233476E-1,3.4421992E0,-2.6053807E-1,-2.6717323E-1,-1.4775185E-1,-2.5255528E-1,-2.71915E-1,-2.840559E-2,-2.3514883E-1,-2.4713376E-1,-2.4441774E-1,-2.689087E-1,-2.547015E-1,-3.7680063E-2,-2.462219E-2,-2.9675737E-1,-3.5587233E-3,5.8764726E-1,-1.1391432E-1,3.0790398E-2,2.170915E-2,-9.163764E-2,1.8010287E-1,5.245848E-2,2.26096E-1,4.4092137E-2,2.3752396E0,2.1592857E-1,2.296145E-1,3.5978335E-1,8.6584944E-1,1.3217573E-1,3.907087E0,9.382967E-2,3.350988E0,6.595163E-1,4.217357E-1,1.0592467E0,3.239856E0,1.106355E0,3.7214106E-1,2.0280836E0,1.8555717E0,2.467054E-1,-5.6095973E-2,4.1685426E-1,4.1406608E-1,1.3225399E0,-1.0459766E-1,1.186064E0,3.5507537E-2,5.0938053E0,-2.588805E-1,-2.7282813E-1,-1.7494735E-1,-2.6724348E-2,-2.6340133E-2,6.7522633E-1,-2.6345426E-2,-2.3387776E-1,-2.7739305E-2,1.8859023E-2,-2.4288303E-1,-2.3420031E-1,-2.3225404E-1,-2.4952759E-1,-2.4800515E-1,-9.198677E-2,-2.707802E-1,-2.5409096E-1,-2.4274087E-1,-2.6625606E-1,-3.106444E-1,-2.6204625E-2,2.6687652E-2,8.431238E-2,-1.5923994E-2,-3.9365045E-3,-2.5552751E-2,3.6271265E-1,-1.2762888E-1,-3.2546848E-2,1.02213226E-1,2.1690612E-1,-1.5882067E-1,8.020651E-2,1.8764265E-1,8.035788E-1,-5.192605E-3,2.3365697E-1,3.045916E-1,3.4612403E0,4.7411308E-1,4.2570885E-2,1.2916934E-1,3.9176312E-1,6.824399E-1,3.347519E-1,3.4416646E-1,2.4056704E0,1.8389937E-1,4.595626E-2,-1.693658E-2,4.353862E0,3.8099796E-2,-4.5927208E-2,2.028431E0,4.7352132E-1,7.8131104E-1,1.06082305E-1,1.6273421E-1,3.8420936E-1,1.4184037E0,2.9027522E-1,4.0408273E0,1.7335387E-1,1.7650936E0,4.393272E-1,7.170736E-2,2.921707E-1,1.5277709E0,2.3361847E0,4.8157293E-2,1.0358127E-3,1.8706806E-1,-1.3802117E-1,1.1258386E0,3.2803383E-1,1.7619281E0,2.1910658E-1,3.8726428E-1,9.531365E-1,4.863012E-1,-2.0584677E-1,2.8580656E0,8.619739E-1,7.5579876E-1,1.780656E-1,-2.8363133E-2,-2.5787845E-2,-2.9784072E-2,-2.6494214E-2,-2.3546344E-2,-8.527337E-3,1.4580688E-1,-2.2015376E-2,-2.6342064E-2,-1.4710109E-2,-2.956014E-2,-2.4212152E-2,-2.3122871E-2,-2.3872593E-2,-2.437804E-2,-1.5589868E-2,-2.5212798E-2,-2.3689693E-2,-2.5029877E-2,-1.9037828E-2,6.527766E-2,-2.207101E-2,-2.656054E-2,-2.817204E-2,-2.6082342E-2,-2.2453051E-2,-2.5926966E-2,1.1200183E-1,-2.8007168E-2,-2.3519134E-2,-2.7040482E-2,-3.272956E-2,-5.867503E-3,1.5022432E-3,8.621645E-2,1.5061657E-2,2.1597488E-2,-1.3259952E-2,-7.8096227E-3,1.8033318E-2,1.7670179E-2,-7.5224653E-4,2.0399453E-2,6.046642E-2,-2.8101793E-2,-7.1113617E-3,2.0735538E-2,3.8595987E-3,5.384322E-2,1.7944314E-2,8.682006E-2,2.1814425E-2,1.4300488E-1,-1.2177415E-3,2.010897E-2,9.9305786E-2,5.2202526E-3,7.326544E-2,8.006637E-2,4.437647E-1,1.3113488E-2,6.4886585E-2,-2.254227E-3,6.191499E-2,5.795515E-3,2.8292099E-2,1.0794748E-1,3.4184158E-2,8.596629E-2,3.7079614E-2,2.6646135E-2,3.769214E-2,7.315384E-4,8.7038204E-2,2.80565E-1,5.5069413E-2,1.7017085E-2,7.255152E-2,-3.8287018E-3,1.6647035E-2,4.9584085E-1,1.6816531E-1,8.348428E-4,-8.089303E-3,2.6590142E-1,1.1080718E-1,3.5977375E-2,1.0679324E-1,2.100721E-3,1.0996752E-1,3.4009179E-3,4.8030186E-2,1.0733998E-1,2.7635664E-1,4.732933E-2,-1.4868438E-2,1.9494678E-1,5.4587156E-1,2.2855054E-1,4.187976E-2,2.1094764E-2,8.8436715E-2,1.6411489E-1,3.784008E-2,3.1035528E-1,1.4511828E-1,6.026043E-3,1.3730337E-1,-1.5292351E-2,4.3993182E-2,6.1423123E-2,1.7517877E-1,1.3517973E-2,7.890155E-2,9.377121E-2,2.33444E-1,1.9301014E-1,5.5494057E-3,-1.1696247E-2,1.2622209E-1,-2.1542653E-2,1.2239333E-1,-2.4509894E-2,1.7682942E-2,3.865349E-1,1.5909576E-1,2.6613465E-1,5.3435612E-2],"categories":[],"categories_nodes":[],"categories_segments":[],"categories_sizes":[],"default_left":[0,0,0,0,0,0,0,0,0,0,0,0,0,0,0,0,0,0,0,0,0,0,0,0,0,0,0,0,0,0,0,0,0,0,0,0,0,0,0,0,0,0,0,0,0,0,0,0,0,0,0,0,0,0,0,0,0,0,0,0,0,0,0,0,0,0,0,0,0,0,0,0,0,0,0,0,0,0,0,0,0,0,0,0,0,0,0,0,0,0,0,0,0,0,0,0,0,0,0,0,0,0,0,0,0,0,0,0,0,0,0,0,0,0,0,0,0,0,0,0,0,0,0,0,0,0,0,0,0,0,0,0,0,0,0,0,0,0,0,0,0,0,0,0,0,0,0,0,0,0,0,0,0,0,0,0,0,0,0,0,0,0,0,0,0,0,0,0,0,0,0,0,0,0,0,0,0,0,0,0,0,0,0,0,0,0,0,0,0,0,0,0,0,0,0,0,0,0,0,0,0,0,0,0,0,0,0,0,0,0,0,0,0,0,0,0,0,0,0,0,0,0,0,0,0,0,0,0,0,0,0,0,0,0,0,0,0,0,0,0,0,0,0,0,0,0,0,0,0,0,0,0,0,0,0,0,0,0,0,0,0,0,0,0,0,0,0,0,0,0,0,0,0,0,0,0,0,0,0,0,0,0,0,0,0,0,0,0,0,0,0,0,0,0,0,0,0,0,0,0,0,0,0,0,0,0,0,0,0,0,0,0,0,0,0,0,0,0,0,0,0],"id":5,"left_children":[1,3,5,7,9,11,13,15,17,19,-1,21,23,25,27,29,31,33,35,37,39,41,43,45,47,49,51,53,55,57,59,61,-1,63,65,67,69,-1,-1,71,73,75,77,79,81,83,85,87,89,91,93,95,97,99,101,103,105,107,109,111,113,115,-1,117,119,121,123,125,-1,-1,127,-1,129,131,-1,133,135,137,139,141,143,145,147,149,151,153,155,157,159,161,163,165,167,169,171,-1,173,175,177,179,181,183,185,187,189,-1,191,193,195,197,-1,-1,199,-1,201,-1,-1,203,205,207,209,211,213,215,217,219,221,223,-1,-1,-1,-1,-1,225,227,229,231,233,235,237,239,241,243,245,247,249,251,253,255,257,259,261,263,265,267,269,271,-1,273,-1,275,277,-1,279,281,-1,283,285,287,289,-1,291,293,-1,-1,295,297,-1,-1,299,301,303,305,307,309,-1,311,313,315,317,319,-1,-1,-1,-1,-1,-1,-1,-1,-1,-1,-1,-1,-1,-1,-1,-1,-1,-1,-1,-1,-1,-1,-1,-1,-1,-1,-1,-1,-1,-1,-1,-1,-1,-1,-1,-1,-1,-1,-1,-1,-1,-1,-1,-1,-1,-1,-1,-1,-1,-1,-1,-1,-1,-1,-1,-1,-1,-1,-1,-1,-1,-1,-1,-1,-1,-1,-1,-1,-1,-1,-1,-1,-1,-1,-1,-1,-1,-1,-1,-1,-1,-1,-1,-1,-1,-1,-1,-1,-1,-1,-1,-1,-1,-1,-1,-1,-1,-1,-1,-1,-1,-1,-1,-1,-1,-1,-1,-1,-1,-1,-1,-1,-1,-1,-1,-1,-1,-1,-1,-1,-1,-1,-1,-1,-1,-1,-1,-1,-1,-1],"loss_changes":[7.641793E3,3.520117E1,7.672671E2,1.1322754E1,5.807831E0,6.421028E2,4.4316724E2,2.2026367E0,2.116455E0,4.7093077E0,0E0,3.8988165E2,3.6295508E2,2.3246887E2,7.80143E1,3.2165527E-1,6.427002E-2,1.8125E0,4.1838074E-1,5.765065E0,1.6478195E0,2.7199048E2,2.9814465E2,2.4310449E2,2.8335944E2,5.7609894E1,6.8981445E1,3.859168E1,1.1727573E2,1.8249512E-1,8.286743E-1,2.508545E-2,0E0,8.803711E-1,5.592346E-1,1.543045E-1,4.095459E-1,0E0,0E0,1.7540288E0,9.2720884E-1,9.0549774E1,3.158496E1,3.1793475E2,7.3403735E2,9.685327E1,1.157475E2,1.8485126E2,1.518771E2,2.3985245E1,6.80179E1,1.6308899E1,3.1464355E1,4.251514E1,2.7362106E1,8.2485115E1,8.486943E1,1.8139648E-1,2.2216797E-2,8.458253E0,1.743164E-1,2.0704536E0,0E0,1.1254883E-1,2.659912E-1,8.6688995E-1,1.2237549E-2,6.859207E-2,0E0,0E0,3.885727E-1,0E0,1.1681299E0,4.4416398E-2,0E0,2.4705869E2,2.774356E1,2.559082E1,1.4540215E1,5.032627E2,1.5552838E2,4.6892944E2,2.8625109E1,1.6824347E2,1.0331299E2,1.742911E2,7.137164E1,9.36214E1,7.3990554E-1,3.067073E1,3.2743515E1,8.830338E0,2.2787521E1,1.4712372E1,4.580063E1,0E0,1.4306606E1,4.4954834E1,7.72156E-1,8.213458E0,2.192287E1,2.6942915E1,4.3409683E1,4.886342E0,6.906448E1,0E0,7.634805E1,1.977539E-1,2.0750427E-1,3.9615124E-2,0E0,0E0,8.031356E0,0E0,1.0789928E0,0E0,0E0,2.859497E-2,2.2167969E-1,1.0841217E0,1.9720459E-1,1.6236877E-1,3.882942E0,7.122803E-2,9.895325E-3,1.121489E1,1.4013672E-1,3.7449646E-1,0E0,0E0,0E0,0E0,0E0,1.8095726E1,1.9753885E2,1.3876556E1,4.7915054E1,2.3452684E1,3.0251556E1,3.0666747E0,1.1583987E1,6.1042114E1,5.334253E1,1.3247627E2,8.475342E1,7.8485546E0,3.523462E2,1.5318565E1,1.4430424E1,6.986203E1,1.3530951E2,5.06037E1,3.4166016E1,2.906366E1,3.92623E1,7.426218E1,6.0951843E1,0E0,6.597357E1,0E0,2.5346633E-2,4.598343E0,0E0,4.7823624E1,7.5000696E0,0E0,6.848591E0,2.3486519E1,2.3198216E0,2.1976868E1,0E0,3.6176117E1,5.301898E0,0E0,0E0,2.361728E1,7.902826E1,0E0,0E0,1.5557766E1,2.7200341E0,1.1413361E1,2.7986439E1,3.945324E0,2.5647387E1,0E0,1.5031422E1,6.475072E0,1.0797806E0,2.0653458E1,6.4602615E1,0E0,0E0,0E0,0E0,0E0,0E0,0E0,0E0,0E0,0E0,0E0,0E0,0E0,0E0,0E0,0E0,0E0,0E0,0E0,0E0,0E0,0E0,0E0,0E0,0E0,0E0,0E0,0E0,0E0,0E0,0E0,0E0,0E0,0E0,0E0,0E0,0E0,0E0,0E0,0E0,0E0,0E0,0E0,0E0,0E0,0E0,0E0,0E0,0E0,0E0,0E0,0E0,0E0,0E0,0E0,0E0,0E0,0E0,0E0,0E0,0E0,0E0,0E0,0E0,0E0,0E0,0E0,0E0,0E0,0E0,0E0,0E0,0E0,0E0,0E0,0E0,0E0,0E0,0E0,0E0,0E0,0E0,0E0,0E0,0E0,0E0,0E0,0E0,0E0,0E0,0E0,0E0,0E0,0E0,0E0,0E0,0E0,0E0,0E0,0E0,0E0,0E0,0E0,0E0,0E0,0E0,0E0,0E0,0E0,0E0,0E0,0E0,0E0,0E0,0E0,0E0,0E0,0E0,0E0,0E0,0E0,0E0,0E0,0E0,0E0,0E0,0E0,0E0,0E0,0E0],"parents":[2147483647,0,0,1,1,2,2,3,3,4,4,5,5,6,6,7,7,8,8,9,9,11,11,12,12,13,13,14,14,15,15,16,16,17,17,18,18,19,19,20,20,21,21,22,22,23,23,24,24,25,25,26,26,27,27,28,28,29,29,30,30,31,31,33,33,34,34,35,35,36,36,39,39,40,40,41,41,42,42,43,43,44,44,45,45,46,46,47,47,48,48,49,49,50,50,51,51,52,52,53,53,54,54,55,55,56,56,57,57,58,58,59,59,60,60,61,61,63,63,64,64,65,65,66,66,67,67,70,70,72,72,73,73,75,75,76,76,77,77,78,78,79,79,80,80,81,81,82,82,83,83,84,84,85,85,86,86,87,87,88,88,89,89,90,90,91,91,92,92,93,93,94,94,96,96,97,97,98,98,99,99,100,100,101,101,102,102,103,103,104,104,106,106,107,107,108,108,109,109,112,112,114,114,117,117,118,118,119,119,120,120,121,121,122,122,123,123,124,124,125,125,126,126,127,127,133,133,134,134,135,135,136,136,137,137,138,138,139,139,140,140,141,141,142,142,143,143,144,144,145,145,146,146,147,147,148,148,149,149,150,150,151,151,152,152,153,153,154,154,155,155,156,156,158,158,160,160,161,161,163,163,164,164,166,166,167,167,168,168,169,169,171,171,172,172,175,175,176,176,179,179,180,180,181,181,182,182,183,183,184,184,186,186,187,187,188,188,189,189,190,190],"right_children":[2,4,6,8,10,12,14,16,18,20,-1,22,24,26,28,30,32,34,36,38,40,42,44,46,48,50,52,54,56,58,60,62,-1,64,66,68,70,-1,-1,72,74,76,78,80,82,84,86,88,90,92,94,96,98,100,102,104,106,108,110,112,114,116,-1,118,120,122,124,126,-1,-1,128,-1,130,132,-1,134,136,138,140,142,144,146,148,150,152,154,156,158,160,162,164,166,168,170,172,-1,174,176,178,180,182,184,186,188,190,-1,192,194,196,198,-1,-1,200,-1,202,-1,-1,204,206,208,210,212,214,216,218,220,222,224,-1,-1,-1,-1,-1,226,228,230,232,234,236,238,240,242,244,246,248,250,252,254,256,258,260,262,264,266,268,270,272,-1,274,-1,276,278,-1,280,282,-1,284,286,288,290,-1,292,294,-1,-1,296,298,-1,-1,300,302,304,306,308,310,-1,312,314,316,318,320,-1,-1,-1,-1,-1,-1,-1,-1,-1,-1,-1,-1,-1,-1,-1,-1,-1,-1,-1,-1,-1,-1,-1,-1,-1,-1,-1,-1,-1,-1,-1,-1,-1,-1,-1,-1,-1,-1,-1,-1,-1,-1,-1,-1,-1,-1,-1,-1,-1,-1,-1,-1,-1,-1,-1,-1,-1,-1,-1,-1,-1,-1,-1,-1,-1,-1,-1,-1,-1,-1,-1,-1,-1,-1,-1,-1,-1,-1,-1,-1,-1,-1,-1,-1,-1,-1,-1,-1,-1,-1,-1,-1,-1,-1,-1,-1,-1,-1,-1,-1,-1,-1,-1,-1,-1,-1,-1,-1,-1,-1,-1,-1,-1,-1,-1,-1,-1,-1,-1,-1,-1,-1,-1,-1,-1,-1,-1,-1,-1,-1],"split_conditions":[1.1662222E-3,8.333333E-1,6.894063E-1,6.666667E-1,1E0,6.666667E-1,6.666667E-1,1.5262824E-1,6.115685E-1,2.5332489E-3,1.4585082E-1,8.573596E-2,6.4534515E-1,3.5001054E-2,1.7922735E-1,7.1345973E-1,6.197965E-1,1E0,5.1724136E-1,6.644311E-1,6.1206895E-1,1.4967279E-1,6.4112306E-1,1E0,2.3275863E-1,4.827586E-1,5.17205E-2,1E0,1E0,7.029766E-2,7.1716005E-1,2.1551724E-1,-2.7460441E-2,1.7584969E-1,1.0428541E-2,1E0,5.13876E-1,1.5435144E-1,1.131082E-2,1.637931E-1,7.6724136E-1,6.666667E-1,6.2627196E-1,6.666667E-1,1.467645E-1,8.573596E-2,7.799394E-3,1.6605441E-1,5.8047995E-3,6.179463E-1,7.3549557E-1,8.2220703E-1,4.000422E-1,8.2220703E-1,3.9096475E-2,7.3549557E-1,6E-1,7.0689654E-1,2.586207E-2,7.3275864E-1,5E-1,1.724138E-1,-2.840559E-2,3.7492085E-2,3.3620688E-1,7.6724136E-1,2.9153472E-1,5.7469934E-1,-3.7680063E-2,-2.462219E-2,6.142461E-1,-3.5587233E-3,6.666667E-1,5.8325624E-1,3.0790398E-2,7.413793E-1,1E0,5.258621E-1,1.5518495E-2,4.0851688E-1,1E0,1.1177444E-1,3.3333334E-1,8.333333E-1,2E-1,1.7584969E-1,6.666667E-1,1.01339936E-1,3.0276275E-1,8.333333E-1,3.4113201E-1,4.4981498E-1,8.333333E-1,2.2165928E-2,2E-1,3.7214106E-1,5.5172414E-1,1.3658434E-1,4.051724E-1,5.254394E-1,3.9603125E-2,5.039315E-1,4E-1,6E-1,6E-1,3.5507537E-2,2.1131518E-1,8.444163E-4,7.6724136E-1,5.430157E-1,-2.6724348E-2,-2.6340133E-2,5E-1,-2.6345426E-2,6.9827586E-1,-2.7739305E-2,1.8859023E-2,2.06882E-3,8.549715E-2,3.1896552E-1,6.385291E-1,8.3175E-3,1.4777285E-3,1.01118855E-1,6.666667E-1,5.7400554E-1,6.385291E-1,6.4534515E-1,-2.6204625E-2,2.6687652E-2,8.431238E-2,-1.5923994E-2,-3.9365045E-3,3.9603125E-2,7.6724136E-1,2.005603E-3,2.5712477E-2,3.3333334E-1,6.4534515E-1,7.799394E-3,1.7669411E-1,4.095419E-3,2.746464E-1,2E-1,5.5586135E-1,8.226726E-1,3.3333334E-1,2.4727985E-1,1E0,1.4545071E-1,1.206589E-2,1E0,4.7413793E-1,5.5172414E-1,5.915819E-1,4.4832373E-1,8.929703E-2,-1.693658E-2,1E0,3.8099796E-2,1E0,5.601295E-1,4.7352132E-1,1.0817063E-1,5.835179E-1,1.6273421E-1,1.637931E-1,6.666667E-1,2E-1,1.7057208E-2,1.7335387E-1,6.551724E-1,2.2165928E-2,7.170736E-2,2.921707E-1,1.2645134E-1,5.8325624E-1,4.8157293E-2,1.0358127E-3,5.23358E-1,7.060592E-1,5.862069E-1,7.663078E-2,5.1724136E-1,1.3932869E-3,3.8726428E-1,8.549715E-2,2.23137E-1,6.4112306E-1,6.666667E-1,5.0508785E-1,7.5579876E-1,1.780656E-1,-2.8363133E-2,-2.5787845E-2,-2.9784072E-2,-2.6494214E-2,-2.3546344E-2,-8.527337E-3,1.4580688E-1,-2.2015376E-2,-2.6342064E-2,-1.4710109E-2,-2.956014E-2,-2.4212152E-2,-2.3122871E-2,-2.3872593E-2,-2.437804E-2,-1.5589868E-2,-2.5212798E-2,-2.3689693E-2,-2.5029877E-2,-1.9037828E-2,6.527766E-2,-2.207101E-2,-2.656054E-2,-2.817204E-2,-2.6082342E-2,-2.2453051E-2,-2.5926966E-2,1.1200183E-1,-2.8007168E-2,-2.3519134E-2,-2.7040482E-2,-3.272956E-2,-5.867503E-3,1.5022432E-3,8.621645E-2,1.5061657E-2,2.1597488E-2,-1.3259952E-2,-7.8096227E-3,1.8033318E-2,1.7670179E-2,-7.5224653E-4,2.0399453E-2,6.046642E-2,-2.8101793E-2,-7.1113617E-3,2.0735538E-2,3.8595987E-3,5.384322E-2,1.7944314E-2,8.682006E-2,2.1814425E-2,1.4300488E-1,-1.2177415E-3,2.010897E-2,9.9305786E-2,5.2202526E-3,7.326544E-2,8.006637E-2,4.437647E-1,1.3113488E-2,6.4886585E-2,-2.254227E-3,6.191499E-2,5.795515E-3,2.8292099E-2,1.0794748E-1,3.4184158E-2,8.596629E-2,3.7079614E-2,2.6646135E-2,3.769214E-2,7.315384E-4,8.7038204E-2,2.80565E-1,5.5069413E-2,1.7017085E-2,7.255152E-2,-3.8287018E-3,1.6647035E-2,4.9584085E-1,1.6816531E-1,8.348428E-4,-8.089303E-3,2.6590142E-1,1.1080718E-1,3.5977375E-2,1.0679324E-1,2.100721E-3,1.0996752E-1,3.4009179E-3,4.8030186E-2,1.0733998E-1,2.7635664E-1,4.732933E-2,-1.4868438E-2,1.9494678E-1,5.4587156E-1,2.2855054E-1,4.187976E-2,2.1094764E-2,8.8436715E-2,1.6411489E-1,3.784008E-2,3.1035528E-1,1.4511828E-1,6.026043E-3,1.3730337E-1,-1.5292351E-2,4.3993182E-2,6.1423123E-2,1.7517877E-1,1.3517973E-2,7.890155E-2,9.377121E-2,2.33444E-1,1.9301014E-1,5.5494057E-3,-1.1696247E-2,1.2622209E-1,-2.1542653E-2,1.2239333E-1,-2.4509894E-2,1.7682942E-2,3.865349E-1,1.5909576E-1,2.6613465E-1,5.3435612E-2],"split_indices":[2,15,2,1,6,15,1,8,8,8,0,2,8,8,8,11,11,1,10,11,10,8,8,15,10,10,8,1,1,8,11,10,0,8,8,8,11,0,0,10,10,1,11,1,2,2,2,2,2,11,2,2,8,2,8,2,3,10,10,10,15,10,0,8,10,10,8,11,0,0,11,0,6,11,0,10,1,10,2,2,1,2,1,15,3,8,1,2,2,15,2,11,15,8,3,0,10,8,10,11,8,11,3,3,3,0,8,8,10,11,0,0,15,0,10,0,0,8,8,10,11,8,8,8,15,11,11,8,0,0,0,0,0,8,10,2,8,1,8,2,8,8,8,3,2,8,1,2,1,8,2,1,10,10,11,2,8,0,15,0,15,11,0,2,2,0,10,15,3,8,0,10,8,0,0,8,11,0,0,11,11,10,8,10,8,0,8,8,8,15,11,0,0,0,0,0,0,0,0,0,0,0,0,0,0,0,0,0,0,0,0,0,0,0,0,0,0,0,0,0,0,0,0,0,0,0,0,0,0,0,0,0,0,0,0,0,0,0,0,0,0,0,0,0,0,0,0,0,0,0,0,0,0,0,0,0,0,0,0,0,0,0,0,0,0,0,0,0,0,0,0,0,0,0,0,0,0,0,0,0,0,0,0,0,0,0,0,0,0,0,0,0,0,0,0,0,0,0,0,0,0,0,0,0,0,0,0,0,0,0,0,0,0,0,0,0,0,0,0,0,0],"split_type":[0,0,0,0,0,0,0,0,0,0,0,0,0,0,0,0,0,0,0,0,0,0,0,0,0,0,0,0,0,0,0,0,0,0,0,0,0,0,0,0,0,0,0,0,0,0,0,0,0,0,0,0,0,0,0,0,0,0,0,0,0,0,0,0,0,0,0,0,0,0,0,0,0,0,0,0,0,0,0,0,0,0,0,0,0,0,0,0,0,0,0,0,0,0,0,0,0,0,0,0,0,0,0,0,0,0,0,0,0,0,0,0,0,0,0,0,0,0,0,0,0,0,0,0,0,0,0,0,0,0,0,0,0,0,0,0,0,0,0,0,0,0,0,0,0,0,0,0,0,0,0,0,0,0,0,0,0,0,0,0,0,0,0,0,0,0,0,0,0,0,0,0,0,0,0,0,0,0,0,0,0,0,0,0,0,0,0,0,0,0,0,0,0,0,0,0,0,0,0,0,0,0,0,0,0,0,0,0,0,0,0,0,0,0,0,0,0,0,0,0,0,0,0,0,0,0,0,0,0,0,0,0,0,0,0,0,0,0,0,0,0,0,0,0,0,0,0,0,0,0,0,0,0,0,0,0,0,0,0,0,0,0,0,0,0,0,0,0,0,0,0,0,0,0,0,0,0,0,0,0,0,0,0,0,0,0,0,0,0,0,0,0,0,0,0,0,0,0,0,0,0,0,0,0,0,0,0,0,0,0,0,0,0,0,0,0,0,0,0,0,0],"sum_hessian":[1.95398E5,7.3591E4,1.21807E5,7.3532E4,5.9E1,1.19894E5,1.913E3,3.4614E4,3.8918E4,5.4E1,5E0,7.9947E4,3.9947E4,7.72E2,1.141E3,2.4266E4,1.0348E4,3.6728E4,2.19E3,1.1E1,4.3E1,3.9785E4,4.0162E4,3.9373E4,5.74E2,4.13E2,3.59E2,9.15E2,2.26E2,2.3022E4,1.244E3,7.316E3,3.032E3,3.218E4,4.548E3,9.77E2,1.213E3,6E0,5E0,2.2E1,2.1E1,2.8374E4,1.1411E4,3.9315E4,8.47E2,2.3151E4,1.6222E4,6.7E1,5.07E2,2.91E2,1.22E2,3.9E1,3.2E2,7.63E2,1.52E2,2.1E2,1.6E1,1.2373E4,1.0649E4,8.6E1,1.158E3,7.99E2,6.517E3,2.3085E4,9.095E3,1.626E3,2.922E3,9.63E2,1.4E1,2.39E2,9.74E2,6E0,1.6E1,1.4E1,7E0,1.5328E4,1.3046E4,8.934E3,2.477E3,2.2669E4,1.6646E4,2.08E2,6.39E2,1.0332E4,1.2819E4,2.17E2,1.6005E4,5E1,1.7E1,2.1E1,4.86E2,2.08E2,8.3E1,1.7E1,1.05E2,2.6E1,1.3E1,3.07E2,1.3E1,4.1E2,3.53E2,1.03E2,4.9E1,7.9E1,1.31E2,6E0,1E1,1.0922E4,1.451E3,1E1,1.0639E4,7.6E1,1E1,7.23E2,4.35E2,7.9E2,9E0,2.494E3,2.0591E4,1.274E3,7.821E3,1.588E3,3.8E1,2.579E3,3.43E2,4.84E2,4.79E2,6.9E2,2.84E2,8E0,8E0,8E0,6E0,1.3463E4,1.865E3,8.107E3,4.939E3,2.868E3,