tree
version=v4
num_class=1
num_tree_per_iteration=1
label_index=0
max_feature_idx=25
objective=regression
feature_names=Column_0 Column_1 Column_2 Column_3 Column_4 Column_5 Column_6 Column_7 Column_8 Column_9 Column_10 Column_11 Column_12 Column_13 Column_14 Column_15 Column_16 Column_17 Column_18 Column_19 Column_20 Column_21 Column_22 Column_23 Column_24 Column_25
feature_infos=[0:1] [0:1] [0:1] [0:1] [0:1] [0:0.99999999999999989] [0:1] [0:1] [0:1.0000000000000002] [0:1] [0:1] [0.1214153561517114:1] [0:0.99999999999999978] [0:1.0000000000000002] [0:1] [0:1] [0:148319.26942725427] [0:1951.5951569797112] [0:0.88218573482831963] [0:113534.60387222443] [0:4.5458093878958739] [0:105421.12182206567] [0:0.74615838690717684] [0:34837.153562723826] [0:114.98469378518494] [0:0.97292171428417007]
tree_sizes=8483 8466 8433 8410 8533 8441 8428 8525 8542 8518 8533 8533 8554 8560 8583 8484 8539 8482 8545 8521 8598 8574 8519 8561 8519 8559 8578 8479 8519 8513 8476 8460 8574 8514 8508 8537 8461 8559 8490 8496 8446 8552 8522 8456 8585 8576 8526 8538 8549 8566 8451 8629 8537 8510 8523 8498 8503 8477 8560 8491 8588 8536 8568 8551 8570 8461 8553 8563 8524 8481 8525 8489 8516 8527 8462 8535 8530 8507 8500 8518 8551 8520 8524 8476 8558 8514 8516 8503 8534 8578 8544 8528 8498 8463 8493 8556 8487 8557 8517 8566 8543 8524 8530 8499 8493 8576 8520 8534 8496 8517 8584 8620 8540 8487 8624 8453 8556 8531 8518 8477 8512 8465 8517 8528 8478 8515 8551 8510 8519 8490 8554 8639 8479 8489 8527 8564 8491 8538 8512 8540 8553 8488 8537 8545 8584 8525 8513 8528 8540 8520 8494 8502 8490 8506 8504 8542 8470 8576 8529 8537 8534 8498 8452 8520 8469 8547 8558 8485 8540 8553 8475 8529 8562 8548 8558 8552 8455 8528 8517 8493 8527 8560 8519 8507 8564 8529 8509 8511 8553 8484 8510 8563 8515 8501 8501 8548 8523 8535 8539 8570 8520 8479 8563 8497 8543 8492 8562

Tree=0
num_leaves=95
num_cat=0
split_feature=24 8 0 18 0 22 22 15 0 1 18 0 0 4 1 22 0 8 4 0 1 22 8 0 0 1 22 22 20 0 0 1 0 20 8 0 1 1 18 8 10 10 22 18 1 15 5 0 19 5 10 1 8 10 24 15 18 15 5 1 1 0 18 1 1 8 8 1 22 22 8 18 19 18 5 8 18 19 10 22 5 8 22 18 8 22 15 22 1 1 5 5 5 5
split_gain=16186.1 1594.77 1835.22 2953.59 1529.93 1451.05 1262.9 1145.16 752.479 688.745 515.868 865.182 341.275 485.78 340.73 412.12 334.401 360.552 345.57 326.167 314.383 314.335 297.566 294.368 500.036 277.597 527.093 277.264 269.107 340.238 241.29 213.31 205.625 190.475 154.183 151.278 144.647 142.497 183.869 135.265 134.742 154.85 127.266 125.675 124.572 116.162 107.301 105.628 101.751 192.513 101.335 95.68 95.0013 86.8637 91.3611 264.567 88.5919 83.3465 82.7077 156.01 139.712 126.279 141.062 81.1034 79.162 126.586 107.496 79.0044 75.7196 74.4339 74.3877 89.3719 87.382 73.8583 73.3001 164.716 72.266 71.3745 68.8313 68.4551 66.5701 120.507 107.882 66.509 138.513 65.1866 61.7555 60.9587 60.8108 60.253 60.0081 59.1603 58.5523 57.3617
threshold=1.0000000180025095e-35 0.64323411441840839 0.68750000000000011 0.07762705742966651 0.14583333333333334 0.076886071962743052 0.40369230781559579 0.58333333333333337 0.43750000000000006 0.50000000000000011 0.064741527243255839 0.31250000000000006 0.43750000000000006 0.93650793650793662 0.50000000000000011 0.25398768624995 0.72916666666666674 0.10175216381676169 0.93650793650793662 0.72916666666666674 0.50000000000000011 0.0023325971760271048 0.034093308000844424 1.0000000180025095e-35 0.062500000000000014 0.50000000000000011 0.22509358467600024 0.13088999129955295 0.16183925490835518 0.85416666666666674 0.062500000000000014 0.50000000000000011 0.68750000000000011 0.66606409853083992 0.10048553937090988 0.68750000000000011 0.50000000000000011 0.83333333333333337 0.34320907059597194 0.15157272535359936 0.7543103448275863 0.84913793103448287 0.13607019621528818 0.0091723816246411793 0.50000000000000011 0.91666666666666674 0.22889329041842044 0.35416666666666669 0.78191977193014384 0.12738301559792031 0.78879310344827591 0.83333333333333337 0.0088452607135317742 0.80603448275862077 0.013238379997038469 0.75000000000000011 0.062177776536350489 0.75000000000000011 0.061277543946521427 0.50000000000000011 0.83333333333333337 0.68750000000000011 0.11024632732602056 0.83333333333333337 1.0000000180025095e-35 0.22123706987544864 0.16339455351488288 0.83333333333333337 0.016847602785348366 0.3467710241893282 0.38674266413341785 0.086728513121191578 5.6103552959546947 0.11024632732602056 0.021453330032186187 0.010618534937724302 0.26274568490067302 6.9658971362430195 0.48706896551724138 0.1072274451819331 0.19522158950235211 0.15875026388009292 0.096811049771633906 0.10567555038140873 0.07177538526493564 0.12276443472554129 0.91666666666666674 0.33784694597835541 0.50000000000000011 1.0000000180025095e-35 0.071923743500866569 0.26343154246100525 0.01811091854419411 0.12812577370636299
decision_type=2 2 2 2 2 2 2 2 2 2 2 2 2 2 2 2 2 2 2 2 2 2 2 2 2 2 2 2 2 2 2 2 2 2 2 2 2 2 2 2 2 2 2 2 2 2 2 2 2 2 2 2 2 2 2 2 2 2 2 2 2 2 2 2 2 2 2 2 2 2 2 2 2 2 2 2 2 2 2 2 2 2 2 2 2 2 2 2 2 2 2 2 2 2
left_child=-1 4 30 21 23 -5 7 10 25 22 12 14 44 19 15 -12 17 18 27 39 43 -4 78 -2 42 26 45 50 52 34 85 40 -19 58 -30 63 77 -16 -39 -14 -15 74 64 -20 -6 83 69 -24 49 -11 -10 -50 -18 54 55 -34 -56 -55 59 76 61 -60 70 -35 65 66 -25 91 -26 -28 90 -72 -73 -59 75 -42 -13 -21 -8 -69 81 -58 86 -9 -85 -3 -82 -17 -54 -89 -63 -27 -40 -41
right_child=1 2 3 5 6 -7 9 8 16 48 11 33 13 31 37 87 28 32 20 36 -22 -23 47 24 68 67 46 -29 29 -31 -32 -33 53 35 -36 -37 -38 38 92 93 41 -43 -44 -45 -46 -47 -48 -49 51 -51 -52 -53 88 57 56 -57 80 73 60 -61 -62 62 -64 -65 -66 -67 -68 79 -70 -71 71 72 -74 -75 -76 -77 -78 -79 -80 -81 82 -83 -84 84 -86 -87 -88 89 -90 -91 -92 -93 -94 -95
leaf_value=-0.037276998791966921 0.039031150939550778 0.079734253828002061 0.28843311739044586 0.76486192029470257 -0.0034233288568436015 0.22083967826634515 0.092941065648909582 0.024782773335314288 0.047272916145308867 0.055087250907269805 0.013698677190218196 0.050794060299945952 0.0095235051376044502 0.048537960772486739 -0.011015744776799679 0.077853767127263884 0.088431720018100179 0.050408857642713183 0.32029014069509865 0.1135786782347066 0.023487800129187407 0.043189941685992973 0.28495230444131209 0.088609739371224835 0.017392954829024313 -0.0046084753891505832 0.099139375355716083 0.17364042728824802 0.35977527012141958 0.047494476963542885 0.0131270090814881 0.018233472662164033 0.058542673671006365 0.11578334767687724 0.1310297916103017 0.0075032957255354296 -0.026327164912371213 0.013965808582032814 0.23285806880339377 0.069322808029493949 0.13202917482624535 0.039163388524865589 0.20022732768466006 0.15815124427811747 -0.019811081079358934 0.011079512207652291 0.022669081927559134 0.15626789826992912 0.0064009919462732524 0.2209239233140354 0.015768791695408752 0.11185254111993305 0.017905017978702961 0.09138409757705554 0.063992776403620166 0.32392763920314288 0.13544709767730601 0.21626193601304536 0.012464808703244797 0.014435048556844068 0.11598294252550082 0.1715127650671005 0.032992050655727224 0.047164174591312419 0.043989211018874382 0.073180354948218743 0.14540026079117541 0.0085278933980983684 0.050309573300651909 0.17902508583603707 0.038570392166798452 0.097555097154289921 0.26228505223266563 0.081289530698224727 0.070613744576868712 0.28852439447171219 0.14279445000525437 0.0023656277724625149 0.18113495950128278 0.051908632213918192 0.26596412279885595 0.050617034656371018 0.048643485966958576 0.11478748968597235 0.035614854132549612 0.16287134553678526 0.12528178446746757 0.21415204045142755 -0.014643920097451803 0.099465771115176557 0.062384974265605311 0.045945428919634129 0.085771084950626533 0.029176150307778276
leaf_weight=72978 11609 289 64 132 15293 78 303 6058 2039 420 9335 1042 7417 237 9098 399 139 941 61 59 178 285 219 629 1136 5327 675 142 52 679 763 413 89 695 68 226 3349 727 50 413 162 110 113 221 6658 5559 157 90 550 84 2045 102 1281 151 721 65 367 184 1035 2824 276 53 1541 229 306 1124 709 1141 1816 141 64 62 67 52 55 115 93 2634 125 534 83 308 57 255 1656 140 50 78 1040 111 1023 242 59 2574
leaf_count=72978 11609 289 64 132 15293 78 303 6058 2039 420 9335 1042 7417 237 9098 399 139 941 61 59 178 285 219 629 1136 5327 675 142 52 679 763 413 89 695 68 226 3349 727 50 413 162 110 113 221 6658 5559 157 90 550 84 2045 102 1281 151 721 65 367 184 1035 2824 276 53 1541 229 306 1124 709 1141 1816 141 64 62 67 52 55 115 93 2634 125 534 83 308 57 255 1656 140 50 78 1040 111 1023 242 59 2574
internal_value=3.93491e-09 0.0222219 0.116972 0.266469 0.020847 0.562797 0.0162185 0.0147067 0.0300877 0.097145 0.00735941 0.0174652 -8.43872e-05 0.010316 0.00570684 0.0188134 0.0513845 0.0626814 0.0452334 0.00602749 0.127543 0.0881629 0.172689 0.0482398 0.0665671 0.0193016 0.0272874 0.0362739 0.0245062 0.0749275 0.0468633 0.0749036 0.0893313 0.0427617 0.230153 0.0808398 -0.0124524 -0.00738521 0.032125 0.0167595 0.109373 0.141993 0.0962046 0.193224 -0.00839393 0.0221743 0.0983768 0.247471 0.0489825 0.0827267 0.0314977 0.022898 0.00812954 0.106551 0.0970203 0.170556 0.08988 0.149401 0.0373422 0.0270199 0.0472587 0.0423256 0.0533241 0.0987771 0.091958 0.09792 0.118703 0.00331571 0.0376425 0.112943 0.0780142 0.135181 0.183113 0.186522 0.176063 0.197 0.0583324 0.00480216 0.118699 0.0223579 0.111458 0.0967395 0.163746 0.0299138 0.0461795 0.106865 0.213076 0.100014 0.0033204 0.146797 0.0677602 -0.00241166 0.153242 0.0347271
internal_weight=0 122420 1751 559 120669 210 103227 101334 32758 1893 68576 29087 39489 17538 19857 9923 11013 7754 4686 16446 460 349 737 17442 5833 21745 14501 4226 3259 799 1192 1092 3068 9230 120 1150 6042 9934 836 10404 679 442 2881 282 21951 13528 973 309 1156 504 4084 652 2460 2127 1740 154 1586 387 8080 3959 4121 3845 2810 924 2768 2462 1338 7244 2952 816 1269 193 129 236 332 277 1135 2693 428 1675 865 675 190 7969 1911 429 133 588 2321 189 1076 5569 109 2987
internal_count=195398 122420 1751 559 120669 210 103227 101334 32758 1893 68576 29087 39489 17538 19857 9923 11013 7754 4686 16446 460 349 737 17442 5833 21745 14501 4226 3259 799 1192 1092 3068 9230 120 1150 6042 9934 836 10404 679 442 2881 282 21951 13528 973 309 1156 504 4084 652 2460 2127 1740 154 1586 387 8080 3959 4121 3845 2810 924 2768 2462 1338 7244 2952 816 1269 193 129 236 332 277 1135 2693 428 1675 865 675 190 7969 1911 429 133 588 2321 189 1076 5569 109 2987
is_linear=0
shrinkage=1


Tree=1
num_leaves=95
num_cat=0
split_feature=21 9 19 18 1 20 6 12 18 18 1 9 4 12 18 18 7 1 25 19 25 24 18 9 19 20 18 4 25 18 9 9 18 1 11 21 19 9 21 21 9 21 18 25 4 9 19 21 18 12 25 12 12 9 25 12 12 11 9 18 7 12 25 21 21 4 20 4 21 9 9 9 4 9 18 12 19 25 11 21 9 4 9 4 11 11 18 9 11 12 25 25 12 12
split_gain=13110.7 1281.64 1492.1 2614.79 1012.92 2141.69 531.529 652.638 361.651 328.156 268.6 257.993 332.1 263.561 247.637 343.717 263.273 227.948 341.961 219.691 240.02 207.595 207.485 185.281 171.234 155.464 178.596 133.579 125.896 118.331 112.668 102.812 96.6694 92.4157 87.8285 92.2972 87.8136 79.4742 76.4919 76.1288 68.1513 63.4542 61.0428 60.0636 58.9972 61.3785 69.4442 58.1604 58.07 56.3816 56.0272 53.8582 53.5153 52.4256 250.288 51.7573 50.7598 50.0576 48.9824 48.0416 166.676 66.6619 47.0979 54.8013 46.9154 69.1311 45.3581 44.9477 44.5741 71.8803 44.518 52.2144 52.2425 72.2746 43.2772 55.0847 42.7722 47.8561 42.1577 41.2301 55.7735 59.0608 141.824 61.611 43.992 73.8228 40.1062 39.5313 39.4188 38.924 38.3858 37.6486 36.7346 36.2818
threshold=1.0000000180025095e-35 0.96052631578947378 5.1820669088468359 0.07762705742966651 0.50000000000000011 0.74814256725540706 0.50000000000000011 0.7098997493734337 0.085886210395525214 0.46993029539891501 0.83333333333333337 0.48684210526315791 0.93650793650793662 0.42418546365914789 0.1353756526341241 0.062177776536350489 0.75000000000000011 0.83333333333333337 0.049834513537873056 5.4987632729903693 0.10011339060561386 3.6601175254801204 0.0066195827318727826 0.85526315789473695 109.55106579678593 1.1469461741246139 0.41523478403185954 0.17460317460317462 0.26761930893582025 0.30253671465997894 0.82894736842105277 0.56578947368421062 0.054912582837024874 0.83333333333333337 0.6162118408880668 3.8994885975697282 6.8030310461860042 0.61842105263157898 13.028270856486722 3.8441907200181262 0.43421052631578955 1.321813056945125 0.036501081075789012 0.28659582288566515 0.74603174603174616 0.17105263157894737 27.66576989797603 13.67408398242975 0.03844045006871092 0.40413533834586474 0.47759759926260142 0.64849624060150379 0.62719298245614041 0.22368421052631582 0.041410916132597439 0.33270676691729328 0.73872180451127822 0.57157724329324722 0.48684210526315791 0.014411248953147363 0.75000000000000011 0.67230576441102763 0.0056131193146043692 39.338935593316172 0.95653025849396267 0.68253968253968267 0.48433864253139619 0.36507936507936511 1.321813056945125 0.38157894736842107 0.51315789473684226 0.64473684210526327 0.30158730158730163 0.5921052631578948 0.12965155482314497 0.7399749373433584 1.5388756728731325 0.13217100741101984 0.58591581868640163 6.2382679645590313 0.56578947368421062 0.49206349206349209 0.69736842105263164 0.55555555555555569 0.57088344125809454 0.54914431082331194 0.21134301781140066 0.30263157894736847 0.53388066604995388 0.75250626566416046 0.008680308445120832 0.0080501061391869636 0.69862155388471192 0.47055137844611533
decision_type=2 2 2 2 2 2 2 2 2 2 2 2 2 2 2 2 2 2 2 2 2 2 2 2 2 2 2 2 2 2 2 2 2 2 2 2 2 2 2 2 2 2 2 2 2 2 2 2 2 2 2 2 2 2 2 2 2 2 2 2 2 2 2 2 2 2 2 2 2 2 2 2 2 2 2 2 2 2 2 2 2 2 2 2 2 2 2 2 2 2 2 2 2 2
left_child=-1 4 -3 24 5 8 17 9 11 33 14 12 32 38 15 22 27 43 44 -18 -21 -20 23 78 42 26 31 -17 49 30 37 68 55 50 35 -13 57 41 -14 -34 -41 66 -4 53 48 -46 -47 -15 87 -27 90 -11 -37 54 -6 -2 -39 -12 67 60 61 -54 63 -40 65 88 -10 -29 93 -70 -24 72 73 -72 75 -59 77 -43 -9 80 -60 -82 -83 -84 85 -81 -32 -19 -28 -76 -8 -63 -31 -7
right_child=1 2 3 -5 6 25 7 10 29 51 36 34 13 47 -16 16 19 18 21 20 -22 -23 70 -25 -26 28 64 58 -30 92 86 -33 39 -35 -36 52 -38 56 62 40 -42 76 -44 -45 45 46 -48 -49 -50 -51 -52 -53 59 -55 -56 -57 -58 74 79 -61 -62 91 -64 -65 -66 -67 -68 -69 69 -71 71 -73 -74 -75 89 -77 -78 -79 -80 84 81 82 83 -85 -86 -87 -88 -89 -90 -91 -92 -93 -94 -95
leaf_value=-0.033549301420731793 0.036592021910563016 0.0073100453572855764 -0.02595399343348169 0.66454689249278998 -0.014055148636602175 0.12905846806181384 -0.029719356284856249 0.052817752966676013 0.021981031124465394 0.21261730174385551 0.075261488740329632 0.015902081788428359 0.065991301667422828 0.017505538305511516 0.002748239542520669 0.15872039437839172 0.063293894470855594 -0.0086928355962010134 0.050813405670243963 0.11072747595083546 0.36563354747055415 0.20122543067908755 -0.0031826015860005694 0.14987518961854915 0.24854056273322259 0.20157329947687685 0.11034167693611585 0.081927001368983288 0.19949718580949596 0.13443637817259876 0.062648802828170008 0.014246163168668294 0.0084314731374786605 0.030728154125005094 0.017093578485674384 0.027071915973898283 0.053884578724731708 0.018987026830332689 0.057042326082785921 0.044302705918466696 0.013823468714663435 0.17452602437606046 0.098399482722635628 0.033106518292037125 0.010170392759274999 0.039026648345366052 0.14931468501071485 0.051416956540338232 0.0096633684471286938 0.10906569880304032 0.061371764314616654 0.090961554531588579 0.037943619944155217 -0.0095129292967268287 0.15811404878083893 0.005676943701671584 0.03451893292528177 0.1094694378035557 0.079698855598031693 0.040195505379866048 0.011676004571609597 0.21742004199271522 0.21859287932844987 0.19219810354833802 0.22161866668510044 0.056281891388832321 0.048387772127127394 0.0025322632921085846 0.17756587167362303 0.065886296556552051 0.17706294248811902 0.0098278161949063164 0.029203395049051992 0.027494574290301117 0.14382498747675629 0.2331678487150283 0.040988316745734887 0.047546270895014765 -0.0057739539211299146 0.072280125967834313 0.014939753101492693 0.029039709882218708 0.053715836459940131 0.18354022450950169 0.059931673433208855 0.23094333819725424 0.1330288061772594 0.039523390840589895 0.21904948575396299 0.050293919190880845 -0.0047773444674613095 0.11972118689629592 0.067430552828384366 0.075707611869161029
leaf_weight=72978 556 330 77 127 387 151 675 746 3480 69 333 2624 117 974 2554 123 125 3803 914 71 77 102 1140 199 51 76 53 92 323 100 212 189 2522 755 5210 3487 863 5797 60 1807 1235 51 81 353 636 262 73 1052 4981 495 122 77 50 16724 108 20824 3303 72 504 5907 206 82 96 60 103 68 800 317 142 97 60 1905 1017 70 90 72 8392 71 147 69 514 387 55 109 163 51 131 178 90 88 7185 76 450 818
leaf_count=72978 556 330 77 127 387 151 675 746 3480 69 333 2624 117 974 2554 123 125 3803 914 71 77 102 1140 199 51 76 53 92 323 100 212 189 2522 755 5210 3487 863 5797 60 1807 1235 51 81 353 636 262 73 1052 4981 495 122 77 50 16724 108 20824 3303 72 504 5907 206 82 96 60 103 68 800 317 142 97 60 1905 1017 70 90 72 8392 71 147 69 514 387 55 109 163 51 131 178 90 88 7185 76 450 818
internal_value=0 0.0199997 0.158344 0.306681 0.0192429 0.0267818 0.00820751 0.020324 0.0234561 -0.000227855 0.035521 0.0184387 0.0126866 0.0486653 0.0298342 0.0385456 0.0678848 -0.000669659 0.0106559 0.160905 0.243348 0.0659138 0.0237927 0.0626176 0.0892223 0.115806 0.0981478 0.0572327 0.149603 0.0337927 0.0326594 0.0828307 0.00953656 -0.00271245 0.0279928 0.0325604 0.0748383 0.0317685 0.131112 0.0212781 0.0319287 0.0368497 0.0377968 -0.00772653 0.00500381 0.0284174 0.0630596 0.035114 0.00246703 0.121378 -0.00587552 0.148456 0.0370172 -0.00856364 0.023509 0.00648091 0.0246246 0.102446 0.0517117 0.0425035 0.075434 0.138579 0.166386 0.12462 0.166294 0.139288 0.0269169 0.0203912 0.0935612 0.13224 0.0136789 0.0199771 0.0368337 0.0965261 0.130559 0.171319 0.0418429 0.100628 0.0431728 0.0586286 0.0522918 0.0393217 0.0620665 0.140002 0.0937608 0.139712 0.0895286 -0.00653697 0.178759 0.0975849 -0.00691931 0.170426 0.0796134 0.0840213
internal_weight=0 122420 666 336 121754 72337 49417 20896 69732 8883 12013 46945 29303 2359 10495 7941 2657 28521 10949 273 148 1016 5284 1092 209 2605 1711 2384 894 22787 22237 1397 26944 8737 17642 12432 1518 21894 333 5564 3042 12794 158 17572 9933 971 335 2026 8962 571 7982 146 9808 17219 495 21380 9100 655 2261 6321 414 208 216 120 314 211 4280 409 1208 239 4192 3052 1147 130 322 144 8514 122 893 1852 1569 1065 551 164 283 120 343 3981 143 178 7860 158 550 969
internal_count=195398 122420 666 336 121754 72337 49417 20896 69732 8883 12013 46945 29303 2359 10495 7941 2657 28521 10949 273 148 1016 5284 1092 209 2605 1711 2384 894 22787 22237 1397 26944 8737 17642 12432 1518 21894 333 5564 3042 12794 158 17572 9933 971 335 2026 8962 571 7982 146 9808 17219 495 21380 9100 655 2261 6321 414 208 216 120 314 211 4280 409 1208 239 4192 3052 1147 130 322 144 8514 122 893 1852 1569 1065 551 164 283 120 343 3981 143 178 7860 158 550 969
is_linear=0
shrinkage=0.1


Tree=2
num_leaves=95
num_cat=0
split_feature=21 17 8 17 19 0 0 19 17 5 1 4 20 1 8 17 17 5 0 1 17 19 1 1 0 0 17 8 20 5 17 8 19 1 0 21 10 19 5 17 8 5 17 8 19 10 4 5 5 19 1 8 21 17 8 4 4 21 21 14 14 17 8 10 5 20 4 5 5 19 5 21 5 14 17 0 19 0 1 17 19 10 21 5 10 3 1 21 19 19 10 5 5 5
split_gain=10619.7 2386.17 1054.85 1291.47 2158.17 760.412 1045.98 656.525 604.163 457.108 523.801 507.364 366.823 483.767 316.277 366.564 281.198 302.606 267.693 249.892 224.989 200.441 199.746 177.442 218.601 374.88 153.776 149.133 145.947 143.775 140.177 191.456 136.363 133.943 124.519 117.079 146.317 108.458 107.695 106.679 101.269 153.144 106.856 100.312 100.072 91.3563 84.7599 136.25 82.5407 82.5175 81.3361 116.222 79.7211 159.888 79.0469 76.1781 76.1577 76.7307 75.1343 74.521 73.463 71.893 71.2115 70.242 70.5585 69.2255 69.1313 65.4311 64.834 95.2709 64.2294 64.8732 62.2399 61.1336 60.6792 66.3534 237.308 60.594 60.1275 59.013 102.216 56.7207 56.3522 54.9857 54.5958 96.0056 53.6273 75.3304 53.0533 52.3548 51.4329 51.3151 51.202 49.8821
threshold=1.0000000180025095e-35 2.2163635668271984 0.73823094785729382 0.14705697064559115 7.1329918932085308 0.64583333333333337 0.72916666666666674 1.6958462496819433 0.95542585482338216 0.083312701163654371 0.50000000000000011 0.93650793650793662 0.98450947797445387 0.50000000000000011 0.64323411441840839 0.11136258876719181 1.199032981117613 0.13332508046546179 0.062500000000000014 0.50000000000000011 0.29288230272403165 9.323398755661449 0.50000000000000011 0.50000000000000011 1.0000000180025095e-35 0.062500000000000014 6.3958839823930012 0.00082330588980367343 0.45186180741797594 0.17417677642980942 0.14705697064559115 0.15495039054253751 13.871592268996165 0.83333333333333337 0.10416666666666667 13.028270856486722 0.78879310344827591 2.7096490037380332 0.35751423619707856 1.0197502789792032 0.0060586869326578014 0.021453330032186187 0.17147512992215516 0.011294067975511931 7.5944015976173427 0.91810344827586221 0.7142857142857143 0.17145333003218624 0.0055583065115127504 3.768525288281761 0.83333333333333337 0.30610090774751963 75.59158394986251 0.023460063152269724 0.18492716909436357 0.20634920634920637 0.33333333333333337 2.745402172853304 0.19985801254963034 0.62500000000000011 0.62500000000000011 0.013915014682010424 0.85011610724086994 0.70258620689655182 0.01811091854419411 0.10593239751196336 0.52380952380952384 0.031567219608814069 0.029338945283486014 2.2138439351087613 0.1697202277791533 102.60465970286457 0.20462985887595944 0.37500000000000006 3.0369023180219865 0.27083333333333337 43.078172128552197 0.81250000000000011 0.83333333333333337 0.10468765944744533 9.323398755661449 0.80603448275862077 1.5642609701140799 0.013802921515226543 0.69396551724137945 0.30000000000000004 0.83333333333333337 23.678093126915144 1.1904598709667378 11.681298382188993 0.64224137931034486 0.12911611785095325 0.26343154246100525 0.17145333003218624
decision_type=2 2 2 2 2 2 2 2 2 2 2 2 2 2 2 2 2 2 2 2 2 2 2 2 2 2 2 2 2 2 2 2 2 2 2 2 2 2 2 2 2 2 2 2 2 2 2 2 2 2 2 2 2 2 2 2 2 2 2 2 2 2 2 2 2 2 2 2 2 2 2 2 2 2 2 2 2 2 2 2 2 2 2 2 2 2 2 2 2 2 2 2 2 2
left_child=-1 2 5 4 60 8 9 26 19 10 11 49 18 39 20 61 33 67 32 28 21 30 43 24 -9 37 50 -20 34 82 38 -32 -10 -15 -2 -13 40 62 56 -14 -37 42 -42 -8 -36 46 74 48 -48 -7 51 58 53 -23 -30 -6 91 -58 -3 70 -4 -16 -26 64 78 -29 84 -18 69 88 -54 -72 93 -73 -27 76 -76 -47 -12 80 -51 -59 90 -52 -60 -86 -24 -88 -67 -44 -28 -11 -21 -39
right_child=1 7 3 -5 55 6 22 23 12 14 63 35 13 16 15 -17 17 -19 27 92 -22 52 86 -25 25 45 29 65 54 -31 31 -33 -34 -35 44 36 -38 72 -40 -41 41 -43 89 -45 -46 77 47 -49 -50 79 83 -53 59 -55 -56 -57 57 81 66 -61 -62 -63 -64 -65 -66 68 -68 -69 -70 -71 71 73 -74 -75 75 -77 -78 -79 -80 -81 -82 -83 -84 -85 85 -87 87 -89 -90 -91 -92 -93 -94 -95
leaf_value=-0.030194373522940295 0.032450405678524925 0.030385453563750438 0.53846428578808192 0.0062048170259816852 0.027346940711140633 0.12706263558845027 0.051700291937581966 0.032002701450359876 0.014733832237401212 0.17421632030025302 -0.014747227074641904 0.068106585579741863 0.068344736024737368 -0.0046321176524996115 0.18468690240383148 0.41537624818086627 0.02841544077063432 0.29894700766674109 0.14439846084562732 -0.01108414921229995 0.017074586869750302 0.0034677394887543574 -0.025058526926016862 0.01102675826170376 0.18371257083355125 0.020359115312181618 0.11932813661349487 -0.00042915155147363668 0.045059657914774669 0.2952278731646491 0.11148048013701504 0.020876048377399283 0.095284463362405439 0.14318293621833089 0.0073101248051312172 0.1035536955974929 0.046259450712191168 0.076487588220334149 0.23187642301721823 0.23242090782223768 0.34125503758066578 0.1087585939354794 0.26187276181338703 0.0032293145213330441 -0.0052202527300655235 0.060314025176764541 0.17012137075675265 0.16561651514748521 0.039014550522489228 0.13761739369061318 0.033099321098383684 0.021734701070553541 0.056661219816695543 0.052422864796128121 0.0048461702105844643 0.14943053770972334 0.16346981345604247 0.063656028898634032 0.080353191156915318 0.0083138642067166237 0.69443492945925955 0.027686798354344712 0.072692626393560708 0.0065234857452900448 0.019995419486239223 0.064180542781706082 0.13469476759977858 0.11452207903123715 0.012856116808882904 0.027022197542168749 0.20859357582151217 0.057823633327580143 0.064745070515856484 0.16450415847911723 0.053006958179971808 0.034906103375502512 0.27587269340269266 0.19375492366592562 0.10479921220734133 0.02443371093459594 0.039206392651562477 0.12499953255083206 0.058555673751032961 0.12582416880544123 0.2323123474024992 0.076982948234294885 -0.0066225395000961392 0.10970357661614852 0.18504778797738256 0.12493493756595649 0.21064473036313794 0.096512330826480197 0.010230276458925922 0.12215177649015017
leaf_weight=72978 1318 161 63 376 115 99 485 10936 319 168 55 194 50 721 50 50 177 70 85 19818 1647 989 4046 2070 172 1849 310 3521 1301 51 350 699 616 67 12516 111 93 512 58 191 95 93 59 3568 12987 74 53 128 511 134 516 242 321 2050 783 92 104 927 1007 146 58 70 87 6873 3525 92 463 176 8055 1019 66 149 1394 84 1075 3411 50 63 179 1750 497 180 118 73 69 94 307 68 60 53 77 172 1195 449
leaf_count=72978 1318 161 63 376 115 99 485 10936 319 168 55 194 50 721 50 50 177 70 85 19818 1647 989 4046 2070 172 1849 310 3521 1301 51 350 699 616 67 12516 111 93 512 58 191 95 93 59 3568 12987 74 53 128 511 134 516 242 321 2050 783 92 104 927 1007 146 58 70 87 6873 3525 92 463 176 8055 1019 66 149 1394 84 1075 3411 50 63 179 1750 497 180 118 73 69 94 307 68 60 53 77 172 1195 449
internal_value=0 0.0179997 0.0107472 0.132707 0.277723 0.00985007 0.022863 0.0448756 0.00374406 0.0343209 0.0231823 0.0588042 0.0211862 0.0689909 0.0528986 0.18789 0.0432413 0.109011 0.0161442 -0.00157369 0.050069 0.0584771 -0.00700534 0.0389462 0.0417296 0.0525531 0.0874376 0.0123801 0.00445891 0.135211 0.0795477 0.0511063 0.0678025 0.00793591 0.0024782 0.134119 0.159529 0.0849982 0.0980902 0.19838 0.185159 0.215353 0.263243 0.00902957 0.000929228 0.0407966 0.0392308 0.0724737 0.0513349 0.0376067 0.0773187 0.0867864 0.0437582 0.0364911 0.0299507 0.0816063 0.0930873 0.0813459 0.0955615 0.0725892 0.613227 0.0931035 0.14642 0.0125346 0.0235254 0.0114998 0.101987 0.0713468 0.0160524 0.0380385 0.087725 0.121074 0.0782431 0.0962836 0.035628 0.041852 0.0629121 0.121677 0.0767007 0.0338871 0.0601051 0.0736306 0.119051 0.0445915 0.0890441 0.142736 -0.0217055 0.0144713 0.111891 0.197072 0.137497 0.134907 -0.00987201 0.0978229
internal_weight=0 122420 96405 704 328 95701 30564 26015 65137 22090 13810 3178 15219 1452 8280 170 1211 423 13767 49918 8110 6463 8474 22834 20764 9828 3181 12832 28905 556 2658 1049 935 788 26821 698 504 2614 1609 241 411 300 207 4053 25503 7214 7077 692 564 2480 2625 2036 3805 3039 2084 207 1551 1211 1794 766 121 120 259 10632 3759 12747 1633 353 9226 1171 620 299 2355 233 6385 4536 1125 137 234 2381 631 1107 505 589 1170 163 4421 375 152 112 387 340 21013 961
internal_count=195398 122420 96405 704 328 95701 30564 26015 65137 22090 13810 3178 15219 1452 8280 170 1211 423 13767 49918 8110 6463 8474 22834 20764 9828 3181 12832 28905 556 2658 1049 935 788 26821 698 504 2614 1609 241 411 300 207 4053 25503 7214 7077 692 564 2480 2625 2036 3805 3039 2084 207 1551 1211 1794 766 121 120 259 10632 3759 12747 1633 353 9226 1171 620 299 2355 233 6385 4536 1125 137 234 2381 631 1107 505 589 1170 163 4421 375 152 112 387 340 21013 961
is_linear=0
shrinkage=0.1


Tree=3
num_leaves=95
num_cat=0
split_feature=24 17 9 17 2 15 2 2 17 8 17 8 2 4 15 9 15 17 11 8 4 17 20 8 23 8 23 8 12 23 3 17 2 8 17 4 2 3 2 24 9 17 15 2 15 24 9 15 4 2 12 17 9 2 2 17 17 9 23 17 17 17 15 17 9 4 24 17 17 23 24 8 9 9 17 8 4 12 8 17 11 17 23 24 4 12 11 12 12 8 2 11 12 17
split_gain=8601.95 1936.61 936.487 1136.42 1810.8 762.943 634.897 390.451 252.142 286.765 248.133 249.618 339.307 201.935 175.288 160.738 141.711 427.903 131.01 116.85 150.126 122.753 115.096 111.588 111.429 209.435 110.43 192.943 105.178 101.543 100.855 94.8369 374.4 181.683 91.332 88.76 87.5163 86.5603 84.4689 82.2443 80.5169 77.5079 77.1086 76.5812 75.695 65.7035 64.3756 62.4842 68.914 61.0755 58.4021 63.8799 128.547 57.8778 57.2695 56.8224 55.6532 55.5157 54.2159 55.1889 51.2393 80.7574 57.9967 49.2262 48.6616 48.2582 105.175 47.542 71.7704 47.478 47.1907 46.3454 44.6121 44.3797 44.0388 43.1027 66.2024 42.0676 59.3569 41.5867 51.8726 41.0987 46.9745 40.3639 40.0517 51.4116 37.8668 37.3476 37.1309 50.645 36.7142 36.5115 36.4609 80.6452
threshold=1.0000000180025095e-35 2.4082167545483966 0.96052631578947378 0.14705697064559115 0.11216163068912266 0.58333333333333337 0.36524407790356089 0.7350001395735033 1.199032981117613 0.084019421574836425 0.14985225558749435 0.09415241714165086 0.082321591109653508 0.97619047619047628 0.91666666666666674 0.17105263157894737 0.75000000000000011 0.03686906848670541 0.63771970397779854 0.10048553937090988 0.97619047619047628 0.14414398894071137 0.0091400306758527752 0.61367954401519964 13.243255179230792 0.35592146928435731 0.50365809969955866 0.15495039054253751 0.6021303258145364 0.037618932756312597 0.50000000000000011 0.18346936269462891 0.068750201356980498 0.63478995144606298 0.0076025725607794829 0.4285714285714286 0.59813938734316807 1.0000000180025095e-35 0.13603667497915756 0.15593341791553203 0.69736842105263164 0.14985225558749435 0.41666666666666669 0.060625550579516373 0.75000000000000011 5.0094401416542782 0.61842105263157898 0.25000000000000006 0.87301587301587313 0.47771871642493929 0.71365914786967422 0.0045812939678537149 0.90789473684210531 0.15174787132455919 0.033891172082834334 0.98571812802525616 10.193286878439372 0.77631578947368429 3.2488440514302317 0.1314288737178167 4.6983213772766872 6.1142475047708524 0.75000000000000011 1.3788416498473934 0.61842105263157898 0.52380952380952384 2.707504920232124 0.023460063152269724 0.065798359828119934 1.6415430920227767 0.089876289429188586 0.11399620012666248 0.61842105263157898 0.17105263157894737 0.98571812802525616 0.0036098796706776448 0.26984126984126988 0.75 0.73823094785729382 0.85249436293312941 0.46958834412580958 1.0646764872347254 0.14937713326362945 0.11286186364068358 0.68253968253968267 0.51817042606516295 0.57574005550416296 0.73621553884711777 0.77631578947368418 0.13848427274646405 0.084509779633140408 0.60672987974098069 0.41917293233082714 0.38659623497997581
decision_type=2 2 2 2 2 2 2 2 2 2 2 2 2 2 2 2 2 2 2 2 2 2 2 2 2 2 2 2 2 2 2 2 2 2 2 2 2 2 2 2 2 2 2 2 2 2 2 2 2 2 2 2 2 2 2 2 2 2 2 2 2 2 2 2 2 2 2 2 2 2 2 2 2 2 2 2 2 2 2 2 2 2 2 2 2 2 2 2 2 2 2 2 2 2
left_child=-1 2 5 4 22 7 18 19 -9 -10 11 13 16 84 36 56 67 30 23 20 29 28 -4 24 42 -26 27 37 73 38 87 32 50 41 -32 39 44 -17 -2 -14 -37 57 71 -24 53 47 -44 -39 60 -29 -21 52 -52 79 -15 -16 -8 72 59 -59 62 -62 86 -11 -33 66 -40 -13 -69 -19 -46 -3 83 -22 -31 76 -58 -25 -79 -12 -81 -38 -83 -34 -7 -86 -49 -18 89 -41 -76 -85 93 -23
right_child=1 6 3 -5 -6 10 15 8 9 63 14 12 35 54 55 26 17 69 -20 31 21 92 43 77 25 -27 -28 49 -30 74 34 64 33 -35 -36 40 81 45 65 88 -42 -43 46 -45 70 -47 -48 48 -50 -51 51 -53 -54 -55 -56 -57 75 58 -60 -61 61 -63 -64 -65 -66 -67 -68 68 -70 -71 -72 -73 -74 -75 90 -77 -78 78 -80 80 -82 82 -84 91 85 -87 -88 -89 -90 -91 -92 -93 -94 -95
leaf_value=-0.027174936329160373 0.0010051876641852017 0.015797023018388333 0.21236613503858154 0.00093097788368880045 0.5725687743235035 0.012059617276411862 0.054514428673838405 -0.0063472357964800569 0.065292389031519446 0.20587189004413392 0.0048602849441528109 -0.0071743682715147417 0.28518720391765234 0.17247174610728744 0.0035258577342184836 0.17570232341208733 0.162748605741321 0.10965801571747141 0.020538947348052543 -0.010220922236493683 0.094669867358079141 0.10989845219919846 -0.018848638009765876 0.062265441670565774 0.28067744463109057 0.060177808626094814 0.032844305563087907 0.30696764990894332 0.04430702281421272 -0.0058897230832551722 0.31949627231806521 0.0069414204289374275 0.15435587407089771 0.23349126147211724 0.15998925277823584 0.069897482801923691 0.043371168238888425 0.061111356151087121 0.049126015630738512 0.19862059425635667 0.1781239139721886 0.020475198583427931 0.050824490078920481 0.12494236704172386 0.048675533552811935 0.027239981241602425 0.032980300339142531 0.23190296577587211 0.23027650446824308 0.1776804071282391 0.023210174746537009 0.0057334799040772572 0.17525718844298163 0.029297833834626925 0.054783993254679801 0.020717434184410063 0.1759872677959502 0.18563689419264465 0.02767049766710547 0.059765075838023964 0.020750958616695098 0.13420378093673724 0.080624656860858193 0.33007882973687219 -0.0027523498391204965 0.017366317135534569 0.1988691766683823 0.082125315081627515 0.0091429711430503231 0.019297396530449665 0.026796723656620825 0.033948385868965494 0.029197768986770206 0.22534278124430271 -0.0034034250134781247 0.18877029722855199 0.033302264789780302 0.16863832241262902 0.06273559388229806 0.10877854449467526 0.021112878360615941 0.068998976884340923 0.17646619483518106 0.050120119489052088 0.12862646699017077 0.030193774526969721 0.13553045733975486 0.076665891095947861 0.21221108593246238 0.076770778443411139 0.01710564312718758 0.10979914561446225 0.0064896194392985197 -0.013915314614772798
leaf_weight=72978 961 1844 51 342 119 2939 1278 170 188 76 3741 479 50 108 8110 146 84 63 4646 2180 51 111 92 387 52 251 167 54 295 27590 56 14443 50 53 100 302 368 243 357 51 89 769 4914 62 1242 131 3435 72 53 113 353 3334 66 2269 67 2520 50 95 61 55 124 127 99 55 8073 328 54 210 376 755 4780 5931 516 53 1905 53 93 110 102 72 1079 142 57 550 57 768 94 126 56 103 1611 126 1337 100
leaf_count=72978 961 1844 51 342 119 2939 1278 170 188 76 3741 479 50 108 8110 146 84 63 4646 2180 51 111 92 387 52 251 167 54 295 27590 56 14443 50 53 100 302 368 243 357 51 89 769 4914 62 1242 131 3435 72 53 113 353 3334 66 2269 67 2520 50 95 61 55 124 127 99 55 8073 328 54 210 376 755 4780 5931 516 53 1905 53 93 110 102 72 1079 142 57 550 57 768 94 126 56 103 1611 126 1337 100
internal_value=0 0.0161997 0.00989734 0.128074 0.26228 0.00908749 0.0413003 0.00299218 0.0920175 0.144438 0.0219669 0.0387996 0.0610653 0.022407 0.0172451 0.085268 0.0426621 0.0664692 0.035423 0.00232732 -0.00164472 0.0253342 0.0821611 0.0394845 0.0379385 0.0980193 0.109241 0.119399 0.0747917 -0.00324589 0.156343 0.00682023 0.0160221 0.0505123 0.217248 0.124643 0.0247005 0.104051 0.0205524 0.169924 0.0945321 0.0461478 0.0368095 0.0390412 0.023046 0.0929574 0.0434829 0.10356 0.121688 0.219486 0.00279689 0.0103585 0.0471603 0.0160972 0.127414 0.00760138 0.062124 0.0597351 0.107159 0.139484 0.110534 0.0781554 0.141203 0.25802 0.00346577 0.0459717 0.0688003 0.0161949 0.0352971 0.0262567 0.0313091 0.0296434 0.0516784 0.161263 -0.00454651 0.111741 0.0831921 0.0818798 0.117685 0.00997448 0.0265967 0.0631693 0.099781 0.0676564 0.0175249 0.0369946 0.177331 0.111099 0.14248 0.117124 0.00599365 0.0612437 0.0125864 0.0512189
internal_weight=0 122420 97851 666 324 97185 24569 65966 489 319 31219 6839 2900 3939 24380 2897 2249 1184 21672 65477 34753 1947 205 17026 16427 303 1423 1256 399 32806 366 30724 8208 2275 156 651 13750 1089 1700 260 391 2222 16124 154 13183 943 8349 812 569 167 5933 3753 419 7161 175 10630 1474 1453 211 150 516 251 265 131 22516 739 411 1065 586 818 6022 7775 1242 104 31106 196 143 599 212 4892 1151 567 199 726 3764 825 166 210 210 154 3516 676 1548 211
internal_count=195398 122420 97851 666 324 97185 24569 65966 489 319 31219 6839 2900 3939 24380 2897 2249 1184 21672 65477 34753 1947 205 17026 16427 303 1423 1256 399 32806 366 30724 8208 2275 156 651 13750 1089 1700 260 391 2222 16124 154 13183 943 8349 812 569 167 5933 3753 419 7161 175 10630 1474 1453 211 150 516 251 265 131 22516 739 411 1065 586 818 6022 7775 1242 104 31106 196 143 599 212 4892 1151 567 199 726 3764 825 166 210 210 154 3516 676 1548 211
is_linear=0
shrinkage=0.1


Tree=4
num_leaves=95
num_cat=0
split_feature=21 16 0 25 5 25 17 0 22 22 1 4 1 1 1 18 22 16 0 1 16 5 1 22 1 0 0 22 0 5 12 16 25 4 16 5 25 16 17 0 1 20 25 1 5 5 5 5 16 22 0 16 16 10 5 5 20 25 12 5 25 21 5 20 5 5 16 16 5 4 5 10 21 21 5 25 25 18 4 25 16 16 5 22 21 5 25 16 18 25 18 16 5 16
split_gain=6967.58 1587.61 774.222 953.742 1458.42 826.379 672.811 546.275 488.794 355.374 403.852 284.746 326.005 277.727 238.748 237.69 225.468 224.138 205.883 172.248 157.138 175.11 147.003 142.06 134.046 131.655 375.907 121.668 110.114 109.239 108.76 118.508 104.478 103.082 117.411 95.2574 119.46 87.6526 81.591 77.242 76.7565 143.196 76.3664 75.0446 74.7899 74.4208 70.2451 69.879 143.205 69.5359 75.6118 69.1299 68.2251 68.8178 67.3194 75.2939 65.7063 67.2435 63.84 62.653 66.3684 72.3717 79.3586 60.1087 71.757 58.8947 57.4416 92.4744 56.1691 55.9964 55.5751 62.4834 54.3145 53.4101 52.7129 52.5871 52.3316 52.2042 51.4232 65.1896 50.6133 59.5348 60.7619 50.3369 49.5977 46.6518 115.127 88.8455 80.3395 59.8747 46.5164 120.703 50.4477 45.4243
threshold=1.0000000180025095e-35 0.51687390755698848 0.64583333333333337 0.056544132658789791 0.40455558306511519 0.089345054906945207 0.14414398894071137 0.72916666666666674 0.22509358467600024 0.40369230781559579 0.50000000000000011 0.93650793650793662 0.50000000000000011 0.50000000000000011 0.83333333333333337 0.0061324126088714613 0.33784694597835541 6.6774670738305479 0.062500000000000014 0.50000000000000011 0.8539542937021406 0.086778905669720227 0.83333333333333337 0.052346519614415075 0.50000000000000011 1.0000000180025095e-35 0.062500000000000014 0.128727201788534 0.14583333333333334 0.40455558306511519 0.44423558897243109 3.1519501824432505 0.0037741053205143913 0.7142857142857143 0.16374425896290809 0.025872740777420158 0.01574477788875531 0.037783148832447898 3.0369023180219865 0.85416666666666674 0.83333333333333337 0.76665807318279655 0.1916329157970191 0.50000000000000011 0.20462985887595944 0.0086036147561277549 0.36246595692002975 0.0030081703391928701 1.1299999542501435 0.10129834222821926 0.64583333333333337 1.0149788866853282 0.30964439661662096 0.91810344827586221 0.0012750680861599408 0.001497895518692746 0.15699886285192477 0.075044839201171262 0.7550125313283208 0.2683832631839565 0.088245663511672637 0.52402004775453936 0.069943055211686075 0.44194013603799492 0.18729883634563013 0.033547907897994562 0.16374425896290809 0.21308094361997543 0.006746719485021045 0.39682539682539686 0.0094454072790294639 0.78879310344827591 2.6131651031451786 11.849382643020176 0.041470661054716522 0.052129422277561357 0.01108211259019623 0.21134301781140066 0.33333333333333337 0.069958657838732341 7.4362800778888651 12.0196378796568 0.083312701163654371 0.069910238790286724 7.6242351360096281 0.180614013369646 0.0071807822106399613 0.21308094361997543 0.062177776536350489 0.026880849273196422 0.065602084170908126 0.20258031665204415 0.17912849715276061 0.28692243318001592
decision_type=2 2 2 2 2 2 2 2 2 2 2 2 2 2 2 2 2 2 2 2 2 2 2 2 2 2 2 2 2 2 2 2 2 2 2 2 2 2 2 2 2 2 2 2 2 2 2 2 2 2 2 2 2 2 2 2 2 2 2 2 2 2 2 2 2 2 2 2 2 2 2 2 2 2 2 2 2 2 2 2 2 2 2 2 2 2 2 2 2 2 2 2 2 2
left_child=-1 8 9 7 14 84 -7 11 19 13 -11 15 30 16 17 29 18 43 73 25 21 -12 37 28 45 90 27 44 -20 -4 31 -13 -31 52 -35 54 -37 -10 56 59 42 76 -15 -5 -27 -9 72 48 -30 50 -40 -18 53 85 -17 -56 -36 -58 -46 60 77 62 -62 -25 -65 -43 -63 -68 -33 -23 -57 -72 -19 -3 75 -54 -42 -39 79 -74 -38 -82 -83 -16 -6 87 -87 88 -28 -88 91 -2 -93 -64
right_child=1 2 3 4 5 6 -8 24 22 10 20 12 -14 40 83 35 51 46 23 -21 -22 69 -24 63 -26 26 33 -29 47 32 -32 68 -34 34 38 36 80 39 49 -41 41 65 -44 -45 58 -47 -48 -49 -50 -51 -52 -53 74 -55 55 70 57 -59 -60 -61 61 66 93 64 -66 -67 67 -69 -70 -71 71 -73 78 -75 -76 -77 -78 -79 -80 -81 81 82 -84 -85 -86 86 89 -89 -90 -91 -92 92 -94 -95
leaf_value=-0.024457441364884903 0.012551754710845143 0.023619888348944129 0.04748283860904453 0.1031964673374844 -0.03306734286463605 0.49160298607522446 0.11431004684144522 0.047402166466677692 0.17859772099854099 0.20446888543771891 0.031456053382217561 0.086918531148956077 0.010143439676037334 -0.014824426186234349 0.034806617471304806 0.068139328665032403 0.16503814751978474 0.13352017624786608 0.022900011636144069 0.0065306957038441631 -0.0096841288919165842 0.25359755289554597 0.030541717725902008 0.0085466180023459921 -0.019612784252186551 0.087191178867730645 -0.015607274857585535 0.14240240771523299 0.14701550003869096 0.24085493729276172 0.089056091784387226 0.15944934215826484 0.060207695748124804 0.020999711856330448 0.016325487873245101 0.010418333841187382 0.016096985917615173 0.13122237240585188 0.12199617463334556 -0.010877371356747616 -0.009167863253285195 0.14196937444685684 -0.0016918356298532705 0.014839875950007214 0.046148659519308223 0.0014585384720911176 0.17659801805107778 -0.0047924382280059713 0.010559437173361811 0.068474197274606144 0.27984393706439803 0.058592820775939691 0.031163363774539904 0.14203869758484264 -0.030428609555412663 0.025919916092403895 0.14416581868142711 0.012626712077430317 0.12224823945754906 0.031981807433534418 0.04916923794015083 0.17355798289375329 0.086530041706577368 0.038865221512977041 0.0076609846771418522 0.033696840056126907 0.05387389481848464 0.13908387064198111 0.29624439319333351 0.12079825548604989 0.020508054719469607 -0.0042719185213996921 0.15750325180041339 0.084071120902974306 0.011460359896811313 0.11184374185867217 0.013736186424093806 0.054742272657045343 0.051047720239943632 0.049848763816948749 0.066912145858230243 0.011540086866663512 0.044130531902720024 0.13818367562248013 0.10439562095715754 0.19513027258217336 0.076246963043587801 0.058560768815480495 0.02912273913506614 0.032846844775410992 0.022007042771371041 0.016105960043052495 0.061546678172053421 0.19939392520544622
leaf_weight=72978 1215 229 1754 101 52 155 68 392 97 164 282 89 514 12493 55 179 99 108 1733 2616 427 50 615 15148 4240 1057 619 233 87 59 489 52 70 397 161 3743 1107 105 71 87 2347 99 6859 1992 1355 3505 59 17245 663 77 53 159 540 60 523 1488 127 56 120 200 347 181 79 1561 1396 102 198 357 71 87 1502 3155 112 404 2938 95 1735 595 1120 113 691 831 1836 328 53 50 397 579 1143 1595 8248 295 1422 65
leaf_count=72978 1215 229 1754 101 52 155 68 392 97 164 282 89 514 12493 55 179 99 108 1733 2616 427 50 615 15148 4240 1057 619 233 87 59 489 52 70 397 161 3743 1107 105 71 87 2347 99 6859 1992 1355 3505 59 17245 663 77 53 159 540 60 523 1488 127 56 120 200 347 181 79 1561 1396 102 198 357 71 87 1502 3155 112 404 2938 95 1735 595 1120 113 691 831 1836 328 53 50 397 579 1143 1595 8248 295 1422 65
internal_value=0 0.0145798 0.00831445 0.021375 0.0649429 0.267637 0.376554 0.0142225 0.0352788 0.00200645 0.0608492 0.0238734 0.0706359 0.0010534 0.048272 0.020519 0.00626711 0.0402968 0.00564219 0.03084 0.033008 0.0765154 0.0739916 0.00469587 -0.0073079 0.0336166 0.0410207 0.0732521 -0.0011744 0.0540148 0.114991 0.174814 0.142829 0.0310721 0.0623646 0.0163296 0.0235947 0.0855544 0.0924964 0.081478 -0.00748883 0.00462464 -0.0101698 0.0191036 0.0668887 0.00608002 0.0696337 -0.00349288 0.0263883 0.143114 0.189463 0.0994381 0.0273948 0.0356679 0.00762039 0.00599578 0.0629202 0.103913 0.0523398 0.0852555 0.0907847 0.104802 0.0750676 0.0110924 0.0241337 0.0870251 0.124639 0.108685 0.238412 0.169265 0.00909586 0.00372025 0.0652904 0.0622017 0.0171072 0.0432337 0.0005672 0.0662143 0.0598117 0.103437 0.0346403 0.0407534 0.0339758 0.123338 0.0363187 0.0342118 0.0452582 0.0245763 0.0134088 0.0414964 0.0258529 0.0366716 0.0537394 0.137476
internal_weight=0 122420 93975 30606 4316 328 223 26290 28445 63369 1010 18153 1215 62359 3988 16938 38724 3605 38466 25519 846 419 2926 37833 8137 22903 11723 2765 19728 1883 701 212 129 8958 942 15055 8208 2311 545 2214 23635 4283 19352 2093 2532 3897 1512 17995 750 201 124 258 8016 4443 6847 6668 344 183 1475 2127 1927 1227 491 18105 2957 201 736 555 123 137 6145 4657 1453 633 3573 635 4082 700 1345 225 4465 3358 2667 383 105 4383 2042 2341 1762 1992 11180 2932 1717 144
internal_count=195398 122420 93975 30606 4316 328 223 26290 28445 63369 1010 18153 1215 62359 3988 16938 38724 3605 38466 25519 846 419 2926 37833 8137 22903 11723 2765 19728 1883 701 212 129 8958 942 15055 8208 2311 545 2214 23635 4283 19352 2093 2532 3897 1512 17995 750 201 124 258 8016 4443 6847 6668 344 183 1475 2127 1927 1227 491 18105 2957 201 736 555 123 137 6145 4657 1453 633 3573 635 4082 700 1345 225 4465 3358 2667 383 105 4383 2042 2341 1762 1992 11180 2932 1717 144
is_linear=0
shrinkage=0.1


Tree=5
num_leaves=95
num_cat=0
split_feature=21 15 0 9 0 22 15 22 0 8 19 0 0 23 0 0 8 15 8 4 0 23 19 19 0 4 23 21 0 12 0 0 12 23 5 8 11 22 8 8 8 12 19 8 9 0 0 12 12 5 22 15 0 23 19 22 5 5 12 22 19 21 11 5 22 5 0 12 5 5 23 11 22 8 12 8 8 22 23 12 9 21 5 4 23 4 12 19 4 19 5 4 19 5
split_gain=5643.74 801.491 526.743 451.67 610.029 381.266 266.47 262.371 463.128 806.732 513.528 189.831 227.726 157.224 153.816 170.282 146.675 181.342 196.133 137.426 125.309 149.544 121.881 118.567 126.816 105.962 100.669 94.9622 94.577 181.932 86.0813 119.399 84.892 81.3744 79.6849 100.689 112.115 77.0215 74.3421 71.7408 70.6584 69.7765 68.0467 78.8115 67.2039 66.5968 65.8554 64.634 63.7426 62.1748 59.9237 69.2124 69.0707 63.1579 57.9547 56.2535 64.8182 99.03 55.8785 55.6441 54.5691 51.7947 45.6981 44.467 44.4475 58.2209 57.6434 63.2618 44.382 47.6191 43.3002 42.3033 41.9466 40.8553 68.4305 45.412 59.2896 40.5526 40.1439 39.3202 38.7344 38.1717 37.0862 55.3723 36.4589 35.6943 35.6747 35.6585 35.0864 34.7557 34.591 34.5811 34.3462 33.763
threshold=1.0000000180025095e-35 0.58333333333333337 0.14583333333333334 0.96052631578947378 0.68750000000000011 0.43372025533465153 0.91666666666666674 0.062291978197843691 0.31250000000000006 0.64323411441840839 5.6103552959546947 0.43750000000000006 0.72916666666666674 13.243255179230792 0.64583333333333337 0.72916666666666674 0.090774751952712715 0.75000000000000011 0.3880092885792697 0.93650793650793662 0.14583333333333334 0.049580855481393078 3.506601512016283 5.8279995229909121 0.85416666666666674 0.90476190476190477 0.023999214602783221 8.7361026457449622 1.0000000180025095e-35 0.66478696741854637 0.10416666666666667 0.39583333333333337 0.51315789473684215 0.32666842335865337 0.12738301559792031 0.26979100696643454 0.60742368177613337 0.35707577320551825 0.012075153050453877 0.1498838927591303 0.012075153050453877 0.50313283208020054 53.27060149691588 0.17606079797340093 0.17105263157894737 1.0000000180025095e-35 1.0000000180025095e-35 0.67105263157894746 0.7550125313283208 0.021453330032186187 0.044822312703412547 0.75000000000000011 0.18750000000000003 0.46321416613449501 40.332337162415911 0.3702276387053105 0.12911611785095325 0.16229264669472646 0.70864661654135341 0.0094582992712689638 28.419973530992941 43.641229402989332 0.52624884366327496 0.1313443921762813 0.056481157102690187 0.02239415696954692 0.85416666666666674 0.68233082706766923 0.12812577370636299 0.40455558306511519 2.1036076895076374 0.54128122109158205 0.069136552172873761 0.29280135106607569 0.7449874686716792 0.13848427274646405 0.11990711420730422 0.13607019621528818 0.023999214602783221 0.44799498746867167 0.27631578947368424 5.5133350183639918 0.12515474127259227 0.55555555555555569 0.04712547027558537 0.77777777777777779 0.68233082706766923 30.084863226104641 0.33333333333333337 20.453240501798156 0.09717751918791781 0.84126984126984128 0.78191977193014384 0.18729883634563013
decision_type=2 2 2 2 2 2 2 2 2 2 2 2 2 2 2 2 2 2 2 2 2 2 2 2 2 2 2 2 2 2 2 2 2 2 2 2 2 2 2 2 2 2 2 2 2 2 2 2 2 2 2 2 2 2 2 2 2 2 2 2 2 2 2 2 2 2 2 2 2 2 2 2 2 2 2 2 2 2 2 2 2 2 2 2 2 2 2 2 2 2 2 2 2 2
left_child=-1 2 28 6 -5 7 14 11 55 26 -11 -4 19 30 20 16 22 27 59 39 45 -22 84 24 -17 80 44 58 -2 60 46 78 38 -27 92 36 -36 50 -21 79 54 -35 -15 -44 -10 -3 -8 -47 -31 -40 51 -23 -52 -54 85 91 62 -58 -18 -19 90 -25 -57 -39 -33 -66 67 -67 82 -70 81 -71 -50 75 -75 76 -60 -49 -32 -13 -24 88 87 -84 -16 -14 -48 -41 -61 -72 -30 -9 -7 -42
right_child=1 3 5 4 -6 34 13 8 9 10 -12 12 40 42 15 23 17 18 -20 32 21 37 25 61 -26 33 -28 -29 29 48 31 64 -34 41 35 -37 -38 63 49 68 93 -43 43 -45 -46 47 86 77 72 -51 52 -53 53 -55 -56 56 57 -59 73 70 -62 -63 -64 -65 65 66 -68 -69 69 71 89 -73 -74 74 -76 -77 -78 -79 -80 -81 -82 -83 83 -85 -86 -87 -88 -89 -90 -91 -92 -93 -94 -95
leaf_value=-0.022011697386795013 0.020993145658381132 0.031315152072360526 -0.0081492772356466341 0.0047841613839446299 0.36145419202424511 0.071361105287316304 0.01863480141802808 0.00047691130788566266 0.044406682285392768 0.052685257561247922 0.45009577403197421 0.02774826229893906 -0.0075200230165261206 0.038483914915462311 0.18881426889385131 0.16753730982340842 0.0024359032403731694 0.18197791620778542 0.29473342941910552 0.056661861647259108 0.05539818375124244 -0.0026143001861072233 0.01605717018229386 0.0017537506867063648 0.038072102054452939 0.048594026308721651 0.021602888072267096 0.025108621044180542 -0.0046123779421246274 0.057806613165120063 0.035557052916684873 0.01601174088317504 0.030372246422408735 0.23749215260696865 0.29545271430375442 0.039973756306507215 0.086702316462993631 0.042312684221608887 0.23515168675221504 0.054343089736717691 -0.016007309567942291 0.080324788081149262 0.053474489584859154 0.19070191681803614 0.12226321070653495 0.035932212934825257 0.033864174925195646 0.070905257319923559 0.079936890516798073 0.083168086044344253 0.016963464802387286 0.023979951478842503 0.068332960761673708 0.024930241191627265 0.1206017438611337 0.087480385550297801 0.20090623231120774 0.031318216646564596 0.053824892671684089 0.15850018987084849 -0.010231770062819124 0.093678287093644036 0.0041398089616246697 0.12548082517357648 0.0087586529906557211 0.14040516261193262 0.0084150888812167882 0.053630894868242997 0.012570353529753798 0.10935603263364597 0.031490120716300439 0.032959232315615976 0.18922623724436327 0.2350382218710505 0.078904235958442343 0.044174432025962995 0.1938674534801037 0.16068266478401644 0.0020933080685655923 0.0033448360678818068 0.042575732171754373 0.16706807370640731 0.12455734220445157 0.014944252004362134 0.088591182997123791 0.05104297941469263 0.075812623362907908 -0.018548453265712375 0.069262855850031668 0.11547765255394116 0.0355378287193895 0.018210903852442457 0.024204755530587076 0.0031172734169981407
leaf_weight=72978 6953 2859 21743 99 93 447 1788 18770 1215 58 74 727 279 187 58 92 69 75 57 165 1142 2764 1278 1450 426 169 7112 602 258 1701 373 2743 536 56 53 72 50 219 57 186 4926 57 79 89 122 741 447 737 81 51 5994 1515 542 879 58 75 51 106 59 59 468 64 536 91 479 96 241 673 2476 88 161 411 62 52 61 158 62 54 9212 7192 968 95 125 73 97 166 371 105 174 71 1275 1168 236 1136
leaf_count=72978 6953 2859 21743 99 93 447 1788 18770 1215 58 74 727 279 187 58 92 69 75 57 165 1142 2764 1278 1450 426 169 7112 602 258 1701 373 2743 536 56 53 72 50 219 57 186 4926 57 79 89 122 741 447 737 81 51 5994 1515 542 879 58 75 51 106 59 59 468 64 536 91 479 96 241 673 2476 88 161 411 62 52 61 158 62 54 9212 7192 968 95 125 73 97 166 371 105 174 71 1275 1168 236 1136
internal_value=0 0.0131218 0.00738239 0.024529 0.177546 0.00423824 0.0238087 0.00342367 0.0106341 0.0301681 0.275476 -0.00179044 0.00558068 0.0141399 0.030566 0.0437442 0.0547217 0.0771996 0.11704 0.0136661 0.0257041 0.0208187 0.0400184 0.0197689 0.0610659 0.0347408 0.0263357 0.051264 0.0279527 0.0405379 0.0127166 0.00957244 0.0534907 0.0925194 0.070493 0.130698 0.194118 0.017529 0.0988807 0.0108358 -0.00943501 0.158213 0.0799815 0.126172 0.051511 0.0403302 0.0293871 0.0571539 0.0631974 0.163382 0.0162248 0.00680152 0.0216627 0.041485 0.0265804 0.00253878 0.0290962 0.0864073 0.0854192 0.10109 0.0196563 0.0056396 0.0143698 0.0667266 0.0235624 0.0374721 0.0510896 0.0644636 0.0228391 0.01825 0.0902563 0.046432 0.127321 0.100026 0.150754 0.0794803 0.125582 0.0770342 0.00339555 0.00558518 0.0274864 0.113642 0.0507583 0.0841444 0.126094 0.014326 0.0528897 0.028042 0.0918594 0.0571932 0.0287807 0.0015158 0.055067 -0.0124234
internal_weight=0 122420 81443 40977 192 70645 40785 69787 29287 8581 132 40500 18757 16778 24007 6470 4438 1755 692 12192 17537 13146 2683 2032 518 2528 8449 1063 10798 3845 16423 13817 809 282 858 175 103 12004 273 11383 6565 113 355 168 1337 4391 2606 1532 1844 108 11694 4279 7415 1421 503 20706 768 157 461 635 2001 1514 611 310 4232 1489 1010 769 3464 2975 560 499 143 392 113 279 121 791 9585 7919 2246 328 489 198 155 445 818 291 233 232 1533 19938 683 6062
internal_count=195398 122420 81443 40977 192 70645 40785 69787 29287 8581 132 40500 18757 16778 24007 6470 4438 1755 692 12192 17537 13146 2683 2032 518 2528 8449 1063 10798 3845 16423 13817 809 282 858 175 103 12004 273 11383 6565 113 355 168 1337 4391 2606 1532 1844 108 11694 4279 7415 1421 503 20706 768 157 461 635 2001 1514 611 310 4232 1489 1010 769 3464 2975 560 499 143 392 113 279 121 791 9585 7919 2246 328 489 198 155 445 818 291 233 232 1533 19938 683 6062
is_linear=0
shrinkage=0.1


Tree=6
num_leaves=95
num_cat=0
split_feature=24 16 0 8 2 16 0 2 2 0 8 18 8 12 16 17 0 18 2 8 8 8 8 21 21 16 7 22 16 16 16 8 21 21 21 18 17 8 2 21 3 8 0 22 8 16 8 0 0 8 0 19 19 8 8 19 8 16 19 22 0 0 8 21 22 2 8 8 8 21 12 21 2 18 12 21 16 8 8 16 2 8 8 22 19 21 19 21 12 16 8 3 21 18
split_gain=4571.43 1092.07 519.618 930.432 1025.92 528.114 511.622 422.023 371.854 176.879 161.598 158.064 150.545 243.085 187.605 126.216 121.478 120.658 122.123 119.981 113.189 109.279 97.0881 83.7267 102.409 72.8708 70.504 94.6713 68.0222 67.9266 67.3774 66.0143 64.297 117.425 62.6909 75.7658 62.6115 62.4519 49.0952 48.9248 45.8302 45.565 68.6534 43.8628 41.9738 41.4409 47.9874 102.601 120.404 78.3953 73.0091 108.19 61.9877 305.511 58.9437 48.6651 47.4324 48.4258 44.6895 39.9362 39.4012 506.678 143.328 70.2999 39.3296 53.4419 56.4682 130.524 36.9161 46.9717 36.5997 36.3348 35.7472 35.6357 35.0476 34.7156 33.7324 55.952 54.2662 63.3214 33.4876 70.2551 48.3927 67.4489 33.1549 32.7834 38.7327 34.6719 33.4387 32.476 31.5292 34.1423 36.7006 30.9947
threshold=1.0000000180025095e-35 0.51687390755698848 0.64583333333333337 0.64323411441840839 0.10961467453130223 6.8051631002941884 0.72916666666666674 0.38467057651459552 0.7350001395735033 0.062500000000000014 0.12075153050453877 0.0025653628593188716 0.09415241714165086 0.5156641604010026 4.9136461305758106 0.90600464769626277 0.27083333333333337 0.062177776536350489 0.14635068704356874 0.13848427274646405 0.15875026388009292 0.00082330588980367343 0.01184293856871438 156.73967337468676 30.176361688207546 8.1473078751846639 0.75000000000000011 0.066130784455911598 0.30359854763353605 42.7818079612071 0.81545216160454093 0.61367954401519964 1.396951624221743 3.229339791866725 75.59158394986251 0.01831896571395333 6.1142475047708524 0.12075153050453877 0.19369081943701727 0.4933373430083608 0.70000000000000018 0.16170572092041383 1.0000000180025095e-35 0.0015526640563922581 0.1498838927591303 0.037783148832447898 0.27950179438463169 0.14583333333333334 1.0000000180025095e-35 0.022693687988178179 0.81250000000000011 6.7306712547837426 46.189228624783205 0.15326155794806845 0.13890648089508131 6.3700938636802364 0.15283934979945119 0.098234073972576288 3.1726041929194104 0.018211607284220537 0.72916666666666674 0.85416666666666674 0.10681866160016891 3.4786816793809847 0.016500143150043927 0.025476088592166941 0.15495039054253751 0.17732742241925273 0.032826683554992624 3.2780585656132613 0.41917293233082714 0.55895951695140489 0.022106076281955978 0.17271926557350578 0.64849624060150379 1.4768422643050287 0.21308094361997543 0.040890859193582443 0.21321511505172056 0.26102416195590877 0.083379989305445365 0.039117584969389919 0.034093308000844424 0.32266318247634534 6.1797026672586863 6.2382679645590313 7.408058104733148 3.1758901839509837 0.75751879699248115 0.81545216160454093 0.0036098796706776448 1.0000000180025095e-35 0.67531012521781508 0.12306415082069495
decision_type=2 2 2 2 2 2 2 2 2 2 2 2 2 2 2 2 2 2 2 2 2 2 2 2 2 2 2 2 2 2 2 2 2 2 2 2 2 2 2 2 2 2 2 2 2 2 2 2 2 2 2 2 2 2 2 2 2 2 2 2 2 2 2 2 2 2 2 2 2 2 2 2 2 2 2 2 2 2 2 2 2 2 2 2 2 2 2 2 2 2 2 2 2 2
left_child=-1 7 8 6 11 -6 12 31 9 41 39 -5 13 14 59 29 19 34 26 -9 32 -17 -8 24 -16 -26 85 -28 -21 37 71 45 -20 -34 35 -14 76 43 -15 -10 -29 -3 -43 -11 -36 73 47 48 54 50 58 -52 55 -54 -47 60 -57 -58 -49 -4 -51 62 -62 -64 65 -37 -67 -68 69 75 -27 -12 -59 -2 -50 -40 -18 -78 79 -79 -23 82 -82 -84 -7 87 -87 88 -19 -66 -38 -92 -93 -35
right_child=1 2 3 4 5 84 22 16 10 15 30 -13 17 38 23 21 36 18 20 28 -22 80 -24 -25 25 70 27 40 -30 -31 -32 -33 33 93 44 64 90 -39 68 -41 -42 42 -44 -45 -46 46 -48 49 74 52 51 -53 53 -55 -56 56 57 72 -60 -61 61 -63 63 -65 89 66 67 -69 -70 -71 -72 -73 -74 -75 -76 -77 77 78 -80 -81 81 -83 83 -85 -86 86 -88 -89 -90 -91 91 92 -94 -95
leaf_value=-0.019810527657393773 0.034102518727108719 0.025878192566669202 0.0016342490730637323 0.20336078428305113 0.074617427984873461 0.36930837569565611 0.033393215798195063 0.075343401188969872 0.10633175151555666 0.059712638406171685 0.23998219484670297 0.014599446627922012 0.0042436847784462287 0.0095914357113630593 0.058197751377243548 0.12583825970186463 0.029782793010875244 0.12920808752603605 0.0025725372506015336 0.25119542326392996 0.0059278268273693039 0.00034292411615740432 -0.009282237721811212 0.019946635345764019 0.10112601371241337 0.16935871629523011 0.032746078969934318 0.12407210261506192 0.11137770348091106 -0.022421695516018199 0.06546628108706265 0.055658166176694807 0.15079787813516615 0.070993831694202938 0.0055800885433157869 -0.023301105745709861 0.053961034441812772 0.0025885961889402067 0.045717524709524934 0.026612671131227936 0.24188069289343225 0.032193753368492367 0.12428556887028985 -0.0050491947806602143 0.06113268104711405 0.0057607800222862467 0.017794323895114289 0.059270942910470949 0.038172094395738633 0.013990082008611852 0.20262855438085703 0.030351087228810216 -0.023559527251185205 0.28021127654612066 0.033848243987593209 -0.0066137061096617645 0.098888062634127777 0.093433238906759974 0.022058460725153863 0.043162418646148205 0.29422681304332737 0.0077507595079316918 0.18934058956801891 0.037337174899233827 -0.011545452354970762 0.012024599162396045 0.23903417000073499 0.044968922582588028 0.018220262135919027 0.020737941238402793 0.27417502101630936 0.13642636929507718 0.0094281256461707028 0.081557891588946371 0.0669632474762831 0.14897651235323126 0.051418424728227309 0.2346858016501826 0.031541517126159026 0.07862688200996043 0.027472611147718456 0.0080591818377980327 0.033204172783204026 0.18355211426131429 0.46714284059613248 0.060209547252792234 0.12800919124995597 0.04368332846746114 0.028881749711930756 0.029848765406228075 0.16516721957984071 0.028861154123807131 0.11973500931229811 0.0093831928314786432
leaf_weight=72978 642 313 318 52 60 58 573 242 98 105 72 302 1904 10929 125 79 578 99 146 81 924 4117 7656 85 89 72 79 85 61 1619 62 682 153 194 172 52 142 20269 54 359 54 158 166 26295 650 973 9436 450 628 2770 65 83 98 50 3219 1735 74 54 1141 852 73 1041 64 58 207 64 59 84 357 113 62 64 818 210 1294 82 1244 52 52 52 967 8502 74 50 86 227 134 957 50 2246 84 67 132 141
leaf_count=72978 642 313 318 52 60 58 573 242 98 105 72 302 1904 10929 125 79 578 99 146 81 924 4117 7656 85 89 72 79 85 61 1619 62 682 153 194 172 52 142 20269 54 359 54 158 166 26295 650 973 9436 450 628 2770 65 83 98 50 3219 1735 74 54 1141 852 73 1041 64 58 207 64 59 84 357 113 62 64 818 210 1294 82 1244 52 52 52 967 8502 74 50 86 227 134 957 50 2246 84 67 132 141
internal_value=0 0.0118096 0.00661329 0.017313 0.14526 0.323879 0.014937 0.0289769 0.00144555 0.000662685 0.0764021 0.0423271 0.0229505 0.0161984 0.0526869 0.000124712 0.0659349 0.0331692 0.0484357 0.118161 0.0282547 0.00856284 -0.00631067 0.108922 0.130654 0.171269 0.0670956 0.120159 0.191133 -0.00228486 0.151863 0.0249625 0.0607942 0.0782129 0.0240649 0.019534 0.0575891 -0.00158629 0.0111277 0.0437078 0.169839 0.0530893 0.0793766 -0.00479162 0.0495085 0.0241243 0.0233588 0.0269336 0.0368311 0.0198759 0.038833 0.106013 0.0150527 0.0790657 0.0273289 0.0136359 0.00320796 0.0212213 0.0325837 0.0318753 0.0206148 0.0354615 0.183394 0.117077 0.0302687 0.0673294 0.0900965 0.125038 0.0388331 0.0683864 0.217856 0.19125 0.0146303 0.0457993 0.0575559 0.107977 0.0501069 0.0584978 0.114951 0.156656 0.00788707 0.0111248 0.0350144 0.0938283 0.427737 0.0592102 0.0853762 0.0506697 0.0955415 0.0263557 0.0924123 0.111706 0.0891393 0.0450622
internal_weight=0 122420 93975 30606 558 204 30048 28445 63369 62714 655 354 21819 13138 1603 62077 2787 8681 3243 384 1558 13789 8229 433 348 223 1685 218 142 48288 198 25658 634 488 5438 4616 2403 46669 11535 457 139 637 324 26400 822 24976 24124 14688 6114 8574 1739 148 6835 148 4192 6687 2681 946 1591 1170 4006 1236 195 122 2712 259 207 143 606 249 134 136 872 852 1922 136 1978 1400 156 104 13710 9593 1091 124 144 1467 361 1106 149 2453 425 283 199 335
internal_count=195398 122420 93975 30606 558 204 30048 28445 63369 62714 655 354 21819 13138 1603 62077 2787 8681 3243 384 1558 13789 8229 433 348 223 1685 218 142 48288 198 25658 634 488 5438 4616 2403 46669 11535 457 139 637 324 26400 822 24976 24124 14688 6114 8574 1739 148 6835 148 4192 6687 2681 946 1591 1170 4006 1236 195 122 2712 259 207 143 606 249 134 136 872 852 1922 136 1978 1400 156 104 13710 9593 1091 124 144 1467 361 1106 149 2453 425 283 199 335
is_linear=0
shrinkage=0.1


Tree=7
num_leaves=95
num_cat=0
split_feature=2 17 13 25 1 2 6 19 2 2 15 13 1 2 2 15 1 1 21 2 1 2 13 13 25 13 13 6 13 1 11 12 12 17 20 25 15 17 15 6 21 25 2 25 13 13 13 15 22 17 19 15 2 12 12 2 15 2 1 1 21 6 20 17 13 6 12 21 15 13 25 15 13 22 25 25 15 21 15 19 25 22 25 21 13 19 12 11 12 21 13 13 25 11
split_gain=3702.87 881.652 603.471 440.637 383.339 517.029 347.673 353.041 1162.79 342.249 175.091 161.117 159.427 159.298 157.705 352.972 138.266 126.459 123.992 119.613 112.466 150.479 94.0133 262.855 120.076 141 91.8986 85.2493 85.088 73.2866 70.24 79.1181 69.5786 92.829 67.388 67.1711 67.152 65.0889 64.917 89.6069 58.8779 54.8071 54.5914 53.5725 74.0639 232.84 55.263 52.216 52.0477 50.8757 50.7679 66.2801 63.6453 77.6489 50.7544 50.1428 48.4145 49.7014 47.9436 47.9026 47.0722 46.5434 83.4615 80.8325 54.7297 46.1901 56.8509 45.3831 44.9571 43.1208 41.2719 40.3028 39.9306 41.932 40.7929 39.7198 44.7175 56.8053 40.6553 39.6775 38.0239 38.3616 37.8366 37.3345 37.1176 37.4058 38.0684 36.8235 36.334 37.3857 89.9289 44.9981 35.6415 33.9635
threshold=1.0000000180025095e-35 1.9360356073960447 0.83290193939598234 0.049834513537873056 0.50000000000000011 0.59813938734316807 0.83333333333333337 5.3360996929279709 0.11216163068912266 0.38467057651459552 0.58333333333333337 0.62533800398021244 0.83333333333333337 0.7350001395735033 0.0087965793013610911 0.75000000000000011 0.50000000000000011 0.50000000000000011 0.32917977870034182 0.14635068704356874 0.83333333333333337 0.58261756691912925 0.035204119933387373 0.020146186242682652 0.060940659488069156 0.022003771856314035 0.013960617652961645 0.50000000000000011 0.62533800398021244 0.50000000000000011 0.58545328399629992 0.75375939849624063 0.33270676691729328 0.35673868801166292 0.49786933519971138 0.47759759926260142 0.58333333333333337 0.12281420640821315 0.58333333333333337 0.50000000000000011 8.3607982528212634 0.20904549798285313 0.016527158606486545 0.078332347797899007 0.042294160363642502 0.045962030184042699 0.097921955359728155 0.91666666666666674 0.069910238790286724 0.42665735832482615 30.084863226104641 0.75000000000000011 0.034462485172590512 0.7449874686716792 0.48558897243107774 0.25734426552831285 0.75000000000000011 0.019079184352269348 0.50000000000000011 0.50000000000000011 37.464032163026324 0.50000000000000011 0.020206501063685409 5.5399825757595753 0.019552524861006639 0.83333333333333337 0.74248120300751885 1.2036414025364544 0.91666666666666674 0.094046495559412871 0.32465519070292193 0.41666666666666669 0.13549765676107547 0.010358959388032968 0.0021300762287890409 0.09169011958980984 0.58333333333333337 6.3292064405144499 0.91666666666666674 8.1740795213775801 0.09169011958980984 0.28437499739488564 0.0037741053205143913 3.3295610890334575 0.00052663509664807302 5.3360996929279709 0.44423558897243109 0.52139222941720642 0.42418546365914789 13.028270856486722 0.14364000986626921 0.15641081520814923 0.063179734267492502 0.67379740980573566
decision_type=2 2 2 2 2 2 2 2 2 2 2 2 2 2 2 2 2 2 2 2 2 2 2 2 2 2 2 2 2 2 2 2 2 2 2 2 2 2 2 2 2 2 2 2 2 2 2 2 2 2 2 2 2 2 2 2 2 2 2 2 2 2 2 2 2 2 2 2 2 2 2 2 2 2 2 2 2 2 2 2 2 2 2 2 2 2 2 2 2 2 2 2 2 2
left_child=-1 2 4 14 5 10 12 36 40 17 34 18 19 20 15 58 26 22 -7 75 41 69 23 55 25 -25 -11 43 70 -21 -26 -32 33 -12 88 -30 -8 -10 42 59 -9 56 -16 44 -24 -46 -47 -34 -14 -43 52 -52 53 -41 80 61 -6 -58 -4 -40 -53 -3 63 -63 84 -60 82 -31 -59 71 -15 -22 -71 74 -74 76 -5 78 -78 -54 -28 -82 -67 -77 -64 -86 -87 -27 89 -2 -91 -92 -48 -73
right_child=1 9 3 6 13 11 7 8 37 16 32 -13 48 28 38 -17 -18 -19 -20 29 21 -23 27 24 30 87 54 -29 35 67 31 -33 47 -35 -36 -37 -38 -39 39 50 -42 49 -44 -45 45 46 92 -49 -50 -51 51 60 79 -55 -56 -57 57 68 65 -61 -62 62 64 -65 -66 66 -68 -69 -70 72 -72 93 73 -75 -76 83 77 -79 -80 -81 81 -83 -84 -85 85 86 -88 -89 -90 90 91 -93 -94 -95
leaf_value=-0.017829906603971175 0.003657448404285018 0.00078535755004257603 -0.060050105093978345 0.031998731898848623 -0.015424905237516592 0.13761252303563415 -0.022200757853294673 -0.0099577157657673894 0.41569218238194783 0.2082083103749901 0.14598368222434674 0.070434207049760209 0.027076983595422162 0.069123516395462284 -0.01864235106253188 0.18819263123502761 0.02644351563014018 0.0016302982925345715 0.32766782436885089 0.099435560789072161 0.0028354248388132827 0.11160025823592984 0.025416508876830408 0.053491750516770326 0.062765930215403484 0.033743733468480093 0.063757731272334833 0.013933945385170281 0.0045265116182696304 -0.018268523056278213 0.092068617229909971 0.2338440851569176 0.019228991366936777 0.025798234702289424 0.024826019162494873 0.10094167636369444 0.10674636377529666 0.28031982501932218 0.051804038540891412 0.18599264656572984 0.089255351739979935 0.096300029353453567 0.0071704193658689748 0.0042876086872306795 0.24613760971057583 0.019879499650203192 0.066512884342724954 0.0074480796318353226 0.10955247795814525 -0.0030483859488926379 -0.029848465555421779 0.0054467274085618564 0.12839081206669409 0.044785420368115114 0.062767469616367796 0.066248118489086419 0.072721977228767096 0.018634771782325255 0.021443253678409102 0.0062877333294247967 0.13070941436414918 0.19712938662045276 0.084899005261059785 0.03697703779675067 -0.0010576810330581944 0.18605473075921719 0.031316225891086187 0.019012311553078726 -0.01090642149412574 -0.013715978889960052 0.18761605145233984 0.035994764029428743 -7.4165114624933764e-05 0.0036953017702919533 0.11613845470389213 0.15980370373561467 0.080815252217462136 0.14846051451391901 0.013401727830633932 0.035258965651706067 0.19723004164594798 0.10432808230257339 0.066543027868977297 0.067161154172693693 0.034833044898650523 0.062354581727447116 0.014194295560579308 -0.0018148485810798446 0.00018803087522084052 0.011540427311626775 0.10986267486754471 0.0025423836474325143 0.1629575305581093 0.12362708413663011
leaf_weight=72976 1718 1326 60 858 15533 105 152 139 117 50 93 252 96 66 926 152 876 2621 51 99 421 131 558 2190 1283 463 139 8739 324 412 185 50 9159 208 1274 93 55 51 257 81 105 52 7112 318 71 251 164 6385 377 5894 163 60 51 75 1503 220 88 684 992 2305 60 52 98 80 1054 52 165 1574 2087 1562 53 333 55 2478 67 58 231 78 146 444 62 157 54 174 1706 173 3201 785 26103 728 167 51 50 51
leaf_count=72976 1718 1326 60 858 15533 105 152 139 117 50 93 252 96 66 926 152 876 2621 51 99 421 131 558 2190 1283 463 139 8739 324 412 185 50 9159 208 1274 93 55 51 257 81 105 52 7112 318 71 251 164 6385 377 5894 163 60 51 75 1503 220 88 684 992 2305 60 52 98 80 1054 52 165 1574 2087 1562 53 333 55 2478 67 58 231 78 146 444 62 157 54 174 1706 173 3201 785 26103 728 167 51 50 51
internal_value=0 0.0106284 0.00596172 0.0225794 0.00209829 0.00780284 0.0487451 0.118605 0.172136 0.0260606 0.00680632 0.119877 0.0382057 -0.00671281 0.0130818 0.0438707 0.0593414 0.0224427 0.199746 0.0310902 -0.00769657 0.00580902 0.0248127 0.0304895 0.0485471 0.0382041 0.0744218 0.0176176 0.0473134 0.0154642 0.0719721 0.122234 0.0153119 0.0629319 0.0023201 0.0260292 0.0120606 0.374597 0.00914439 0.0205201 0.0327364 -0.0105255 0.00419672 0.040416 0.0509177 0.0774655 0.0517113 0.0143898 0.0928133 -0.00217955 0.0470356 0.0116752 0.0624074 0.118105 0.0708273 0.0191756 -0.0132237 -0.00126477 0.0272895 0.0108536 0.0680781 0.0178289 0.0213801 0.100067 0.0197134 0.0314387 0.0680271 0.0112783 -0.00361441 0.00301887 0.121898 0.0242049 -0.00107886 0.00651314 0.0637475 0.0521776 0.0454378 0.07078 0.0547082 0.0448544 0.104665 0.130629 0.125171 0.0903218 0.0239414 0.0227654 0.0166637 0.0113772 0.00132339 0.0124481 0.0284124 0.0847556 0.0890467 0.0476334
internal_weight=0 122422 93997 17731 76266 46294 4722 619 412 28425 45886 408 4103 29972 13009 1475 2787 25638 156 3630 29436 5098 23017 12866 4956 3438 1911 10151 536 2085 1518 235 15845 301 30041 417 207 168 11534 3496 244 24338 8038 1412 1094 536 465 15544 473 5946 934 283 651 156 1861 7910 18392 2859 1323 2562 120 7690 6364 132 6232 1263 271 1986 2771 4967 119 805 4162 2600 122 1545 1313 455 377 495 358 219 106 232 5178 5080 3374 1248 28767 2664 946 218 214 384
internal_count=195398 122422 93997 17731 76266 46294 4722 619 412 28425 45886 408 4103 29972 13009 1475 2787 25638 156 3630 29436 5098 23017 12866 4956 3438 1911 10151 536 2085 1518 235 15845 301 30041 417 207 168 11534 3496 244 24338 8038 1412 1094 536 465 15544 473 5946 934 283 651 156 1861 7910 18392 2859 1323 2562 120 7690 6364 132 6232 1263 271 1986 2771 4967 119 805 4162 2600 122 1545 1313 455 377 495 358 219 106 232 5178 5080 3374 1248 28767 2664 946 218 214 384
is_linear=0
shrinkage=0.1


Tree=8
num_leaves=95
num_cat=0
split_feature=2 14 16 15 0 8 22 2 0 2 16 5 5 0 8 2 18 0 0 17 18 0 5 15 11 16 16 2 5 23 23 15 0 0 18 22 23 23 2 5 17 5 8 0 23 17 5 18 22 14 22 15 14 15 8 23 14 11 15 22 5 15 16 11 23 5 24 0 14 16 23 5 18 24 14 15 17 24 15 18 24 16 16 8 23 18 23 15 16 8 2 18 22 2
split_gain=2999.33 1672.93 723.316 413.842 268.429 550.746 251.594 217.044 174.094 171.303 150.736 191.142 133.394 119.225 249.367 396.589 376.693 162.155 108.197 104.467 84.8916 77.8435 102.213 75.1828 73.1572 59.1038 58.1961 57.4581 55.3148 53.6782 52.1082 50.6639 51.9209 54.4808 92.0357 56.1536 47.9682 71.2522 44.6282 44.3399 44.2136 66.3331 43.7007 43.6188 74.6881 43.6147 41.1372 39.8216 39.1442 37.665 37.4144 37.2681 36.8515 78.4385 165.778 84.9147 70.9532 61.9951 50.9942 50.6968 49.2778 48.604 66.3371 48.2062 47.5992 36.6991 35.8735 35.2967 34.533 51.5848 120.333 39.6514 38.6589 39.9264 32.6308 32.5485 35.4823 41.0834 34.5532 32.336 35.706 32.1241 31.7452 31.1661 30.87 41.9991 30.2624 30.127 32.2331 68.6321 29.9391 29.6615 29.2742 38.5591
threshold=1.0000000180025095e-35 1.0000000180025095e-35 0.37805077769648682 0.58333333333333337 0.64583333333333337 0.64745619590458114 0.055751025784508364 0.36524407790356089 0.72916666666666674 0.7350001395735033 0.83464671446334204 0.12738301559792031 0.071923743500866569 0.64583333333333337 0.64323411441840839 0.11216163068912266 0.098212567399956707 0.72916666666666674 0.062500000000000014 0.90600464769626277 0.0081302745155733738 0.27083333333333337 0.1588264421886606 0.91666666666666674 0.64327012025901953 3.4166310415415198 14.566577298299999 0.056278889407434619 0.031567219608814069 0.076475386170012816 0.45404456446152719 0.41666666666666669 1.0000000180025095e-35 0.27083333333333337 0.014411248953147363 0.14677532628538381 0.0073121632494805534 0.28653003927169451 0.087906243252409713 0.10460510027234464 0.77670604454017456 0.0030081703391928701 0.015642811906269795 0.062500000000000014 3.033381622501317 0.059933665113957181 0.10460510027234464 0.0035774739334892844 0.01129916458590291 0.37500000000000006 0.54895859568578687 0.75000000000000011 0.62500000000000011 0.75000000000000011 0.19759341355288162 1.7722248067205444 0.87500000000000011 0.58869102682701213 0.91666666666666674 0.07617036377605968 0.12886853181480568 0.91666666666666674 7.7919431845663061 0.56880203515263661 0.77474760520311614 0.0022654122307501864 5.0094401416542782 0.10416666666666667 0.62500000000000011 3.2784945455889907 0.33570510863465242 0.0088759593958900734 0.011270046075486642 0.30512499820685085 0.62500000000000011 1.0000000180025095e-35 6.1142475047708524 1.4815713292458512 0.75000000000000011 0.25674218234966234 0.070686440935884456 3.1519501824432505 0.16374425896290809 0.032826683554992624 0.031479450608677767 0.38827543337565379 3.033381622501317 0.41666666666666669 0.21308094361997543 0.016656111462951238 0.064856165074546307 0.01075078755546101 0.053710387695325247 0.15028258388886093
decision_type=2 2 2 2 2 2 2 2 2 2 2 2 2 2 2 2 2 2 2 2 2 2 2 2 2 2 2 2 2 2 2 2 2 2 2 2 2 2 2 2 2 2 2 2 2 2 2 2 2 2 2 2 2 2 2 2 2 2 2 2 2 2 2 2 2 2 2 2 2 2 2 2 2 2 2 2 2 2 2 2 2 2 2 2 2 2 2 2 2 2 2 2 2 2
left_child=-1 -2 7 9 18 8 -7 24 12 13 11 28 20 19 17 47 -17 26 27 38 -6 22 66 40 31 -14 68 -5 -11 -10 -24 39 -33 34 -34 -36 50 46 67 -3 51 -42 82 44 -21 -22 75 -16 83 -40 -23 90 53 55 61 59 60 64 -56 -27 -54 62 -55 -60 -58 -45 -9 91 71 -70 72 -15 -71 -74 -28 -38 78 -78 87 80 81 -47 -35 -19 85 -67 -59 -77 -89 -90 -20 -4 -84 -94
right_child=1 2 3 4 5 6 -8 21 29 10 -12 -13 25 14 15 16 -18 48 23 43 45 36 30 -25 -26 52 74 -29 -30 -31 -32 32 33 42 35 -37 37 -39 49 -41 41 -43 -44 65 -46 79 -48 -49 -50 -51 -52 -53 56 54 58 -57 57 86 63 -61 -62 -63 -64 -65 -66 84 -68 -69 69 70 -72 -73 73 -75 -76 76 77 -79 -80 -81 -82 -83 92 -85 -86 -87 -88 88 89 -91 -92 -93 93 -95
leaf_value=-0.016046915612047418 0.57664641233590941 0.0048242293504037713 -0.0099355936755891883 0.067571731673215299 0.069451150574928358 0.08817285164946416 0.36887985023099984 0.083130961943773091 0.10155891742971208 0.0079139369518088643 -0.018309723215455983 0.23245853270062164 0.024116075807288473 0.076519961607984355 0.098064984162064162 0.39161224540542156 0.043068885607154744 0.054875880921493751 -0.00654802459562236 -0.0085801421479422945 0.0013372489852926364 0.015655797555357592 0.25265880121290685 0.0010619271633893715 0.0097179638766939185 0.19098459770344201 0.013172219948208944 0.0070755572265578789 0.097827116805477218 0.0007129745367447732 0.11034450314517291 0.021674423836641209 0.16309858907205876 0.012294348147942832 0.041416669869883072 0.11928077931179829 0.020713607484746415 0.0014387933571857435 -0.010652002369181204 0.022910004339253276 0.13408391308404652 0.019401546264840388 0.021634157185943904 0.064795621248836421 0.046024150868011954 0.019545321516268685 0.13138025654367655 0.00027743092684756295 -0.010235453919153233 0.0010978429688550157 0.072785775285160198 0.016404650308914814 0.05269196436762117 0.031854444914669905 0.24944149843482372 0.013054575932870523 0.13017582603398775 0.090508654765234675 0.20311591241646698 0.05061079024706247 -0.0039339283759302346 0.033433955905559441 0.18345979730929099 0.067545769261378868 0.032766688476080323 0.010045942341287931 -0.006057115311383224 -0.0098615767056087628 0.0052789522538911927 0.096139347037443756 0.044129596613915162 0.0045762740130989039 0.0050198524245356688 0.0528690081187769 -0.0016714988366757525 0.047515598278213007 0.12714168242507065 0.038765155018440321 0.026731772687815455 0.08747284156155348 0.017395618078149259 0.067020270798807111 0.032805984455034513 -0.00069775795892757528 0.002462244170346255 0.09327111898667434 0.17158447223464177 0.036609550034677626 0.081568882499287496 0.21369166136905551 0.0099663959139846946 0.026486603116375053 0.18411763915974722 0.066730189763174783
leaf_weight=72976 52 1746 400 473 360 61 67 173 54 128 174 79 622 79 51 68 57 167 2051 406 1054 677 50 9447 4100 50 2335 235 147 2339 53 3940 68 76 2051 97 192 216 3466 6062 51 4557 2017 98 654 261 83 227 5881 12816 138 3248 301 54 66 290 59 171 54 53 314 229 62 51 335 195 61 15799 1618 52 2015 2530 2122 190 4049 323 166 77 278 81 2135 314 59 255 10662 88 63 81 184 50 2362 507 51 62
leaf_count=72976 52 1746 400 473 360 61 67 173 54 128 174 79 622 79 51 68 57 167 2051 406 1054 677 50 9447 4100 50 2335 235 147 2339 53 3940 68 76 2051 97 192 216 3466 6062 51 4557 2017 98 654 261 83 227 5881 12816 138 3248 301 54 66 290 59 171 54 53 314 229 62 51 335 195 61 15799 1618 52 2015 2530 2122 190 4049 323 166 77 278 81 2135 314 59 255 10662 88 63 81 184 50 2362 507 51 62
internal_value=0 0.0095656 0.00932462 0.00561284 0.01499 0.0290781 0.235105 0.0252493 0.0262642 0.00116572 0.0579013 0.095361 0.0342451 0.000717187 0.00680825 0.0847366 0.232676 0.00533334 0.0090216 -0.00221359 0.0230161 0.0513409 0.0964195 0.00776736 0.021653 0.0512667 0.0109921 0.0474918 0.0559766 0.00298865 0.179429 0.0246682 0.0300483 0.0374113 0.0485589 0.0449329 0.045178 0.0549821 -0.00512909 0.0188657 0.0129305 0.0206708 0.0265048 0.00573292 0.0251097 0.0186684 0.0630471 0.0182169 -0.00812444 -0.00140338 0.0253293 0.00827476 0.0591142 0.0744166 0.100053 0.0407568 0.0479236 0.0715669 0.180563 0.118753 0.0237805 0.0601479 0.112885 0.137268 0.0473533 0.00387297 0.0598811 -0.00876024 0.0163586 0.0205368 0.0261744 0.00675471 0.0108699 0.00895209 0.00375771 0.058849 0.0651666 0.0991376 0.0561546 0.0252134 0.0233525 0.0454708 0.0661177 0.0212947 0.00332748 0.0359251 0.112337 0.0689752 0.0909798 0.1098 0.0022911 0.0104239 0.0899001 0.11971
internal_weight=0 122422 122370 99239 31924 9500 128 23131 9372 67315 528 354 6979 66787 21696 403 125 21293 22424 45091 4205 2802 337 21716 20329 2774 14990 708 275 2393 103 16229 8421 4481 2216 2148 2465 1650 32988 7808 12269 4608 2265 12103 1060 3845 1434 278 6303 16282 815 7661 2152 909 516 393 1243 628 171 103 615 345 116 105 394 11043 234 16706 8606 5997 4379 2609 2364 2312 6384 1351 1159 243 916 2791 2710 575 248 422 10945 283 234 638 315 234 4413 907 172 113
internal_count=195398 122422 122370 99239 31924 9500 128 23131 9372 67315 528 354 6979 66787 21696 403 125 21293 22424 45091 4205 2802 337 21716 20329 2774 14990 708 275 2393 103 16229 8421 4481 2216 2148 2465 1650 32988 7808 12269 4608 2265 12103 1060 3845 1434 278 6303 16282 815 7661 2152 909 516 393 1243 628 171 103 615 345 116 105 394 11043 234 16706 8606 5997 4379 2609 2364 2312 6384 1351 1159 243 916 2791 2710 575 248 422 10945 283 234 638 315 234 4413 907 172 113
is_linear=0
shrinkage=0.1


Tree=9
num_leaves=95
num_cat=0
split_feature=2 14 16 13 8 2 23 2 2 8 0 23 13 2 14 16 0 2 20 2 20 16 0 0 16 8 23 8 13 13 0 13 16 13 2 23 8 11 23 8 14 13 13 23 24 23 8 8 13 2 0 8 13 0 24 8 20 13 8 14 24 23 23 23 0 23 18 23 18 20 24 8 13 20 24 16 3 18 23 8 23 14 14 8 24 8 11 18 8 8 8 16 11 8
split_gain=2429.65 1354.83 582.783 340.851 604.635 455.981 332.057 212.162 176.802 165.929 162.651 129.008 128.695 123.582 92.9651 83.6917 69.4767 129.012 63.8466 74.9135 63.5971 71.0454 66.9315 196.314 198.916 63.2061 61.1163 59.828 58.4284 221.713 72.9278 75.1576 86.0671 57.3407 56.9264 90.3355 141.646 72.1601 56.246 97.1656 52.928 52.1755 52.0303 50.6255 50.1999 51.7359 67.8822 95.3634 49.2942 112.422 130.779 60.3243 49.0142 47.2316 47.0541 46.3583 65.5522 75.3485 50.9745 45.6746 44.8574 43.8085 43.705 46.913 43.5014 42.5382 42.4759 42.4752 58.8042 41.7162 40.8759 40.7827 131.67 53.4934 40.779 56.9479 40.7335 58.7692 57.1463 60.5573 123.753 106.393 39.4319 38.7586 37.771 37.2309 35.2523 35.1995 35.0762 32.3845 71.3659 32.0418 61.726 61.6442
threshold=0.0012063167038158277 1.0000000180025095e-35 0.37805077769648682 0.83290193939598234 0.64323411441840839 0.11216163068912266 3.4254131607244434 0.7350001395735033 0.38467057651459552 0.067131095630145687 0.062500000000000014 0.14024630904705679 0.023229395353967734 0.0040744104254110168 0.37500000000000006 0.74380373694094415 0.27083333333333337 0.47771871642493929 0.10728041167915049 0.14635068704356874 0.15389165257817425 0.99980403018770025 0.64583333333333337 0.72916666666666674 6.0198647559935283 0.011294067975511931 34.851003498260319 0.15875026388009292 0.037822932641264607 0.020146186242682652 0.22916666666666669 0.031330000658772637 0.26760747885458475 0.14364000986626921 0.025476088592166941 3.7698682731184978 0.18788262613468446 0.55816373728029622 13.243255179230792 0.36943213004010989 0.62500000000000011 0.020720697257207817 0.075440764850343719 0.62549497900570328 0.038497823231655619 6.536085189595795 0.012075153050453877 0.018091619168249948 0.039326236462605475 0.14502805835953408 0.64583333333333337 0.36943213004010989 0.62533800398021244 0.14583333333333334 0.013238379997038469 0.041144184082752805 0.61756109102955392 0.62533800398021244 0.015009499683343893 0.62500000000000011 0.0063964812699938414 0.42603284676183423 0.0073121632494805534 0.28653003927169451 0.31250000000000006 2.8290376093564915 0.61814595979156983 0.019482931371242889 0.10221200200200108 0.25517706535194773 5.0094401416542782 0.00082330588980367343 0.021448411208939703 0.026229254492814883 1.3925000254572655 0.12555601229002081 0.50000000000000011 0.086728513121191578 2.3592823165147583 0.21574836394342417 1.5216687565318427 0.37500000000000006 0.62500000000000011 0.0025754697065653374 0.06415548471617516 0.28034621068186627 0.55515726179463476 0.0091723816246411793 0.031264513405108725 0.10808528604602072 0.22757019210470766 0.25286517348109877 0.53388066604995388 0.43213004010977424
decision_type=2 2 2 2 2 2 2 2 2 2 2 2 2 2 2 2 2 2 2 2 2 2 2 2 2 2 2 2 2 2 2 2 2 2 2 2 2 2 2 2 2 2 2 2 2 2 2 2 2 2 2 2 2 2 2 2 2 2 2 2 2 2 2 2 2 2 2 2 2 2 2 2 2 2 2 2 2 2 2 2 2 2 2 2 2 2 2 2 2 2 2 2 2 2
left_child=-1 -2 8 7 9 13 -7 10 28 67 12 52 -4 -6 42 -13 17 -10 26 76 22 55 53 24 33 -25 34 43 29 38 91 41 -33 -24 -11 -36 37 -37 69 -40 54 -32 -12 -21 45 46 61 -48 65 50 51 -50 66 -16 60 56 -22 58 -58 -8 85 -26 -18 74 -23 -30 -9 68 -5 89 -19 72 73 -55 75 -64 -20 -78 79 -79 -81 -82 -53 -35 88 86 -28 -49 -85 -3 -91 92 -31 -94
right_child=1 2 3 4 5 6 59 11 16 18 14 15 -14 -15 20 -17 62 70 19 27 21 64 23 25 44 -27 40 -29 48 30 31 32 -34 83 35 36 -38 -39 39 -41 -42 -43 -44 -45 -46 -47 47 87 49 -51 -52 82 -54 71 -56 -57 57 -59 -60 -61 -62 -63 63 -65 -66 -67 -68 -69 -70 -71 -72 -73 -74 -75 -76 -77 77 78 -80 80 81 -83 -84 84 -86 -87 -88 -89 -90 90 -92 -93 93 -95
leaf_value=-0.014366973350214319 0.51898176796161211 -0.0051901952723537852 0.053199247771077318 0.0061677652628431556 0.18701274867327711 0.05008249952167762 0.26799211918361604 0.10744894662977107 0.22460260863684245 -0.0012326219307336335 0.0075382744335944539 0.2172899603624554 -0.00074951541965254033 0.018664736976105024 0.013443470491960444 0.076409192183600358 0.022233481380588623 0.082677852684212613 0.03589614582012432 0.028793341006221003 0.02067534216370762 0.0022262660805112979 0.005090308926807079 0.030010958733850891 0.090598823688924315 -0.0064522074617299752 0.14747012047943744 0.00097060116659535261 0.017793789397865113 0.048657387975312584 0.060183783531286277 0.13857026856705415 0.027199548141677576 -0.024609249638448849 0.010259543999146553 0.23701158398389818 0.029416669070930546 0.089379286556979839 0.16365269367511459 0.029066108512549572 -0.02250302563724893 -0.0085035831346375185 -0.0089993115055698007 0.10421782300097165 0.0010616430308287726 0.011834852342918234 0.25537818293273451 0.13589205428202084 0.024449340034939714 0.0103998602813843 0.20686901453137399 0.038331233436727653 0.010686254130877617 0.045077453070042434 -0.01619335665847316 0.010946503651198859 0.063704461494531003 0.026018271293970899 0.19630382385221312 0.38384627535989563 0.12302839454406729 -0.0087043141532275412 0.13032930229529738 0.004067293517689973 0.021950692038955111 -0.0031769677463458859 0.0043724258286262849 0.0021899347950366148 0.070669795118528209 0.024991168795887479 -0.01254929057874922 -0.0048468378068038144 -0.0019173327465844749 0.1787779152275078 0.02579808817230141 0.058369519255305972 0.028195663400497423 0.14559111268289629 0.18413200144884442 -0.037600062016909033 0.20086124845321721 0.052073243398438489 0.11047357353575837 0.078246422734049276 0.01892999838958033 0.0076379182216312208 0.045851049348711974 0.05751810223244283 0.020292051353497931 0.028026001838500455 0.0027756603142335915 0.040944088709416779 0.07681026247031153 0.17999188023353263
leaf_weight=73458 52 1327 1090 389 53 61 63 124 59 1800 2279 68 744 246 1634 111 803 191 1261 968 1038 21006 2085 515 116 6181 55 925 1600 1045 134 99 232 101 1841 50 568 98 65 307 89 633 11514 98 78 79 50 138 678 2739 50 138 361 57 66 6465 53 132 64 74 130 72 125 187 1181 2446 59 7538 222 2093 59 22265 477 63 312 915 274 93 53 102 67 170 168 329 424 112 90 98 153 1819 2910 1589 335 70
leaf_count=73458 52 1327 1090 389 53 61 63 124 59 1800 2279 68 744 246 1634 111 803 191 1261 968 1038 21006 2085 515 116 6181 55 925 1600 1045 134 99 232 101 1841 50 568 98 65 307 89 633 11514 98 78 79 50 138 678 2739 50 138 361 57 66 6465 53 132 64 74 130 72 125 187 1181 2446 59 7538 222 2093 59 22265 477 63 312 915 274 93 53 102 67 170 168 329 424 112 90 98 153 1819 2910 1589 335 70
internal_value=0 0.00865482 0.00843711 0.00509091 0.0177257 0.126451 0.244157 0.00235932 0.0227259 0.0145581 0.00187485 0.0562884 0.0313138 0.0485057 0.00118835 0.129928 0.0470256 0.0915942 0.0239899 0.0333452 0.0027739 0.00615562 -0.000125868 0.00658755 0.0249963 -0.00364777 0.0163304 0.0195797 0.01958 0.0237782 0.0427722 0.0206836 0.0605098 0.0145543 0.012391 0.0219813 0.0521207 0.139255 0.0145565 0.0525826 0.0479983 0.00349656 -0.00626683 0.0357273 0.0761637 0.0867568 0.0992438 0.129926 0.0127834 0.0210057 0.0491 0.0410833 0.0320577 -0.00298132 0.0618495 0.0143968 0.031729 0.077808 0.136237 0.33057 0.0751591 0.0525678 0.0411453 0.0510129 0.00327618 0.00511597 0.0742166 0.00424539 0.0296039 0.0128207 0.0602042 -0.00415524 0.0216379 0.11527 0.0575061 0.0670185 0.0469132 0.0652168 0.0861318 0.0741086 0.0544984 0.0941357 0.0779388 0.0341495 0.0406999 0.0509451 0.0843962 0.103347 0.0598501 0.00861445 0.0124882 0.0507529 0.061502 0.0946441
internal_weight=0 121940 121888 98760 17556 497 198 81204 23128 17059 80481 723 1834 299 78647 179 2651 309 8910 4011 64854 29939 34915 10419 3723 6696 4899 1991 20477 12658 4137 1098 331 3092 4357 2557 716 148 8521 372 542 767 13793 1066 631 553 474 286 7819 3773 1034 984 544 24496 453 7752 1287 249 117 137 387 188 2342 1539 22187 4046 183 8149 611 8149 250 22862 597 120 1352 1040 2020 759 485 432 339 237 306 1007 906 257 145 236 482 6056 4729 3039 1450 405
internal_count=195398 121940 121888 98760 17556 497 198 81204 23128 17059 80481 723 1834 299 78647 179 2651 309 8910 4011 64854 29939 34915 10419 3723 6696 4899 1991 20477 12658 4137 1098 331 3092 4357 2557 716 148 8521 372 542 767 13793 1066 631 553 474 286 7819 3773 1034 984 544 24496 453 7752 1287 249 117 137 387 188 2342 1539 22187 4046 183 8149 611 8149 250 22862 597 120 1352 1040 2020 759 485 432 339 237 306 1007 906 257 145 236 482 6056 4729 3039 1450 405
is_linear=0
shrinkage=0.1


Tree=10
num_leaves=95
num_cat=0
split_feature=24 16 13 8 2 1 22 23 2 8 10 10 16 0 20 1 12 1 2 2 13 10 22 23 13 13 16 1 2 24 8 23 13 13 2 2 10 0 13 23 24 13 23 16 2 2 16 10 23 22 8 2 13 24 2 22 12 8 23 12 12 13 8 8 2 0 23 8 13 22 2 0 0 8 8 24 23 12 8 22 20 8 20 23 23 2 13 2 12 23 8 12 22 24
split_gain=1970.14 481.369 290.717 459.253 393.844 351.14 394.096 262.556 153.322 147.428 103.911 386.842 127.99 110.936 106.711 98.5384 95.6852 95.4426 135.882 87.2241 80.9295 112.111 75.8552 69.5021 68.3349 209.861 70.2161 65.4554 62.6415 55.5367 55.1138 54.9727 52.0192 183.974 51.9379 76.364 52.8973 49.5637 69.0962 90.6765 49.4288 48.9024 48.4705 104.382 46.7267 50.1108 46.283 43.596 52.539 85.7421 84.1264 64.0094 43.5819 42.8748 42.7071 42.3457 41.0805 44.9113 40.9019 38.988 38.8421 38.2086 37.6408 37.4967 37.2477 37.0616 36.7203 36.4068 128.197 52.7206 39.854 43.2448 43.07 39.0253 35.7062 59.973 51.3552 45.9985 45.1619 43.8324 142.234 58.7395 46.8909 39.9249 36.4427 35.6102 35.3391 109.81 53.7628 34.765 34.5632 32.9305 32.0134 47.8517
threshold=1.0000000180025095e-35 0.36661820520614069 0.83290193939598234 0.64323411441840839 0.10961467453130223 0.50000000000000011 0.33784694597835541 3.4254131607244434 0.36524407790356089 0.09415241714165086 0.74568965517241392 0.76293103448275879 4.9136461305758106 0.14583333333333334 0.011915978099101427 0.83333333333333337 0.47431077694235591 0.83333333333333337 0.58261756691912925 0.20465545322147738 0.62533800398021244 0.23706896551724141 0.0019106421203382636 0.77474760520311614 0.17164320874359809 0.39152102174102893 1.1041952187337369 0.50000000000000011 0.82742802185140218 0.31495801522301886 0.007705298712265149 0.11205012591839895 0.037822932641264607 0.020146186242682652 0.025476088592166941 0.0096461273317348366 0.80603448275862077 0.22916666666666669 0.031330000658772637 0.85404200304972422 0.10797049768285975 0.013960617652961645 13.243255179230792 0.17257347387093486 0.14004443736413724 0.060625550579516373 0.31695838690455586 0.90086206896551735 3.8456453772110115 0.043809889176716375 0.17943846316233908 0.10292820771738385 0.020720697257207817 0.56050489549829829 0.19369081943701727 0.1533270964674793 0.7550125313283208 0.39392020265991146 0.23159335613846996 0.63345864661654139 0.70238095238095244 0.022003771856314035 0.3825205826472452 0.06502005488705935 0.25734426552831285 0.062500000000000014 0.63636728886768801 0.00082330588980367343 0.021448411208939703 0.010358959388032968 0.084509779633140408 0.64583333333333337 0.27083333333333337 0.12624023643656326 0.16466117796073468 0.3097232485274698 1.3859495050523158 0.76629072681704258 0.12075153050453877 0.067652777830903066 0.17826703069972788 0.3981422841460841 0.067929464150619026 2.2108166170295607 1.6415430920227767 0.0068909016646724513 0.039326236462605475 0.14502805835953408 0.51817042606516295 2.8290376093564915 0.36943213004010989 0.62593984962406013 0.057163793774711917 0.12154650330162546
decision_type=2 2 2 2 2 2 2 2 2 2 2 2 2 2 2 2 2 2 2 2 2 2 2 2 2 2 2 2 2 2 2 2 2 2 2 2 2 2 2 2 2 2 2 2 2 2 2 2 2 2 2 2 2 2 2 2 2 2 2 2 2 2 2 2 2 2 2 2 2 2 2 2 2 2 2 2 2 2 2 2 2 2 2 2 2 2 2 2 2 2 2 2 2 2
left_child=-1 8 5 9 22 6 10 -6 32 27 13 12 58 40 -14 41 -16 28 30 67 21 91 -5 24 63 26 66 29 54 44 -19 -30 33 42 35 -11 55 56 52 -40 60 -10 64 -44 45 -4 -43 48 49 -38 -50 -51 -39 -31 -7 74 -35 -58 -12 -18 -3 -13 -56 -21 -2 -66 -26 68 69 -15 71 -69 -72 -74 75 78 -76 -77 -36 82 83 -82 -78 -81 -84 -29 89 88 -88 -34 -90 -8 93 -47
right_child=1 2 3 4 7 17 20 -9 15 34 11 61 14 19 16 -17 59 18 -20 23 -22 -23 -24 -25 25 -27 -28 85 31 53 -32 -33 86 37 36 -37 47 38 39 -41 -42 46 43 -45 -46 92 -48 -49 50 51 -52 -53 -54 -55 62 -57 57 -59 -60 -61 -62 -63 -64 -65 65 -67 -68 70 -70 -71 72 -73 73 -75 76 77 79 -79 -80 80 81 -83 84 -85 -86 -87 87 -89 90 -91 -92 -93 -94 -95
leaf_value=-0.01300525950259131 0.010783187908772522 0.023974786371363549 0.0039671249753969202 0.14884051428391384 0.045074248802466473 -0.013344330307842357 0.16106528938189149 0.29339467878882769 0.14715218929297946 0.029933499804305597 0.086407280796422403 0.045407760892899669 0.01568889744902173 0.054308652810752395 0.27488834955024 0.0086651146639058572 0.083748750295490032 -0.0095212225950611334 0.087238652845560982 0.051256711885663359 0.062344185161753135 0.25663092255015812 0.016361726980539972 0.0039834138444562661 0.10177371996112777 0.018264382437370563 0.18539162230654024 0.034154275225443863 0.01408109311507467 0.13171174428042243 0.011035054213336814 0.11647733922088238 0.01635501910362374 0.042229792952432843 0.011072629079862964 -0.0099597990419913393 0.00068987372094794872 0.055947590092524091 0.16484095214047667 0.031267466680125686 0.0054848037483190334 0.046492072525444156 0.022767181030940265 0.15702050730793016 -0.023618825099891889 0.034917865077780635 0.10262417274661972 0.0032792044087098199 0.21263968121536353 0.16938528748850029 0.05475886793600189 0.058900336243655496 -0.0079137608093803689 0.036174253243952993 -0.0070916478674457623 -0.010538253073260329 0.053747493044675312 0.13346806575175163 0.032781184220847692 0.19631467641331257 0.056250963538886124 0.0045542032367351442 0.010283788850833683 0.00081077788619617638 0.092812887063649097 0.011460881225398876 0.031325379100887389 -0.0038413500051460293 0.0042425900147853622 0.19745678680263601 0.0027835722332617309 0.0061904709820195056 0.027573880989224964 0.0045546180592243033 -0.002461722049446515 0.10594955929463692 0.048599359437731318 0.016878476600956035 0.048424345830825111 0.099342322343866168 0.0607274272473785 -0.036117255099719241 0.078272585832138572 0.21150909582810368 0.0015101259838400493 0.001795650908118968 0.14871585642546414 0.0078462400489672218 0.028470121857752023 -0.0026766780234556611 0.070504992666959379 0.059847437866911705 0.013026281663875903 0.13375975428149106
leaf_weight=72978 7877 1950 295 52 61 12851 50 141 54 978 260 245 52 50 66 647 80 2196 197 172 271 63 256 2784 245 1221 78 354 255 85 3212 66 1589 2582 640 942 252 131 66 221 1226 1929 296 72 196 96 159 169 54 60 90 416 580 105 10770 317 212 106 314 50 461 3490 1410 1028 112 112 106 16226 448 53 11199 5845 1513 1435 726 204 405 81 655 84 131 120 67 51 804 8655 50 2551 601 2424 290 90 89 100
leaf_count=72978 7877 1950 295 52 61 12851 50 141 54 978 260 245 52 50 66 647 80 2196 197 172 271 63 256 2784 245 1221 78 354 255 85 3212 66 1589 2582 640 942 252 131 66 221 1226 1929 296 72 196 96 159 169 54 60 90 416 580 105 10770 317 212 106 314 50 461 3490 1410 1028 112 112 106 16226 448 53 11199 5845 1513 1435 726 204 405 81 655 84 131 120 67 51 804 8655 50 2551 601 2424 290 90 89 100
internal_value=0 0.0077528 0.00476414 0.0163753 0.109895 0.00225431 0.00734822 0.218407 0.0209096 0.0136057 0.00649798 0.0209024 0.0830088 0.00507224 0.143041 0.0428659 0.176828 -0.00614933 0.00565959 0.00363463 0.0981067 0.145849 0.0387283 0.0152211 0.0261986 0.0394039 0.0995702 0.00571972 -0.00876013 0.0304578 0.00268787 0.0351345 0.017828 0.0218137 0.0244616 0.0103609 0.0295449 0.0397917 0.0205699 0.0619847 0.0218331 0.0531964 0.0135391 0.0490341 0.0185934 0.0328582 0.0507665 0.0497642 0.0587733 0.0478565 0.113964 0.072827 0.00385254 0.0789147 -0.00932304 0.0246328 0.0464067 0.080321 0.0570718 0.127043 0.0301462 0.00723402 -0.00508021 0.00804136 0.0119267 0.0521369 0.0804987 0.00185926 0.0273708 0.127967 0.00147115 -0.00118465 0.0056145 0.0163688 0.0274426 0.0391046 0.0197265 0.0806346 0.0299648 0.0294188 0.0589454 0.0144272 0.0204868 0.141716 0.00741493 0.00306715 0.0112603 0.0186164 0.0478138 0.00485917 0.0421515 0.0959967 0.0627629 0.0853474
internal_weight=0 122420 99759 17731 510 82028 51071 202 22661 17221 50597 4557 822 46040 248 2789 196 30957 5605 42403 474 203 308 5634 2850 1650 429 9975 25352 966 5408 321 19872 12367 7246 1920 5326 3898 998 287 3637 2142 8469 368 776 580 2088 1041 872 728 144 476 711 190 25031 4285 2900 318 574 130 2411 3735 12180 1200 8101 224 351 36769 551 103 36218 22071 14147 2948 3968 1580 2388 285 1295 1662 386 251 1276 135 871 9009 7505 3492 941 4013 891 140 285 196
internal_count=195398 122420 99759 17731 510 82028 51071 202 22661 17221 50597 4557 822 46040 248 2789 196 30957 5605 42403 474 203 308 5634 2850 1650 429 9975 25352 966 5408 321 19872 12367 7246 1920 5326 3898 998 287 3637 2142 8469 368 776 580 2088 1041 872 728 144 476 711 190 25031 4285 2900 318 574 130 2411 3735 12180 1200 8101 224 351 36769 551 103 36218 22071 14147 2948 3968 1580 2388 285 1295 1662 386 251 1276 135 871 9009 7505 3492 941 4013 891 140 285 196
is_linear=0
shrinkage=0.1


Tree=11
num_leaves=95
num_cat=0
split_feature=24 14 16 8 16 18 22 19 10 4 8 22 16 8 10 16 10 8 8 16 14 23 8 18 8 16 21 20 14 10 23 23 22 8 16 18 16 23 23 16 8 10 16 18 16 4 19 8 18 19 8 8 8 8 16 18 8 8 23 22 22 23 8 23 19 22 16 18 18 3 8 14 10 18 16 19 23 10 10 14 8 21 8 16 18 8 16 22 18 4 4 16 21 4
split_gain=1596.69 1075.38 383.237 170.328 255.38 503.067 116.15 104.046 90.7711 121.704 71.3077 90.835 130.072 72.6693 64.3826 93.8179 133.941 146.835 59.483 59.2784 50.8285 46.1829 65.9398 58.4669 38.7577 37.2868 35.5283 79.4808 34.0131 48.3981 32.359 30.4265 56.2349 34.07 30.4526 30.0624 30.0064 66.9164 70.7794 78.6122 33.3064 29.2021 28.3115 56.405 27.9656 111.125 80.4764 64.7727 39.5601 32.9204 31.9978 30.8485 37.5226 27.925 64.4269 125.261 56.6568 63.5135 56.083 36.4565 88.8615 44.0788 39.802 34.7531 34.1614 33.7961 40.9536 31.8156 30.5469 29.2339 27.8244 30.916 27.3718 27.8498 26.7179 26.9352 26.4518 26.1518 36.6248 25.3455 25.2161 37.0263 25.1324 29.6083 23.9402 23.3742 22.8646 23.6232 34.9032 22.8218 22.5597 22.3392 22.2356 42.0241
threshold=0.0020581358009741026 1.0000000180025095e-35 0.36661820520614069 0.64323411441840839 6.8051631002941884 0.07762705742966651 0.0023325971760271048 1.6958462496819433 0.53879310344827591 0.93650793650793662 0.087819294912391835 0.40369230781559579 0.83464671446334204 0.13637323200337773 0.80603448275862077 5.834036097515221 0.7543103448275863 0.0078319611568503297 0.022693687988178179 1.0149788866853282 0.62500000000000011 0.8278836796803507 0.013911758496938995 0.01946928002313868 0.0014143972978678491 0.15654456138150299 1.534063460702898 0.76665807318279655 0.87500000000000011 0.48706896551724138 0.17467783627843744 0.019482931371242889 0.083300701316200196 0.0014143972978678491 482.9075440680391 0.03794429417466167 0.21308094361997543 0.034177467252759018 0.51336665929571146 0.24363085304026089 0.018767152206037582 0.99568965517241392 0.023326618449160393 0.17271926557350578 0.18067718530162144 0.93650793650793662 26.936095072995716 0.16803884314967285 0.07762705742966651 2.7096490037380332 0.11695165716698334 0.22883681655055949 0.41883048342833024 0.12075153050453877 5.4532183330240516 0.052253465248272728 0.1498838927591303 0.13552881570614317 1.4075888555945191 0.068400304212850357 0.072970958916540068 1.6661496690971431 0.35592146928435731 0.04712547027558537 4.6054100277186061 0.028498817069677183 1.2373643791275737 0.089305300662478812 0.53691095634953834 0.50000000000000011 0.1807050876081909 0.87500000000000011 0.5043103448275863 0.46993029539891501 0.29205193662901857 8.8903093913759026 3.4905890901620418 0.80603448275862077 0.90948275862068972 0.87500000000000011 0.015642811906269795 12.426105152820968 0.002512138484272747 3.0991209850970916 0.055568343229501757 0.0099852227147983978 6.2205821819653488 0.052346519614415075 0.08755723544300191 0.77777777777777779 0.26984126984126988 0.8539542937021406 0.4933373430083608 0.30158730158730163
decision_type=2 2 2 2 2 2 2 2 2 2 2 2 2 2 2 2 2 2 2 2 2 2 2 2 2 2 2 2 2 2 2 2 2 2 2 2 2 2 2 2 2 2 2 2 2 2 2 2 2 2 2 2 2 2 2 2 2 2 2 2 2 2 2 2 2 2 2 2 2 2 2 2 2 2 2 2 2 2 2 2 2 2 2 2 2 2 2 2 2 2 2 2 2 2
left_child=-1 -2 7 8 -5 6 -6 25 10 31 19 -12 13 -13 15 21 -17 -18 -19 24 -7 22 82 -24 -4 26 27 -3 -21 -30 -25 32 -10 -33 53 -26 -27 40 39 -39 -38 42 43 76 50 46 48 -48 49 -46 84 70 -53 63 65 -56 57 -57 67 61 -61 -60 -62 -35 -64 66 -55 -58 -67 -59 -52 -72 90 -74 75 -51 -9 79 -79 -65 81 85 -11 -84 -44 -31 -81 -88 -89 -69 -29 -70 93 -37
right_child=1 2 3 4 5 20 -8 41 9 14 11 12 -14 -15 -16 16 17 18 -20 28 -22 -23 23 30 35 36 -28 72 29 80 -32 33 -34 34 -36 92 37 38 -40 -41 -42 -43 44 -45 45 -47 47 -49 -50 74 51 52 -54 54 55 56 58 69 59 60 62 -63 64 77 -66 68 -68 89 91 -71 71 -73 73 -75 -76 -77 -78 78 -80 86 -82 -83 83 -85 -86 -87 87 88 -90 -91 -92 -93 -94 -95
