tree
version=v4
num_class=1
num_tree_per_iteration=1
label_index=0
max_feature_idx=56
objective=regression
feature_names=Column_0 Column_1 Column_2 Column_3 Column_4 Column_5 Column_6 Column_7 Column_8 Column_9 Column_10 Column_11 Column_12 Column_13 Column_14 Column_15 Column_16 Column_17 Column_18 Column_19 Column_20 Column_21 Column_22 Column_23 Column_24 Column_25 Column_26 Column_27 Column_28 Column_29 Column_30 Column_31 Column_32 Column_33 Column_34 Column_35 Column_36 Column_37 Column_38 Column_39 Column_40 Column_41 Column_42 Column_43 Column_44 Column_45 Column_46 Column_47 Column_48 Column_49 Column_50 Column_51 Column_52 Column_53 Column_54 Column_55 Column_56
feature_infos=[0:1] [0:1] [0:1] [0:1] [0:1] [0:0.99999999999999989] [0:1] [0:1] [0:1.0000000000000002] [0:1] [0:1] [0:1] [0:0.99999999999999978] [0:1.0000000000000002] [0:1] [0:1] [-77.243147884324387:1725.7990123704615] [-118.816023913365:1817.9035403076637] [-132.39523837375259:1889.5500441895092] [-118.64934411636327:1815.46834048906] [-129.70556884121726:1779.3270952336907] [-82.569588865918732:1757.4943545462077] [-141.25595092773438:1769.3074951171875] [-144.52165222167969:1825.8104248046875] [-139.28742295661681:1810.994846194556] [-133.39321899414062:1902.8226318359375] [-50.479262603310232:1777.423053033305] [-204.37896728515625:1903.165771484375] [-164.20441717561286:1946.3539793260434] [-137.73320007324219:1832.579833984375] [-183.39239105666056:1894.3465370632039] [-181.54194641113281:2019.2491455078125] [-67.382258024407093:1833.5378710608179] [-119.00753784179688:1942.3848876953125] [-127.65635681152344:2020.392333984375] [-132.74960327148438:1817.8985595703125] [-135.63218688964844:1914.828125] [-199.35469250584214:1757.1062860262689] [-145.1058714803282:1894.8102934229828] [-199.66578197190336:1737.0450671895867] [-179.4680832587182:1948.9367603788246] [-209.11862350001428:1732.5542514597241] [-233.02079856776669:1825.0911989028907] [-167.07418472542878:1892.37005125732] [-159.85105614204093:2008.7770205305687] [-113.43063134081582:1948.7338575797628] [-122.58933841142854:1840.8546007353075] [1.8474111129762605e-13:1467.6690430756421] [0.00015179238233997694:1378.1228517520829] [0.00017135411899005248:1397.2215494061675] [0.00032154167656983645:1271.9379835949644] [0.00034639790531798553:1317.1984963220821] [0.00015089405100354725:1567.9579252028022] [0.00046435560646784779:1267.8514640658002] [1.0360513869045462e-06:1337.0789815523758] [0.00017063554355445376:1353.375695437531] [0.0029349480890914492:1319.7662034104596]
tree_sizes=8513 8714 8752 8757 8818 8668 8755 8716 8703 8741 8856 8791 8831 8790 8740 8839 8808 8823 8717 8702 8874 8763 8829 8877 8912 8857 8824 8849 8849 8823 8881 8871 8921 8893 8991 8907 8864 8848 8953 8935 8887 8908 8901 9000 8975 9001 8969 9126 9072 9006 8841 9010 9043 8947 9045 9059 9060 8980 9043 8828 8829 8950 8942 9100 9182 8984

Tree=0
num_leaves=95
num_cat=0
split_feature=16 16 16 16 50 16 35 16 18 46 21 16 2 49 9 21 30 2 24 4 51 56 16 16 37 2 55 9 50 55 54 49 3 4 5 34 48 38 22 24 33 29 10 14 4 47 10 25 56 52 14 50 21 14 3 40 8 10 50 36 8 8 53 10 12 14 53 54 18 53 26 51 48 24 31 15 47 12 49 35 54 32 14 5 5 32 45 37 23 23 52 46 32 45
split_gain=31529.3 9610.77 8934.18 2972.76 1477.73 1101.15 1073.9 728.091 278.289 259.546 179.781 173.662 163.967 154.594 150.875 139.037 131.13 131.088 127.022 123.582 105.614 155.627 99.1566 88.9996 88.957 124.99 137.255 108.533 78.197 69.2267 91.5604 97.7602 67.2413 101.034 64.5481 65.6322 97.8148 66.5933 80.6828 62.9809 74.8712 61.53 62.5593 61.6854 58.6218 58.378 56.4145 68.1932 84.2437 125.671 81.172 75.9027 58.9672 55.0372 92.996 70.3552 57.3881 70.8547 71.2026 55.1306 54.2279 116.741 54.1298 53.8322 58.658 53.5108 51.3439 88.2127 51.0255 56.2092 49.059 57.9586 53.9728 48.1856 47.9987 47.6399 46.9403 88.8896 49.3376 61.4385 66.2298 52.8388 46.499 55.1369 79.5938 45.1914 47.4634 76.7245 44.7128 44.6126 44.2366 97.3588 43.5127 43.1437
threshold=158.59027324100416 554.30764657092254 61.320526533721186 313.87870431381333 444.3157560236798 106.89341625744767 16.690071105957035 213.78615546747133 385.94610030530907 502.46775907221121 575.25853328965468 82.404580100524839 0.13347995517674355 106.03121979709084 0.46052631578947373 279.98128758258997 401.4482117227663 0.11211263422391064 121.53294188804877 0.58730158730158732 169.03596722377353 93.007301024839037 40.222818384572228 176.27813648489095 429.50693983851858 0.085758106203742801 233.39282715430105 0.5921052631578948 183.27629381462444 156.71409659884196 140.74765591929722 147.67679434146035 1.0000000180025095e-35 0.84126984126984128 0.011723198811587029 559.44589233398449 98.871242554581826 532.80669060849164 442.74049377441412 358.30409309231965 345.01663208007818 438.88928222656256 0.64224137931034486 0.87500000000000011 0.23809523809523811 263.58989303270101 0.60775862068965525 375.52532958984381 124.48979316673702 141.98364877527234 0.87500000000000011 159.85053519474297 384.51367433367813 0.62500000000000011 0.50000000000000011 218.51749351962997 0.39138695376820781 0.39224137931034492 147.47638645016951 251.48972320556643 0.63901203293223574 0.48279501794384644 88.102750976342719 0.40948275862068967 0.56203007518796999 0.37500000000000006 93.086402392285308 96.770393787502726 270.34915776284072 229.80931012020284 586.75981388615503 134.86989789801268 257.94556465236445 358.30409309231965 111.41927337646486 0.91666666666666674 92.783211296171714 0.40037593984962411 155.50185892437315 340.56840515136724 131.19160419064804 384.6219294093442 1.0000000180025095e-35 0.17120574399603866 0.49121069571676163 216.85851687850706 162.22390675164476 193.45977301692747 207.97891235351565 143.11685943603518 74.826923306387485 124.38653031094027 138.00718317849984 136.86372556623377
decision_type=2 2 2 2 2 2 2 2 2 2 2 2 2 2 2 2 2 2 2 2 2 2 2 2 2 2 2 2 2 2 2 2 2 2 2 2 2 2 2 2 2 2 2 2 2 2 2 2 2 2 2 2 2 2 2 2 2 2 2 2 2 2 2 2 2 2 2 2 2 2 2 2 2 2 2 2 2 2 2 2 2 2 2 2 2 2 2 2 2 2 2 2 2 2
left_child=2 3 6 7 10 11 -1 23 13 -6 45 -4 17 65 20 68 76 44 -7 24 21 -12 -8 93 -16 28 -27 -28 -26 30 31 32 -23 -34 -18 36 -36 39 -39 -38 -41 -37 -43 -44 -11 63 62 50 -49 -50 -48 -52 -51 56 55 -55 57 58 -15 -57 61 -58 -42 -3 -65 -5 -67 -68 -9 92 71 -40 -73 85 -25 -30 -10 -78 79 80 -79 -80 -14 -84 -85 88 87 -87 -17 -20 91 -76 -70 -2
right_child=1 4 5 8 9 18 22 15 16 12 14 -13 82 53 19 73 34 -19 89 -21 -22 29 -24 74 25 26 27 -29 75 -31 -32 -33 33 -35 35 41 37 38 70 40 46 42 43 -45 -46 -47 47 48 49 52 51 -53 -54 54 -56 59 60 -59 -60 -61 -62 -63 -64 64 -66 66 67 -69 69 -71 -72 72 -74 -75 90 -77 77 78 81 -81 -82 -83 83 84 -86 86 -88 -89 -90 -91 -92 -93 -94 -95
leaf_value=-0.01837915051130825 0.042526377320160978 0.24324158372467594 0.00012626808877568013 0.031826199702586794 0.10629877117262124 0.012954409600500576 -0.011078158757153735 0.049533084454854444 0.036589154148954528 0.21308594913731141 0.10895623987754191 0.0067987580337708631 0.33881460230359806 0.22211698509972425 0.13435370925657927 0.11496804303082331 0.10045217031793123 0.39448114077455793 0.018320186152275379 0.16183516876571713 0.12700951177893563 0.17269600056842802 -0.005704050119933698 0.11112519019710757 0.13656907132767521 0.37943471049586108 0.33759853351764391 0.17367417794600423 0.32032339487334927 0.11162782023516948 0.33316852866866759 0.11198132148122626 0.18431885300170986 0.36336862610763154 0.23947105631549331 0.25079182445457471 0.20624497161503996 0.27415463217511188 0.22798032643383578 0.073836464612067845 0.2212583236221059 0.10799717579071547 0.2977521113029431 0.12616901652997567 0.33277254431275471 0.071380030945469269 0.13262766467517453 0.077445532644861162 0.31807009520119273 0.023156412825750775 0.31903733106440141 0.14841959083245432 0.14500428249461969 0.18578848907834131 0.039503557444883194 0.016927320627287832 0.11987659175113183 0.07458626296725461 0.094786267151294526 0.079561731771733049 0.07287947563032432 0.29625232919539851 0.10300634625391587 0.2091423775359823 0.094082502272408497 0.1179866051469701 0.26787855770342056 0.12600572629010515 0.15186810651371999 0.028194132084580166 0.2324150640963101 0.025565200840292748 0.14200983114029803 0.036998578546272837 0.22641347268706399 0.20174686855229246 0.19678174102789001 0.12284436430125216 0.049756150266795134 0.088326296899896684 0.25947418670590561 0.1009481020359578 0.34096607746666513 0.12478828926370378 0.2905556780510018 0.073093845863996323 0.072157575368599139 0.21225400139222134 0.029676222121557114 0.024476609665484296 0.038353167308420574 0.04466515682614753 0.063194387272060698 0.026969345604055076
leaf_weight=77985 515 12.999999999999998 19896 12.999999999999998 11.999999999999998 9970 14485 3916 39 13.999999999999998 36 19125 17 17 13.999999999999998 18 266 130 8471 48 84 18 21066 23 22 36 18 23 15.999999999999998 10.999999999999998 22 17 12.999999999999998 20 18 19 19 13.999999999999998 9.9999999999999982 99 9.9999999999999982 37 11 10 38 34 33 64 9.9999999999999982 10.999999999999998 16.000000000000004 10.999999999999998 102 14.999999999999998 191 37 43 309 31 696 28 11.999999999999998 300 15.999999999999998 36 103 18 28 13.999999999999998 119 11.999999999999998 17 24 110 9.9999999999999982 18 20 34 113 97 11.999999999999998 91 9.9999999999999982 15.000000000000002 13.999999999999998 26 1390 15.999999999999998 105 4509 5294 28 1171 3310
leaf_count=77985 515 13 19896 13 12 9970 14485 3916 39 14 36 19125 17 17 14 18 266 130 8471 48 84 18 21066 23 22 36 18 23 16 11 22 17 13 20 18 19 19 14 10 99 10 37 11 10 38 34 33 64 10 11 16 11 102 15 191 37 43 309 31 696 28 12 300 16 36 103 18 28 14 119 12 17 24 110 10 18 20 34 113 97 12 91 10 15 14 26 1390 16 105 4509 5294 28 1171 3310
internal_value=5.38415e-09 0.0596621 -0.00676143 0.0527108 0.233443 0.008508 -0.0150959 0.0441074 0.0978786 0.333183 0.185025 0.00339659 0.344623 0.0829082 0.199437 0.0563986 0.113066 0.367643 0.0171987 0.231493 0.171152 0.198217 -0.00789369 0.0348891 0.254238 0.266858 0.308194 0.245641 0.21002 0.230033 0.244505 0.21582 0.250432 0.292834 0.121939 0.128686 0.124285 0.121528 0.165582 0.116503 0.113903 0.1727 0.147118 0.216046 0.300549 0.124468 0.121025 0.138851 0.12397 0.148178 0.185232 0.249526 0.133143 0.0774802 0.0706425 0.0785937 0.0920724 0.0833656 0.139883 0.0764001 0.129522 0.158359 0.106821 0.152237 0.129486 0.129113 0.137601 0.181521 0.0523857 0.0609524 0.141454 0.120052 0.0937279 0.0689795 0.0390499 0.257548 0.0887423 0.0942845 0.0883769 0.110895 0.158487 0.0725918 0.269806 0.239725 0.204814 0.0712418 0.0737399 0.126107 0.042158 0.0204588 0.038739 0.0924937 0.064242 0.029064
internal_weight=0 19890 175507 19125 765 61971 113536 16065 3060 250 515 39021 238 1541 416 6885 1519 182 22950 195 221 137 35551 9180 147 133 77 41 56 101 90 68 51 33 1113 847 770 752 77 675 656 77 58 21 52 99 557 247 187 123 60 27 113 1379 939 748 440 357 48 733 83 55 310 65 52 162 149 46 5220 1304 63 51 41 1665 5355 34 406 367 347 143 46 204 56 39 29 1555 1432 42 123 12980 5332 38 1185 3825
internal_count=195397 19890 175507 19125 765 61971 113536 16065 3060 250 515 39021 238 1541 416 6885 1519 182 22950 195 221 137 35551 9180 147 133 77 41 56 101 90 68 51 33 1113 847 770 752 77 675 656 77 58 21 52 99 557 247 187 123 60 27 113 1379 939 748 440 357 48 733 83 55 310 65 52 162 149 46 5220 1304 63 51 41 1665 5355 34 406 367 347 143 46 204 56 39 29 1555 1432 42 123 12980 5332 38 1185 3825
is_linear=0
shrinkage=1


Tree=1
num_leaves=95
num_cat=0
split_feature=16 17 16 16 50 36 16 16 18 32 44 24 49 16 30 47 55 16 56 2 2 16 12 8 21 16 34 56 47 5 49 50 2 56 49 37 11 38 35 53 23 21 51 49 55 40 50 53 14 3 37 31 51 20 11 50 11 55 28 24 11 12 18 30 10 11 33 54 49 3 32 12 12 34 11 45 35 55 15 42 52 31 2 11 52 11 35 54 32 5 11 21 10 2
split_gain=28455.2 8769.4 8071.57 2660.47 1439.36 1174.05 832.446 525.565 369.814 212.247 183.963 133.927 143.133 118.308 117.43 108.154 115.912 107.749 103.264 99.0808 106.822 94.2987 93.581 92.9956 91.208 80.3222 70.0337 87.709 83.5676 68.1837 119.983 104.782 77.1827 74.3307 78.3526 68.2338 72.6359 68.3396 67.7162 67.2729 77.7131 90.7521 81.3009 66.8603 64.8896 64.4425 64.46 63.8288 63.7816 85.6824 72.0946 59.9147 58.5752 101.141 58.3989 57.6034 83.2621 66.9346 66.2676 64.3778 55.3185 56.4659 55.315 66.3803 55.1002 54.6606 52.5696 52.0134 57.4474 51.5888 49.9727 51.108 76.9703 49.4029 64.9441 56.0208 75.1659 74.8076 49.0282 48.8627 67.956 51.7878 48.7162 48.5632 57.9532 51.748 48.0458 47.6638 45.2229 44.1534 44.0238 43.6094 47.261 44.2677
threshold=158.59027324100416 556.84315060806273 66.264247406132213 294.30738052571036 444.3157560236798 21.720842361450199 106.89341625744767 213.78615546747133 385.94610030530907 590.15144815045221 530.14554610929054 195.79477539420856 101.75837392221177 125.92949526394801 401.4482117227663 121.45946442657745 148.15420188483628 86.652309067584085 87.316721297204637 0.13347995517674355 0.11211263422391064 45.593926940302104 0.73496240601503759 0.13975089719231584 279.98128758258997 176.27813648489095 559.44589233398449 96.828665789811978 166.6105721431199 0.011723198811587029 129.73432165398341 116.80099378512462 0.012225031650412051 123.30445374461796 179.18437883624941 370.19822869528576 0.51052266419981518 327.47348478490562 378.15180969238287 132.12715086456936 337.47933959960943 447.60852838662947 143.98174003750668 260.95109704886607 169.25504985421395 525.4957623346661 108.52346497219189 406.48790219756637 0.62500000000000011 0.50000000000000011 331.67163381104098 255.9187927246094 86.642120272985849 356.45960972868937 0.49826549491211852 153.61096107368985 0.59678538390379299 185.0522840985646 557.52772365882686 460.89810417448496 0.63309435707678097 0.75751879699248115 554.5398316298872 460.42271306833806 0.40948275862068967 0.60048566142460702 254.13486480712893 163.47426070023053 144.89840157898911 0.90000000000000013 314.98877302412711 0.40037593984962411 0.33270676691729328 265.46139526367193 0.57620259019426479 294.25509494912126 439.51544189453131 127.88574179026988 1.0000000180025095e-35 185.2091174978643 141.98364877527234 280.16375732421881 0.0059351845603654784 0.59539777983348763 98.279724973213334 0.64188251618871439 439.51544189453131 169.75613861668597 216.85851687850706 0.11141371626640258 0.51191026827012043 316.8044932629204 0.69396551724137945 0.11211263422391064
decision_type=2 2 2 2 2 2 2 2 2 2 2 2 2 2 2 2 2 2 2 2 2 2 2 2 2 2 2 2 2 2 2 2 2 2 2 2 2 2 2 2 2 2 2 2 2 2 2 2 2 2 2 2 2 2 2 2 2 2 2 2 2 2 2 2 2 2 2 2 2 2 2 2 2 2 2 2 2 2 2 2 2 2 2 2 2 2 2 2 2 2 2 2 2 2
left_child=2 3 5 7 9 82 17 25 11 26 -6 -5 18 -8 70 83 22 -4 64 20 69 -7 45 -18 -9 -2 62 -28 -29 -16 31 32 -31 44 39 36 37 -36 -34 89 -41 42 -42 -30 -32 -17 -47 -25 50 66 -14 -15 53 -20 -37 56 -56 58 -57 -59 88 79 63 -3 -13 -45 -50 68 -48 -12 -10 72 -72 -52 75 77 91 -75 -54 -62 -81 -82 -1 84 -11 -85 -43 -65 -26 -35 -51 93 -93 -77
right_child=1 4 6 8 10 21 13 24 14 15 19 12 48 51 29 16 23 -19 52 -21 -22 -23 -24 47 60 -27 27 28 43 30 33 -33 38 34 35 54 -38 -39 -40 40 41 86 -44 65 -46 46 67 -49 49 90 73 -53 78 -55 55 57 -58 59 -60 -61 61 -63 -64 87 -66 -67 -68 -69 -70 -71 71 -73 -74 74 -76 76 -78 -79 -80 80 81 -83 -84 85 -86 -87 -88 -89 -90 -91 -92 92 -94 -95
leaf_value=-0.017680761324671321 0.027610749454062944 0.2523183725096963 0.0015431464656219618 0.25723435360938313 0.14684422782489234 -0.0093321050063834808 0.01274885451485931 0.049170265794055999 0.050673805717637556 0.17128761614334176 0.32057656151907787 0.12066737956784923 0.070437556432737386 0.019822014906674235 0.092579518038666181 0.1364557509975774 0.14158042595363582 0.0071726025461727712 0.12150257897491634 0.2720451355564828 0.37475708272594677 -0.0043262446871697013 0.35750634607515841 0.20313383206178293 0.030049671300023551 0.037097416118495909 0.2906736943870783 0.048549646533587398 0.24996738237769983 0.27046911107997101 0.076428697555892031 0.2973957896365651 0.21909786086333427 0.17884912544654474 0.046128494981676323 0.065740571845028753 0.055001069775316873 0.21085507615524182 0.11266262485512667 0.078188315245576887 0.18056698545813554 0.22564801262183615 0.36461958160003027 0.18388655923772601 0.20789232030510904 0.15321462943684311 0.42545159101486196 0.32034616034764513 0.038427331611020576 0.068270362253216185 0.037379683881998062 0.14226277925074102 0.041963621707899232 0.32750433466651224 0.28007345914840692 0.063169592477832784 0.10718922170882042 0.094411628197745567 0.16337212782183833 0.15712410165854779 0.15427271981025115 0.18349152780137956 0.071305636592723182 0.17917929675716615 0.029661458100263889 0.034870248064398771 0.073796835019824744 0.2261712015739509 0.26854295613510265 0.2070107530270304 0.063921105265617353 0.087426526106482508 0.25174567401409148 0.11985294388141479 0.081899862594025985 0.22664687701246958 0.21234821428855263 0.30037070854820991 0.14422503856605748 0.035253115588827731 0.080018387983242678 0.20723350644111635 -0.013125937829297225 0.25905753821134564 0.058938286523334688 0.11975389681756497 0.077867828648198745 0.050285624974640092 0.064610775200332982 0.079155916977545315 0.025384133771518842 0.038385468452636684 0.14211741047911347 0.10282919518649579
leaf_weight=73901 3825 10.999999999999998 19125 9.9999999999999982 13.999999999999998 17475 11475 4999 90 22 35 29 436 11465 263 13.999999999999998 65 15300 13.000000000000002 51 130 20379 19 109 106 5355 11.999999999999998 17 19 11.999999999999998 153 13.999999999999998 19 18 10.000000000000002 38 80 17 70 10.999999999999998 10.000000000000002 11.000000000000002 14.999999999999998 16.000000000000004 9.9999999999999982 11.999999999999998 10.000000000000002 12.999999999999998 117 88 25 9.9999999999999982 13.999999999999998 10.999999999999998 15.000000000000002 66 12.999999999999998 56 22 152 20 15.999999999999998 58 13.000000000000002 39 9.9999999999999982 1029 21 13.999999999999998 13.999999999999998 10.000000000000002 301 11.999999999999998 12.000000000000002 102 10.999999999999998 18 10.999999999999998 72 59 24 11.999999999999998 6377 15.000000000000002 24 11.999999999999998 10.999999999999998 15.999999999999998 884 29 187 35 15.999999999999998 21
leaf_count=73901 3825 11 19125 10 14 17475 11475 4999 90 22 35 29 436 11465 263 14 65 15300 13 51 130 20379 19 109 106 5355 12 17 19 12 153 14 19 18 10 38 80 17 70 11 10 11 15 16 10 12 10 13 117 88 25 10 14 11 15 66 13 56 22 152 20 16 58 13 39 10 1029 21 14 14 10 301 12 12 102 11 18 11 72 59 24 12 6377 15 24 12 11 16 884 29 187 35 16 21
internal_value=0 0.056679 -0.00642336 0.0500345 0.222566 -0.0138961 0.00896259 0.0407111 0.0873377 0.175706 0.322815 0.074653 0.0738543 0.0163388 0.106398 0.198057 0.212325 0.00404513 0.11691 0.333526 0.351043 -0.00663716 0.258948 0.189887 0.0520608 0.0331446 0.130226 0.166942 0.142994 0.114834 0.121703 0.169204 0.151434 0.114292 0.122753 0.114013 0.0789337 0.149845 0.135385 0.161795 0.197823 0.225822 0.290999 0.178673 0.084494 0.232573 0.25618 0.215624 0.0702187 0.0641714 0.0827271 0.0199287 0.146852 0.21592 0.124381 0.131259 0.199806 0.124775 0.0882202 0.14024 0.0649507 0.0954847 0.102501 0.147735 0.0684728 0.126573 0.0701858 0.283638 0.333922 0.288129 0.0836227 0.0928035 0.166371 0.104075 0.111453 0.135762 0.119724 0.206188 0.127578 0.0832403 0.0682861 0.122423 -0.0173189 0.143914 0.112671 0.197145 0.151758 0.108066 0.0609103 0.117336 0.0391077 0.0996373 0.0709288 0.145392
internal_weight=0 19890 175507 19124 766 118132 57375 15300 3824 522 244 2296 2286 22950 1528 350 277 34425 178 230 179 37854 90 187 6120 9180 172 74 62 1115 852 115 101 737 574 469 107 27 89 105 58 47 25 45 163 71 57 122 2108 1421 687 11475 110 24 362 324 28 296 88 208 1121 131 98 40 68 26 1146 45 24 49 413 323 22 251 226 124 101 23 86 115 95 36 80278 73 46 27 22 29 990 47 275 83 51 32
internal_count=195397 19890 175507 19124 766 118132 57375 15300 3824 522 244 2296 2286 22950 1528 350 277 34425 178 230 179 37854 90 187 6120 9180 172 74 62 1115 852 115 101 737 574 469 107 27 89 105 58 47 25 45 163 71 57 122 2108 1421 687 11475 110 24 362 324 28 296 88 208 1121 131 98 40 68 26 1146 45 24 49 413 323 22 251 226 124 101 23 86 115 95 36 80278 73 46 27 22 29 990 47 275 83 51 32
is_linear=0
shrinkage=0.05


Tree=2
num_leaves=95
num_cat=0
split_feature=16 17 16 16 50 16 16 16 18 32 44 49 16 24 30 47 55 16 2 2 12 8 16 22 24 2 35 8 49 50 2 35 56 49 16 51 32 35 12 52 33 37 11 38 40 14 9 55 43 36 8 9 13 37 45 54 26 20 11 50 11 55 28 24 25 10 33 13 33 37 8 8 55 52 26 50 56 52 34 34 12 44 3 12 13 29 45 40 26 11 52 11 28 33
split_gain=25680.8 7914.38 7287.12 2404.49 1299.02 1095.18 726.309 591.514 217.892 191.553 166.027 128.082 119.781 109.273 99.6952 97.6093 104.611 90.1066 89.4204 96.4071 84.4568 83.9285 72.4908 66.8647 80.7049 66.383 66.3094 62.9942 121.553 99.3221 83.5206 96.1448 62.983 63.1831 62.0136 61.7948 59.9102 69.5335 96.8151 78.4757 59.4191 58.6075 64.0135 61.6765 58.1593 61.217 74.5911 57.8294 57.3076 64.3726 70.0523 102.807 109.94 87.6646 101.709 81.9292 53.8356 53.4994 52.705 51.987 75.1441 60.4085 59.8065 58.101 63.9314 51.7933 60.599 59.2161 82.5415 61.3326 60.115 112.665 55.4124 51.2906 50.744 62.8483 50.3214 49.972 48.6944 52.341 83.2866 74.047 46.5589 46.4913 45.1502 45.1031 45.0141 56.8425 43.9834 43.8283 52.3027 46.7026 43.076 71.0139
threshold=158.59027324100416 556.84315060806273 67.084659003095439 313.87870431381333 444.3157560236798 29.498930887111349 106.89341625744767 213.78615546747133 385.94610030530907 590.15144815045221 530.14554610929054 106.03121979709084 254.34335748124775 121.53294188804877 401.4482117227663 121.45946442657745 148.15420188483628 91.240845853254314 0.13347995517674355 0.11211263422391064 0.73496240601503759 0.13975089719231584 176.27813648489095 343.31907653808599 221.69468407157015 0.0088752943092232413 378.15180969238287 0.016276124129195695 129.73432165398341 103.75035205682515 0.012225031650412051 378.15180969238287 123.30445374461796 179.18437883624941 45.593926940302104 135.54570137007263 314.98877302412711 439.51544189453131 0.7299498746867169 145.59069328019257 381.09181213378912 370.19822869528576 0.51052266419981518 327.47348478490562 525.4957623346661 0.62500000000000011 0.27631578947368424 169.25504985421395 221.31430695936501 290.66600036621099 0.0078319611568503297 0.25000000000000006 0.039326236462605475 235.07566387894494 198.87431601460133 102.14190254196903 296.79096016009322 252.46134027530908 0.49826549491211852 153.61096107368985 0.59678538390379299 185.0522840985646 557.52772365882686 460.89810417448496 375.52532958984381 0.46982758620689663 293.07063293457037 0.15641081520814923 435.81581115722662 253.40371200281371 0.12201815495039058 0.083175005277601882 117.1074503459477 175.54256898870005 317.10066081777069 120.71255784439767 115.95492556660172 132.01575148035985 437.87937927246099 382.75846862792974 0.67982456140350889 365.20863852789307 0.90000000000000013 0.73746867167919794 0.042294160363642502 198.53822326660159 198.87431601460133 271.42375305904358 387.82310708782956 0.59539777983348763 98.279724973213334 0.64188251618871439 324.14256093804977 315.08172607421881
decision_type=2 2 2 2 2 2 2 2 2 2 2 2 2 2 2 2 2 2 2 2 2 2 2 2 2 2 2 2 2 2 2 2 2 2 2 2 2 2 2 2 2 2 2 2 2 2 2 2 2 2 2 2 2 2 2 2 2 2 2 2 2 2 2 2 2 2 2 2 2 2 2 2 2 2 2 2 2 2 2 2 2 2 2 2 2 2 2 2 2 2 2 2 2 2
left_child=2 3 5 7 9 25 17 22 11 26 -6 78 23 -8 -10 89 20 -4 19 82 44 -18 -2 -9 -25 -1 -3 84 29 30 -29 -32 47 35 -7 -34 -37 38 -38 -39 -31 42 43 -35 -17 77 -47 -30 49 50 -14 52 -52 85 56 -54 -55 -56 -43 60 -60 62 -61 -63 -65 67 -67 68 69 -13 71 -69 -72 -59 -51 -76 -57 -46 79 81 -81 -5 -12 -73 -16 -53 -68 -88 -83 90 -11 -91 93 -71
right_child=1 4 6 8 10 34 13 12 14 15 18 65 48 -15 27 16 21 -19 -20 -21 -22 -23 -24 24 -26 -27 -28 28 32 40 31 -33 33 41 -36 36 37 39 -40 -41 -42 58 -44 -45 45 46 -48 -49 -50 74 51 53 55 54 57 76 -58 73 59 61 -62 63 -64 64 -66 66 86 70 -70 92 72 83 -74 -75 75 -77 -78 -79 -80 80 -82 88 -84 -85 -86 -87 87 -89 -90 91 -92 -93 -94 -95
leaf_value=-0.016796130094582265 0.026230211958744157 0.010353727856030066 0.0021260105285445473 0.082960163082366131 0.13950202273471016 -0.0083696328957170094 0.011585214741532032 0.044496820315316862 0.080365697347536041 0.16272323571822861 0.30454773766653881 0.22097533471882344 0.03181481705241216 0.018545591986536793 0.1259474687560721 0.12963296664612634 0.13450140419774331 0.0075835809486178383 0.25844287965811935 0.35601922986599122 0.33963102714011545 0.20484248788141812 0.035242545362105616 0.23659892007708541 0.035719778500497339 -0.012302054884288866 0.13221649892162532 0.27325394868850711 0.073366806277159705 0.15528822866353117 0.243342585173937 0.093995149908143852 0.094457106094341728 0.043822070644237092 -0.0041410372477701232 0.06502569325268269 0.34014972551415368 0.25197573170065873 0.16587020018521478 0.077280790048340958 0.30442718582994799 0.062453543044332621 0.053173790511946331 0.2003123191130512 0.25192809373140329 0.22608016373022743 0.37246170522911209 0.19749770151451229 0.05489346286157766 0.032266716836980111 0.03549945345864846 0.15487866743157308 0.32669776916503906 0.13516345530748361 0.20339480191469195 0.089756560870088042 0.29922989170998332 0.065979972392223876 0.26606979052225743 0.060011112399815561 0.1018297597192801 0.089691048441454771 0.15520352324978873 0.26002684483925503 0.13977427207648621 0.040881161530604344 0.17609370008111003 0.052012168038636446 0.25390194840729235 0.051532396910161787 0.15162805343667668 0.12388568120422189 0.038622841561229623 0.17335248921926205 0.036922532491959051 0.19931063354015352 0.2350627038966526 0.093858509808778773 0.049584689946926164 0.10845933726386113 0.27010439366102218 0.21703795372713577 0.19666021719042745 0.23367323686679203 0.076974433076339652 0.055063385594349257 0.036083593929337486 0.07454481416068684 0.10001464754056473 0.24610466678937271 0.055991373339202261 0.11376620245476564 0.069692989043307618 0.2212986184017999
leaf_weight=73647 3825 11.999999999999998 22185 73 13.999999999999998 14554 9970 3805 405 22 35 9.9999999999999982 60 12980 61 13.999999999999998 65 11475 51 130 19 122 5355 10.000000000000002 9.9999999999999982 9249 160 9.9999999999999982 152 11.000000000000002 12.999999999999998 63 32 10.000000000000002 21447 9.9999999999999982 14.999999999999998 10.000000000000002 17 18 17 38 79 17 10.000000000000002 23 13.999999999999998 9.9999999999999982 2467 131 12.999999999999998 11.999999999999998 9.9999999999999982 10.000000000000002 9.9999999999999982 13.000000000000002 9.9999999999999982 77 15.000000000000002 66 12.999999999999998 56 22 11.999999999999998 140 215 9.9999999999999982 50 9.9999999999999982 11.000000000000002 11.999999999999998 27 113 12.999999999999998 13.000000000000002 10.999999999999998 10.999999999999998 9.9999999999999982 23 17 14.999999999999998 21 13.999999999999998 14.999999999999998 206 199 111 714 12.999999999999998 15.000000000000002 24 11.999999999999998 67 13.999999999999998
leaf_count=73647 3825 12 22185 73 14 14554 9970 3805 405 22 35 10 60 12980 61 14 65 11475 51 130 19 122 5355 10 10 9249 160 10 152 11 13 63 32 10 21447 10 15 10 17 18 17 38 79 17 10 23 14 10 2467 131 13 12 10 10 10 13 10 77 15 66 13 56 22 12 140 215 10 50 10 11 12 27 113 13 13 11 11 10 23 17 15 21 14 15 206 199 111 714 13 15 24 12 67 14
internal_value=0 0.053845 -0.00610219 0.0475327 0.211438 -0.0131323 0.00866302 0.0397963 0.0881623 0.166921 0.306674 0.0749178 0.0508748 0.0155218 0.101607 0.188154 0.201709 0.00398655 0.31685 0.333491 0.246 0.180392 0.0314874 0.0449761 0.136159 -0.0162947 0.123714 0.109337 0.11602 0.164045 0.137415 0.119541 0.10854 0.116359 -0.00585052 0.152017 0.17833 0.197214 0.247564 0.139672 0.245837 0.108588 0.0758892 0.142353 0.220944 0.243371 0.281468 0.0810292 0.0582482 0.0722046 0.0820045 0.0899711 0.15917 0.0801453 0.114266 0.206456 0.217197 0.0936799 0.118162 0.124696 0.189815 0.118536 0.0838092 0.133228 0.149268 0.0699771 0.064553 0.0872881 0.116815 0.103375 0.0720486 0.102724 0.0494713 0.0814893 0.0445119 0.11135 0.156355 0.172893 0.116975 0.128126 0.18423 0.111347 0.273723 0.163096 0.088163 0.0607401 0.0706482 0.06937 0.172294 0.136719 0.107037 0.187288 0.090592 0.146601
internal_weight=0 19890 175507 19124 766 118897 56610 16065 3059 522 244 1541 6885 22950 1518 350 277 33660 230 179 90 187 9180 3825 20 82896 172 1113 846 114 86 76 732 570 36001 102 70 60 32 28 28 468 106 27 71 57 37 162 3060 593 438 378 47 331 120 34 20 100 362 324 28 296 88 208 152 1379 1050 329 112 102 217 92 125 90 155 24 24 20 162 139 32 107 49 42 267 211 835 825 34 73 46 27 92 25
internal_count=195397 19890 175507 19124 766 118897 56610 16065 3059 522 244 1541 6885 22950 1518 350 277 33660 230 179 90 187 9180 3825 20 82896 172 1113 846 114 86 76 732 570 36001 102 70 60 32 28 28 468 106 27 71 57 37 162 3060 593 438 378 47 331 120 34 20 100 362 324 28 296 88 208 152 1379 1050 329 112 102 217 92 125 90 155 24 24 20 162 139 32 107 49 42 267 211 835 825 34 73 46 27 92 25
is_linear=0
shrinkage=0.05


Tree=3
num_leaves=95
num_cat=0
split_feature=16 17 16 16 50 16 36 16 16 32 44 16 16 24 49 56 47 55 53 46 18 21 1 8 4 38 28 51 16 34 56 47 0 49 51 21 32 8 12 49 50 42 51 52 11 16 31 10 14 5 18 30 11 11 12 4 56 11 31 51 14 37 28 36 15 23 33 39 14 17 5 44 30 47 28 44 5 40 13 42 15 5 31 11 51 54 15 19 11 54 52 46 32 27
split_gain=23177 7142.73 6579.2 2173.3 1172.37 806.902 791.512 426.538 299.389 172.877 149.839 131.074 101.574 99.6783 95.3069 94.7585 88.0924 94.4113 84.8099 99.6416 78.9047 78.2331 77.9139 75.7455 95.961 89.1424 74.2789 72.2549 65.4229 61.6742 79.1574 75.4197 60.4849 60.3414 59.8423 71.8725 56.9419 86.2524 64.6388 64.1172 85.418 76.1506 57.8574 56.8697 56.4079 55.2396 54.3023 53.6004 50.8863 63.7544 49.6045 59.8415 49.3312 49.0801 49.7423 88.6258 48.7099 50.5772 48.6207 108.622 51.3134 47.9514 46.7304 46.6609 85.4221 63.3154 45.8771 57.3755 67.7946 82.8577 111.246 85.6492 114.201 45.8484 59.3563 45.6301 51.1053 45.4996 45.049 44.348 52.8303 43.3877 43.3189 66.2526 43.2883 42.811 41.8998 40.517 42.4534 40.1506 39.9235 87.8663 39.8756 42.5871
threshold=158.59027324100416 556.84315060806273 61.320526533721186 294.30738052571036 444.3157560236798 106.89341625744767 21.720842361450199 213.78615546747133 379.66363699133382 590.15144815045221 530.14554610929054 82.404580100524839 125.92949526394801 201.37880468120585 101.75837392221177 87.908061837941403 121.45946442657745 148.15420188483628 120.25763280692678 502.46775907221121 346.77441233013377 279.98128758258997 0.50000000000000011 0.13975089719231584 0.26984126984126988 532.80669060849164 324.14256093804977 160.04645680047261 176.27813648489095 559.44589233398449 96.828665789811978 166.6105721431199 0.22916666666666669 260.95109704886607 86.642120272985849 346.63661173312454 384.6219294093442 0.01184293856871438 0.74624060150375937 129.73432165398341 100.35167263533036 351.23731102973005 76.250512240707067 113.18712340652459 0.73693339500462551 42.574327882098864 255.9187927246094 0.073275862068965539 0.62500000000000011 0.53206239168110925 554.5398316298872 460.42271306833806 0.60048566142460702 0.63309435707678097 0.7449874686716792 0.58730158730158732 187.41278913383653 0.58175300647548578 373.68959045410162 105.45591570714708 0.37500000000000006 188.53234451383778 557.52772365882686 375.60943603515631 0.91666666666666674 374.91453552246099 345.01663208007818 303.69906418078835 0.62500000000000011 382.07408943254325 0.038252042584798231 365.20863852789307 401.4482117227663 155.36769520340309 250.26957124148271 115.14571877880314 0.26590740282248088 286.23562839230266 0.13549765676107547 317.37654492617776 0.75000000000000011 0.015486506561029959 111.41927337646486 0.59192876965772456 243.87423768185155 169.75613861668597 0.41666666666666669 103.45473481721848 0.54983811285846451 144.69269588339003 74.826923306387485 124.38653031094027 216.85851687850706 339.91152954101568
decision_type=2 2 2 2 2 2 2 2 2 2 2 2 2 2 2 2 2 2 2 2 2 2 2 2 2 2 2 2 2 2 2 2 2 2 2 2 2 2 2 2 2 2 2 2 2 2 2 2 2 2 2 2 2 2 2 2 2 2 2 2 2 2 2 2 2 2 2 2 2 2 2 2 2 2 2 2 2 2 2 2 2 2 2 2 2 2 2 2 2 2 2 2 2 2
left_child=2 3 6 7 9 11 -1 28 13 29 -6 -4 -7 -5 15 77 -11 18 19 -18 32 -9 -12 -19 25 -25 -10 89 87 50 -31 -32 -16 -33 35 -17 38 -38 58 40 42 -42 -39 -41 66 75 -14 -34 -24 -50 51 -3 -35 92 61 -56 57 -26 59 -28 -61 -55 -44 64 65 -60 -22 -68 -69 71 -71 72 78 -63 -75 -8 -77 -15 -70 -62 -81 -29 83 -30 -58 -53 -86 88 -2 -20 91 -84 -23 -94
right_child=1 4 5 8 10 12 45 21 26 16 22 -13 46 14 20 34 17 23 27 -21 44 53 48 24 56 -27 36 81 82 30 31 33 47 52 -36 -37 37 39 -40 43 41 -43 62 -45 -46 -47 -48 -49 49 -51 -52 85 -54 54 55 -57 84 -59 63 60 79 73 -64 -65 -66 -67 67 68 69 70 -72 -73 -74 74 -76 76 -78 -79 -80 80 -82 -83 90 -85 86 -87 -88 -89 -90 -91 -92 -93 93 -95
leaf_value=-0.015637977274793557 0.16874554821056331 0.23364555239677431 8.957536239403257e-05 0.22496712505817415 0.13252692201307842 0.01141938977667278 -0.0089000148554265746 0.044277110592415542 0.037854324797836118 0.12988280900690247 0.22439271852630993 0.0058864515148879986 0.017970536608976566 0.01201223370829417 0.068910483188936236 0.11998061632568183 0.057177269163851942 0.12777633413672448 0.27179659710210907 0.23245656776428222 0.065919233293983567 0.026107592695889081 0.29052596613764764 0.14518853023648262 0.29009456879326273 0.32523130815137519 0.23574905287888318 0.12803528428077693 0.027524033711793322 0.2695291910398131 0.039511339914272817 0.23085818384823048 0.1483920700274981 0.16808140655048187 0.11357913822015159 0.3051906879246235 0.076820049885073724 0.2332976468652487 0.049041630507067398 0.049204118287753923 0.1196248339728781 0.25678778061270718 0.095956859287495422 0.10861137533705999 0.19496448963880542 -0.0046744458891403049 0.13453557461500168 0.04601472413173871 0.36310224633883026 0.25484533537836634 0.061969961991919009 0.16407821166973846 0.026515911817550659 0.16063709259033204 0.26589834302663795 0.060231946341016078 0.085062014839301509 0.15569481924176218 0.17298292182385921 0.18863785403470201 0.010851880918360418 0.035995902721920318 0.20061071813106537 0.065650397789790552 0.250216650813818 0.062703102246977074 0.054138515203272647 0.061431012665695055 0.18735269153756756 0.085974686936690248 0.27792311753663751 0.057140255151782185 0.30048000223934657 0.012716789814558897 0.15393242363048637 0.0019789242185652253 0.14606755629181864 0.095194549869213788 0.078731540717805429 0.064480233884283464 0.20411149770021442 0.26905307322740557 0.21147579520940785 0.19870819389820099 0.10679296950499217 0.041922160633839668 0.21173160849855496 0.024545614218685473 0.023051646091043949 0.38613930089133131 0.032818505562462262 0.03881489534562986 0.056539972911540171 0.11815027663291529
leaf_weight=80249 10.000000000000002 10.999999999999998 19896 9.9999999999999982 13.999999999999998 11475 14504 4999 53 73 29 19125 11465 31 588 11.000000000000002 11.999999999999998 65 17.000000000000004 25 465 106 116 9.9999999999999982 14.000000000000002 22 18 10.000000000000002 13.000000000000002 11.999999999999998 17 19 12.999999999999998 16.000000000000004 82 9.9999999999999982 227 9.9999999999999982 108 43 17 25 96 638 9.9999999999999982 18757 9.9999999999999982 773 68 17 58 13.000000000000002 9.9999999999999982 13.999999999999998 10.000000000000002 10.999999999999998 21 13.999999999999998 18 11.999999999999998 18 62 11.999999999999998 146 9.9999999999999982 47 73 59 13.999999999999998 13.000000000000002 18 50 9.9999999999999982 10.999999999999998 23 16.000000000000004 9.9999999999999982 35 30 21.000000000000004 9.9999999999999982 11.999999999999998 9.9999999999999982 9.9999999999999982 14.999999999999998 15.999999999999998 26 3805 9.9999999999999982 13.999999999999998 5294 28 855 29
leaf_count=80249 10 11 19896 10 14 11475 14504 4999 53 73 29 19125 11465 31 588 11 12 65 17 25 465 106 116 10 14 22 18 10 13 12 17 19 13 16 82 10 227 10 108 43 17 25 96 638 10 18757 10 773 68 17 58 13 10 14 10 11 21 14 18 12 18 62 12 146 10 47 73 59 14 13 18 50 10 11 23 16 10 35 30 21 10 12 10 10 15 16 26 3805 10 14 5294 28 855 29
internal_value=0 0.0511528 -0.00579708 0.0451561 0.200866 0.00730625 -0.0129492 0.0367295 0.0788714 0.158575 0.291341 0.00293074 0.0147458 0.0674521 0.0667627 0.102896 0.178746 0.191624 0.2337 0.175609 0.0638769 0.0469541 0.301007 0.171373 0.1946 0.268968 0.0960116 0.274254 0.029913 0.117529 0.151984 0.129233 0.0567815 0.163128 0.132866 0.208176 0.0980999 0.10417 0.0822109 0.111552 0.140034 0.201269 0.118239 0.10486 0.0770157 -0.00646715 0.0180721 0.047708 0.312061 0.341451 0.0915115 0.134347 0.113633 0.058892 0.0876529 0.158168 0.168159 0.222895 0.0941518 0.127819 0.0959703 0.0741909 0.107585 0.082117 0.114172 0.0932421 0.0754043 0.0919233 0.106141 0.125681 0.197429 0.104295 0.147957 0.0615841 0.108245 -0.00878138 0.0573976 0.0561241 0.113293 0.0732762 0.109523 0.204954 0.0334804 0.101952 0.143439 0.0966818 0.173339 0.0249187 0.0958986 0.323435 0.0331851 0.084252 0.0550863 0.0585611
internal_weight=0 19890 175507 19124 766 61971 113536 15300 3824 522 244 39021 22950 2295 2285 169 350 277 90 37 2116 6120 230 187 122 32 1529 53 9180 172 74 62 1374 45 103 21 1476 1068 408 841 160 42 118 681 742 33287 11475 786 201 85 98 40 26 1121 131 21 90 28 300 79 61 110 108 221 75 65 732 267 194 135 31 104 54 96 34 14530 26 66 44 49 31 22 5355 23 62 29 41 3825 20 31 5332 38 990 884
internal_count=195397 19890 175507 19124 766 61971 113536 15300 3824 522 244 39021 22950 2295 2285 169 350 277 90 37 2116 6120 230 187 122 32 1529 53 9180 172 74 62 1374 45 103 21 1476 1068 408 841 160 42 118 681 742 33287 11475 786 201 85 98 40 26 1121 131 21 90 28 300 79 61 110 108 221 75 65 732 267 194 135 31 104 54 96 34 14530 26 66 44 49 31 22 5355 23 62 29 41 3825 20 31 5332 38 990 884
is_linear=0
shrinkage=0.05


Tree=4
num_leaves=95
num_cat=0
split_feature=16 17 16 17 50 16 16 16 33 32 44 16 41 44 2 55 56 24 49 47 55 2 2 53 16 8 51 2 55 53 2 20 35 53 2 44 38 23 52 23 25 39 56 26 31 2 29 55 35 18 51 35 52 20 16 34 31 32 38 24 36 5 54 48 47 11 49 36 21 47 11 52 56 14 56 51 2 56 47 55 49 26 18 0 13 11 5 22 5 8 38 9 35 2
split_gain=20917.2 6446.31 5946.11 1968.08 1058.06 894.31 589.29 387.426 296.947 156.021 135.23 126.136 125.542 113.647 104.357 155.69 145.508 95.3054 89.7444 79.5034 85.2062 77.0765 82.8758 76.5409 75.4733 68.3603 67.3525 73.0849 63.7439 114.025 67.6507 62.068 57.8558 57.3015 55.9453 55.6637 69.8978 58.014 55.0809 53.9875 83.5087 123.658 94.4466 85.8904 116.47 51.8237 51.7544 50.5106 60.6947 73.7626 85.6378 109.803 56.917 49.5036 49.3274 46.9447 46.6827 46.004 61.2428 47.7994 44.109 42.7577 42.2311 87.7149 67.4865 61.9206 42.6224 41.4844 41.3134 40.7454 39.555 47.2032 43.7371 38.663 38.4517 54.7916 37.8285 106.068 84.0184 66.7069 51.9817 37.7508 51.3545 83.1228 48.9918 41.8801 48.4135 46.2812 52.0943 166.142 86.6638 88.4723 44.3916 97.0435
threshold=158.59027324100416 556.84315060806273 67.084659003095439 298.69901327103969 444.3157560236798 29.498930887111349 106.89341625744767 195.14068912412594 345.01663208007818 590.15144815045221 530.14554610929054 254.34335748124775 525.38943778813893 273.68912951926012 0.013922431129522059 127.27708781558455 96.185079308964589 129.85603457259018 106.98198810825953 121.45946442657745 148.15420188483628 0.13347995517674355 0.11211263422391064 120.25763280692678 91.240845853254314 0.13975089719231584 169.03596722377353 0.13124457126229136 88.158824238435827 90.534554236077085 0.52113910037340483 307.35800581030765 378.15180969238287 406.48790219756637 0.0088752943092232413 328.2939511620458 364.68835034044548 236.05117797851565 91.512921037018501 255.07920074462893 256.67076110839849 261.26301428873666 114.12480055602295 296.79096016009322 255.9187927246094 0.26251258284233975 237.75740051269534 92.088290298563592 135.84958648681643 158.76311947644911 92.968691740387484 117.5210418701172 100.18419085609469 100.69479881763634 45.593926940302104 315.60913085937506 545.74404907226574 343.78918488476222 364.68835034044548 572.72055394158338 310.58747863769537 0.46769002228274331 201.90097030161616 257.94556465236445 228.67958045197341 0.56648936170212782 318.34563072140003 242.65106201171878 295.93453237139107 130.20504128896943 0.59539777983348763 98.279724973213334 94.126356255789446 0.62500000000000011 181.80036642185317 243.87423768185155 0.14361666978833537 97.65343181077354 157.69305810365668 169.25504985421395 122.05385540516998 296.79096016009322 300.37702200222662 0.68750000000000011 0.042294160363642502 0.46635060129509726 0.56796236692250568 556.41598510742199 0.18110918544194113 0.17183871648722826 327.47348478490562 0.64473684210526327 378.15180969238287 0.027533359029852704
decision_type=2 2 2 2 2 2 2 2 2 2 2 2 2 2 2 2 2 2 2 2 2 2 2 2 2 2 2 2 2 2 2 2 2 2 2 2 2 2 2 2 2 2 2 2 2 2 2 2 2 2 2 2 2 2 2 2 2 2 2 2 2 2 2 2 2 2 2 2 2 2 2 2 2 2 2 2 2 2 2 2 2 2 2 2 2 2 2 2 2 2 2 2 2 2
left_child=2 3 5 7 9 34 24 47 12 32 -6 53 18 74 15 16 -15 46 28 70 23 22 61 56 -4 -22 27 -25 29 30 38 55 -3 62 -1 37 45 -30 -5 -20 41 42 -41 44 -44 -37 -8 48 49 50 51 -2 -51 -9 -7 -16 -21 -17 -59 -60 -49 -12 65 -64 -65 -27 -66 -42 -55 -58 71 -11 -72 -24 -10 -76 77 -34 -79 -80 -78 84 83 -83 -33 -84 87 88 89 92 -91 -92 93 -87
right_child=1 4 6 8 10 54 17 11 13 19 21 -13 -14 14 31 57 -18 -19 39 20 25 -23 73 26 -26 33 -28 -29 35 -31 -32 81 76 -35 -36 36 -38 -39 -40 40 67 -43 43 -45 -46 -47 -48 60 -50 52 -52 -53 -54 68 -56 -57 69 58 59 -61 -62 -63 63 64 66 -67 -68 -69 -70 -71 72 -73 -74 -75 75 -77 80 78 79 -81 -82 82 85 -85 -86 86 -88 -89 -90 90 91 -93 -94 -95
leaf_value=-0.015175647240355847 0.06178448870777703 0.0057638426000873252 0.0019152850893615564 0.052216957425888701 0.12590057594435555 -0.0075241518537384998 0.01112185220296855 0.14938913382589819 0.04287617781778752 0.14809293252500622 0.27553145178726746 0.05183924839773657 0.2221301943063736 0.10758720122037396 0.14060482417366335 0.025795785312286837 0.25355802147012008 0.017732562221976233 0.033510746781840892 0.074544172585010532 0.12138751976191997 0.23173100153605142 0.29625760185367922 0.3484241584936778 0.0069100794236124745 0.31198738614718113 0.16646604495389122 0.20773357460896175 0.14048415677001078 0.25353363063186407 0.21348291581327264 0.13445174880325794 0.270892040857247 0.28409383450992981 -0.011049984046095035 0.23900983445346347 0.017742702116568886 0.020053688401239927 0.15449294104344316 0.036534680649638177 0.036888704158795568 0.048079986836195798 0.14718286082148543 0.092643333077430723 0.38295340538024902 0.092063591474046316 0.11093490679676717 0.024229254306200005 0.031194305395493744 0.034300192384980624 0.013984913196569929 0.26470343550046288 0.15384451381184838 0.037355791575874923 -0.0037528020622763498 0.043240425824709938 0.12092311289161439 0.19830226947863897 0.053647709076698774 0.15215084188514286 0.11642970202060848 0.17214179188013079 0.024434562704779887 0.27458265530211584 0.099305037328082588 0.1544820720759722 0.186441473931902 0.060535096362728684 0.06272449097962994 0.24811714206110028 0.10538928990180674 0.046697662631049755 0.23275168814829419 0.35085087630056566 0.1684400879777968 0.03952620370751795 -0.0027222537689588289 0.035622715540230276 0.238085064291954 0.091317373377581446 0.11286794614061364 0.076397017050873137 0.052643579312799761 0.27557596392929556 0.035625250183110094 0.23720900028944017 0.14785590568875395 0.061667044267735699 0.074652828495711726 0.068046224061399693 0.30207271277904513 0.13452293127775192 0.08895578405710311 0.10610213135259526
leaf_weight=73647 12.000000000000002 11.999999999999998 22185 49 13.999999999999998 14554 13112 9.9999999999999982 164 22 35 2373 11.999999999999998 31 13.999999999999998 22 38 9825 228 9.9999999999999982 65 51 68 24 11475 12.000000000000002 13.999999999999998 14.999999999999998 11.999999999999998 13.999999999999998 10.999999999999998 15.999999999999998 13.999999999999998 12.999999999999998 9249 12.000000000000002 11.999999999999998 60 18 9.9999999999999982 221 42 10.000000000000005 9.9999999999999982 10.999999999999998 11.999999999999998 12.999999999999998 5983 732 105 11.999999999999998 14.999999999999998 10.999999999999998 5865 21447 107 10.000000000000002 14.999999999999998 39 18 12.999999999999998 13.999999999999998 10.999999999999998 13.999999999999998 23 12.999999999999998 36 1154 165 17 13.000000000000002 24 13.999999999999998 62 15.999999999999998 17 10.999999999999998 20 16.000000000000004 14.999999999999998 84 11.000000000000002 63 9.9999999999999982 58 14.999999999999998 41 110 235 9.9999999999999982 20 12.999999999999998 608 239
leaf_count=73647 12 12 22185 49 14 14554 13112 10 164 22 35 2373 12 31 14 22 38 9825 228 10 65 51 68 24 11475 12 14 15 12 14 11 16 14 13 9249 12 12 60 18 10 221 42 10 10 11 12 13 5983 732 105 12 15 11 5865 21447 107 10 15 39 18 13 14 11 14 23 13 36 1154 165 17 13 24 14 62 16 17 11 20 16 15 84 11 63 10 58 15 41 110 235 10 20 13 608 239
internal_value=0 0.0485951 -0.00550723 0.0428983 0.190823 -0.0118576 0.00783038 0.0348741 0.0749614 0.150646 0.276774 0.0420718 0.0609186 0.0887714 0.0928621 0.130941 0.187977 0.0140085 0.0598929 0.169809 0.182042 0.285957 0.301407 0.222015 0.00361806 0.162804 0.260542 0.294312 0.0915606 0.122144 0.0985617 0.0889087 0.111652 0.18487 -0.0147153 0.0655076 0.116272 0.0401254 0.0796941 0.0561363 0.0596745 0.108379 0.170149 0.21325 0.270682 0.165537 0.0112207 0.0260766 0.0372129 0.0656361 0.125123 0.174517 0.0456363 0.0382343 -0.00527743 0.0545057 0.166829 0.0890747 0.10841 0.084754 0.0244292 0.245992 0.173036 0.156058 0.175891 0.230085 0.152473 0.0567345 0.03805 0.201008 0.123389 0.0951911 0.171429 0.322294 0.0527852 0.10203 0.119594 0.148986 0.115521 0.167068 0.0994838 0.0917815 0.0936538 0.171244 0.0569931 0.0924504 0.0943929 0.0926393 0.0956279 0.101074 0.196993 0.236068 0.0962896 0.113845
internal_weight=0 19890 175507 19124 766 118897 56610 15296 3828 522 244 8413 1898 1930 1733 163 69 22950 1886 350 277 230 179 90 33660 187 53 39 200 92 78 1570 172 122 82896 108 36 72 67 1686 1458 83 41 31 21 24 13125 6883 887 155 39 27 116 6040 36001 121 37 94 72 57 5996 49 109 84 73 25 59 1375 6030 27 73 46 27 130 197 33 160 65 51 31 95 1449 1375 21 74 1354 1291 1250 1140 905 43 33 862 254
internal_count=195397 19890 175507 19124 766 118897 56610 15296 3828 522 244 8413 1898 1930 1733 163 69 22950 1886 350 277 230 179 90 33660 187 53 39 200 92 78 1570 172 122 82896 108 36 72 67 1686 1458 83 41 31 21 24 13125 6883 887 155 39 27 116 6040 36001 121 37 94 72 57 5996 49 109 84 73 25 59 1375 6030 27 73 46 27 130 197 33 160 65 51 31 95 1449 1375 21 74 1354 1291 1250 1140 905 43 33 862 254
is_linear=0
shrinkage=0.05


Tree=5
num_leaves=95
num_cat=0
split_feature=16 16 17 16 50 35 16 16 16 32 44 16 49 16 16 33 51 47 55 22 2 2 53 46 4 38 8 11 53 11 51 2 27 50 22 25 32 4 25 2 2 4 34 56 47 5 38 18 16 14 39 55 10 8 43 36 8 9 21 53 21 44 12 0 10 38 52 51 16 8 26 49 34 2 4 35 52 43 36 39 22 12 34 26 50 18 18 30 47 12 11 50 51 20
split_gain=18893.1 5671.14 5656.08 1628.91 954.899 807.469 606.017 345.269 166.086 140.809 122.045 108.638 99.7211 89.754 80.6933 75.5169 73.0496 71.7518 76.8986 70.239 69.5616 74.7955 69.0782 84.4117 65.2382 66.173 67.0031 63.072 67.0563 116.381 60.7856 65.9592 60.756 81.5825 59.7032 71.6344 58.6474 57.1736 73.0992 58.7942 114.06 53.7558 53.2934 65.645 63.4694 55.3177 66.2448 52.517 57.8 79.7528 87.0778 118.344 54.322 63.4882 52.4086 57.6691 62.7222 90.8238 100.603 100.256 74.1541 57.2341 181.663 74.0084 50.7073 77.0772 48.2425 47.4043 49.5348 47.2486 62.924 69.1868 47.1845 49.6604 46.6991 46.5622 45.8909 63.3257 49.1073 104.104 45.6631 46.439 57.8121 45.216 56.1018 44.7383 44.4803 52.0409 43.9492 91.5395 51.7242 48.6083 46.1748 43.2098
threshold=165.05940352658283 67.084659003095439 556.84315060806273 313.87870431381333 444.3157560236798 16.690071105957035 106.89341625744767 213.78615546747133 437.54894548156983 590.15144815045221 530.14554610929054 125.92949526394801 107.68728627291345 254.34335748124775 45.593926940302104 345.01663208007818 101.62982662394724 121.45946442657745 148.15420188483628 81.202846527099624 0.13347995517674355 0.11211263422391064 120.25763280692678 502.46775907221121 0.58730158730158732 422.23722583861519 0.13975089719231584 0.47999537465309911 93.086402392285308 0.55284458834412598 169.03596722377353 0.13124457126229136 376.19436645507818 99.4232170123651 343.31907653808599 281.49195861816412 314.98877302412711 0.33333333333333337 375.52532958984381 0.013922431129522059 0.010472481005647374 0.23809523809523811 559.44589233398449 96.828665789811978 166.6105721431199 0.18581332012874477 532.80669060849164 385.94610030530907 379.66363699133382 0.62500000000000011 303.69906418078835 221.10061023123978 0.46982758620689663 0.63478995144606298 221.31430695936501 290.66600036621099 0.0078319611568503297 0.25000000000000006 295.93453237139107 100.08677715365496 254.17423812634294 250.69161135835608 0.72619047619047616 0.27083333333333337 0.48706896551724138 232.98351634935983 92.430373191763096 101.62982662394724 189.92114958463051 0.0060586869326578014 456.00656965393483 133.47408678161844 315.60913085937506 0.1707025054095884 0.65079365079365081 292.72027587890631 210.29381007695508 244.93178759485042 375.60943603515631 365.49515751591395 556.41598510742199 0.72869674185463651 559.44589233398449 317.10066081777069 120.71255784439767 270.34915776284072 554.5398316298872 460.42271306833806 157.69305810365668 0.52944862155388484 0.60811748381128605 159.85053519474297 169.03596722377353 252.46134027530908
decision_type=2 2 2 2 2 2 2 2 2 2 2 2 2 2 2 2 2 2 2 2 2 2 2 2 2 2 2 2 2 2 2 2 2 2 2 2 2 2 2 2 2 2 2 2 2 2 2 2 2 2 2 2 2 2 2 2 2 2 2 2 2 2 2 2 2 2 2 2 2 2 2 2 2 2 2 2 2 2 2 2 2 2 2 2 2 2 2 2 2 2 2 2 2 2
left_child=1 5 3 7 9 -1 19 67 12 42 -6 -8 27 34 -7 64 32 -11 22 -3 21 41 23 -19 25 -20 -27 -5 -29 -30 31 -24 33 -17 -9 -36 -18 38 -10 40 -39 -12 86 -44 -45 46 -46 72 49 -49 -51 -52 74 69 55 56 -15 58 59 -58 -61 63 -63 -59 65 -14 -31 -2 -69 -54 71 -71 73 -38 -50 -13 77 -74 79 -78 81 -41 -83 -57 -85 -70 87 -4 89 -73 91 92 -90 -65
right_child=2 6 4 8 10 14 11 13 37 17 20 75 15 54 -16 16 36 18 24 -21 -22 -23 30 -25 -26 26 -28 28 29 66 -32 -33 -34 -35 35 -37 47 39 -40 80 -42 -43 43 44 45 -47 -48 48 52 50 51 -53 53 -55 -56 83 57 61 -60 60 -62 62 -64 93 -66 -67 -68 68 85 70 -72 88 76 -75 -76 -77 78 -79 -80 -81 -82 82 -84 84 -86 -87 -88 -89 90 -91 -92 -93 -94 -95
leaf_value=-0.01424742695954438 0.036704708561992476 0.00075894864920214794 0.2150480416688052 0.22205264061689378 0.11960554399660656 -0.0078777377182847746 0.010230388874076526 0.038073119950583566 0.22324645847082136 0.11721923721520461 0.15088736223323007 0.016818104656634133 0.20911202710121871 0.025145594044782532 -0.0034318199273958142 0.12264692148363049 0.05147021874790661 0.049481484356025861 0.052944123812697155 0.0053850256323630915 0.22014445227150825 0.30617968215392188 0.33100294470787051 0.21081012997031212 0.10061993559086047 0.12831154607147688 0.20465960997965313 0.076618356135370866 0.24060567171637609 0.18263377555801225 0.15814274517553195 0.19734689046939213 0.070364421975770683 0.28566875487565996 0.030060767061077048 0.21931507267057895 0.17856772875206339 0.098864249153328809 0.10913469827650629 0.076526805540380105 0.26326197597842954 0.26681380493300305 0.24514185761411988 0.035073061944807277 0.18962422547971503 0.25218634650111199 0.05199234593245719 0.023653689869256183 0.033249505681418622 0.049882806614041333 0.29838473134570648 0.083855787664651876 0.041555103909496856 0.19970816006617886 0.046806608674039608 0.02559115656274762 0.3234618961811066 0.089366632991429606 0.026913671367443527 0.039483338729901736 0.21587384113898644 0.039507206722807428 0.24614324123184714 0.12953847845395405 0.047244140006553546 0.067693472361883542 0.067636576334112561 0.0227326993914609 0.03120951400244287 0.24390508592128757 0.044495567596076355 0.1950615169107914 0.13337693054229022 0.062673166158952215 0.13316677609192473 0.11973200846802107 0.081061745636786031 0.04061898395748121 0.058068101156167076 0.2530355573942264 0.046516808825804112 0.099549748637383029 0.19982870580518949 0.029923212155699725 0.18334816260771319 0.11031693040858954 0.053910573807962492 0.087322757362462353 0.14556449515124156 0.020381344379857183 0.065692493389360604 0.11830081981851866 0.29104118555784225 0.030620208150619457
leaf_weight=78017 1349 14173 10.999999999999998 9.9999999999999982 13.999999999999998 19683 11475 3805 14.999999999999998 73 13.999999999999998 12994 9.9999999999999982 60 21197 33 289 11.999999999999998 10.999999999999998 19487 51 130 24 25 43 42 91 166 19 11.999999999999998 13.999999999999998 14.999999999999998 33 9.9999999999999982 10.000000000000002 9.9999999999999982 18 56 218 271 12.999999999999998 35 11.999999999999998 17 17 9.9999999999999982 18 10.999999999999998 71 9.9999999999999982 18.000000000000004 9.9999999999999982 41 13.999999999999998 2467 131 9.9999999999999982 137 12.999999999999998 11.000000000000002 12.999999999999998 26 18 11.999999999999998 656 264 38 3760 2523 9.9999999999999982 38 9.9999999999999982 20 19 13.999999999999998 10.999999999999998 33 230 61 11.999999999999998 82 93 17 13.000000000000002 10.999999999999998 18 58 29 12.000000000000002 30 24 38 9.9999999999999982 138
leaf_count=78017 1349 14173 11 10 14 19683 11475 3805 15 73 14 12994 10 60 21197 33 289 12 11 19487 51 130 24 25 43 42 91 166 19 12 14 15 33 10 10 10 18 56 218 271 13 35 12 17 17 10 18 11 71 10 18 10 41 14 2467 131 10 137 13 11 13 26 18 12 656 264 38 3760 2523 10 38 10 20 19 14 11 33 230 61 12 82 93 17 13 11 18 58 29 12 30 24 38 10 138
internal_value=0 -0.00500688 0.0482791 0.0424885 0.181281 -0.0112647 0.0077905 0.035509 0.0756515 0.143114 0.262935 0.0137764 0.0689236 0.0436321 -0.00557245 0.0653188 0.0740696 0.161318 0.17294 0.00343715 0.271659 0.286337 0.210914 0.158487 0.154664 0.170802 0.18055 0.0990713 0.0938381 0.135265 0.247515 0.279597 0.121396 0.160559 0.038526 0.124688 0.0706211 0.0958264 0.116481 0.0867804 0.129838 0.233692 0.10607 0.138098 0.11738 0.148474 0.118842 0.0779614 0.0917296 0.142214 0.176535 0.221767 0.083801 0.0965676 0.0500147 0.0633613 0.0726369 0.0801752 0.145216 0.19045 0.135028 0.0709397 0.12404 0.0627989 0.0547896 0.0728547 0.0952359 0.0281983 0.0263771 0.0897884 0.101286 0.117391 0.0653143 0.119054 0.0497065 0.0169052 0.059729 0.0480396 0.0872983 0.126921 0.0803636 0.0876482 0.115047 0.0371501 0.100243 0.0317699 0.0818847 0.122447 0.107188 0.0640514 0.127729 0.152544 0.21169 0.0385337
internal_weight=0 177037 18360 17594 766 118897 58140 14535 3059 522 244 24480 2294 6885 40880 2049 1119 350 277 33660 230 179 90 37 187 144 133 245 235 69 53 39 76 43 3825 20 1043 765 233 532 69 49 172 74 62 45 35 754 361 49 38 28 312 227 3060 593 438 378 47 34 24 331 44 287 930 274 50 7650 6301 213 172 134 393 37 85 13005 356 250 106 45 463 381 110 155 24 2541 98 40 124 40 84 60 22 150
internal_count=195397 177037 18360 17594 766 118897 58140 14535 3059 522 244 24480 2294 6885 40880 2049 1119 350 277 33660 230 179 90 37 187 144 133 245 235 69 53 39 76 43 3825 20 1043 765 233 532 69 49 172 74 62 45 35 754 361 49 38 28 312 227 3060 593 438 378 47 34 24 331 44 287 930 274 50 7650 6301 213 172 134 393 37 85 13005 356 250 106 45 463 381 110 155 24 2541 98 40 124 40 84 60 22 150
is_linear=0
shrinkage=0.05


Tree=6
num_leaves=95
num_cat=0
split_feature=16 17 16 17 50 16 36 16 33 16 32 44 16 44 2 55 56 37 49 43 16 47 55 2 2 4 47 34 2 10 20 5 56 20 35 24 4 48 4 47 25 15 44 45 23 25 39 56 30 4 52 43 29 4 8 16 44 15 8 20 34 25 49 39 36 1 38 54 14 48 14 12 21 10 22 39 49 34 50 8 23 54 48 31 53 48 50 32 32 29 36 9 50 2
split_gain=17052.9 5316.07 4725.47 1680.22 861.796 661.657 468.253 350.798 241.044 132.609 127.08 110.146 100.473 98.9723 88.7038 135.566 128.551 70.15 67.0906 69.9602 65.9687 64.756 69.6269 62.7793 67.5029 61.4896 60.7324 78.6507 58.237 102.27 54.1878 59.4699 107.78 52.9142 50.6499 50.6372 49.7466 62.6718 49.2287 65.8968 59.5704 49.1304 48.959 89.2754 48.5835 74.7482 110.285 84.0896 68.7454 48.5146 47.3725 69.165 47.3429 47.2427 45.7597 44.9978 70.8926 44.4124 94.2835 44.1348 42.0123 41.9537 47.535 41.3631 39.6679 38.7561 40.5822 109.744 36.9449 61.6028 42.9177 46.2285 36.8598 40.167 85.1045 76.9456 66.337 37.4506 68.7002 64.8118 36.5083 36.065 35.5951 46.926 35.4889 69.5457 51.2985 50.8299 46.1749 44.9222 42.8478 42.023 57.9699 99.7551
threshold=155.81182317080533 556.84315060806273 56.619370655917159 298.69901327103969 444.3157560236798 94.17501859605072 16.48287391662598 195.14068912412594 345.01663208007818 125.92949526394801 590.15144815045221 530.14554610929054 254.34335748124775 273.68912951926012 0.013922431129522059 127.27708781558455 96.185079308964589 307.42585637223937 106.98198810825953 506.99961309272697 75.22391592099315 121.45946442657745 156.71409659884196 0.13347995517674355 0.11211263422391064 0.58730158730158732 114.54747915895777 382.75846862792974 0.47704494391514407 0.59051724137931039 584.09786992176089 0.28323842535281019 154.94631631638842 307.35800581030765 378.15180969238287 572.72055394158338 0.30158730158730163 131.93601612564018 0.4285714285714286 166.6105721431199 315.88356018066412 0.75000000000000011 226.1549522293169 180.34812040358679 255.07920074462893 256.67076110839849 261.26301428873666 114.12480055602295 294.65862644926307 0.23809523809523811 74.826923306387485 115.42368537101082 198.53822326660159 0.7142857142857143 0.21321511505172056 34.46724796534027 115.14571877880314 0.58333333333333337 0.14101752163816766 100.69479881763634 315.60913085937506 297.05958557128912 105.05085869058757 272.67643788641146 242.65106201171878 0.83333333333333337 225.89297194948549 151.13182962494341 0.62500000000000011 142.97668311271053 0.87500000000000011 0.57205513784461159 295.93453237139107 0.97844827586206906 209.87000274658206 171.15744504372282 126.35446050819375 178.66086578369143 159.85053519474297 0.010618534937724302 0.9277743697166444 96.981152218366631 78.393114694436505 433.58032226562506 98.872671424125414 117.50914754011943 99.24265101915033 314.98877302412711 384.6219294093442 380.56060791015631 336.45147705078131 0.25000000000000006 90.109353330142213 0.41818365024542664
decision_type=2 2 2 2 2 2 2 2 2 2 2 2 2 2 2 2 2 2 2 2 2 2 2 2 2 2 2 2 2 2 2 2 2 2 2 2 2 2 2 2 2 2 2 2 2 2 2 2 2 2 2 2 2 2 2 2 2 2 2 2 2 2 2 2 2 2 2 2 2 2 2 2 2 2 2 2 2 2 2 2 2 2 2 2 2 2 2 2 2 2 2 2 2 2
left_child=2 3 6 7 10 20 -1 50 18 -7 34 -6 59 38 15 16 53 -17 26 44 -4 68 28 24 49 30 27 42 29 41 -24 32 -32 60 -3 -19 -18 -38 -10 -40 -41 -23 43 -5 -20 46 47 -46 -49 -13 51 -2 -53 -15 57 56 -8 58 -34 -9 -16 -44 -63 -11 -47 66 67 -66 81 70 71 -70 73 -61 75 -75 -77 78 79 -74 -22 -12 83 -35 89 86 -86 -87 -88 91 -91 92 -84 -94
right_child=1 4 5 8 11 9 55 12 13 63 21 23 -14 14 33 17 36 35 19 -21 80 22 25 -25 -26 -27 -28 -29 -30 -31 31 -33 54 82 -36 -37 37 -39 39 40 -42 -43 61 -45 45 64 -48 48 -50 -51 -52 52 -54 -55 -56 -57 -58 -59 -60 72 -62 62 -64 -65 65 -67 -68 -69 69 -71 -72 -73 77 74 -76 76 -78 -79 -80 -81 -82 -83 84 -85 85 87 88 -89 -90 90 -92 -93 93 -95
leaf_value=-0.013536519792455329 0.1685368536756659 0.0016910629346966743 -0.00142330278069779 0.04366614212954624 0.11362526693514415 0.0084137302081908928 -0.0093255594065258813 0.13946516949683427 0.021744580316648943 0.015161413029188296 -0.013337254859507078 0.14334300096545902 0.046653080446569468 0.18622860014438625 0.1300533298669117 0.20524003863334658 0.14435512247410687 0.044876138443324831 0.029303425242652548 0.14991467483341694 0.074124599248170858 0.34437268411411953 0.079596900691588729 0.20913722950453853 0.29087069300504836 0.087706998337966371 0.20253091698512435 0.20591761919415813 0.10548616483807566 0.17567199530904409 0.29664724306626755 0.22969972997000726 0.13152720656415279 0.21310465609033896 0.10819682297296823 0.13948596943583755 0.34955136775970452 0.19709267403398242 0.044501417008338172 0.22606118937784969 0.079852698978624848 0.20875906524333088 0.019415935617871583 0.20344131908872548 0.032509483993053437 0.031880363803734477 0.043305441331384441 0.28130285819726325 0.13168475662960727 0.25347311581884113 0.022770004378461727 0.0055787010703768052 0.10361424990390476 0.054187627003661226 0.056911337287986988 -0.0050127863065760024 0.099459759785483284 0.10044671531766654 0.31668904900550843 0.033182206929371093 0.037945837912663261 0.061735489457431771 0.16836693168152125 0.10440327075238412 0.028005884515464697 0.029929628546556664 0.056528473875639473 0.2028741117238122 0.29342213630676256 0.044303172267973423 0.11098390892148019 0.14138845764100552 0.16148999691009516 0.012511538227554412 0.026506485924124717 0.24784719603402269 0.079234763085842139 0.044836162410410912 0.21390074461698536 0.0010714570197331555 0.0028784098660737546 0.11786052936857397 0.07505616744359335 0.070131769573146652 0.065362711751367902 0.055338263137581917 0.25328970421105623 0.087308820379110932 0.13541171700797147 0.14979882534191183 0.0483293927682098 0.05662170842988417 0.30566548407077782 0.082332637384533891
leaf_weight=77929 12.999999999999998 11.999999999999998 17607 18 13.999999999999998 20655 9419 9.9999999999999982 99 10697 10.000000000000002 13.999999999999998 2373 10.000000000000002 13.999999999999998 9.9999999999999982 10.999999999999998 66 227 18 18 17.000000000000004 18 51 130 37 9.9999999999999982 10.999999999999998 14.999999999999998 61 10.999999999999998 33 22 12.000000000000002 160 18 13.000000000000002 13.999999999999998 68 11.000000000000002 19 10.999999999999998 52 17 9.9999999999999982 219 42 14.000000000000002 17 35 7581 35 19 21 17 21577 14.999999999999998 25 9.9999999999999982 5781 107 81 11.999999999999998 12.999999999999998 19 135 979 17 10.000000000000002 13.999999999999998 18 9.9999999999999982 10.000000000000002 9.9999999999999982 50 14.000000000000002 9.9999999999999982 128 9.9999999999999982 17 16812 10.999999999999998 21 10.999999999999998 15.999999999999998 143 11.999999999999998 952 27 10.999999999999998 192 32 10.000000000000002 9.9999999999999982
leaf_count=77929 13 12 17607 18 14 20655 9419 10 99 10697 10 14 2373 10 14 10 11 66 227 18 18 17 18 51 130 37 10 11 15 61 11 33 22 12 160 18 13 14 68 11 19 11 52 17 10 219 42 14 17 35 7581 35 19 21 17 21577 15 25 10 5781 107 81 12 13 19 135 979 17 10 14 18 10 10 10 50 14 10 128 10 17 16812 11 21 11 16 143 12 952 27 11 192 32 10 10
internal_value=0 0.0429631 -0.00507836 0.0379851 0.172217 0.00550121 -0.0114686 0.0308902 0.0677529 0.0107548 0.135958 0.249788 0.0379356 0.0801952 0.0840127 0.11912 0.172342 0.0800529 0.0551008 0.0518655 0.000716264 0.153253 0.164293 0.258076 0.27202 0.144857 0.0824154 0.0761267 0.196625 0.211985 0.160405 0.172732 0.150615 0.0803678 0.100766 0.0651497 0.233983 0.270499 0.0466126 0.0717344 0.133462 0.291096 0.068195 0.121271 0.0508144 0.0541773 0.100251 0.158585 0.199254 0.222007 0.0231399 0.0649986 0.0400727 0.0967815 0.128907 -0.00627218 -0.00915259 0.15038 0.18939 0.0345107 0.0486029 0.0553835 0.0754944 0.0152697 0.051384 0.0550981 0.0584457 0.110583 0.111358 0.133963 0.166995 0.217405 0.0343367 0.033681 0.0680077 0.129039 0.177592 0.0576433 0.101949 0.0604857 0.00295461 0.0553854 0.0830204 0.144726 0.0820251 0.0858894 0.140753 0.0831337 0.171682 0.0659242 0.0538277 0.0995624 0.133077 0.193999
internal_weight=0 20655 174742 19889 766 65802 108940 16061 3828 31365 522 244 8413 1930 1733 163 69 94 1898 1697 34437 350 277 230 179 173 201 191 104 89 136 118 85 1570 172 84 38 27 197 98 30 28 180 35 1679 1452 83 41 31 49 7648 67 54 31 74 31011 9434 57 32 6040 121 145 93 10710 1369 1150 1015 36 73 52 38 20 6030 5865 84 34 24 165 37 27 16830 21 1449 23 1426 1150 55 1095 39 276 203 73 41 20
internal_count=195397 20655 174742 19889 766 65802 108940 16061 3828 31365 522 244 8413 1930 1733 163 69 94 1898 1697 34437 350 277 230 179 173 201 191 104 89 136 118 85 1570 172 84 38 27 197 98 30 28 180 35 1679 1452 83 41 31 49 7648 67 54 31 74 31011 9434 57 32 6040 121 145 93 10710 1369 1150 1015 36 73 52 38 20 6030 5865 84 34 24 165 37 27 16830 21 1449 23 1426 1150 55 1095 39 276 203 73 41 20
is_linear=0
shrinkage=0.05


Tree=7
num_leaves=95
num_cat=0
split_feature=16 16 17 16 50 16 16 17 18 32 30 24 49 21 30 23 43 4 47 52 37 22 24 5 49 50 2 10 2 56 9 47 56 52 12 5 13 8 37 14 23 34 52 51 5 56 34 56 47 12 2 12 50 12 49 49 2 14 11 52 53 10 47 12 18 53 32 49 16 24 2 38 11 50 13 41 51 5 2 49 19 9 32 36 13 10 37 14 32 10 38 24 10 18
split_gain=15404.4 4621.45 4605.2 1330.1 777.771 661.984 496.04 282.106 138.475 114.69 101.4 96.2987 87.5094 82.9418 75.2831 73.1078 72.2252 62.7798 58.9628 86.8936 96.8831 58.5766 50.2569 50.0159 85.7664 77.9895 64.1379 63.3463 68.4666 83.7726 60.7627 75.8156 56.2442 52.9266 47.6956 55.5702 52.9415 81.1206 65.8522 47.6366 47.6056 52.2147 47.5571 81.2795 67.4469 51.7106 46.9299 59.2446 57.2811 51.809 46.7813 54.2772 46.0714 45.3272 44.6985 44.3553 87.4954 44.3294 62.7472 49.7935 43.8243 126.318 43.6968 69.1436 43.665 56.5726 70.028 43.2685 43.9592 42.9874 42.6492 42.295 41.4881 72.5922 59.9699 42.8905 41.4193 40.4874 46.1939 40.2404 51.5362 70.7485 42.7854 40.2111 43.4 63.7358 52.2613 46.1445 66.2363 43.7339 40.1913 40.0004 52.4807 39.8948
threshold=165.05940352658283 67.084659003095439 556.84315060806273 313.87870431381333 444.3157560236798 29.498930887111349 106.89341625744767 214.12856498132996 385.94610030530907 590.15144815045221 573.70015717518675 121.53294188804877 101.75837392221177 279.98128758258997 401.4482117227663 87.182342529296889 401.95832140019485 0.33333333333333337 130.20504128896943 148.09992486581885 538.41139706812294 77.756607055664077 358.30409309231965 0.011723198811587029 129.73432165398341 116.80099378512462 0.012225031650412051 0.68534482758620696 0.0040998994888759516 306.79877588707592 0.22368421052631582 137.93667637178504 90.064258704897227 108.59242352553578 0.73496240601503759 0.64966575885120081 0.64998261146662717 0.14101752163816766 538.41139706812294 0.87500000000000011 143.11685943603518 253.78107452392581 143.54531343787093 131.75838463988478 0.12738301559792031 128.15780092106181 559.44589233398449 96.828665789811978 166.6105721431199 0.73370927318295742 0.040416801891415791 0.76127819548872189 136.48383039765881 0.48433583959899751 62.752332543551596 173.68892068013341 0.11941633292754542 0.62500000000000011 0.59909805735430177 98.771232564729019 310.06298863178466 0.59913793103448287 92.783211296171714 0.40037593984962411 270.34915776284072 229.80931012020284 138.00718317849984 105.73660967028907 189.92114958463051 229.23528331835453 0.0088752943092232413 303.62494915235487 0.55284458834412598 95.211582672147969 0.38420979457018156 301.9493284077177 115.84908702411506 0.010930923495914832 0.020738077653560675 155.50185892437315 382.66863080082874 0.48684210526315791 384.6219294093442 548.44433593750011 0.22257073762618182 0.40086206896551729 331.67163381104098 0.62500000000000011 384.6219294093442 0.081896551724137942 327.47348478490562 460.89810417448496 0.5043103448275863 554.5398316298872
decision_type=2 2 2 2 2 2 2 2 2 2 2 2 2 2 2 2 2 2 2 2 2 2 2 2 2 2 2 2 2 2 2 2 2 2 2 2 2 2 2 2 2 2 2 2 2 2 2 2 2 2 2 2 2 2 2 2 2 2 2 2 2 2 2 2 2 2 2 2 2 2 2 2 2 2 2 2 2 2 2 2 2 2 2 2 2 2 2 2 2 2 2 2 2 2
left_child=1 5 3 7 9 70 21 15 12 46 -6 -8 16 64 62 -2 72 -12 57 20 -20 -3 -15 77 25 26 -25 28 -26 -30 -29 -32 -28 -34 36 -36 37 38 -21 -39 41 54 43 52 -45 -44 93 -48 -49 -50 -19 -52 -33 -40 -13 56 -47 -11 59 -59 67 -62 -10 -64 -9 66 -66 -17 71 -14 -1 -69 73 -5 -74 -76 -35 78 -16 80 81 -65 -81 84 85 87 89 88 -71 -86 -89 -80 -93 -4
right_child=2 6 4 8 10 -7 11 13 14 18 17 40 69 22 23 60 -18 50 19 34 -22 -23 -24 24 27 -27 32 30 29 -31 31 42 33 76 35 -37 -38 39 53 -41 -42 -43 45 44 -46 55 47 48 49 -51 51 -53 -54 -55 -56 -57 -58 58 -60 -61 61 -63 63 79 65 -67 -68 68 -70 83 -72 -73 74 -75 75 -77 -78 -79 91 82 -82 -83 -84 -85 86 -87 -88 90 -90 -91 -92 92 -94 -95
leaf_value=-0.013030699749406405 0.12907447619911502 0.00020012919644979193 0.11144753840751948 0.10725525382339307 0.081378664765506981 -0.0045088093737055863 0.0086899083701033036 0.033839517756239314 0.010283672015887136 0.053702435716986657 0.26174902505469771 0.10900117382407189 0.15272732647982512 0.051847361293605246 0.11455779357490188 0.034003223977265191 -0.0086742750086289434 0.1304233305156231 0.11406795912805726 0.20370335270251549 0.25766950151637985 0.0045968463691453843 0.016050317833820979 0.23045002425258812 -0.0098751240720351546 0.24255117731434958 0.17630021300166845 0.21703484105792914 0.072424510308253212 0.19300910214583078 0.033094433438964191 0.17337777045640074 0.050107567360543684 0.21950484558939928 0.18571115737768676 0.06032970022410155 0.052289637720043018 0.16247869169508869 0.13943990483170463 0.29409332811832428 0.018604673303457549 0.10297603280632757 0.007554733802874883 0.13178249835968012 0.31119976680387151 0.27965748071670526 0.22747492144505183 0.027909568017896486 0.1014455677715887 0.21981304918344202 0.20132306144451317 0.31702860226997964 0.040451362775638704 0.045471950293038833 0.01243478848766052 0.096230665478564348 0.075306930596178226 0.16015652856406046 0.20039712527597492 0.047307475283741955 0.18743535249183574 -0.021394080136503495 0.15634898643940687 0.16092181162110397 0.16799042200048764 0.011631415856556044 0.046575160230065769 0.019507549024977297 0.028060762509416106 0.090468710009008649 -0.0094285032621876756 0.12247860021889211 0.05262594397158124 0.26342404976603578 0.20464845806360246 0.088649092817350353 0.084153247280762747 -0.023005058243870738 0.082913024237379437 0.025935180702419805 0.05903950928139591 0.031133940569901222 0.072141945830339366 0.12775153186586169 0.13014887169003486 0.054024110705352416 0.057110156704014092 0.10095833451926428 0.230602119748409 0.023767010914330297 0.0324975155475032 0.07091650042233856 -0.0011605174766610498 0.046539726641414494
leaf_weight=73647 17 11514 40 23 9.9999999999999982 36001 10052 3968 39 25 159 11.999999999999998 10.999999999999998 1481 49 1145 13.999999999999998 15.999999999999998 17 13.999999999999998 38 22146 105 10.999999999999998 24 13.999999999999998 20 10.999999999999998 362 14.999999999999998 40 11.000000000000002 46 10.000000000000002 76 9.9999999999999982 22 22 21 9.9999999999999982 5727 15.999999999999998 14.999999999999998 10.000000000000002 10.999999999999998 10.000000000000002 11.999999999999998 17 32 12.999999999999998 46 12.999999999999998 15.999999999999998 33 8673 200 10.999999999999998 17 22 23 15.000000000000002 13.999999999999998 20 35 11.999999999999998 119 1148 3610 2891 24 9249 9.9999999999999982 43 10.999999999999998 14.999999999999998 17 12.999999999999998 11.999999999999998 100 113 93 14.999999999999998 90 18 9.9999999999999982 672 296 53 12.999999999999998 285 36 56 46 58
leaf_count=73647 17 11514 40 23 10 36001 10052 3968 39 25 159 12 11 1481 49 1145 14 16 17 14 38 22146 105 11 24 14 20 11 362 15 40 11 46 10 76 10 22 22 21 10 5727 16 15 10 11 10 12 17 32 13 46 13 16 33 8673 200 11 17 22 23 15 14 20 35 12 119 1148 3610 2891 24 9249 10 43 11 15 17 13 12 100 113 93 15 90 18 10 672 296 53 13 285 36 56 46 58
internal_value=0 -0.00452103 0.0435942 0.0383691 0.163606 -0.0101701 0.00703145 0.0320623 0.0683365 0.12916 0.237299 0.012447 0.0577781 0.0394577 0.0790549 0.0255013 0.0982339 0.243962 0.14559 0.157393 0.213284 0.00309287 0.0494774 0.0857717 0.0916676 0.132023 0.116549 0.0854168 0.0720095 0.0772223 0.101466 0.0975419 0.102472 0.0810723 0.142615 0.171132 0.122512 0.137961 0.107069 0.203608 0.0150646 0.0127345 0.106619 0.151987 0.225763 0.0973915 0.0957279 0.125784 0.106101 0.135641 0.206253 0.226818 0.0946066 0.082015 0.0125682 0.103489 0.172617 0.109908 0.132572 0.0952683 0.0252721 0.0866211 0.0605961 0.0659573 0.0364291 0.0444631 0.0478312 0.0250398 0.0234635 0.0542688 -0.0126288 0.019792 0.111965 0.15778 0.0911957 0.143024 0.143002 0.0667168 0.0710063 0.0607324 0.0810486 0.121985 0.0464209 0.0534991 0.0525368 0.0601428 0.0422668 0.092776 0.139705 0.0273732 0.0732663 0.0604418 0.0384112 0.0730327
internal_weight=0 177037 18360 17594 766 118897 58140 14535 3059 522 244 24480 1541 6833 1518 7702 123 234 350 263 55 33660 1586 1113 850 114 100 736 401 377 335 324 89 69 208 86 122 100 68 32 14428 8701 284 48 21 236 172 74 62 45 75 59 27 54 8685 221 21 87 62 40 7685 29 405 366 5247 1279 1160 7656 6511 1418 82896 3620 109 34 75 32 23 263 251 346 143 50 203 1407 1389 798 591 126 37 295 89 202 102 98
internal_count=195397 177037 18360 17594 766 118897 58140 14535 3059 522 244 24480 1541 6833 1518 7702 123 234 350 263 55 33660 1586 1113 850 114 100 736 401 377 335 324 89 69 208 86 122 100 68 32 14428 8701 284 48 21 236 172 74 62 45 75 59 27 54 8685 221 21 87 62 40 7685 29 405 366 5247 1279 1160 7656 6511 1418 82896 3620 109 34 75 32 23 263 251 346 143 50 203 1407 1389 798 591 126 37 295 89 202 102 98
is_linear=0
shrinkage=0.05


Tree=8
num_leaves=95
num_cat=0
split_feature=16 16 17 16 53 34 16 16 28 16 4 32 16 49 36 21 12 5 46 38 2 0 56 20 16 11 52 33 18 38 15 15 9 56 10 5 14 56 12 56 49 2 55 47 56 28 49 39 52 47 15 18 10 26 4 38 40 40 11 53 54 25 21 36 2 11 23 2 53 5 26 4 53 5 5 56 49 47 53 49 2 44 34 12 2 26 37 41 37 45 4 26 56 56
split_gain=13902.4 4170.86 4156.19 1200.42 670.216 598.793 447.676 256.361 152.031 126.695 112.336 92.3051 81.4595 81.4382 71.3996 69.4551 63.7273 70.5869 66.5934 72.8757 62.5187 61.0842 129.332 59.1579 55.6436 54.0441 53.8017 52.708 55.1658 51.5446 84.2662 51.4598 63.5398 51.0672 52.8263 57.107 56.3841 56.9131 53.1012 50.7572 50.8886 74.7295 81.7863 51.2975 50.351 60.2927 49.6735 143.363 48.8021 48.1224 47.41 43.8067 59.2644 56.1499 45.2481 66.3349 62.5827 63.3316 58.7645 58.1126 47.7813 43.0315 78.2683 51.3577 42.9857 42.7714 42.5323 41.8359 60.1119 51.8845 41.2551 40.6541 59.8277 47.6917 40.2906 40.2711 40.1455 73.8236 44.8072 70.0006 39.8619 70.8955 67.2164 39.445 39.1084 38.765 38.5141 71.454 38.2666 54.7032 67.4608 70.7579 43.5061 56.7609
threshold=165.05940352658283 67.084659003095439 556.84315060806273 313.87870431381333 406.48790219756637 24.660981178283695 106.89341625744767 213.78615546747133 557.52772365882686 437.54894548156983 0.33333333333333337 590.15144815045221 140.46920502641339 91.180037145447159 262.03819274902349 279.98128758258997 0.73496240601503759 0.45407279029462744 399.24825241534717 532.80669060849164 0.45680816523775414 0.81250000000000011 94.726720241404294 459.83379015702121 86.652309067584085 0.58568455134135078 122.73739767519585 557.79745483398449 554.5398316298872 532.80669060849164 0.58333333333333337 0.58333333333333337 0.72368421052631593 237.07144187068999 0.7974137931034484 0.18655607823718748 0.62500000000000011 103.34695308980822 0.66102756892230585 93.676589377459791 143.6583366643126 0.012225031650412051 127.88574179026988 124.30874093250334 123.30445374461796 350.89484600253996 184.03418480254365 423.90138507864157 168.74319984525033 207.35109904079715 0.58333333333333337 346.77441233013377 0.064655172413793108 456.00656965393483 0.46031746031746035 272.81617976760941 240.72950277028363 259.96097664681071 0.65876503237742845 123.36162709706736 99.845802598695442 315.88356018066412 316.8044932629204 310.58747863769537 0.040416801891415791 0.58568455134135078 45.524961471557624 0.060020124506965554 310.06298863178466 0.43426590740282256 387.82310708782956 0.97619047619047628 158.21820645844755 0.033547907897994562 0.003602376825947017 187.41278913383653 203.81784116168151 173.38190995946837 98.886926247160318 149.43700224063983 0.0059351845603654784 115.14571877880314 9.4578161239624041 0.41416040100250628 0.086824418115154969 456.00656965393483 263.75200812547479 240.58520594413002 155.92237713411876 184.84119808823436 0.49206349206349209 280.2787758010291 117.54977498847609 120.76970414517395
decision_type=2 2 2 2 2 2 2 2 2 2 2 2 2 2 2 2 2 2 2 2 2 2 2 2 2 2 2 2 2 2 2 2 2 2 2 2 2 2 2 2 2 2 2 2 2 2 2 2 2 2 2 2 2 2 2 2 2 2 2 2 2 2 2 2 2 2 2 2 2 2 2 2 2 2 2 2 2 2 2 2 2 2 2 2 2 2 2 2 2 2 2 2 2 2
left_child=1 5 3 7 11 80 24 67 -6 13 -10 27 -8 23 84 70 33 18 -18 -20 64 29 -23 61 -3 -22 -24 28 50 51 -31 -21 75 34 35 36 37 -13 76 -11 41 -41 43 -43 83 -46 47 85 -39 -37 -4 52 -16 54 60 56 -56 -58 74 -60 -53 -5 -63 -64 -12 -66 -7 86 -69 -70 -9 72 -48 -74 -57 -33 77 78 -38 -80 -1 -82 -83 -42 -15 -47 -2 -88 -17 90 -90 -92 -91 -94
right_child=2 6 4 9 8 66 12 15 10 39 20 16 -14 14 21 88 17 -19 19 31 25 22 26 -25 -26 -27 -28 -29 -30 30 -32 32 -34 -35 -36 49 38 48 -40 40 44 42 -44 -45 45 46 71 -49 -50 -51 -52 53 -54 -55 55 58 57 -59 59 -61 -62 62 63 -65 65 -67 -68 68 69 -71 -72 -73 73 -75 -76 -77 -78 -79 79 -81 81 82 -84 -85 -86 -87 87 -89 89 92 91 -93 93 -95
leaf_value=-0.012394229394872234 0.017221953358938641 0.0010824334233944875 0.1720261263764567 0.018429151812897011 0.039176177267323843 -0.0061451992940768294 0.010020413893519424 0.03442770095044257 0.2540178948268294 0.053258108908325552 0.13733577074912878 0.016358322426676751 0.016435463577087233 -0.0016430614120326937 0.14284222139976918 -0.015043181687593461 0.27288411553017794 0.045784094633365219 0.057324337959289554 0.2421349085867405 0.19128180163748124 0.231581349670887 0.016338302893564107 0.20813646895888574 0.005165181181008509 0.063250331679591917 0.13704990629106759 0.12348362758123384 0.035199122473464482 0.21797118542286059 0.034230891661718492 0.15216979953375726 0.19740792946382002 0.037863322829498967 0.050775906536728144 0.29367308616638177 0.1179599525673049 0.18776583969593044 0.076586726890957885 0.22126744270324705 0.1244301554102164 0.057636598799506139 0.2320207617499612 0.12923077657734128 -0.022610821699102723 0.14073840893635692 0.027054765797220173 0.070145397695402303 0.052485371652680135 0.13855635963380339 0.058788001851031661 0.11867804195731879 0.045516342566969716 0.033545553905091112 0.04353863875071208 0.0014828608492794245 0.24430915951728821 0.11334235606094201 0.17042463187660492 0.055273342505097391 0.053795511966290392 0.22938951308077035 0.1799192706292326 0.059129168676339432 0.16228979726632436 0.27453010199141914 -0.0027261719495888593 0.026099776712719805 0.17296519886988856 0.021476212870329622 0.13608186051249505 0.14475681760162115 0.025650604375238931 0.094476648124989626 0.069578549657773256 0.013532494977116586 0.22626173904067592 0.031134351032475634 0.28089323837775737 0.14344433194597847 -0.0089806720119365302 0.1769324387237429 -0.0063929956220090392 0.02925972612991707 0.044903490829508841 0.25987812843587665 0.15298429363717636 0.013872348315392934 0.045082860469581591 0.033104027923285255 0.079071962072380958 0.19892344810068607 0.10924032684968553 0.048448229030623846
leaf_weight=73999 2063 18360 18 17 10.999999999999998 17154 17595 5210 160 124 12.999999999999998 20 6885 70 15.999999999999998 25 15.999999999999998 10.999999999999998 13.999999999999998 24 17 15.999999999999998 24 11.999999999999998 15300 15.999999999999998 14.999999999999998 72 56 13.000000000000002 11.999999999999998 11.000000000000002 33 17 20 10.000000000000002 28 15.000000000000002 23 14.999999999999998 12.999999999999998 58 10.999999999999998 44 11.999999999999998 11.000000000000002 48 42 11.999999999999998 9.9999999999999982 19 30 698 140 14.999999999999998 23 14.999999999999998 24 28 18 524 10.999999999999998 10.999999999999998 44 11.999999999999998 29 19364 5525 13.000000000000002 9.9999999999999982 9.9999999999999982 25 28 249 391 9.9999999999999982 19 11.999999999999998 15.999999999999998 22 8360 10.000000000000002 9.9999999999999982 67 127 18 14.999999999999998 24 63 525 35 19 40 958
leaf_count=73999 2063 18360 18 17 11 17154 17595 5210 160 124 13 20 6885 70 16 25 16 11 14 24 17 16 24 12 15300 16 15 72 56 13 12 11 33 17 20 10 28 15 23 15 13 58 11 44 12 11 48 42 12 10 19 30 698 140 15 23 15 24 28 18 524 11 11 44 12 29 19364 5525 13 10 10 25 28 249 391 10 19 12 16 22 8360 10 10 67 127 18 15 24 63 525 35 19 40 958
internal_value=0 -0.00429498 0.0414145 0.0364507 0.155426 -0.00966162 0.00667988 0.0304592 0.221054 0.0649197 0.229153 0.122096 0.0118246 0.0590435 0.0570854 0.0374587 0.136878 0.166447 0.178737 0.162363 0.183425 0.0599116 0.111876 0.104369 0.00293823 0.129206 0.0627658 0.0913661 0.066501 0.0584437 0.129776 0.181217 0.154142 0.12117 0.128011 0.136272 0.12671 0.0802868 0.144892 0.0825405 0.0882051 0.116409 0.102489 0.0885204 0.0811679 0.0879011 0.091051 0.129184 0.127641 0.216115 0.113877 0.0575159 0.0476973 0.0633192 0.0672221 0.0779067 0.130332 0.163714 0.0717525 0.125365 0.057309 0.089366 0.107638 0.0832872 0.21656 0.241679 -0.00433223 0.0241596 0.0264356 0.1071 0.0346224 0.0833156 0.0785893 0.0875195 0.0657955 0.086152 0.161088 0.145212 0.165954 0.201318 -0.0120241 -0.00875573 0.0852697 0.0447249 0.0283641 0.214687 0.0181525 0.0673769 0.0463507 0.0472865 0.0802332 0.121242 0.0447555 0.0508848
internal_weight=0 177037 18360 17594 766 118897 58140 14535 258 3059 247 508 24480 2294 2199 6885 343 119 108 92 87 2002 55 95 33660 33 39 165 93 1947 25 78 54 224 207 187 167 47 120 765 641 128 113 102 513 433 421 71 27 20 37 1922 714 1208 1068 514 54 39 460 46 554 83 66 55 54 41 36518 7650 5548 23 5220 350 325 277 414 21 97 78 66 38 82379 8380 20 80 197 29 2102 39 1665 1640 117 54 1523 998
internal_count=195397 177037 18360 17594 766 118897 58140 14535 258 3059 247 508 24480 2294 2199 6885 343 119 108 92 87 2002 55 95 33660 33 39 165 93 1947 25 78 54 224 207 187 167 47 120 765 641 128 113 102 513 433 421 71 27 20 37 1922 714 1208 1068 514 54 39 460 46 554 83 66 55 54 41 36518 7650 5548 23 5220 350 325 277 414 21 97 78 66 38 82379 8380 20 80 197 29 2102 39 1665 1640 117 54 1523 998
is_linear=0
shrinkage=0.05


Tree=9
num_leaves=95
num_cat=0
split_feature=16 16 17 17 53 24 35 37 17 28 16 4 31 16 26 12 5 9 2 55 53 23 53 35 10 2 49 11 12 43 16 18 42 4 26 14 52 12 46 5 33 47 54 40 12 8 54 47 26 8 8 11 44 26 29 14 4 2 53 10 21 29 40 39 9 41 30 49 18 4 44 36 16 26 5 38 51 31 55 8 39 28 35 49 21 46 16 2 23 21 24 12 36 54
split_gain=12547 3767.88 3750.96 1091.64 604.87 575.83 342.754 185.785 183.856 137.208 106.518 101.383 77.8264 75.7767 75.0828 74.8104 86.0055 72.0971 69.0316 130.744 104.914 65.6387 63.4137 62.9457 62.4636 60.6076 59.1752 59.336 57.0163 55.6426 51.8417 50.6081 66.1464 106.403 86.0041 48.8192 48.0787 45.7613 45.3694 44.108 43.9753 48.3698 55.9493 46.6559 73.6564 42.7466 58.4079 70.8043 41.8989 41.4341 53.156 41.3289 63.3761 52.0119 45.29 40.8066 52.9781 40.034 66.4065 115.85 39.7507 44.4374 45.5597 73.2428 81.6102 47.6173 41.4743 39.4064 41.4412 59.0014 85.8616 57.1161 40.8205 43.7764 101.752 39.806 38.4742 82.8363 70.5223 63.3714 67.4348 40.3638 38.2564 37.7822 59.0848 51.098 51.5879 42.608 40.7873 37.7358 49.4125 78.3328 68.3123 37.5373
threshold=165.05940352658283 56.619370655917159 556.84315060806273 298.69901327103969 406.48790219756637 99.978004446763748 18.516925811767582 370.19822869528576 214.12856498132996 557.52772365882686 125.92949526394801 0.33333333333333337 255.9187927246094 75.22391592099315 586.75981388615503 0.73496240601503759 0.40455558306511519 0.96052631578947378 0.013922431129522059 127.27708781558455 105.4893646905242 87.182342529296889 188.99375231535439 557.98062133789074 0.59913793103448287 0.026213518430554087 122.73648655301248 0.57550878815911211 0.77882205513784453 401.95832140019485 254.34335748124775 346.77441233013377 317.37654492617776 0.39682539682539686 346.31210490886264 0.87500000000000011 238.01659322004585 0.71240601503759404 294.62318126593095 0.28571428571428575 345.01663208007818 87.997126381116786 94.589492074695897 174.47381912553314 0.65225563909774442 0.010618534937724302 190.27133769893305 90.224440963775962 387.82310708782956 0.22757019210470766 0.16719442685243829 0.55631359851988915 423.20189289121873 296.79096016009322 281.54132080078131 0.62500000000000011 0.46031746031746035 0.052821713539498098 310.06298863178466 0.69396551724137945 447.60852838662947 340.10749816894537 360.66104928840508 365.49515751591395 0.43421052631578955 363.15349457697658 311.32175953823929 105.73660967028907 152.63048632904361 0.33333333333333337 153.10116590237428 160.03906250000003 195.14068912412594 147.74463258303641 0.15585540975488985 109.95482305709412 92.353780530107926 373.68959045410162 91.364648542628075 0.013911758496938995 423.90138507864157 350.89484600253996 276.93745422363287 134.1205357005762 178.69622980078975 399.24825241534717 313.87870431381333 0.01483433196978075 182.89112854003909 226.39525379015751 237.76266414529357 0.75751879699248115 251.48972320556643 88.018512434644009
decision_type=2 2 2 2 2 2 2 2 2 2 2 2 2 2 2 2 2 2 2 2 2 2 2 2 2 2 2 2 2 2 2 2 2 2 2 2 2 2 2 2 2 2 2 2 2 2 2 2 2 2 2 2 2 2 2 2 2 2 2 2 2 2 2 2 2 2 2 2 2 2 2 2 2 2 2 2 2 2 2 2 2 2 2 2 2 2 2 2 2 2 2 2 2 2
left_child=1 6 3 8 14 13 -1 17 21 -6 -7 -11 82 -3 26 45 25 23 19 20 -9 -2 39 40 -24 36 -4 -28 35 -27 -10 -20 33 34 -33 55 -17 -22 -34 -21 43 42 -42 44 -5 -16 47 -47 -35 50 -48 52 -43 -53 -55 56 -13 93 67 -60 61 66 63 65 -65 -63 -56 68 69 70 -59 -71 -69 74 -74 -70 77 -40 -78 -79 -81 -80 -12 84 -32 86 -86 -88 -85 -45 91 92 -91 -23
right_child=2 5 4 7 9 10 -8 18 30 11 12 28 -14 -15 15 16 -18 -19 31 22 37 57 24 -25 -26 29 27 -29 -30 -31 83 32 38 48 -36 -37 -38 -39 76 -41 41 51 -44 89 -46 46 49 -49 -50 -51 -52 53 -54 54 60 -57 -58 58 59 -61 -62 62 -64 64 -66 -67 -68 72 75 71 -72 -73 73 -75 -76 -77 78 79 81 80 -82 -83 -84 88 85 -87 87 -89 -90 90 -92 -93 -94 -95
leaf_value=-0.011586043731872463 0.12107474849942318 -0.0012296031611103448 -0.011910899050001589 0.19656455225955982 0.037217370996421036 0.0078624728251822998 -0.0053235128848043616 0.10215632830325874 0.030995870805020084 0.24131700231693687 0.013793050081178685 0.10903531818722303 0.13629694593927036 0.0031783163887546214 0.061453079460382781 0.078759006943021515 0.074180579220410436 -0.040312400731173433 0.041370958190983964 0.062238354429316071 0.17201648320143037 0.050800786602931719 0.041304792761802663 0.14126252784440352 0.20492048222305523 0.30612822969754538 0.059322608100871248 0.12643735165363307 0.2865736794471741 0.18668224926178273 0.17210005596280098 0.08338196345915394 -0.0032175624654406593 0.11345551735721529 0.25436108269189533 0.071331074088811883 0.19186977551263923 0.30468331083941919 0.18853440287389928 -0.040731929271267009 0.077283761348273305 0.06659885663391342 0.20152730140835048 0.012406751899462609 0.046448759091171354 0.054389837462651108 0.076717584962413335 0.1596821060376242 -0.0028623401870330172 0.0094941592841808285 0.17747137082947628 0.015051550879166938 0.17980857104994358 0.14425177686747961 0.10867057780424755 0.2703878027200699 0.20815264260662453 0.025725921243429178 0.20792117018539169 -0.018444357663393023 0.012187344505666541 0.062503280857943488 0.036876669884888365 0.087616412069361924 0.27760806739330296 0.17174923338673331 0.018411266218338693 0.019276258047878692 0.11417021322995424 0.10897790024939336 0.20265450626611711 0.0028039151386014729 0.026521555808457459 0.0276284196239267 0.21887754842638973 0.029091047817894202 -0.010360031894275121 0.049238471340751121 0.035066381285587943 0.21701506965660619 0.051582273299043829 0.073358798188960447 0.088850372098386296 0.13747470930218697 0.041307063138979992 0.14382450901237984 0.012982374827067059 0.10823957595060132 0.03619640267046427 0.014708945141839132 0.043913731072851486 0.21847440764307977 0.13754121488646459 0.014664025523450997
leaf_weight=78694 17 17365 13.999999999999998 12.999999999999998 10.999999999999998 15992 30246 31 3791 160 12476 26 12.999999999999998 22234 36 21 24 22 148 52 13.000000000000002 75 10.000000000000002 19 13.999999999999998 11.999999999999998 60 73 9.9999999999999982 52 9.9999999999999982 12.000000000000002 21 15.999999999999998 19 12.999999999999998 17 12.999999999999998 21 12.999999999999998 37 252 11.999999999999998 90 22 19 48 100 15.000000000000002 13.999999999999998 18 98 12.999999999999998 13.999999999999998 14.999999999999998 9.9999999999999982 28 12.000000000000002 13.000000000000002 9.9999999999999982 52 107 61 13.000000000000002 9.9999999999999982 10.999999999999998 84 3196 13.999999999999998 19 15.999999999999998 38 22 1780 9.9999999999999982 764 28 59 75 14.000000000000002 10.999999999999998 835 17 9.9999999999999982 482 13.999999999999998 14.999999999999998 54 1686 28 1406 9.9999999999999982 19 1718
leaf_count=78694 17 17365 14 13 11 15992 30246 31 3791 160 12476 26 13 22234 36 21 24 22 148 52 13 75 10 19 14 12 60 73 10 52 10 12 21 16 19 13 17 13 21 13 37 252 12 90 22 19 48 100 15 14 18 98 13 14 15 10 28 12 13 10 52 107 61 13 10 11 84 3196 14 19 16 38 22 1780 10 764 28 59 75 14 11 835 17 10 482 14 15 54 1686 28 1406 10 19 1718
internal_value=0 -0.00408023 0.0393438 0.0346282 0.147655 0.00514583 -0.00984732 0.0582463 0.0280605 0.210001 0.0105657 0.217696 0.0140224 0.00124535 0.115991 0.128257 0.159342 0.0497875 0.0725903 0.105156 0.16428 0.0229348 0.06729 0.0506183 0.136747 0.17938 0.0858676 0.09616 0.174254 0.209078 0.0345746 0.0688583 0.0724713 0.122674 0.188176 0.159667 0.129361 0.23835 0.0695459 0.0416443 0.0498907 0.0596211 0.107711 0.0451174 0.102206 0.111591 0.120661 0.142871 0.0571727 0.0876231 0.104196 0.0563932 0.0721525 0.047412 0.0560532 0.17761 0.160429 0.0227178 0.0247079 0.109501 0.0525553 0.0595291 0.0729785 0.0885971 0.170221 0.0726872 0.0320869 0.0243757 0.0342436 0.0673919 0.126828 0.0381952 0.0226753 0.0286704 0.0866328 0.030622 0.0710109 0.0997134 0.067798 0.0775082 0.144225 0.0702028 0.0138952 0.0405487 0.0516247 0.0494924 0.0470956 0.0875315 0.0367936 0.0438308 0.0457639 0.0914014 0.0643645 0.0161756
internal_weight=0 177037 18360 17594 766 68097 108940 3828 13766 258 28498 247 12506 39599 508 361 126 2408 1420 146 57 7704 89 2386 24 102 147 133 87 64 6062 1274 1126 62 31 77 38 26 1064 65 2367 779 49 1588 35 235 199 119 31 80 66 730 265 465 367 64 54 7687 5894 23 353 301 202 141 23 118 99 5871 863 85 28 57 5008 1812 32 778 1043 105 938 84 25 910 12493 2271 575 565 551 69 1696 1553 1463 57 47 1793
internal_count=195397 177037 18360 17594 766 68097 108940 3828 13766 258 28498 247 12506 39599 508 361 126 2408 1420 146 57 7704 89 2386 24 102 147 133 87 64 6062 1274 1126 62 31 77 38 26 1064 65 2367 779 49 1588 35 235 199 119 31 80 66 730 265 465 367 64 54 7687 5894 23 353 301 202 141 23 118 99 5871 863 85 28 57 5008 1812 32 778 1043 105 938 84 25 910 12493 2271 575 565 551 69 1696 1553 1463 57 47 1793
is_linear=0
shrinkage=0.05


Tree=10
num_leaves=95
num_cat=0
split_feature=23 17 34 23 50 24 20 32 2 37 18 32 44 36 39 45 26 54 22 27 55 53 55 20 36 54 50 17 12 24 2 21 10 27 46 33 21 12 46 5 10 33 2 2 4 25 25 38 41 25 50 48 25 46 11 11 11 54 10 49 49 8 52 25 50 42 38 11 51 51 52 18 44 15 12 52 54 33 48 8 32 37 31 2 8 8 15 28 12 25 53 26 22 54
split_gain=11160.8 3788.7 2689.71 1451.27 567.844 395.836 278.127 277.609 263.184 102.787 102.595 89.1534 81.9897 71.841 70.4289 79.091 73.2316 71.1864 69.1478 62.9034 66.0017 63.5061 91.4638 55.9363 54.6628 59.9357 124.65 59.9959 52.1476 50.6877 49.1825 54.8252 48.0995 50.6121 57.4123 54.1765 47.7443 47.3581 58.3343 50.8418 48.8399 47.297 46.9703 52.442 45.9037 44.8382 44.2319 43.7224 74.0289 119.038 88.3935 42.8581 58.8385 48.1956 42.6168 51.5381 77.6132 95.9471 67.0728 54.2434 68.5256 76.1268 65.9048 48.9513 66.7681 60.399 47.1369 45.6898 60.0891 62.8741 81.0697 43.4143 43.2308 42.5927 57.9834 41.2815 71.5352 54.2085 101.21 45.6297 43.7024 40.263 47.4863 70.9124 39.0596 46.9644 40.2603 42.5137 43.2308 39.0557 38.4856 38.2933 38.2322 56.9898
threshold=143.11685943603518 556.84315060806273 52.140470504760749 266.77369689941412 444.3157560236798 91.266858066378759 173.87919432036566 314.98877302412711 0.0059351845603654784 208.64381576366054 385.94610030530907 590.15144815045221 530.14554610929054 336.45147705078131 218.72852778682278 203.97223621806538 226.92668414324962 113.9945402141184 71.080333709716811 280.59803771972662 103.34064422908487 99.186948127560399 97.155247621572968 234.08999483710454 214.05375671386722 86.021550615645921 94.349012164137704 319.10209935401139 0.80388471177944865 107.01841265812944 0.063480255235773053 316.8044932629204 0.90086206896551735 296.03707885742193 278.53405181754891 315.08172607421881 384.51367433367813 0.73496240601503759 399.24825241534717 0.28323842535281019 0.7974137931034484 315.08172607421881 0.13347995517674355 0.11211263422391064 0.23809523809523811 33.936136245727546 93.84460830688478 241.12357396482909 206.1727641291308 183.96673583984378 132.0959519892738 79.389310228601246 188.48046875000003 133.74843873709398 0.49641535615171145 0.60580481036077727 0.59747918593894556 172.47963690614739 0.59051724137931039 149.43700224063983 318.34563072140003 0.10724086974878617 134.84609384188914 340.24932861328131 102.25102480220123 317.37654492617776 303.62494915235487 0.58799722479185956 118.15863826996906 135.54570137007263 141.98364877527234 445.17492650695607 530.14554610929054 0.58333333333333337 0.75125313283208028 172.16443717387983 209.28095741025339 381.09181213378912 235.98866393711481 0.21870382098374505 452.07155921193572 331.67163381104098 373.68959045410162 0.40715819945216419 0.19041587502638807 0.16719442685243829 1.0000000180025095e-35 557.52772365882686 0.57957393483709285 115.05221176147462 89.826291189333162 346.31210490886264 380.43740844726568 99.441037584263611
decision_type=2 2 2 2 2 2 2 2 2 2 2 2 2 2 2 2 2 2 2 2 2 2 2 2 2 2 2 2 2 2 2 2 2 2 2 2 2 2 2 2 2 2 2 2 2 2 2 2 2 2 2 2 2 2 2 2 2 2 2 2 2 2 2 2 2 2 2 2 2 2 2 2 2 2 2 2 2 2 2 2 2 2 2 2 2 2 2 2 2 2 2 2 2 2
left_child=2 3 8 6 11 18 13 24 -1 45 14 90 -6 29 15 17 -16 -9 -4 -18 21 -21 -23 -8 -5 26 27 -26 -25 -2 -17 -32 33 34 -12 -35 -24 39 -39 40 84 46 43 44 -14 -10 -7 51 49 -49 -51 52 -31 -54 72 56 58 71 81 62 -61 -62 92 65 -65 -60 -66 68 -68 -70 -71 -58 -37 74 -40 -72 79 -78 -79 -77 -80 -56 83 -83 85 86 -13 88 -88 -43 -3 -84 93 -57
right_child=1 4 5 7 12 41 23 10 9 -11 32 37 42 -15 16 30 19 -19 -20 20 -22 22 36 28 25 -27 -28 -29 -30 47 31 -33 -34 35 -36 54 -38 38 73 -41 -42 89 -44 -45 -46 -47 -48 48 -50 50 -52 -53 53 -55 55 59 57 -59 63 60 61 -63 -64 64 66 -67 67 -69 69 70 75 -73 -74 -75 -76 76 77 78 80 -81 -82 82 91 -85 -86 -87 87 -89 -90 -91 -92 -93 -94 -95
leaf_value=-0.011174615379019655 0.0033474449532461025 0.16797384068680307 -0.0021228935358629931 0.019896875396864112 0.086024024976151331 0.0040217830381061252 0.024155526649899173 0.087638725626927136 -0.007723954109371785 0.15463195905089377 0.064000657200813271 0.033515567345810786 0.10211318475859506 0.13232504185289146 0.14202500923226277 -0.013233955254157385 0.019817307374631679 0.25310588490504488 0.0021623566907043221 0.063540747148905827 0.045947815224941187 0.25551453882997688 0.044181298719541656 0.032936625401098332 0.0057640141362081407 0.040775044379981244 0.24533291269432414 0.14773839305747638 -0.0076529357099422704 0.025653990723614423 0.17775033699969445 0.026608572093149027 0.027174363290521739 0.04048108706794059 0.22953411286527459 0.031655181554713467 0.1727691249413924 0.24414909919102989 0.28524715900421144 0.21321085443099341 0.038548012098054529 0.15461747139692303 0.16832124417026839 0.23932849631859707 0.20923895525613001 -0.0038671794496531169 0.0088772791215233921 0.0065954856108874083 0.023880050810384416 0.28941019415855401 0.084013450348919091 0.014786446776521876 0.15428334302786326 0.036888984678422707 0.016392873393164743 0.057309351222855687 0.16304974417512619 0.23820181538661322 0.26080829977989189 0.032570027425471285 0.22789083302021021 0.055830216449167996 0.20932822182774544 0.019339820982090066 0.007902785562551938 0.1021694947530826 0.21792710377619817 0.047855094168335201 0.04275666469038697 0.23915970935844461 0.061388636476227221 0.05273584887724031 0.12632326073944569 0.11494988442613528 0.14004086786034434 0.14202740148681661 -0.01102027714252472 0.25301366502588446 0.14399599342242531 0.26230184957385067 0.057885331528761047 0.068247197145088159 -0.0054564211310611831 0.20923285156798863 0.037814292361338937 0.21334396761197311 0.26348708383738989 0.11191945079539856 0.11984559344974431 0.014875337295234204 0.075134403707052114 0.070041430766037499 0.06326118380099803 0.19997507913836413
leaf_weight=74483 888 11.999999999999998 18909 321 13.999999999999998 5983 6446 13.000000000000002 14334 9.9999999999999982 10.000000000000002 13.999999999999998 13.999999999999998 12.999999999999998 21 14.999999999999998 172 12.999999999999998 18747 181 834 10.999999999999998 21 3429 23 2345 10.999999999999998 10.999999999999998 81 159 12.000000000000002 11.999999999999998 58 120 10.999999999999998 87 10.999999999999998 14.999999999999998 9.9999999999999982 11.999999999999998 23 10.000000000000002 51 130 35 15890 21710 18 155 10.000000000000002 10.999999999999998 7929 18 17 36 14.000000000000002 14.999999999999998 18 10.000000000000002 162 10.000000000000002 18 9.9999999999999982 28 12.999999999999998 14.999999999999998 12.999999999999998 30 32 12.999999999999998 35 22 13.999999999999998 65 22 23 9.9999999999999982 10.999999999999998 23 11.999999999999998 41 22 18 14.999999999999998 14.999999999999998 12.999999999999998 10.000000000000002 139 10.999999999999998 9.9999999999999982 160 251 111 13.999999999999998
leaf_count=74483 888 12 18909 321 14 5983 6446 13 14334 10 10 14 14 13 21 15 172 13 18747 181 834 11 21 3429 23 2345 11 11 81 159 12 12 58 120 11 87 11 15 10 12 23 10 51 130 35 15890 21710 18 155 10 11 7929 18 17 36 14 15 18 10 162 10 18 10 28 13 15 13 30 32 13 35 22 14 65 22 23 10 11 23 12 41 22 18 15 15 13 10 139 11 10 160 251 111 14
internal_value=0 0.030977 -0.00460978 0.0275619 0.140554 0.00334836 0.0211267 0.0505309 -0.0095776 -0.00564326 0.0620035 0.111074 0.203502 0.0148683 0.0520782 0.102823 0.0494416 0.170372 1.05138e-05 0.0478609 0.0524199 0.076517 0.131138 0.0269211 0.0392699 0.0418719 0.0990301 0.0516969 0.0319999 0.0147024 0.0577897 0.102179 0.0717148 0.0737221 0.150709 0.072445 0.0883834 0.125594 0.152387 0.112933 0.107584 0.00788377 0.210652 0.222713 0.178632 -0.00569629 0.00782826 0.0159148 0.0393731 0.100948 0.181821 0.0153545 0.0385732 0.0972632 0.075792 0.0787896 0.086484 0.143519 0.0816653 0.0627653 0.0450537 0.11728 0.0853507 0.0985498 0.0926453 0.165625 0.100663 0.105626 0.113762 0.106991 0.119227 0.0974577 0.0447775 0.138197 0.185418 0.109168 0.123103 0.0983312 0.112911 0.183264 0.0888314 0.0664101 0.0722945 0.125404 0.115445 0.121672 0.114823 0.121937 0.188246 0.0847464 0.0816116 0.0649895 0.0764315 0.128642
internal_weight=0 25311 170086 24546 765 65369 19174 5372 104717 30234 2661 521 244 9218 1316 65 1251 26 37656 1230 1058 224 43 9956 2711 2390 45 34 3510 9205 39 24 1345 1287 21 1266 32 349 112 237 225 27713 230 179 49 30224 27693 8317 194 39 21 8123 194 35 1146 1045 706 55 651 339 190 28 149 309 284 25 256 243 213 200 168 37 101 97 32 155 120 85 75 35 64 342 306 37 202 187 174 160 21 20 172 269 139 28
internal_count=195397 25311 170086 24546 765 65369 19174 5372 104717 30234 2661 521 244 9218 1316 65 1251 26 37656 1230 1058 224 43 9956 2711 2390 45 34 3510 9205 39 24 1345 1287 21 1266 32 349 112 237 225 27713 230 179 49 30224 27693 8317 194 39 21 8123 194 35 1146 1045 706 55 651 339 190 28 149 309 284 25 256 243 213 200 168 37 101 97 32 155 120 85 75 35 64 342 306 37 202 187 174 160 21 20 172 269 139 28
is_linear=0
shrinkage=0.05


Tree=11
num_leaves=95
num_cat=0
split_feature=16 16 16 16 53 16 2 16 17 25 2 18 37 21 5 46 2 36 48 53 12 56 42 51 31 5 11 16 56 48 48 29 54 43 11 26 32 48 48 41 19 2 48 37 12 46 25 26 32 38 38 40 4 3 37 51 45 55 28 20 8 24 4 52 25 27 4 56 24 12 52 16 56 56 35 44 41 2 55 38 2 55 53 2 21 45 11 51 19 2 21 26 24 2
split_gain=10240 3433.33 2448.58 870.37 858.691 348.835 205.118 188.115 151.462 142.432 122.018 120.247 71.5699 69.7529 82.2393 68.609 57.2928 57.2744 71.1565 69.3606 71.2988 95.3432 64.8217 56.9719 58.2299 54.9723 52.5422 52.5074 51.1457 50.1587 57.5324 119.169 48.0667 46.4485 65.1719 106.353 50.1364 49.7271 64.785 65.2641 46.0553 55.7233 109.396 121.802 60.4274 47.2523 43.9451 43.7862 55.6837 55.6484 56.6556 46.8052 54.8727 43.7723 75.1238 96.2148 67.3513 81.9117 94.2587 80.0521 44.0435 42.5188 42.2182 41.3839 77.6054 52.8522 70.666 49.8569 47.9762 71.0305 77.4138 54.5179 47.7065 50.2545 46.8467 44.0561 51.4986 40.8687 40.3518 65.1591 42.9427 40.2211 45.0814 40.2055 47.8846 43.1128 39.5741 39.3553 78.5588 101.738 94.6985 43.8392 84.2457 43.1787
