{"learner":{"attributes":{"best_iteration":"62","best_score":"-0.306219"},"feature_names":[],"feature_types":[],"gradient_booster":{"model":{"gbtree_model_param":{"num_parallel_tree":"1","num_trees":"113"},"iteration_indptr":[0,1,2,3,4,5,6,7,8,9,10,11,12,13,14,15,16,17,18,19,20,21,22,23,24,25,26,27,28,29,30,31,32,33,34,35,36,37,38,39,40,41,42,43,44,45,46,47,48,49,50,51,52,53,54,55,56,57,58,59,60,61,62,63,64,65,66,67,68,69,70,71,72,73,74,75,76,77,78,79,80,81,82,83,84,85,86,87,88,89,90,91,92,93,94,95,96,97,98,99,100,101,102,103,104,105,106,107,108,109,110,111,112,113],"tree_info":[0,0,0,0,0,0,0,0,0,0,0,0,0,0,0,0,0,0,0,0,0,0,0,0,0,0,0,0,0,0,0,0,0,0,0,0,0,0,0,0,0,0,0,0,0,0,0,0,0,0,0,0,0,0,0,0,0,0,0,0,0,0,0,0,0,0,0,0,0,0,0,0,0,0,0,0,0,0,0,0,0,0,0,0,0,0,0,0,0,0,0,0,0,0,0,0,0,0,0,0,0,0,0,0,0,0,0,0,0,0,0,0,0],"trees":[{"base_weights":[-4.9026986E-4,-1.3698974E-1,1.1581824E0,-2.9810938E-1,1.7520843E-1,1.0296807E0,4.535815E0,-3.630223E-1,-1.4620382E-1,7.354925E-2,3.475986E-1,7.971621E-1,1.65895E0,3.752838E0,6.2351933E0,-3.717208E-1,-2.7345505E-1,-1.9381425E-1,-1.0208396E-1,2.1655483E-2,1.5567413E-1,2.8000253E-1,4.195778E-1,6.825652E-1,1.0421745E0,1.4513091E0,2.190319E0,3.2740152E-1,3.4463115E0,4.0377293E0,6.854736E0,-3.719289E-1,-2.7394342E-1,-2.773073E-1,7.3846143E-1,-1.9511001E-1,5.245694E-2,-1.3045678E-1,-8.4017776E-2,-4.546589E-2,4.2564366E-2,1.2502931E-1,2.2648712E-1,4.0796825E-1,2.6393872E-1,1.2900567E-1,4.1649497E-1,5.971216E-1,7.828178E-1,1.0172254E0,1.5834972E0,1.384868E0,1.7207083E0,1.7051333E0,2.3204646E0,3.0229313E0,4.2559342E0,5.4262834E0,8.652904E-2,4.136475E0,3.8533723E-1,-1.8604368E-2,-3.380791E-1,-1.3920486E-1,-1.7736537E-2,-2.79499E-1,3.1702187E-2,-1.3815112E-2,8.891718E-2,-2.3455049E-1,-1.6985063E-1,-1.3611035E-1,6.441549E-2,4.1147858E-2,-8.514721E-2,1.0489006E-1,-5.667308E-2,7.043095E-3,6.6885315E-2,-5.8931116E-2,1.3494328E-1,2.2150214E-1,8.293282E-2,4.8935485E-1,2.3906349E-1,7.614749E-2,2.618832E-1,1.4249274E0,4.138437E-1,5.9239185E-1,1.1879128E-1,1.1995157E-1,7.7366203E-1,1.0042069E0,1.9229051E0,2.4139671E0,1.0390213E0,1.7644458E-1,1.3738822E0,8.6028504E-1,1.7881927E0,1.8597282E0,7.001393E-1,1.7971619E0,2.4506419E0,1.3913947E0,3.165848E0,5.4356403E0,3.5422463E0,3.5702053E-1,1.1419395E-1,1.2614124E-1,4.7221413E0,-6.9473493E-3,-3.4481502E-1,-1.728332E-2,6.4669885E-2,-2.8861082E-1,-1.6697799E-1,-2.3650822E-1,2.2779515E-2,-1.3259146E-1,-1.8261291E-1,-1.3878666E-1,1.602426E-1,6.200771E-1,-9.874086E-2,-1.682017E-1,-7.800181E-2,6.6932596E-2,4.4182986E-2,-6.10934E-2,4.2571774E-1,3.977336E-3,5.856236E-1,6.0033906E-1,6.202114E-2,2.3219047E-2,-7.299902E-2,5.977803E-2,1.5473458E-1,2.1627869E-1,6.715533E-2,1.2677573E0,4.454229E-1,1.9847089E-1,6.524967E-2,1.0189424E0,2.597869E-1,2.8825006E-2,1.1104727E-1,2.2720033E-1,4.2809787E-1,7.602703E-1,5.4986614E-1,7.679549E-1,1.1481782E-1,3.604097E-1,1.021352E0,1.9654624E-1,1.1654143E0,1.8821179E0,2.3785312E-1,2.6672095E-1,1.4956082E0,8.742108E-1,1.4040108E0,7.334952E-2,4.540444E-1,1.5468584E-2,1.828253E0,2.0627072E-1,1.7227095E0,2.2748002E-1,8.768425E-2,1.9881176E0,5.0151736E-1,4.983951E-2,2.480811E0,9.891008E-2,3.1237572E-2,1.9406589E0,3.4135687E0,1.6779141E-1,2.9600742E-1,3.133423E-2,4.0331044E0,1.5921006E-1,2.9064664E-1,-1.7579624E-2,-8.3488235E-3,2.7688673E-2,-1.3781535E-2,-2.9620224E-1,-2.072833E-1,1.8304873E-1,-2.1786997E-1,-2.6217595E-1,-1.9581899E-1,3.4908377E-2,-1.3736878E-1,2.741465E-1,-1.8417853E-1,-1.3307829E-1,-2.1081221E-1,4.033776E-2,-7.124135E-2,9.566033E-2,-1.9400516E-1,-1.6196355E-1,1.6709177E-2,7.659363E-2,-1.8694638E-1,-6.125343E-2,-1.13638215E-1,3.57418E-2,3.932705E-2,-1.518993E-1,-5.069652E-2,5.2515477E-2,-7.885041E-3,3.7240416E-2,2.2726685E-3,8.970845E-2,-5.417878E-3,1.0007056E-1,1.03477396E-1,-1.8106939E-1,6.5849245E-2,-3.2777693E-2,-2.2403486E-1,4.28442E-1,4.2424094E-2,-8.8378504E-2,1.5926655E-1,5.5567533E-2,2.115611E-1,1.9025549E0,-8.482296E-5,6.874201E-2,4.1975856E-1,1.4827968E-1,5.1755924E-2,-4.54239E-3,9.75669E-2,2.7436572E-1,1.463251E-1,8.4547335E-1,2.0140281E-1,4.0671086E-1,5.6373394E-1,9.2873657E-1,4.432656E-1,6.702763E-2,5.622078E-1,8.0159324E-1,5.6600577E-1,6.6581294E-2,2.2572936E-1,3.190144E-1,1.031965E0,1.4145072E-1,1.4642195E-1,1.2294743E0,1.5959322E-1,4.1462537E-2,-1.3620068E-1,1.9953666E0,4.96258E-1,1.5722303E0,4.456856E-1,1.4828046E-1,1.3939518E0,3.7213337E-2,-4.426272E-3,1.7817185E0,1.7995565E-1,2.0566473E0,1.3353459E0,3.371068E-2,-1.01796305E-2,1.7680503E-1,1.834482E0,7.0255004E-2,-7.552029E-3,3.005391E0,2.3811584E0,2.300704E-2,2.403402E0,1.9356502E0,3.5760553E0,2.7866225E0,4.663669E0,-1.6239295E-2,-1.4001218E-2,6.525977E-3,-1.1324281E-2,5.484847E-2,-4.87549E-3,1.4821951E-2,-1.1784428E-2,-1.319502E-2,1.0653115E-2,1.6650936E-2,-9.998837E-3,1.2916627E-2,-7.1081244E-3,-1.5336539E-2,4.150507E-2,-9.369331E-3,-6.782526E-4,1.6300995E-2,-6.7079784E-3,-7.273792E-3,-1.2947507E-2,1.6188936E-2,-1.1476844E-2,-6.0647177E-3,-1.2030311E-2,-9.36953E-3,3.9646174E-3,1.9341948E-2,-1.010084E-2,-1.0027222E-2,-6.3256896E-3,-3.5551384E-3,1.7220508E-3,-1.0682798E-2,-5.189835E-3,-7.2991955E-3,7.1461047E-3,3.913455E-3,-8.506625E-3,4.1652788E-4,-3.3987344E-3,-9.922268E-3,3.7407267E-4,4.6869077E-2,-8.431045E-3,9.409349E-3,-1.1222391E-2,2.9650312E-3,1.0116389E-2,-5.4204273E-3,2.2966338E-3,-1.2609171E-2,-1.5891282E-3,1.8586525E-3,6.0471553E-2,-3.5511926E-3,3.2239915E-3,-7.772939E-3,5.920722E-3,6.6775093E-3,1.0309691E-2,1.1755941E-2,1.2458647E-3,3.5410117E-2,1.3525389E-1,1.9124405E-2,6.057032E-2,3.5604779E-3,2.2397662E-2,1.3467795E-2,2.5898192E-2,6.489982E-3,6.452903E-2,-9.610373E-3,8.002015E-2,1.091251E-3,1.4067935E-2,5.1550906E-2,2.0116737E-2,5.282218E-2,2.5269687E-2,1.7488249E-2,5.523584E-2,1.2600481E-2,3.5450395E-2,2.1943087E-2,-3.7843694E-3,7.085764E-2,2.772528E-2,8.214451E-2,3.9486494E-2,2.4382003E-2,4.913866E-2,1.7725904E-2,-1.2594069E-2,3.2754656E-2,3.5108083E-3,1.0655987E-1,5.1235605E-2,-5.582218E-3,2.3077946E-2,1.0930856E-1,4.9086823E-3,2.4924781E-3,-1.4157541E-2,4.1360307E-2,1.6522183E-1,6.576147E-3,4.245182E-2,3.9716344E-2,1.6092947E-1,3.9591743E-3,6.4896226E-2,2.0562107E-2,7.0597254E-2,1.417684E-1,8.611051E-2,1.4158891E-1,7.468858E-2,8.188403E-2,1.1941661E-2,1.6841663E-1,8.464693E-2,2.1032193E-1,1.1366037E-1,1.1406733E-1,1.5959845E-1,1.5025105E-1,7.291104E-2,1.4027733E-1,4.4489287E-2,2.2555637E-1,1.6501068E-1,1.9601853E-1,9.165035E-2,2.743102E-1,1.4930938E-1],"categories":[],"categories_nodes":[],"categories_segments":[],"categories_sizes":[],"default_left":[0,0,0,0,0,0,0,0,0,0,0,0,0,0,0,0,0,0,0,0,0,0,0,0,0,0,0,0,0,0,0,0,0,0,0,0,0,0,0,0,0,0,0,0,0,0,0,0,0,0,0,0,0,0,0,0,0,0,0,0,0,0,0,0,0,0,0,0,0,0,0,0,0,0,0,0,0,0,0,0,0,0,0,0,0,0,0,0,0,0,0,0,0,0,0,0,0,0,0,0,0,0,0,0,0,0,0,0,0,0,0,0,0,0,0,0,0,0,0,0,0,0,0,0,0,0,0,0,0,0,0,0,0,0,0,0,0,0,0,0,0,0,0,0,0,0,0,0,0,0,0,0,0,0,0,0,0,0,0,0,0,0,0,0,0,0,0,0,0,0,0,0,0,0,0,0,0,0,0,0,0,0,0,0,0,0,0,0,0,0,0,0,0,0,0,0,0,0,0,0,0,0,0,0,0,0,0,0,0,0,0,0,0,0,0,0,0,0,0,0,0,0,0,0,0,0,0,0,0,0,0,0,0,0,0,0,0,0,0,0,0,0,0,0,0,0,0,0,0,0,0,0,0,0,0,0,0,0,0,0,0,0,0,0,0,0,0,0,0,0,0,0,0,0,0,0,0,0,0,0,0,0,0,0,0,0,0,0,0,0,0,0,0,0,0,0,0,0,0,0,0,0,0,0,0,0,0,0,0,0,0,0,0,0,0,0,0,0,0,0,0,0,0,0,0,0,0,0,0,0,0,0,0,0,0,0,0,0,0,0,0,0,0,0,0,0,0,0,0,0,0,0,0,0,0,0,0,0,0,0,0,0,0,0,0,0,0,0,0,0,0,0,0,0,0,0,0,0,0,0,0,0,0,0,0,0,0,0,0,0,0,0,0,0,0,0,0,0,0,0,0,0,0,0,0,0,0,0,0,0,0,0,0,0,0,0,0,0,0,0,0,0,0,0,0,0,0,0,0,0,0],"id":0,"left_children":[1,3,5,7,9,11,13,15,17,19,21,23,25,27,29,31,33,35,37,39,41,43,45,47,49,51,53,-1,55,57,59,61,63,65,67,69,-1,71,73,75,77,79,81,83,85,-1,87,89,91,93,95,97,99,101,103,105,107,109,-1,111,-1,-1,113,115,-1,117,-1,-1,-1,119,121,123,125,-1,127,129,131,133,135,137,139,141,-1,143,145,-1,147,149,151,153,-1,-1,155,157,159,161,163,-1,165,167,169,171,173,175,177,179,181,183,185,-1,-1,-1,187,-1,189,-1,191,193,195,197,-1,199,201,203,205,207,209,211,213,215,-1,217,219,221,223,225,227,-1,229,231,233,235,-1,237,239,241,-1,243,245,-1,-1,247,249,251,253,255,-1,257,259,-1,261,263,-1,265,267,269,271,-1,273,-1,275,-1,277,279,-1,281,283,-1,285,-1,-1,287,289,-1,-1,-1,291,-1,-1,-1,-1,-1,-1,293,295,297,299,301,303,-1,305,307,309,311,313,-1,315,-1,317,319,-1,321,323,325,327,329,-1,331,333,-1,-1,-1,335,-1,-1,337,-1,339,341,343,345,347,349,351,353,-1,355,357,-1,-1,359,361,-1,-1,-1,363,365,367,369,371,373,375,377,379,381,383,385,-1,387,389,391,-1,393,395,-1,-1,397,399,401,403,405,-1,407,-1,-1,409,-1,411,413,-1,-1,-1,415,-1,-1,417,419,-1,421,423,425,427,429,-1,-1,-1,-1,-1,-1,-1,-1,-1,-1,-1,-1,-1,-1,-1,-1,-1,-1,-1,-1,-1,-1,-1,-1,-1,-1,-1,-1,-1,-1,-1,-1,-1,-1,-1,-1,-1,-1,-1,-1,-1,-1,-1,-1,-1,-1,-1,-1,-1,-1,-1,-1,-1,-1,-1,-1,-1,-1,-1,-1,-1,-1,-1,-1,-1,-1,-1,-1,-1,-1,-1,-1,-1,-1,-1,-1,-1,-1,-1,-1,-1,-1,-1,-1,-1,-1,-1,-1,-1,-1,-1,-1,-1,-1,-1,-1,-1,-1,-1,-1,-1,-1,-1,-1,-1,-1,-1,-1,-1,-1,-1,-1,-1,-1,-1,-1,-1,-1,-1,-1,-1,-1,-1,-1,-1,-1,-1,-1,-1,-1,-1,-1,-1,-1,-1,-1,-1,-1],"loss_changes":[2.4743219E4,7.040116E3,7.1516387E3,9.1024023E2,8.349203E2,2.32292E3,7.802656E2,5.0288086E1,5.8039795E1,1.2772612E2,8.5870605E1,3.2501758E2,4.696006E2,3.338628E2,2.2963135E2,1.0976562E0,2.2537384E1,2.16138E1,7.3436737E0,2.5778786E1,2.515512E1,1.8633423E1,5.5920166E1,6.726343E1,4.8292236E1,5.281787E1,7.194336E1,0E0,1.1636182E2,1.3156781E2,3.062544E2,1.899414E-1,1.3548069E0,1.1578308E1,2.3706522E1,1.3190277E1,0E0,6.156395E0,9.05275E0,7.357894E0,1.2098602E1,1.4784187E1,2.4648834E1,1.3835785E1,2.0571045E1,0E0,2.2259033E1,3.4540527E1,5.1933105E1,3.9749023E1,7.029135E1,5.354248E1,3.3649292E1,3.8782593E1,5.997119E1,5.412207E1,8.767212E1,1.2912714E2,0E0,2.3054077E1,0E0,0E0,3.3436584E-1,2.1269689E0,0E0,5.790741E0,0E0,0E0,0E0,7.109192E0,3.8269348E0,4.3234024E0,1.4385462E1,0E0,5.184971E0,8.897572E0,8.685368E0,1.0095847E1,2.1533428E1,3.089089E0,1.1427551E1,2.0173782E1,0E0,2.2825897E1,1.4106251E1,0E0,1.2575928E1,1.3577618E1,2.2583008E1,3.0016113E1,0E0,0E0,2.9660645E1,3.8121338E1,6.995061E1,6.95556E1,3.451068E1,0E0,3.5926758E1,1.0671463E1,3.266919E1,6.2121582E1,1.7527924E1,4.65058E1,3.0598633E1,8.661289E0,6.3181152E1,2.6486572E1,1.1482507E2,0E0,0E0,0E0,2.510736E1,0E0,2.7274704E-1,0E0,4.480136E0,3.1903992E0,7.6818943E0,5.3461304E0,0E0,8.31134E0,4.36261E0,2.1818695E0,7.3906817E0,3.8268867E1,3.4207144E0,3.1942234E0,4.8078423E0,6.4809847E0,0E0,3.7922935E0,1.3648376E1,7.151205E0,2.5355644E1,5.4917816E1,7.678934E0,0E0,2.4529757E0,1.0243849E1,6.718399E0,1.4451004E1,0E0,2.9013687E1,1.4903397E1,1.3326061E1,0E0,2.2942072E1,1.3308716E1,0E0,0E0,9.511316E0,2.2742554E1,4.546289E1,2.0252686E1,2.4029053E1,0E0,1.1733356E1,2.498413E1,0E0,6.2308014E1,4.1379944E1,0E0,8.725851E0,2.9974686E1,4.2073296E1,3.240332E1,0E0,4.6323977E0,0E0,3.8581177E1,0E0,2.467694E1,5.144205E0,0E0,3.322986E1,1.5542869E1,0E0,3.142334E1,0E0,0E0,2.698317E1,3.8705322E1,0E0,0E0,0E0,4.2023193E1,0E0,0E0,0E0,0E0,0E0,0E0,2.1356506E0,2.967987E0,1.4209417E1,3.506464E0,2.650879E0,4.470726E0,0E0,3.942379E0,7.0363903E0,3.2870026E0,2.5173569E0,1.1983776E0,0E0,2.3879259E0,0E0,4.874909E-2,6.7737675E-1,0E0,4.400027E0,5.038471E-1,5.176922E0,2.515419E0,5.455063E0,0E0,1.7465572E0,3.6853905E0,0E0,0E0,0E0,5.910633E0,0E0,0E0,1.2981825E1,0E0,2.0925121E0,7.2380676E0,1.9158707E0,4.5197296E-1,2.195657E1,3.8404183E0,1.5720421E0,7.1818695E0,0E0,1.5211838E1,2.1088158E1,0E0,0E0,1.8213364E1,6.9892473E0,0E0,0E0,0E0,8.586243E0,1.7248E1,1.9108633E1,8.379108E0,1.828357E1,3.0395447E1,5.6670685E1,1.5068764E1,4.5969186E0,2.1076172E1,2.9513062E1,1.6438797E1,0E0,5.133188E0,4.3020225E0,2.4484375E1,0E0,2.00336E0,3.983092E1,0E0,0E0,6.4293754E-1,5.9963882E1,2.7190871E0,6.660164E1,2.8008492E1,0E0,4.031787E1,0E0,0E0,2.8599121E1,0E0,4.4635864E1,3.309178E1,0E0,0E0,0E0,2.7731995E1,0E0,0E0,9.068799E1,4.329834E1,0E0,1.3245819E1,1.660933E1,2.8960693E1,2.0924103E1,4.570758E1,0E0,0E0,0E0,0E0,0E0,0E0,0E0,0E0,0E0,0E0,0E0,0E0,0E0,0E0,0E0,0E0,0E0,0E0,0E0,0E0,0E0,0E0,0E0,0E0,0E0,0E0,0E0,0E0,0E0,0E0,0E0,0E0,0E0,0E0,0E0,0E0,0E0,0E0,0E0,0E0,0E0,0E0,0E0,0E0,0E0,0E0,0E0,0E0,0E0,0E0,0E0,0E0,0E0,0E0,0E0,0E0,0E0,0E0,0E0,0E0,0E0,0E0,0E0,0E0,0E0,0E0,0E0,0E0,0E0,0E0,0E0,0E0,0E0,0E0,0E0,0E0,0E0,0E0,0E0,0E0,0E0,0E0,0E0,0E0,0E0,0E0,0E0,0E0,0E0,0E0,0E0,0E0,0E0,0E0,0E0,0E0,0E0,0E0,0E0,0E0,0E0,0E0,0E0,0E0,0E0,0E0,0E0,0E0,0E0,0E0,0E0,0E0,0E0,0E0,0E0,0E0,0E0,0E0,0E0,0E0,0E0,0E0,0E0,0E0,0E0,0E0,0E0,0E0,0E0,0E0,0E0,0E0,0E0,0E0,0E0,0E0,0E0,0E0],"parents":[2147483647,0,0,1,1,2,2,3,3,4,4,5,5,6,6,7,7,8,8,9,9,10,10,11,11,12,12,13,13,14,14,15,15,16,16,17,17,18,18,19,19,20,20,21,21,22,22,23,23,24,24,25,25,26,26,28,28,29,29,30,30,31,31,32,32,33,33,34,34,35,35,37,37,38,38,39,39,40,40,41,41,42,42,43,43,44,44,46,46,47,47,48,48,49,49,50,50,51,51,52,52,53,53,54,54,55,55,56,56,57,57,59,59,62,62,63,63,65,65,69,69,70,70,71,71,72,72,74,74,75,75,76,76,77,77,78,78,79,79,80,80,81,81,83,83,84,84,86,86,87,87,88,88,89,89,92,92,93,93,94,94,95,95,96,96,98,98,99,99,100,100,101,101,102,102,103,103,104,104,105,105,106,106,107,107,108,108,112,112,114,114,116,116,117,117,118,118,119,119,121,121,122,122,123,123,124,124,125,125,126,126,127,127,128,128,129,129,131,131,132,132,133,133,134,134,135,135,136,136,138,138,139,139,140,140,141,141,143,143,144,144,145,145,147,147,148,148,151,151,152,152,153,153,154,154,155,155,157,157,158,158,160,160,161,161,163,163,164,164,165,165,166,166,168,168,170,170,172,172,173,173,175,175,176,176,178,178,181,181,182,182,186,186,193,193,194,194,195,195,196,196,197,197,198,198,200,200,201,201,202,202,203,203,204,204,206,206,208,208,209,209,211,211,212,212,213,213,214,214,215,215,217,217,218,218,222,222,225,225,227,227,228,228,229,229,230,230,231,231,232,232,233,233,234,234,236,236,237,237,240,240,241,241,245,245,246,246,247,247,248,248,249,249,250,250,251,251,252,252,253,253,254,254,255,255,256,256,258,258,259,259,260,260,262,262,263,263,266,266,267,267,268,268,269,269,270,270,272,272,275,275,277,277,278,278,282,282,285,285,286,286,288,288,289,289,290,290,291,291,292,292],"right_children":[2,4,6,8,10,12,14,16,18,20,22,24,26,28,30,32,34,36,38,40,42,44,46,48,50,52,54,-1,56,58,60,62,64,66,68,70,-1,72,74,76,78,80,82,84,86,-1,88,90,92,94,96,98,100,102,104,106,108,110,-1,112,-1,-1,114,116,-1,118,-1,-1,-1,120,122,124,126,-1,128,130,132,134,136,138,140,142,-1,144,146,-1,148,150,152,154,-1,-1,156,158,160,162,164,-1,166,168,170,172,174,176,178,180,182,184,186,-1,-1,-1,188,-1,190,-1,192,194,196,198,-1,200,202,204,206,208,210,212,214,216,-1,218,220,222,224,226,228,-1,230,232,234,236,-1,238,240,242,-1,244,246,-1,-1,248,250,252,254,256,-1,258,260,-1,262,264,-1,266,268,270,272,-1,274,-1,276,-1,278,280,-1,282,284,-1,286,-1,-1,288,290,-1,-1,-1,292,-1,-1,-1,-1,-1,-1,294,296,298,300,302,304,-1,306,308,310,312,314,-1,316,-1,318,320,-1,322,324,326,328,330,-1,332,334,-1,-1,-1,336,-1,-1,338,-1,340,342,344,346,348,350,352,354,-1,356,358,-1,-1,360,362,-1,-1,-1,364,366,368,370,372,374,376,378,380,382,384,386,-1,388,390,392,-1,394,396,-1,-1,398,400,402,404,406,-1,408,-1,-1,410,-1,412,414,-1,-1,-1,416,-1,-1,418,420,-1,422,424,426,428,430,-1,-1,-1,-1,-1,-1,-1,-1,-1,-1,-1,-1,-1,-1,-1,-1,-1,-1,-1,-1,-1,-1,-1,-1,-1,-1,-1,-1,-1,-1,-1,-1,-1,-1,-1,-1,-1,-1,-1,-1,-1,-1,-1,-1,-1,-1,-1,-1,-1,-1,-1,-1,-1,-1,-1,-1,-1,-1,-1,-1,-1,-1,-1,-1,-1,-1,-1,-1,-1,-1,-1,-1,-1,-1,-1,-1,-1,-1,-1,-1,-1,-1,-1,-1,-1,-1,-1,-1,-1,-1,-1,-1,-1,-1,-1,-1,-1,-1,-1,-1,-1,-1,-1,-1,-1,-1,-1,-1,-1,-1,-1,-1,-1,-1,-1,-1,-1,-1,-1,-1,-1,-1,-1,-1,-1,-1,-1,-1,-1,-1,-1,-1,-1,-1,-1,-1,-1,-1],"split_conditions":[1.5561925E2,6.322836E1,5.500606E2,2.2571041E1,1.0706563E2,2.7033817E2,5.6090355E-1,9.836697E-3,4.5282074E1,8.7671265E1,1.2594785E2,2.1318427E2,3.7855475E2,2.5E-1,1.1193187E-1,2.1758453E1,8.214951E1,1.1386026E2,5.013854E1,6.6253975E1,3.1879795E0,9.7176895E1,6.202136E1,1.8014842E2,3.152256E2,3.393276E2,3.8450275E2,3.2740152E-1,1.6698332E-1,7.556391E-1,7.4958696E0,5.8055447E1,1.2121094E1,8.3308586E1,5.669377E1,3.4062878E1,5.245694E-2,8.534483E-1,1.4541519E1,5.530927E-3,7.53644E1,7.428243E1,1.6820573E2,1.178792E2,5.8242542E1,1.2900567E-1,6.9559875E1,3.109245E2,7.147232E1,1.92002E2,1.2306214E2,2.7318296E-1,2.650673E2,7.6566416E-1,3.7531757E2,1.1572896E-2,2.1300401E-1,6.034483E-1,8.652904E-2,8.236102E-2,3.8533723E-1,-1.8604368E-2,4.473684E-1,2.4350212E2,-1.7736537E-2,3.711638E1,3.1702187E-2,-1.3815112E-2,8.891718E-2,7.830257E1,6.533212E1,8.30007E1,7.259858E1,4.1147858E-2,4.287051E1,9.2218315E1,4.8290707E2,8.5087717E-1,4.885186E1,1.4777285E-3,8.653812E1,1.6514546E2,8.293282E-2,6.83794E1,1.2733342E2,7.614749E-2,5.4908077E1,1.5413965E2,1.1309519E2,1.0642681E2,1.1879128E-1,1.1995157E-1,2.9652167E2,1.7226155E2,1.5968889E2,7.6566416E-1,6.295555E-2,1.7644458E-1,2.0840427E2,7.5E-1,4.408433E-2,3.161221E2,7.982456E-1,7.669173E-1,2.4432803E2,6.1303813E-2,5.5186145E2,5E-1,2.5694445E-1,3.5702053E-1,1.1419395E-1,1.2614124E-1,7.526809E-1,-6.9473493E-3,6.6264366E1,-1.728332E-2,3.4820538E1,8.975511E-2,1.865231E1,2.552433E-1,2.2779515E-2,1.3987138E1,1.128663E0,6.3095202E0,2.4362433E0,7.874182E-2,6.9130196E1,1.0344828E-1,8.552217E1,5E-1,4.4182986E-2,4.762067E1,5.862069E-1,2.721709E1,6.3906353E1,1.2263794E2,1.32165775E-2,2.3219047E-2,1.18928E2,7.259184E1,6.942734E1,5.5507805E1,6.715533E-2,1.2599552E2,6.739174E1,1.5905534E2,6.524967E-2,1.1687257E2,1.395451E2,2.8825006E-2,1.1104727E-1,4.9076596E-1,8.033378E0,1.2185437E-1,1.2487599E2,5.010411E-1,1.1481782E-1,1.9856728E2,8.1037704E1,1.9654624E-1,1.2645957E2,1.297463E1,2.3785312E-1,1.3467435E2,2.937885E2,1.2263794E2,1.3800142E2,7.334952E-2,6.7528086E0,1.5468584E-2,8.333333E-1,2.0627072E-1,2.4884684E-1,6E-1,8.768425E-2,3.6779192E-1,2.1574893E0,4.983951E-2,5E-1,9.891008E-2,3.1237572E-2,5.162907E-1,5.584158E2,1.6779141E-1,2.9600742E-1,3.133423E-2,5.482827E2,1.5921006E-1,2.9064664E-1,-1.7579624E-2,-8.3488235E-3,2.7688673E-2,-1.3781535E-2,1.402861E1,-2.068163E0,4.7748985E0,5.573521E1,6.3758995E1,5.530927E-3,3.4908377E-2,1.6422504E1,4.2413933E1,7.026837E1,2.3730347E1,1.848102E1,4.033776E-2,7.8108506E-3,9.566033E-2,2.2845538E0,8.3581E1,1.6709177E-2,4.5198784E1,9.719491E1,2.5704817E1,4.181916E1,2.8395908E0,3.932705E-2,1.4963529E-1,2.2413793E-1,5.2515477E-2,-7.885041E-3,3.7240416E-2,6.471409E1,8.970845E-2,-5.417878E-3,4.473684E-1,1.03477396E-1,6.7485756E1,3.1269766E1,3.007143E0,5.342834E-1,9.617661E1,2.54331E-1,1.0478296E2,1.0201417E0,5.5567533E-2,1.2831064E2,1.0938585E2,-8.482296E-5,6.874201E-2,1.5374414E2,1.1716631E2,5.1755924E-2,-4.54239E-3,9.75669E-2,1.5713908E2,2.9774908E2,1.9632243E-1,9.937291E1,8.4280525E1,1.156332E2,5.601504E-1,1.688719E2,9.736869E-2,8.975646E1,8.264385E1,2.3004709E2,6.6581294E-2,1.2790947E1,6.4285713E-1,1.6523412E2,1.4145072E-1,2.909461E2,4.800891E0,1.5959322E-1,4.1462537E-2,6.844646E0,2.5216068E2,1.838056E2,3.9247127E0,2.275725E-1,1.4828046E-1,1.6878886E2,3.7213337E-2,-4.426272E-3,5.898316E-3,1.7995565E-1,4.9151874E-1,4.1563712E2,3.371068E-2,-1.01796305E-2,1.7680503E-1,2.5620303E2,7.0255004E-2,-7.552029E-3,4.0482892E2,5.852322E2,2.300704E-2,5.0489758E2,5.0012136E-1,4.224138E-1,4.2051525E0,1E0,-1.6239295E-2,-1.4001218E-2,6.525977E-3,-1.1324281E-2,5.484847E-2,-4.87549E-3,1.4821951E-2,-1.1784428E-2,-1.319502E-2,1.0653115E-2,1.6650936E-2,-9.998837E-3,1.2916627E-2,-7.1081244E-3,-1.5336539E-2,4.150507E-2,-9.369331E-3,-6.782526E-4,1.6300995E-2,-6.7079784E-3,-7.273792E-3,-1.2947507E-2,1.6188936E-2,-1.1476844E-2,-6.0647177E-3,-1.2030311E-2,-9.36953E-3,3.9646174E-3,1.9341948E-2,-1.010084E-2,-1.0027222E-2,-6.3256896E-3,-3.5551384E-3,1.7220508E-3,-1.0682798E-2,-5.189835E-3,-7.2991955E-3,7.1461047E-3,3.913455E-3,-8.506625E-3,4.1652788E-4,-3.3987344E-3,-9.922268E-3,3.7407267E-4,4.6869077E-2,-8.431045E-3,9.409349E-3,-1.1222391E-2,2.9650312E-3,1.0116389E-2,-5.4204273E-3,2.2966338E-3,-1.2609171E-2,-1.5891282E-3,1.8586525E-3,6.0471553E-2,-3.5511926E-3,3.2239915E-3,-7.772939E-3,5.920722E-3,6.6775093E-3,1.0309691E-2,1.1755941E-2,1.2458647E-3,3.5410117E-2,1.3525389E-1,1.9124405E-2,6.057032E-2,3.5604779E-3,2.2397662E-2,1.3467795E-2,2.5898192E-2,6.489982E-3,6.452903E-2,-9.610373E-3,8.002015E-2,1.091251E-3,1.4067935E-2,5.1550906E-2,2.0116737E-2,5.282218E-2,2.5269687E-2,1.7488249E-2,5.523584E-2,1.2600481E-2,3.5450395E-2,2.1943087E-2,-3.7843694E-3,7.085764E-2,2.772528E-2,8.214451E-2,3.9486494E-2,2.4382003E-2,4.913866E-2,1.7725904E-2,-1.2594069E-2,3.2754656E-2,3.5108083E-3,1.0655987E-1,5.1235605E-2,-5.582218E-3,2.3077946E-2,1.0930856E-1,4.9086823E-3,2.4924781E-3,-1.4157541E-2,4.1360307E-2,1.6522183E-1,6.576147E-3,4.245182E-2,3.9716344E-2,1.6092947E-1,3.9591743E-3,6.4896226E-2,2.0562107E-2,7.0597254E-2,1.417684E-1,8.611051E-2,1.4158891E-1,7.468858E-2,8.188403E-2,1.1941661E-2,1.6841663E-1,8.464693E-2,2.1032193E-1,1.1366037E-1,1.1406733E-1,1.5959845E-1,1.5025105E-1,7.291104E-2,1.4027733E-1,4.4489287E-2,2.2555637E-1,1.6501068E-1,1.9601853E-1,9.165035E-2,2.743102E-1,1.4930938E-1],"split_indices":[16,16,16,36,16,18,8,65,16,16,16,16,16,14,2,34,18,40,25,23,57,46,21,16,27,16,21,0,8,12,57,49,23,17,20,16,0,10,23,8,16,32,23,36,48,0,25,36,48,60,48,12,34,12,27,64,8,10,0,63,0,0,12,60,0,23,0,0,0,40,49,18,47,0,27,27,57,12,17,8,18,32,0,42,42,0,21,17,23,49,0,0,21,27,46,12,2,0,23,14,57,25,12,12,46,57,18,14,64,0,0,0,57,0,40,0,64,63,18,65,0,20,34,64,60,8,18,10,47,7,0,23,10,18,34,49,65,0,17,21,40,17,0,21,47,25,0,23,40,0,0,62,57,63,17,61,0,20,47,0,48,62,0,49,16,49,32,0,62,0,0,0,64,3,0,62,64,0,14,0,0,12,17,0,0,0,23,0,0,0,0,0,0,16,17,36,47,23,8,0,27,36,40,32,62,0,8,0,62,34,0,18,49,60,20,57,0,57,10,0,0,0,47,0,0,12,0,18,60,62,2,46,64,20,57,0,47,23,0,0,21,49,0,0,0,36,57,62,23,32,18,12,25,64,47,49,25,0,57,12,18,0,36,60,0,0,57,32,49,57,2,0,32,0,0,2,0,2,40,0,0,0,42,0,0,42,32,0,42,57,10,62,7,0,0,0,0,0,0,0,0,0,0,0,0,0,0,0,0,0,0,0,0,0,0,0,0,0,0,0,0,0,0,0,0,0,0,0,0,0,0,0,0,0,0,0,0,0,0,0,0,0,0,0,0,0,0,0,0,0,0,0,0,0,0,0,0,0,0,0,0,0,0,0,0,0,0,0,0,0,0,0,0,0,0,0,0,0,0,0,0,0,0,0,0,0,0,0,0,0,0,0,0,0,0,0,0,0,0,0,0,0,0,0,0,0,0,0,0,0,0,0,0,0,0,0,0,0,0,0,0,0,0,0,0,0,0,0,0,0,0],"split_type":[0,0,0,0,0,0,0,0,0,0,0,0,0,0,0,0,0,0,0,0,0,0,0,0,0,0,0,0,0,0,0,0,0,0,0,0,0,0,0,0,0,0,0,0,0,0,0,0,0,0,0,0,0,0,0,0,0,0,0,0,0,0,0,0,0,0,0,0,0,0,0,0,0,0,0,0,0,0,0,0,0,0,0,0,0,0,0,0,0,0,0,0,0,0,0,0,0,0,0,0,0,0,0,0,0,0,0,0,0,0,0,0,0,0,0,0,0,0,0,0,0,0,0,0,0,0,0,0,0,0,0,0,0,0,0,0,0,0,0,0,0,0,0,0,0,0,0,0,0,0,0,0,0,0,0,0,0,0,0,0,0,0,0,0,0,0,0,0,0,0,0,0,0,0,0,0,0,0,0,0,0,0,0,0,0,0,0,0,0,0,0,0,0,0,0,0,0,0,0,0,0,0,0,0,0,0,0,0,0,0,0,0,0,0,0,0,0,0,0,0,0,0,0,0,0,0,0,0,0,0,0,0,0,0,0,0,0,0,0,0,0,0,0,0,0,0,0,0,0,0,0,0,0,0,0,0,0,0,0,0,0,0,0,0,0,0,0,0,0,0,0,0,0,0,0,0,0,0,0,0,0,0,0,0,0,0,0,0,0,0,0,0,0,0,0,0,0,0,0,0,0,0,0,0,0,0,0,0,0,0,0,0,0,0,0,0,0,0,0,0,0,0,0,0,0,0,0,0,0,0,0,0,0,0,0,0,0,0,0,0,0,0,0,0,0,0,0,0,0,0,0,0,0,0,0,0,0,0,0,0,0,0,0,0,0,0,0,0,0,0,0,0,0,0,0,0,0,0,0,0,0,0,0,0,0,0,0,0,0,0,0,0,0,0,0,0,0,0,0,0,0,0,0,0,0,0,0,0,0,0,0,0,0,0,0,0,0,0,0,0,0,0,0,0,0,0,0,0,0,0,0],"sum_hessian":[1.56444E5,1.39957E5,1.6487E4,9.2315E4,4.7642E4,1.5884E4,6.03E2,6.4676E4,2.7639E4,2.997E4,1.7672E4,1.16E4,4.284E3,4.15E2,1.88E2,5.8948E4,5.728E3,1.3292E4,1.4347E4,1.8366E4,1.1604E4,9.116E3,8.556E3,7.906E3,3.694E3,3.083E3,1.201E3,3.9E1,3.76E2,4.3E1,1.45E2,5.882E4,1.28E2,5.707E3,2.1E1,1.3279E4,1.3E1,5.579E3,8.768E3,4.362E3,1.4004E4,8.101E3,3.503E3,1.014E3,8.102E3,1.1E1,8.545E3,4.272E3,3.634E3,3.534E3,1.6E2,2.478E3,6.05E2,2.57E2,9.44E2,2.5E2,1.26E2,2.6E1,1.7E1,3.6E1,1.09E2,5.8536E4,2.84E2,4.9E1,7.9E1,5.694E3,1.3E1,1.1E1,1E1,5.181E3,8.098E3,5.422E3,1.57E2,1E1,8.758E3,3.02E2,4.06E3,5.692E3,8.312E3,4.14E2,7.687E3,3.492E3,1.1E1,6.83E2,3.31E2,1.2E1,8.09E3,2.1E1,8.524E3,4.262E3,1E1,1.9E1,3.615E3,3.486E3,4.8E1,6.2E1,9.8E1,1.1E1,2.467E3,4.5E1,5.6E2,2.22E2,3.5E1,1.91E2,7.53E2,2.1E1,2.29E2,4.5E1,8.1E1,1.6E1,1E1,1.1E1,2.5E1,1E1,2.74E2,2.4E1,2.5E1,5.266E3,4.28E2,5.167E3,1.4E1,2.069E3,6.029E3,5.374E3,4.8E1,3.5E1,1.22E2,6.92E2,8.066E3,2.89E2,1.3E1,4.024E3,3.6E1,5.663E3,2.9E1,7.4E1,8.238E3,1E1,4.04E2,1.603E3,6.084E3,3.477E3,1.5E1,3.5E1,6.48E2,3.2E2,1.1E1,2.1E1,8.069E3,1.1E1,1E1,6.06E2,7.918E3,8.58E2,3.404E3,3.603E3,1.2E1,9.1E1,3.395E3,1.2E1,3.6E1,5.2E1,1E1,3.7E1,6.1E1,1.42E2,2.325E3,1.7E1,2.8E1,1.5E1,5.45E2,1.1E1,2.11E2,2.5E1,1E1,1.66E2,2.5E1,1.6E1,7.37E2,1.1E1,1E1,4E1,1.89E2,1E1,3.5E1,1.2E1,6.9E1,1.2E1,1.3E1,2.63E2,1.1E1,1E1,1.5E1,4.814E3,4.52E2,5.4E1,3.74E2,3.165E3,2.002E3,1.1E1,2.058E3,2E1,6.009E3,4.982E3,3.92E2,1.2E1,3.6E1,1.3E1,2.2E1,1.07E2,1.5E1,4.9E1,6.43E2,5.489E3,2.577E3,2.78E2,1.1E1,4.12E2,3.612E3,1.7E1,1.9E1,1.2E1,5.651E3,1E1,1.9E1,5.6E1,1.8E1,1.27E2,8.111E3,3.2E2,8.4E1,7.1E1,1.532E3,1.11E2,5.973E3,1.7E1,3.46E3,2.3E1,1.2E1,1.6E1,6.32E2,3.03E2,1.7E1,1E1,1.1E1,7.149E3,9.2E2,2.3E1,5.83E2,6.843E3,1.075E3,5.59E2,2.99E2,8.5E1,3.319E3,3.086E3,5.17E2,1E1,8.1E1,5.1E1,3.344E3,1.3E1,2.3E1,3.6E1,1.6E1,1.5E1,2.2E1,4E1,2.1E1,5.3E1,8.9E1,1.3E1,2.312E3,1.8E1,1E1,5.33E2,1.2E1,1.11E2,1E2,1.2E1,1.3E1,1.3E1,1.53E2,1E1,1.5E1,1.13E2,6.24E2,1E1,3E1,2E1,1.69E2,2.5E1,4.4E1,1.733E3,3.081E3,2.4E1,4.28E2,1.2E1,4.2E1,1.2E1,3.62E2,3.154E3,1.1E1,1.5E1,1.987E3,2.4E1,2.034E3,1E1,1E1,5.898E3,1.11E2,1.1E1,4.971E3,1.68E2,2.24E2,1E1,2.6E1,1E1,1.2E1,9.7E1,1E1,2.3E1,2.6E1,5.23E2,1.2E2,4.977E3,5.12E2,2.29E2,2.348E3,1.03E2,1.75E2,3E1,3.82E2,8.18E2,2.794E3,1.42E2,5.509E3,1.3E1,4.3E1,1.3E1,1.14E2,7.741E3,3.7E2,1.63E2,1.57E2,7.3E1,1.1E1,4.8E1,2.3E1,2.49E2,1.283E3,8.4E1,2.7E1,3.861E3,2.112E3,3.072E3,3.88E2,1E1,1.3E1,6.05E2,2.7E1,2.42E2,6.1E1,7.007E3,1.42E2,9.08E2,1.2E1,1E1,1.3E1,1.8E2,4.03E2,4.6E1,6.797E3,1.12E2,9.63E2,1.31E2,4.28E2,1.75E2,1.24E2,2.3E1,6.2E1,2.8E1,3.291E3,4.1E1,3.045E3,4.37E2,8E1,6.4E1,1.7E1,2.1E1,3E1,2E1,3.324E3,1.3E1,1E1,1.9E1,1.7E1,1E1,1.2E1,2.2E1,1.8E1,1.1E1,1E1,3.7E1,1.6E1,6.3E1,2.6E1,4.2E1,2.27E3,2.6E1,5.07E2,4.5E1,6.6E1,7.8E1,2.2E1,1.1E1,1.42E2,4.1E1,7.2E1,5.59E2,6.5E1,1.7E1,1.3E1,1E1,1E1,3.5E1,1.34E2,1E1,1.5E1,2.8E1,1.6E1],"tree_param":{"num_deleted":"0","num_feature":"67","num_nodes":"431","size_leaf_vector":"1"}},{"base_weights":[4.351619E-4,-1.1876433E-1,1.2100468E0,-2.764595E-1,1.938174E-1,1.0650879E0,4.409805E0,-3.4183723E-1,-1.2099895E-1,8.160818E-2,3.4648454E-1,8.9143145E-1,1.8515474E0,3.4658563E0,5.6992326E0,-3.5295787E-1,-2.578313E-1,-1.7620414E-1,-8.5103065E-2,3.181365E-2,1.4945923E-1,2.9563144E-1,4.621258E-1,7.4509156E-1,1.1233944E0,1.4813069E0,2.063491E0,2.678108E0,4.014987E0,6.5411763E0,3.239134E0,-3.5329193E-1,-2.733688E-1,-2.5990883E-1,6.1674085E-2,-1.7838232E-1,6.2236395E-2,-3.350868E-1,-8.225066E-2,-5.5371206E-3,5.926123E-2,1.21585794E-1,2.0976044E-1,2.934626E-1,1.2657719E0,4.5725048E-1,1.05123214E-1,7.387568E-1,1.8425645E0,6.251848E-1,1.156393E0,2.9185233E-1,1.5357306E0,2.6711054E0,1.9702165E0,3.3488918E-2,2.933618E0,6.347283E-2,4.17827E0,6.93637E0,4.8956714E0,1.5138861E0,4.106562E0,-1.7671933E-2,-3.2659355E-1,-1.080035E-2,-3.1748873E-1,-2.6186034E-1,1.3657011E-2,-2.8976187E-1,-1.6910598E-1,-1.72656E-2,-1.3009446E-2,7.435942E-1,-8.337995E-2,-2.815769E-1,-7.704886E-4,6.6332144E-1,5.3448975E-2,-6.398487E-2,1.2964766E-1,2.0429333E-1,6.54726E-2,2.4042769E-1,3.3010128E-1,4.4369437E-3,1.444342E-1,5.880796E-1,4.2835766E-1,5.4289305E-1,7.678485E-1,1.6004519E-1,2.3000693E-2,7.4057686E-1,7.174982E-2,1.1820747E0,6.622438E-1,7.480005E-1,-1.2583995E-2,2.370702E0,1.47701E0,2.1356382E0,3.4777741E0,1.4747056E0,2.1232536E0,2.3691678E0,3.7196171E0,3.2350001E0,4.457853E0,3.625187E-1,5.0763354E0,1.2678301E-1,5.59782E0,1.0037172E-1,5.0898172E-2,4.6737843E0,1.1972164E-1,-2.4201855E-1,-3.3896807E-1,-1.6841033E-2,1.7602224E-2,-1.6955165E-2,-1.5522829E-1,-2.7574828E-1,-2.2623257E-1,4.540656E-2,-2.7788475E-1,-3.2534888E-1,-2.1359749E-1,2.875206E-1,-1.7111953E-1,-1.2616388E-2,9.2649676E-2,-1.4419234E-1,-7.292385E-2,-3.1088546E-1,-6.4141178E-3,5.5986334E-2,-1.8530821E-2,2.1627714E-1,1.075053E-1,5.1050592E-2,8.840944E-1,-8.126564E-2,2.0180395E-2,-7.612409E-2,1.3559818E-1,4.0052107E-1,1.7281969E-1,2.5757524E-1,1.1110607E-1,1.1655593E0,3.2631114E-1,5.1983345E-1,1.0689819E0,4.2429557E-1,7.692818E-2,3.914629E-1,7.931533E-1,1.9351876E0,7.6107436E-1,4.1195828E-1,1.0109928E0,2.8538665E-1,-1.4414883E-2,1.1291579E0,1.4049302E0,1.93215E-1,8.780937E-1,1.0393113E-2,5.9039693E-2,4.015653E-2,3.0692313E0,2.623667E0,1.4301124E0,1.847875E0,1.863792E-1,8.341327E-2,3.7769656E0,2.1826608E0,1.3123541E0,1.5746466E0,2.206588E0,4.5400422E-2,2.8167348E0,8.719594E-2,4.4536057E0,3.876541E0,1.0258891E-1,5.7530203E0,3.9199114E0,1.7179242E-1,2.9704687E-1,1.9449884E-1,3.2601362E-1,1.6577284E-1,2.6615041E-1,-1.5552463E-2,-2.1429951E-3,-2.5352997E-1,-3.4439802E-1,6.3200607E-3,-1.6416404E-2,-3.0092946E-1,-2.6501206E-1,-2.2885776E-1,1.32467095E-2,-7.2797537E-3,-1.6517853E-2,-3.2968852E-1,-4.731771E-3,-2.2808024E-1,7.538674E-3,5.3674746E-2,-2.2801715E-1,2.9559514E-2,-1.7193194E-1,4.488495E-1,-1.5171093E-1,4.2556297E-2,-7.388951E-2,-1.6542366E-2,-9.582296E-3,4.6919864E-2,4.5749094E-2,-2.006066E-2,3.4065835E-2,6.2950246E-2,-7.038825E-3,-2.567277E-1,5.3866014E-2,-5.971905E-3,1.0324178E-1,-1.2828521E-1,1.1332695E-1,-1.1819383E-1,1.773929E-1,1.3246635E-1,5.941432E-1,1.2887488E-1,5.492812E-1,5.2981712E-2,1.6767773E-1,1.2230127E-3,2.653084E-1,1.9857931E-1,-1.5041828E-1,1.3131279E-1,-1.0367271E-2,6.1286116E-1,3.1874382E-1,6.922011E-1,3.4816378E-1,2.2105327E0,7.554594E-1,3.419546E-1,4.6640414E-1,1.6090904E-1,4.764264E-1,1.8507046E0,7.0705336E-1,1.8099098E-1,3.295929E-2,7.537846E-1,1.601266E0,1.7005207E-1,6.8627495E-1,6.8380225E-1,1.6023512E0,-7.7650155E-4,4.0328186E-2,2.0851915E0,1.1161386E0,1.8983302E-1,1.3660061E0,3.7373114E-1,-1.4443343E-2,2.563986E-1,1.1344626E0,3.974834E0,5.457964E-2,2.057489E-1,7.718493E-2,3.138097E-1,1.4720969E0,1.8443531E-1,1.6200706E0,4.8935432E0,2.8498447E0,1.5482694E0,1.7532024E-1,5.654878E-1,1.4326588E0,1.7702228E0,3.923652E-3,2.001121E0,2.4463477E0,2.4325232E-1,2.3097715E0,3.0254462E0,3.0199176E-1,1.5392019E-1,2.4086063E-1,1.7431407E-1,6.4679484E0,4.716271E0,3.2888625E0,-8.120286E-3,-1.6080301E-2,-1.7390748E-2,-1.2125964E-2,-1.52789205E-2,-1.3351145E-2,-4.1283513E-3,-1.3387312E-2,-1.1555235E-2,1.1545947E-2,-1.750813E-2,-1.4493644E-2,-9.215846E-3,-1.3588588E-2,-7.520113E-3,-1.3139042E-2,-8.634067E-3,1.9043846E-2,7.565796E-2,-6.5009906E-3,2.48985E-2,-7.743817E-3,-3.7289304E-3,3.7577298E-2,1.7380615E-3,2.9275706E-2,-1.5345853E-3,2.8712351E-3,2.2953749E-2,-7.7593895E-3,-4.861594E-3,-1.5502107E-2,5.0612867E-2,2.6340114E-3,-9.351851E-3,-3.8505096E-3,1.1166795E-2,-5.0920686E-3,-8.610202E-3,2.2026622E-3,1.804071E-2,-2.1155367E-3,7.0009776E-3,5.320964E-4,1.0508819E-1,8.234699E-3,3.4537718E-3,5.2066613E-2,2.3775658E-2,1.2199598E-1,-3.4196917E-3,9.158593E-3,-3.3803717E-3,2.242799E-2,4.1475736E-2,1.3001593E-2,8.253987E-3,5.742664E-2,-1.1543449E-2,1.0758224E-2,-1.6486137E-4,4.5938943E-2,4.307245E-2,1.5710426E-2,2.9010687E-2,1.0162373E-1,3.3134688E-2,1.057166E-2,3.0414125E-2,1.5109037E-1,6.3494085E-3,5.3833004E-2,4.9339306E-2,1.6568754E-2,5.182442E-2,2.2726504E-2,2.8207613E-2,-3.8371475E-3,6.781513E-2,2.2509295E-2,3.0834699E-2,1.5166621E-1,2.6414653E-2,6.277603E-2,3.892845E-2,2.7350247E-2,1.5104178E-1,4.430687E-2,1.9192236E-2,-1.7430056E-3,6.657149E-2,1.3815316E-2,5.2882444E-2,1.55756995E-2,1.5462874E-1,2.8317263E-2,6.208848E-2,2.0979352E-1,5.3866487E-2,6.97518E-2,3.573033E-2,7.295556E-2,2.3721809E-2,5.1024377E-5,2.6547356E-2,-1.2744099E-2,9.7034276E-2,4.8060145E-2,2.6618835E-1,8.8701546E-2,3.9514747E-2,-6.1364016E-3,9.1676414E-2,6.742611E-2,6.335544E-2,1.2675966E-1,3.5419765E-1,1.6839284E-1,1.7286788E-1,5.9741378E-2,4.9558576E-2,1.22391395E-1,6.711499E-2,5.3926813E-3,6.723468E-2,1.3818651E-1,1.12692825E-1,5.7998933E-2,1.4082457E-1,9.094961E-2,1.4778072E-1,1.1249427E-1,1.9849873E-1,7.769301E-2,1.019237E-1,1.9135514E-1,3.8556883E-1,2.4489944E-1,1.5243177E-1,2.649239E-1,1.370702E-1,2.5917977E-1],"categories":[],"categories_nodes":[],"categories_segments":[],"categories_sizes":[],"default_left":[0,0,0,0,0,0,0,0,0,0,0,0,0,0,0,0,0,0,0,0,0,0,0,0,0,0,0,0,0,0,0,0,0,0,0,0,0,0,0,0,0,0,0,0,0,0,0,0,0,0,0,0,0,0,0,0,0,0,0,0,0,0,0,0,0,0,0,0,0,0,0,0,0,0,0,0,0,0,0,0,0,0,0,0,0,0,0,0,0,0,0,0,0,0,0,0,0,0,0,0,0,0,0,0,0,0,0,0,0,0,0,0,0,0,0,0,0,0,0,0,0,0,0,0,0,0,0,0,0,0,0,0,0,0,0,0,0,0,0,0,0,0,0,0,0,0,0,0,0,0,0,0,0,0,0,0,0,0,0,0,0,0,0,0,0,0,0,0,0,0,0,0,0,0,0,0,0,0,0,0,0,0,0,0,0,0,0,0,0,0,0,0,0,0,0,0,0,0,0,0,0,0,0,0,0,0,0,0,0,0,0,0,0,0,0,0,0,0,0,0,0,0,0,0,0,0,0,0,0,0,0,0,0,0,0,0,0,0,0,0,0,0,0,0,0,0,0,0,0,0,0,0,0,0,0,0,0,0,0,0,0,0,0,0,0,0,0,0,0,0,0,0,0,0,0,0,0,0,0,0,0,0,0,0,0,0,0,0,0,0,0,0,0,0,0,0,0,0,0,0,0,0,0,0,0,0,0,0,0,0,0,0,0,0,0,0,0,0,0,0,0,0,0,0,0,0,0,0,0,0,0,0,0,0,0,0,0,0,0,0,0,0,0,0,0,0,0,0,0,0,0,0,0,0,0,0,0,0,0,0,0,0,0,0,0,0,0,0,0,0,0,0,0,0,0,0,0,0,0,0,0,0,0,0,0,0,0,0,0,0,0,0,0,0,0,0,0,0,0,0,0,0,0,0,0,0,0,0,0,0,0,0,0,0,0,0,0,0,0,0,0,0,0,0,0,0,0,0,0,0,0,0,0,0,0,0,0,0,0,0,0,0,0,0,0,0,0,0,0],"id":1,"left_children":[1,3,5,7,9,11,13,15,17,19,21,23,25,27,29,31,33,35,37,39,41,43,45,47,49,51,53,55,57,59,61,63,65,67,-1,69,-1,71,73,75,77,79,81,83,85,87,-1,89,91,93,95,97,99,101,103,-1,105,-1,107,109,111,113,115,-1,117,119,121,123,125,127,129,-1,-1,131,133,135,137,139,141,143,145,147,-1,149,151,-1,-1,153,155,157,159,-1,-1,161,163,165,167,169,-1,171,173,175,177,179,181,183,185,187,189,-1,191,-1,193,-1,-1,195,-1,197,199,-1,-1,-1,201,203,205,-1,207,209,211,213,215,-1,-1,217,219,221,-1,223,225,227,-1,229,231,233,-1,235,237,239,241,243,245,247,249,251,253,255,-1,257,259,261,263,265,267,269,-1,271,273,275,277,-1,-1,-1,279,281,283,285,-1,-1,287,289,291,293,295,-1,297,-1,299,301,-1,303,305,-1,-1,-1,-1,-1,-1,-1,-1,307,309,-1,-1,311,313,315,-1,-1,-1,317,-1,319,-1,-1,321,-1,323,325,327,-1,329,-1,-1,-1,331,333,-1,-1,335,337,339,-1,-1,341,343,345,347,349,351,353,355,-1,357,359,361,363,365,-1,-1,367,369,371,373,375,377,379,381,383,385,387,389,-1,-1,391,393,395,397,399,401,-1,-1,403,405,-1,407,409,-1,411,413,415,-1,-1,-1,417,419,-1,421,423,425,427,-1,429,431,433,-1,435,437,-1,439,441,-1,-1,-1,-1,443,445,447,-1,-1,-1,-1,-1,-1,-1,-1,-1,-1,-1,-1,-1,-1,-1,-1,-1,-1,-1,-1,-1,-1,-1,-1,-1,-1,-1,-1,-1,-1,-1,-1,-1,-1,-1,-1,-1,-1,-1,-1,-1,-1,-1,-1,-1,-1,-1,-1,-1,-1,-1,-1,-1,-1,-1,-1,-1,-1,-1,-1,-1,-1,-1,-1,-1,-1,-1,-1,-1,-1,-1,-1,-1,-1,-1,-1,-1,-1,-1,-1,-1,-1,-1,-1,-1,-1,-1,-1,-1,-1,-1,-1,-1,-1,-1,-1,-1,-1,-1,-1,-1,-1,-1,-1,-1,-1,-1,-1,-1,-1,-1,-1,-1,-1,-1,-1,-1,-1,-1,-1,-1,-1,-1,-1,-1,-1,-1,-1,-1,-1,-1,-1,-1,-1,-1,-1,-1,-1,-1,-1,-1,-1],"loss_changes":[2.252373E4,7.0095137E3,6.494998E3,9.606074E2,8.168301E2,1.8293955E3,7.190596E2,6.2066406E1,5.5437195E1,9.285637E1,1.1865381E2,3.7201953E2,1.871543E2,1.4194727E2,5.0698438E2,1.4658203E0,2.4431213E1,3.4345E1,1.206514E1,1.6252638E1,1.9527252E1,2.9154907E1,4.8365356E1,4.548291E1,6.909863E1,5.6906616E1,8.196094E1,7.398108E1,8.704492E1,8.8947754E1,9.4050476E1,1.1425781E-1,2.8926983E0,4.152771E0,0E0,1.132547E1,0E0,5.6432724E-2,1.5701057E1,8.836562E0,3.20476E1,1.1913826E1,2.183316E1,2.7130249E1,5.8960503E1,2.2999146E1,0E0,3.7765625E1,6.98905E1,1.6934158E1,4.9750977E1,1.0105508E1,3.8026855E1,7.982556E1,9.833154E1,0E0,4.9306763E1,0E0,3.674121E1,5.0803223E1,5.208893E1,3.8307877E0,3.1539917E1,0E0,2.6647568E-1,4.495483E0,6.979008E-1,3.7559814E0,1.4855843E1,2.220848E0,9.395294E0,0E0,0E0,2.5879692E1,1.0638229E1,4.7230244E-1,6.6569934E0,5.736027E1,1.7988338E1,2.7154808E0,9.349213E0,2.2528748E1,0E0,1.2666809E1,2.5835083E1,0E0,0E0,3.5874146E1,2.208545E1,3.265985E1,4.464453E1,0E0,0E0,1.9133522E1,3.6974883E0,4.3037598E1,1.9977066E1,4.897458E0,0E0,5.6664703E1,3.8945557E1,4.9916687E1,3.646881E1,3.380072E1,4.3157715E1,4.9105743E1,6.9090576E1,2.848233E1,7.986694E1,0E0,1.5047058E1,0E0,2.1898376E1,0E0,0E0,1.0571289E1,0E0,6.190796E-1,4.6295166E-2,0E0,0E0,0E0,1.3577514E0,1.420166E0,2.858635E0,0E0,2.5038838E-1,5.434952E-1,1.469759E0,1.8478748E1,6.3696594E0,0E0,0E0,1.1019009E1,1.2816025E1,1.6271687E-1,0E0,1.4175724E1,5.399057E0,1.5843189E1,0E0,7.8359566E0,3.1054337E1,2.9515793E0,0E0,2.3140266E0,1.0567017E1,2.0336327E1,1.4209038E1,1.0018799E1,1.5402798E1,7.4744225E1,1.7678955E1,2.8579956E1,4.736258E1,1.7263489E1,0E0,1.0579575E1,2.8466476E1,6.855046E1,3.4316895E1,6.5855484E0,2.2122726E1,4.717451E0,0E0,3.5797607E1,6.202893E1,5.677466E0,2.1385254E1,0E0,0E0,0E0,6.1926422E1,4.1964783E1,3.5391846E1,3.889444E1,0E0,0E0,5.541272E1,4.3277893E1,2.2730957E1,4.0242096E1,3.8603516E1,0E0,5.1067963E1,0E0,6.781152E1,7.694214E0,0E0,4.38938E1,3.8260864E1,0E0,0E0,0E0,0E0,0E0,0E0,0E0,0E0,7.804036E-2,8.939743E-3,0E0,0E0,1.786499E-1,1.9223938E0,2.2838135E0,0E0,0E0,0E0,3.5744476E-1,0E0,4.5087433E-1,0E0,0E0,3.602624E-2,0E0,4.254486E0,1.9295723E1,5.0662003E0,0E0,8.177437E0,0E0,0E0,0E0,9.214002E0,4.13699E0,0E0,0E0,4.0073366E0,6.671357E-1,1.01133175E1,0E0,0E0,7.6583385E-1,1.5139825E0,1.6287405E0,1.2645143E0,6.7746124E0,3.2026176E1,9.74967E0,4.4306595E1,0E0,1.1490463E1,4.618094E0,1.43897705E1,1.5849207E1,5.0201993E0,0E0,0E0,3.97752E1,1.950116E1,7.1616165E1,2.0932755E1,3.585797E1,2.1866604E1,1.1297684E1,2.2016296E1,1.4226366E1,8.555489E0,3.315412E1,2.9142136E1,0E0,0E0,2.9052246E1,4.706668E1,2.4228604E0,1.2063295E1,1.0665642E1,6.3091507E1,0E0,0E0,6.5997406E1,3.1228027E1,0E0,4.2139282E1,1.7636061E0,0E0,5.8905525E0,1.15444565E1,6.4773865E1,0E0,0E0,0E0,6.129101E0,3.0444702E1,0E0,2.8118973E1,7.305676E1,3.508139E1,1.812062E1,0E0,1.3364063E1,2.2628418E1,3.339203E1,0E0,6.630652E1,3.3671143E1,0E0,5.657953E1,9.60524E0,0E0,0E0,0E0,0E0,2.079358E1,2.753778E1,5.1138794E1,0E0,0E0,0E0,0E0,0E0,0E0,0E0,0E0,0E0,0E0,0E0,0E0,0E0,0E0,0E0,0E0,0E0,0E0,0E0,0E0,0E0,0E0,0E0,0E0,0E0,0E0,0E0,0E0,0E0,0E0,0E0,0E0,0E0,0E0,0E0,0E0,0E0,0E0,0E0,0E0,0E0,0E0,0E0,0E0,0E0,0E0,0E0,0E0,0E0,0E0,0E0,0E0,0E0,0E0,0E0,0E0,0E0,0E0,0E0,0E0,0E0,0E0,0E0,0E0,0E0,0E0,0E0,0E0,0E0,0E0,0E0,0E0,0E0,0E0,0E0,0E0,0E0,0E0,0E0,0E0,0E0,0E0,0E0,0E0,0E0,0E0,0E0,0E0,0E0,0E0,0E0,0E0,0E0,0E0,0E0,0E0,0E0,0E0,0E0,0E0,0E0,0E0,0E0,0E0,0E0,0E0,0E0,0E0,0E0,0E0,0E0,0E0,0E0,0E0,0E0,0E0,0E0,0E0,0E0,0E0,0E0,0E0,0E0,0E0,0E0,0E0,0E0,0E0,0E0,0E0,0E0,0E0,0E0,0E0,0E0,0E0,0E0,0E0,0E0,0E0,0E0,0E0],"parents":[2147483647,0,0,1,1,2,2,3,3,4,4,5,5,6,6,7,7,8,8,9,9,10,10,11,11,12,12,13,13,14,14,15,15,16,16,17,17,18,18,19,19,20,20,21,21,22,22,23,23,24,24,25,25,26,26,27,27,28,28,29,29,30,30,31,31,32,32,33,33,35,35,37,37,38,38,39,39,40,40,41,41,42,42,43,43,44,44,45,45,47,47,48,48,49,49,50,50,51,51,52,52,53,53,54,54,56,56,58,58,59,59,60,60,61,61,62,62,64,64,65,65,66,66,67,67,68,68,69,69,70,70,73,73,74,74,75,75,76,76,77,77,78,78,79,79,80,80,81,81,83,83,84,84,87,87,88,88,89,89,90,90,93,93,94,94,95,95,96,96,97,97,99,99,100,100,101,101,102,102,103,103,104,104,105,105,106,106,107,107,108,108,110,110,112,112,115,115,117,117,118,118,122,122,123,123,124,124,126,126,127,127,128,128,129,129,130,130,133,133,134,134,135,135,137,137,138,138,139,139,141,141,142,142,143,143,145,145,146,146,147,147,148,148,149,149,150,150,151,151,152,152,153,153,154,154,155,155,157,157,158,158,159,159,160,160,161,161,162,162,163,163,165,165,166,166,167,167,168,168,172,172,173,173,174,174,175,175,178,178,179,179,180,180,181,181,182,182,184,184,186,186,187,187,189,189,190,190,199,199,200,200,203,203,204,204,205,205,209,209,211,211,214,214,216,216,217,217,218,218,220,220,224,224,225,225,228,228,229,229,230,230,233,233,234,234,235,235,236,236,237,237,238,238,239,239,240,240,242,242,243,243,244,244,245,245,246,246,249,249,250,250,251,251,252,252,253,253,254,254,255,255,256,256,257,257,258,258,259,259,260,260,263,263,264,264,265,265,266,266,267,267,268,268,271,271,272,272,274,274,275,275,277,277,278,278,279,279,283,283,284,284,286,286,287,287,288,288,289,289,291,291,292,292,293,293,295,295,296,296,298,298,299,299,304,304,305,305,306,306],"right_children":[2,4,6,8,10,12,14,16,18,20,22,24,26,28,30,32,34,36,38,40,42,44,46,48,50,52,54,56,58,60,62,64,66,68,-1,70,-1,72,74,76,78,80,82,84,86,88,-1,90,92,94,96,98,100,102,104,-1,106,-1,108,110,112,114,116,-1,118,120,122,124,126,128,130,-1,-1,132,134,136,138,140,142,144,146,148,-1,150,152,-1,-1,154,156,158,160,-1,-1,162,164,166,168,170,-1,172,174,176,178,180,182,184,186,188,190,-1,192,-1,194,-1,-1,196,-1,198,200,-1,-1,-1,202,204,206,-1,208,210,212,214,216,-1,-1,218,220,222,-1,224,226,228,-1,230,232,234,-1,236,238,240,242,244,246,248,250,252,254,256,-1,258,260,262,264,266,268,270,-1,272,274,276,278,-1,-1,-1,280,282,284,286,-1,-1,288,290,292,294,296,-1,298,-1,300,302,-1,304,306,-1,-1,-1,-1,-1,-1,-1,-1,308,310,-1,-1,312,314,316,-1,-1,-1,318,-1,320,-1,-1,322,-1,324,326,328,-1,330,-1,-1,-1,332,334,-1,-1,336,338,340,-1,-1,342,344,346,348,350,352,354,356,-1,358,360,362,364,366,-1,-1,368,370,372,374,376,378,380,382,384,386,388,390,-1,-1,392,394,396,398,400,402,-1,-1,404,406,-1,408,410,-1,412,414,416,-1,-1,-1,418,420,-1,422,424,426,428,-1,430,432,434,-1,436,438,-1,440,442,-1,-1,-1,-1,444,446,448,-1,-1,-1,-1,-1,-1,-1,-1,-1,-1,-1,-1,-1,-1,-1,-1,-1,-1,-1,-1,-1,-1,-1,-1,-1,-1,-1,-1,-1,-1,-1,-1,-1,-1,-1,-1,-1,-1,-1,-1,-1,-1,-1,-1,-1,-1,-1,-1,-1,-1,-1,-1,-1,-1,-1,-1,-1,-1,-1,-1,-1,-1,-1,-1,-1,-1,-1,-1,-1,-1,-1,-1,-1,-1,-1,-1,-1,-1,-1,-1,-1,-1,-1,-1,-1,-1,-1,-1,-1,-1,-1,-1,-1,-1,-1,-1,-1,-1,-1,-1,-1,-1,-1,-1,-1,-1,-1,-1,-1,-1,-1,-1,-1,-1,-1,-1,-1,-1,-1,-1,-1,-1,-1,-1,-1,-1,-1,-1,-1,-1,-1,-1,-1,-1,-1,-1,-1,-1,-1,-1,-1,-1],"split_conditions":[1.6830637E2,6.642021E1,5.584158E2,3.0168854E1,1.0706563E2,3.1360342E2,3.121354E2,1.1933892E-2,4.5282074E1,8.7671265E1,1.404296E2,2.2723965E2,3.318031E2,5.306111E2,2.5954446E-1,1.7806435E1,1.1025668E2,1.3900046E2,1.6521448E1,7.53644E1,6.836933E0,2.2823108E2,2.5498375E2,3.121354E2,2.0796986E2,2.3561852E2,1.078706E2,1.0481125E-2,1.1572896E-2,5.1343975E0,1.5720892E-1,1.5552205E2,1.5934695E-1,1.4644553E2,6.1674085E-2,2.0974169E1,6.2236395E-2,1.7560614E-2,1.8334433E1,3.9686024E1,4.885186E1,7.516872E1,1.6820573E2,1.1624335E2,1.2693759E2,1.3205086E2,1.05123214E-1,1.6315329E2,2.3627788E2,3.109245E2,2.056264E2,6.276878E-1,2.3320827E2,9.203406E1,3.3861795E2,3.3488918E-2,5.5849316E2,6.347283E-2,1.13805664E2,1.3015915E-1,5.210453E-1,8.8418774E-2,2.54331E-1,-1.7671933E-2,6.0756033E-4,7.408313E1,2.702622E2,1.12514704E-1,1.359486E2,4.6083704E-2,-1.8596882E0,-1.72656E-2,-1.3009446E-2,3.540516E1,4.291092E1,6.3906353E1,2.2413793E-1,1.26705765E2,1.6786203E2,3.6397263E-1,6.754252E1,8.916008E1,6.54726E-2,1.3848814E2,6.533212E1,4.4369437E-3,1.444342E-1,1.6136621E2,2.2098674E2,1.8714278E2,1.1271067E2,1.6004519E-1,2.3000693E-2,2.4453157E2,8.98335E0,2.9790112E2,3.3333334E-1,8.542459E-2,-1.2583995E-2,3.1447644E2,8.597652E1,1.4470468E-1,1.6666667E-1,1.3813336E2,9.633411E1,1.284516E2,4.827586E-1,9.699624E1,1.3499893E2,3.625187E-1,5.8048105E-1,1.2678301E-1,3.4820538E1,1.0037172E-1,5.0898172E-2,1.9632243E-1,1.1972164E-1,1.5248516E1,6.9953445E1,-1.6841033E-2,1.7602224E-2,-1.6955165E-2,3.4820538E1,1.0733402E1,5.7019066E1,4.540656E-2,3.476557E-1,5.1471252E1,6.0695103E1,2.8627544E1,1.7448542E0,-1.2616388E-2,9.2649676E-2,-4.259819E0,3.7973409E0,2.99545E-1,-6.4141178E-3,3.9132996E1,1.5214905E2,7.6954315E1,1.075053E-1,3.9686024E1,2.4884684E-1,1.4725909E0,2.0180395E-2,7.688924E-1,1.5214905E2,8.475829E1,7.731432E1,8.366012E1,1E0,1.1829494E2,8.650299E1,1.4242886E2,8.792892E1,1.4854561E2,7.692818E-2,1.461385E2,1.0647604E-2,1.731802E2,2.702622E2,2.3561852E2,1.4250035E2,2.684799E2,-1.4414883E-2,1.5564294E2,1.5180884E2,6.666667E-1,2.4510066E2,1.0393113E-2,5.9039693E-2,4.015653E-2,6.1493987E-1,2.9535266E2,2.2250443E2,4.9537465E-1,1.863792E-1,8.341327E-2,9.637299E1,6.2835336E-1,2.625204E2,5.5564984E2,4.3028616E2,4.5400422E-2,3.506942E2,8.719594E-2,6.668374E0,1.01737274E2,1.0258891E-1,5.482827E2,5.66605E-1,1.7179242E-1,2.9704687E-1,1.9449884E-1,3.2601362E-1,1.6577284E-1,2.6615041E-1,-1.5552463E-2,-2.1429951E-3,3.1531909E0,8.513498E1,6.3200607E-3,-1.6416404E-2,2.0651203E1,-6.1294055E-1,1.2782186E1,1.32467095E-2,-7.2797537E-3,-1.6517853E-2,1.0481125E-2,-4.731771E-3,4.8254614E0,7.538674E-3,5.3674746E-2,1.9669445E-1,2.9559514E-2,1.2290683E2,5.3683037E1,1.2142132E1,4.2556297E-2,1.6786203E2,-1.6542366E-2,-9.582296E-3,4.6919864E-2,1.0672232E2,2.5244257E1,3.4065835E-2,6.2950246E-2,7.701168E1,7.923314E1,-1.13170154E-1,-5.971905E-3,1.0324178E-1,9.5308136E1,1.0680455E2,3.917469E0,1.0408561E2,1.3631699E2,8.05644E1,1.0671248E2,1.3212923E2,5.2981712E-2,6.953295E1,1.5735262E2,7.039535E1,1.8937866E2,7.5E-1,1.3131279E-1,-1.0367271E-2,8.7646286E1,4.1567683E-3,1.9238777E2,5.4995376E-1,1.2296795E2,1.2042309E2,9.539114E1,1.22390495E2,1.7062529E2,1.2863252E2,1.8464975E2,2.225728E2,1.8099098E-1,3.295929E-2,6.8338746E-1,1.824911E2,1.6186465E-1,2.152212E2,1.4696829E-1,1.838056E2,-7.7650155E-4,4.0328186E-2,1.8937866E2,6.2627196E-1,1.8983302E-1,9.2148056E1,3.1523254E2,-1.4443343E-2,6.666667E-1,5.4711807E-3,6.034483E-1,5.457964E-2,2.057489E-1,7.718493E-2,2.3371529E2,2.8917054E-2,1.8443531E-1,9.247802E1,5.587419E-1,4.3739804E2,3.4251758E2,1.7532024E-1,5.515726E-1,5.0488272E2,1.27489426E2,3.923652E-3,3.1933823E2,5E-1,2.4325232E-1,1.4725638E2,3.0369198E-1,3.0199176E-1,1.5392019E-1,2.4086063E-1,1.7431407E-1,1.1650789E2,2.082023E2,9.3037146E-1,-8.120286E-3,-1.6080301E-2,-1.7390748E-2,-1.2125964E-2,-1.52789205E-2,-1.3351145E-2,-4.1283513E-3,-1.3387312E-2,-1.1555235E-2,1.1545947E-2,-1.750813E-2,-1.4493644E-2,-9.215846E-3,-1.3588588E-2,-7.520113E-3,-1.3139042E-2,-8.634067E-3,1.9043846E-2,7.565796E-2,-6.5009906E-3,2.48985E-2,-7.743817E-3,-3.7289304E-3,3.7577298E-2,1.7380615E-3,2.9275706E-2,-1.5345853E-3,2.8712351E-3,2.2953749E-2,-7.7593895E-3,-4.861594E-3,-1.5502107E-2,5.0612867E-2,2.6340114E-3,-9.351851E-3,-3.8505096E-3,1.1166795E-2,-5.0920686E-3,-8.610202E-3,2.2026622E-3,1.804071E-2,-2.1155367E-3,7.0009776E-3,5.320964E-4,1.0508819E-1,8.234699E-3,3.4537718E-3,5.2066613E-2,2.3775658E-2,1.2199598E-1,-3.4196917E-3,9.158593E-3,-3.3803717E-3,2.242799E-2,4.1475736E-2,1.3001593E-2,8.253987E-3,5.742664E-2,-1.1543449E-2,1.0758224E-2,-1.6486137E-4,4.5938943E-2,4.307245E-2,1.5710426E-2,2.9010687E-2,1.0162373E-1,3.3134688E-2,1.057166E-2,3.0414125E-2,1.5109037E-1,6.3494085E-3,5.3833004E-2,4.9339306E-2,1.6568754E-2,5.182442E-2,2.2726504E-2,2.8207613E-2,-3.8371475E-3,6.781513E-2,2.2509295E-2,3.0834699E-2,1.5166621E-1,2.6414653E-2,6.277603E-2,3.892845E-2,2.7350247E-2,1.5104178E-1,4.430687E-2,1.9192236E-2,-1.7430056E-3,6.657149E-2,1.3815316E-2,5.2882444E-2,1.55756995E-2,1.5462874E-1,2.8317263E-2,6.208848E-2,2.0979352E-1,5.3866487E-2,6.97518E-2,3.573033E-2,7.295556E-2,2.3721809E-2,5.1024377E-5,2.6547356E-2,-1.2744099E-2,9.7034276E-2,4.8060145E-2,2.6618835E-1,8.8701546E-2,3.9514747E-2,-6.1364016E-3,9.1676414E-2,6.742611E-2,6.335544E-2,1.2675966E-1,3.5419765E-1,1.6839284E-1,1.7286788E-1,5.9741378E-2,4.9558576E-2,1.22391395E-1,6.711499E-2,5.3926813E-3,6.723468E-2,1.3818651E-1,1.12692825E-1,5.7998933E-2,1.4082457E-1,9.094961E-2,1.4778072E-1,1.1249427E-1,1.9849873E-1,7.769301E-2,1.019237E-1,1.9135514E-1,3.8556883E-1,2.4489944E-1,1.5243177E-1,2.649239E-1,1.370702E-1,2.5917977E-1],"split_indices":[16,16,17,16,16,16,53,61,16,16,16,16,37,38,66,33,44,43,35,16,62,33,31,53,17,33,49,61,64,64,64,62,23,55,0,36,0,66,35,35,17,17,23,17,23,42,0,17,43,36,56,64,38,56,35,0,34,0,55,66,11,64,64,0,66,53,62,61,49,61,37,0,0,33,23,34,10,49,44,66,44,54,0,48,49,0,0,16,17,38,26,0,0,34,62,17,15,64,0,32,55,66,15,49,56,49,10,56,53,0,11,0,64,0,0,62,0,34,53,0,0,0,64,23,23,0,64,35,31,35,33,0,0,23,38,61,0,38,32,55,0,35,64,64,0,61,32,38,49,37,13,31,43,33,53,31,0,17,13,42,62,33,54,25,0,38,34,1,23,0,0,0,11,34,42,11,0,0,49,11,36,33,31,0,43,0,62,54,0,23,11,0,0,0,0,0,0,0,0,36,49,0,0,16,17,62,0,0,0,61,0,62,0,0,61,0,44,32,33,0,44,0,0,0,38,62,0,0,16,17,25,0,0,36,34,62,54,55,43,44,32,0,34,34,48,43,10,0,0,54,61,23,11,38,42,26,25,26,25,16,34,0,0,61,17,13,31,61,49,0,0,43,11,0,56,34,0,1,64,10,0,0,0,44,13,0,55,11,34,33,0,11,43,48,0,42,15,0,49,61,0,0,0,0,56,48,61,0,0,0,0,0,0,0,0,0,0,0,0,0,0,0,0,0,0,0,0,0,0,0,0,0,0,0,0,0,0,0,0,0,0,0,0,0,0,0,0,0,0,0,0,0,0,0,0,0,0,0,0,0,0,0,0,0,0,0,0,0,0,0,0,0,0,0,0,0,0,0,0,0,0,0,0,0,0,0,0,0,0,0,0,0,0,0,0,0,0,0,0,0,0,0,0,0,0,0,0,0,0,0,0,0,0,0,0,0,0,0,0,0,0,0,0,0,0,0,0,0,0,0,0,0,0,0,0,0,0,0,0,0,0,0,0,0,0,0,0,0,0],"split_type":[0,0,0,0,0,0,0,0,0,0,0,0,0,0,0,0,0,0,0,0,0,0,0,0,0,0,0,0,0,0,0,0,0,0,0,0,0,0,0,0,0,0,0,0,0,0,0,0,0,0,0,0,0,0,0,0,0,0,0,0,0,0,0,0,0,0,0,0,0,0,0,0,0,0,0,0,0,0,0,0,0,0,0,0,0,0,0,0,0,0,0,0,0,0,0,0,0,0,0,0,0,0,0,0,0,0,0,0,0,0,0,0,0,0,0,0,0,0,0,0,0,0,0,0,0,0,0,0,0,0,0,0,0,0,0,0,0,0,0,0,0,0,0,0,0,0,0,0,0,0,0,0,0,0,0,0,0,0,0,0,0,0,0,0,0,0,0,0,0,0,0,0,0,0,0,0,0,0,0,0,0,0,0,0,0,0,0,0,0,0,0,0,0,0,0,0,0,0,0,0,0,0,0,0,0,0,0,0,0,0,0,0,0,0,0,0,0,0,0,0,0,0,0,0,0,0,0,0,0,0,0,0,0,0,0,0,0,0,0,0,0,0,0,0,0,0,0,0,0,0,0,0,0,0,0,0,0,0,0,0,0,0,0,0,0,0,0,0,0,0,0,0,0,0,0,0,0,0,0,0,0,0,0,0,0,0,0,0,0,0,0,0,0,0,0,0,0,0,0,0,0,0,0,0,0,0,0,0,0,0,0,0,0,0,0,0,0,0,0,0,0,0,0,0,0,0,0,0,0,0,0,0,0,0,0,0,0,0,0,0,0,0,0,0,0,0,0,0,0,0,0,0,0,0,0,0,0,0,0,0,0,0,0,0,0,0,0,0,0,0,0,0,0,0,0,0,0,0,0,0,0,0,0,0,0,0,0,0,0,0,0,0,0,0,0,0,0,0,0,0,0,0,0,0,0,0,0,0,0,0,0,0,0,0,0,0,0,0,0,0,0,0,0,0,0,0,0,0,0,0,0,0,0,0,0,0,0,0,0,0,0,0,0,0,0,0,0,0,0],"sum_hessian":[1.56212E5,1.422E5,1.4012E4,9.4517E4,4.7683E4,1.3406E4,6.06E2,6.6535E4,2.7982E4,2.7484E4,2.0199E4,1.0983E4,2.423E3,3.52E2,2.54E2,5.8754E4,7.781E3,1.1024E4,1.6958E4,1.5852E4,1.1632E4,1.4032E4,6.167E3,6.737E3,4.246E3,8.85E2,1.538E3,1.47E2,2.05E2,1.88E2,6.6E1,5.8505E4,2.49E2,7.771E3,1E1,1.1008E4,1.6E1,1.9E2,1.6768E4,6.715E3,9.137E3,7.957E3,3.675E3,1.4002E4,3E1,6.15E3,1.7E1,6.7E3,3.7E1,2.65E2,3.981E3,3.9E1,8.46E2,2.01E2,1.337E3,1.7E1,1.3E2,1.2E1,1.93E2,1.49E2,3.9E1,2.3E1,4.3E1,5.8173E4,3.32E2,3.6E1,2.13E2,7.716E3,5.5E1,8.44E2,1.0164E4,1.64E2,2.6E1,2.2E1,1.6746E4,1.13E2,6.602E3,8.6E1,9.051E3,3.31E2,7.626E3,3.658E3,1.7E1,5.724E3,8.278E3,1.8E1,1.2E1,1.109E3,5.041E3,8.69E2,5.831E3,1.8E1,1.9E1,2.19E2,4.6E1,3.783E3,1.98E2,2.1E1,1.8E1,5.3E1,7.93E2,1.23E2,7.8E1,3.18E2,1.019E3,7.8E1,5.2E1,4.7E1,1.46E2,1.25E2,2.4E1,1E1,2.9E1,1E1,1.3E1,3.1E1,1.2E1,4.5E1,2.87E2,1.9E1,1.7E1,1.87E2,2.6E1,5.547E3,2.169E3,1.3E1,4.2E1,5.73E2,2.71E2,4.4E1,1.012E4,1.2E1,1E1,2.455E3,1.4291E4,9.4E1,1.9E1,1.573E3,5.029E3,6.7E1,1.9E1,9.026E3,2.5E1,3.2E2,1.1E1,2.14E2,7.412E3,5.04E2,3.154E3,5.053E3,6.71E2,3.6E1,8.242E3,9.73E2,1.36E2,5.024E3,1.7E1,5.43E2,3.26E2,3.2E1,5.799E3,1E2,1.19E2,2.9E1,1.7E1,3.062E3,7.21E2,6.3E1,1.35E2,1E1,1.1E1,1.7E1,3.6E1,2.9E1,7.64E2,1.06E2,1.7E1,1.2E1,6.6E1,5.7E1,2.61E2,1.37E2,8.82E2,1.9E1,5.9E1,1.5E1,3.7E1,2.9E1,1.8E1,4E1,1.06E2,1E1,1.4E1,1.2E1,1.7E1,1.2E1,1.9E1,3.3E1,1.2E1,2E1,2.67E2,1E1,1.6E1,1.65E3,3.897E3,2.158E3,1.1E1,1.3E1,2.9E1,5.62E2,1.1E1,2.61E2,1E1,1.7E1,2.7E1,1E1,1.011E4,3E1,2.425E3,1.4E1,1.4277E4,7.9E1,1.5E1,1.7E1,1.556E3,5.019E3,1E1,1.1E1,5.6E1,8.1E1,8.945E3,1.4E1,1.1E1,2.58E2,6.2E1,1.84E2,3E1,7.363E3,4.9E1,1.79E2,3.25E2,1.7E1,3.137E3,1.48E2,4.905E3,5.03E2,1.68E2,1.7E1,1.9E1,2.1E2,8.032E3,4.84E2,4.89E2,2.8E1,1.08E2,1.703E3,3.321E3,1.47E2,3.96E2,2.3E1,3.03E2,1.3E1,1.9E1,5.751E3,4.8E1,5.4E1,4.6E1,7.8E1,4.1E1,1.9E1,1E1,3.9E1,3.023E3,1E1,7.11E2,4.6E1,1.7E1,4E1,9.5E1,2.4E1,1.2E1,1.1E1,1.8E1,2.8E1,7.36E2,1E1,9.6E1,2.8E1,3.8E1,4E1,1.7E1,3.7E1,2.24E2,1.21E2,1.6E1,4.8E2,4.02E2,1E1,4.9E1,2.1E1,1.6E1,1.8E1,1.1E1,1.1E1,2.9E1,4.4E1,6.2E1,1E1,1E1,2.56E2,1.1E1,1.444E3,2.06E2,5.8E1,3.839E3,2.148E3,1E1,3.66E2,1.96E2,1.33E2,1.28E2,1E1,1.7E1,1.0097E4,1.3E1,1E1,2E1,1.1E1,2.414E3,1.4266E4,1.1E1,1.526E3,3E1,4.414E3,6.05E2,1.3E1,4.3E1,2.1E1,6E1,1E1,8.935E3,1.19E2,1.39E2,4.1E1,2.1E1,1.38E2,4.6E1,1.6E1,1.4E1,6.933E3,4.3E2,1E1,3.9E1,1.69E2,1E1,3.14E2,1.1E1,1.93E2,2.944E3,1.29E2,1.9E1,4.4E1,4.861E3,4.87E2,1.6E1,1.38E2,3E1,7E1,1.4E2,6.5E1,7.967E3,4.48E2,3.6E1,1.47E2,3.42E2,1E1,1.8E1,3.7E1,7.1E1,2.6E1,1.677E3,6.6E1,3.255E3,5.4E1,9.3E1,1E1,3.86E2,1.2E1,1.1E1,2.3E2,7.3E1,5.133E3,6.18E2,1.5E1,3.3E1,2.6E1,2.8E1,1.7E1,2.9E1,3.8E1,4E1,1.6E1,2.5E1,2.9E1,1E1,2.658E3,3.65E2,9E1,6.21E2,3.6E1,1E1,2.6E1,1.4E1,1.5E1,8E1,1.4E1,1E1,1.3E1,1.5E1,1.84E2,5.52E2,7.1E1,2.5E1,1E1,1.8E1,2.7E1,1.1E1,2.6E1,1.4E1,1.3E1,2.4E1,2.12E2,1.2E1,6.6E1,5.5E1,8.5E1,3.95E2,1.08E2,2.94E2,1.4E1,3.5E1,1.1E1,1E1,1.4E1,1.5E1,1.3E1,3.1E1,5E1,1.2E1],"tree_param":{"num_deleted":"0","num_feature":"67","num_nodes":"449","size_leaf_vector":"1"}},{"base_weights":[5.091133E-4,-1.1699537E-1,1.128245E0,-2.629156E-1,1.7735158E-1,9.9840504E-1,4.176213E0,-3.2423788E-1,-1.16969146E-1,7.409718E-2,3.2267663E-1,8.0325705E-1,1.6926271E0,3.5253491E0,5.78666E0,-3.3513436E-1,-2.4190503E-1,-1.6675979E-1,-8.4881224E-2,3.3717744E-2,1.4693257E-1,2.4686357E-1,3.886804E-1,6.5660095E-1,9.855511E-1,1.3401815E0,1.925992E0,2.0135286E0,3.8424416E0,3.8311968E0,6.408782E0,-3.35442E-1,-1.9008262E-1,-2.4387093E-1,5.27226E-2,-1.6905588E-1,8.4660834E-1,-2.9622E-1,-8.210086E-2,-8.162247E-3,6.324712E-2,1.0755397E-1,1.8247944E-1,6.874908E-2,2.4509506E-1,3.85616E-1,9.820554E-2,8.463023E-1,6.321129E-1,8.98381E-1,1.1293486E0,1.0105172E0,1.4460591E0,1.1488335E0,1.9873564E0,2.4642096E0,1.1826011E0,2.4373033E0,4.064074E0,2.1404204E0,2.7123407E-1,6.9242144E0,1.714131E-1,-1.6788902E-2,-2.996456E-1,-2.4207182E-1,1.900868E-2,-2.4591573E-1,1.135269E-1,-3.0101973E-1,-1.611148E-1,1.1823759E-1,-1.6156873E-2,-2.154521E-3,-3.198159E-1,-1.04552045E-1,-5.657241E-2,-3.0212054E-2,3.0552708E-2,4.6217076E-2,6.1659336E-2,1.0383676E-1,5.680915E-1,1.790647E-1,5.243615E-2,4.320263E-1,2.3707303E-1,3.314318E-1,4.3341693E-1,7.7979E-1,1.7113364E0,5.528008E-1,7.110469E-1,8.90314E-1,1.2418085E-1,5.98257E-1,1.163761E0,1.4281766E0,8.118403E-1,1.5973525E0,9.2744964E-1,9.588567E-1,1.4581946E-1,6.5180606E-1,2.0194097E0,1.8077763E0,3.1876605E0,1.2283542E-2,8.707606E-2,2.4903408E-1,1.695487E0,2.6717658E0,4.4212475E0,1.5606256E-1,5.7291955E-2,2.3956548E-1,3.569342E-1,-2.1673049E-1,-3.1604668E-1,-1.237056E-1,-1.6583115E-2,-2.4775675E-1,4.2409517E-2,5.465148E-2,-2.3551896E-1,-3.1476375E-1,-1.264703E-1,-1.6233769E-1,3.713373E-1,-1.6560279E-2,-9.249381E-3,-1.0585133E-1,2.923206E-2,4.3257423E-2,-5.8206126E-2,-1.6682327E-2,-1.17125265E-1,-5.1146388E-2,6.273545E-2,-2.9403663E-1,6.4600125E-2,-6.6362144E-3,1.1625225E-1,8.488341E-2,-4.201195E-2,6.1149273E-2,2.0136993E-1,3.1008407E-1,1.2486762E0,2.4472134E-1,5.060128E-2,6.127695E-2,3.2805628E-1,4.190603E-1,7.667702E-1,9.548402E-1,5.6324476E-1,1.7929699E-1,9.347869E-1,1.8419992E0,5.3819585E-1,1.6209859E0,6.93747E-1,8.7509084E-1,1.6910299E0,1.01464204E-1,3.6331013E-1,1.8288207E0,1.1377171E0,8.217048E-1,1.8958912E0,6.752609E-1,1.5461935E0,1.3668344E0,1.8841101E0,1.1001652E-1,8.3417714E-1,1.3989495E0,6.549139E-1,1.1457865E0,-3.5244697E-3,2.0637007E0,1.2100667E0,1.374454E-1,3.3514705E-2,1.9841152E-1,1.1032497E-1,5.0424438E-2,2.1892905E0,3.337266E0,1.7841069E0,2.5808516E0,4.593556E0,2.0132544E-2,-2.9433596E-1,-3.2162178E-1,-2.3640652E-1,-7.1407243E-4,-1.6022818E-2,-1.9714826E-1,-2.5720325E-1,-2.5153205E-1,5.5371623E-2,-1.44262165E-2,-5.7149385E-3,-3.3037862E-1,-2.2337934E-1,-2.798276E-1,1.720704E-2,-1.8937294E-1,-1.4135315E-1,-1.2631476E-2,5.658595E-2,3.4671824E-2,-1.0682437E-1,3.2227913E-1,-6.0878146E-2,-1.9925598E-2,3.750463E-2,1.8588817E-2,-1.2565167E-1,-2.8188917E-1,-2.5470566E-2,4.7757363E-1,5.0592754E-2,-2.671177E-3,-3.2540607E-1,6.2695846E-2,6.9092804E-1,-1.4855012E-1,3.194538E-2,1.1309483E-1,3.810662E-2,-1.2620823E-2,1.0348048E-2,7.302581E-1,4.0847305E-2,1.1426076E0,1.9671662E-1,7.529701E-1,2.641494E-1,3.5612383E-1,2.203358E0,2.4202102E-1,8.185689E-2,-5.715505E-2,1.479573E-1,-1.357965E-1,3.3358246E-1,4.328817E-1,1.9513914E-1,6.0836875E-1,1.7130176E0,6.809348E-1,1.3917172E0,6.9891506E-1,-3.6545273E-2,4.956167E-3,1.3484886E0,1.2713186E-1,2.0032862E-2,5.556321E-1,2.316647E-2,7.5980896E-1,2.5988975E0,1.3297328E-1,6.816441E-1,9.1207427E-1,6.2921983E-1,1.7352141E-1,1.1789452E0,7.610934E-1,1.0363413E-2,1.9746059E-1,1.314226E0,1.1533295E0,1.759531E-1,2.1669836E-1,1.4168613E0,1.6307928E-1,1.2350309E0,9.2492896E-1,3.2005098E-1,3.3523764E-2,1.3872571E-1,2.0142596E0,1.2111548E0,1.7294471E0,3.3215377E0,1.1103467E0,3.7501642E-1,8.50961E-1,2.0290678E0,2.586236E-1,1.3019247E0,7.878326E-2,3.770782E-2,1.9057906E0,2.3904955E0,9.277534E-1,1.143889E-1,7.859413E-2,1.3121288E-1,2.1621995E-1,1.0549444E-1,3.2341044E-2,1.1602044E-1,1.5749244E-1,8.368886E-2,3.3230948E-1,4.410943E0,-1.608139E-2,-6.647689E-3,-1.4229682E-2,-1.6537445E-2,-1.6146911E-2,-1.3059315E-3,1.1652179E-2,-1.1721486E-2,5.506184E-3,-9.989481E-3,-1.4634355E-2,-1.2493699E-2,-1.5737107E-2,-5.5830185E-3,-1.6679375E-2,-1.10831335E-2,-1.6698092E-3,-1.476119E-2,-1.5996795E-2,-8.647483E-3,-9.662444E-3,4.8114797E-3,-7.141044E-3,3.2289978E-2,-7.1250387E-3,-4.7214045E-3,3.5060223E-3,6.622697E-2,-5.265186E-3,-1.8117629E-3,-1.1194529E-3,2.1404898E-2,-9.66664E-3,-4.260379E-3,-9.912244E-3,-1.5868204E-2,-2.779803E-3,9.671679E-3,1.3158917E-1,-3.5916397E-3,4.2511728E-2,2.2673677E-3,-1.7547136E-2,-9.453589E-3,7.897227E-3,2.6689435E-3,9.830322E-2,-4.9509195E-4,-5.056895E-3,-1.2087326E-2,2.4283553E-2,5.644707E-4,2.3778463E-3,6.5316074E-3,-6.7923605E-3,8.830934E-2,-3.6190895E-3,4.933789E-3,-1.2220162E-2,1.2128725E-1,2.6234353E-3,1.0818819E-2,7.990084E-2,6.3784875E-4,1.1919289E-2,4.033331E-2,3.7202474E-2,3.3583634E-3,3.08436E-2,1.8031155E-1,5.3828586E-2,1.1994287E-2,1.8869113E-2,-5.334097E-3,1.5230939E-3,2.4114804E-2,3.5442226E-3,-1.3203527E-2,8.275732E-2,1.6510382E-2,1.5238141E-2,2.2956865E-2,3.5090134E-2,7.3141656E-3,1.8027982E-2,8.3176665E-2,3.0980635E-2,1.6317041E-1,2.506918E-2,1.2864546E-1,1.0302633E-1,4.3730494E-2,2.854752E-2,6.702522E-2,1.6687825E-2,-1.2062668E-2,9.212933E-2,2.9852336E-2,2.8842036E-2,8.957505E-3,1.2742477E-2,-9.464589E-3,8.435491E-2,-2.0550748E-3,5.631428E-2,1.9274674E-1,4.8874225E-4,3.4752857E-2,2.289451E-2,4.687241E-2,7.84831E-2,2.725231E-2,2.6297078E-2,1.224945E-1,5.4453123E-2,2.879354E-3,1.3184628E-2,-9.3048345E-3,1.7468661E-1,3.3010945E-2,1.2586878E-1,5.709069E-2,2.1288702E-2,-1.2442025E-2,-8.223767E-3,2.6128042E-2,9.21071E-2,4.544745E-2,1.0314485E-1,4.3284476E-2,7.2053075E-2,3.2682475E-2,6.65686E-3,5.004872E-2,6.620809E-2,1.4977805E-1,4.196485E-2,7.327979E-2,1.942134E-1,7.991319E-2,2.3922315E-1,1.04022555E-1,4.4209313E-2,9.687445E-2,3.409637E-2,-5.1198746E-3,7.617513E-2,2.084037E-2,1.4312755E-1,5.1324774E-2,-1.9746633E-2,2.9373351E-2,1.2688015E-1,2.0290498E-2,1.1237805E-1,8.596777E-2,8.277761E-2,1.2686971E-1,5.409005E-2,-1.94299E-3,2.4304955E-1,1.5785582E-1],"categories":[],"categories_nodes":[],"categories_segments":[],"categories_sizes":[],"default_left":[0,0,0,0,0,0,0,0,0,0,0,0,0,0,0,0,0,0,0,0,0,0,0,0,0,0,0,0,0,0,0,0,0,0,0,0,0,0,0,0,0,0,0,0,0,0,0,0,0,0,0,0,0,0,0,0,0,0,0,0,0,0,0,0,0,0,0,0,0,0,0,0,0,0,0,0,0,0,0,0,0,0,0,0,0,0,0,0,0,0,0,0,0,0,0,0,0,0,0,0,0,0,0,0,0,0,0,0,0,0,0,0,0,0,0,0,0,0,0,0,0,0,0,0,0,0,0,0,0,0,0,0,0,0,0,0,0,0,0,0,0,0,0,0,0,0,0,0,0,0,0,0,0,0,0,0,0,0,0,0,0,0,0,0,0,0,0,0,0,0,0,0,0,0,0,0,0,0,0,0,0,0,0,0,0,0,0,0,0,0,0,0,0,0,0,0,0,0,0,0,0,0,0,0,0,0,0,0,0,0,0,0,0,0,0,0,0,0,0,0,0,0,0,0,0,0,0,0,0,0,0,0,0,0,0,0,0,0,0,0,0,0,0,0,0,0,0,0,0,0,0,0,0,0,0,0,0,0,0,0,0,0,0,0,0,0,0,0,0,0,0,0,0,0,0,0,0,0,0,0,0,0,0,0,0,0,0,0,0,0,0,0,0,0,0,0,0,0,0,0,0,0,0,0,0,0,0,0,0,0,0,0,0,0,0,0,0,0,0,0,0,0,0,0,0,0,0,0,0,0,0,0,0,0,0,0,0,0,0,0,0,0,0,0,0,0,0,0,0,0,0,0,0,0,0,0,0,0,0,0,0,0,0,0,0,0,0,0,0,0,0,0,0,0,0,0,0,0,0,0,0,0,0,0,0,0,0,0,0,0,0,0,0,0,0,0,0,0,0,0,0,0,0,0,0,0,0,0,0,0,0,0,0,0,0,0,0,0,0,0,0,0,0,0,0,0,0,0,0,0,0,0,0,0,0,0,0,0,0,0,0,0,0,0,0,0,0,0,0,0,0,0,0,0,0,0,0,0,0,0,0,0,0,0,0,0,0,0,0,0,0,0,0],"id":2,"left_children":[1,3,5,7,9,11,13,15,17,19,21,23,25,27,29,31,33,35,37,39,41,43,45,47,49,51,53,55,57,59,61,63,65,67,-1,69,71,73,75,77,79,81,83,-1,85,87,-1,89,91,93,95,97,99,101,103,105,107,109,111,113,-1,115,-1,-1,117,119,-1,121,123,125,127,-1,-1,-1,129,131,133,135,137,-1,139,141,143,145,-1,147,149,151,153,155,157,159,161,163,-1,165,167,169,171,173,175,177,-1,179,181,183,185,-1,-1,-1,187,189,191,-1,-1,-1,-1,193,195,197,-1,199,201,-1,203,205,207,209,211,-1,-1,213,-1,-1,215,217,219,221,223,225,227,229,231,-1,233,235,237,239,241,243,245,-1,247,249,251,253,255,-1,257,259,261,263,265,267,269,-1,271,273,275,277,279,281,283,285,287,-1,289,291,293,295,-1,297,299,-1,-1,-1,-1,-1,301,303,305,307,309,-1,311,313,315,317,-1,319,321,323,-1,-1,-1,325,327,329,-1,331,333,-1,-1,-1,335,337,339,341,-1,-1,343,345,347,349,351,-1,353,355,357,359,361,363,-1,-1,-1,365,367,369,371,373,375,377,379,381,-1,383,385,387,389,391,393,395,397,399,401,403,405,-1,407,-1,-1,409,411,413,415,-1,417,419,421,-1,423,425,427,-1,429,431,433,435,437,-1,439,441,443,-1,-1,445,447,449,451,453,455,457,459,461,463,-1,-1,465,467,469,-1,-1,-1,-1,-1,-1,-1,-1,-1,-1,471,-1,-1,-1,-1,-1,-1,-1,-1,-1,-1,-1,-1,-1,-1,-1,-1,-1,-1,-1,-1,-1,-1,-1,-1,-1,-1,-1,-1,-1,-1,-1,-1,-1,-1,-1,-1,-1,-1,-1,-1,-1,-1,-1,-1,-1,-1,-1,-1,-1,-1,-1,-1,-1,-1,-1,-1,-1,-1,-1,-1,-1,-1,-1,-1,-1,-1,-1,-1,-1,-1,-1,-1,-1,-1,-1,-1,-1,-1,-1,-1,-1,-1,-1,-1,-1,-1,-1,-1,-1,-1,-1,-1,-1,-1,-1,-1,-1,-1,-1,-1,-1,-1,-1,-1,-1,-1,-1,-1,-1,-1,-1,-1,-1,-1,-1,-1,-1,-1,-1,-1,-1,-1,-1,-1,-1,-1,-1,-1,-1,-1,-1,-1,-1,-1,-1,-1,-1,-1,-1,-1,-1,-1,-1,-1,-1,-1,-1,-1,-1,-1,-1,-1,-1,-1,-1,-1,-1,-1,-1,-1,-1,-1],"loss_changes":[2.0735926E4,6.086873E3,5.8394453E3,8.47917E2,7.047821E2,1.9175225E3,6.116533E2,5.9770996E1,4.477356E1,8.075926E1,9.753113E1,2.949834E2,2.5296484E2,1.9935791E2,1.8469092E2,2.5654297E0,2.0138062E1,2.570282E1,9.993645E0,2.1850355E1,1.368988E1,1.7784485E1,4.9586426E1,2.7946045E1,6.0757324E1,4.1854736E1,8.675391E1,2.592102E1,1.00961914E2,1.06934814E2,1.7443896E2,6.064453E-1,3.8572183E0,5.7209473E0,0E0,1.1437927E1,4.5160187E1,1.3062134E0,9.639534E0,6.238596E0,1.4110264E1,7.899685E0,1.5034042E1,0E0,1.3498596E1,2.681604E1,0E0,3.8825287E1,3.3625977E1,3.708667E1,3.322412E1,2.4149261E1,7.2037476E1,4.3879044E1,7.269971E1,1.7507385E1,1.4758564E1,8.7777954E1,1.4036035E2,1.8860413E1,0E0,1.5657715E1,0E0,0E0,6.87603E-1,1.1996961E0,0E0,4.1221924E0,1.5642539E1,1.4499779E0,6.793579E0,0E0,0E0,0E0,2.4893379E-1,8.078941E0,1.1911755E1,5.473093E0,6.9761157E0,0E0,1.08391E1,6.3278503E0,2.5570192E1,1.3472366E1,0E0,3.6658096E1,1.2394043E1,1.4335327E1,2.6130005E1,2.4101227E1,6.79783E1,5.0128296E1,4.1693237E1,3.580786E1,0E0,3.79275E1,2.8092041E1,2.5956757E1,1.9918106E1,4.5283203E1,2.357164E1,1.6071724E1,0E0,1.506636E1,5.8012207E1,2.8131996E1,8.093124E0,0E0,0E0,0E0,1.1701057E1,3.244391E1,6.488672E1,0E0,0E0,0E0,0E0,4.6849155E0,1.2909698E-1,1.2581024E0,0E0,3.6289978E0,1.5931281E1,0E0,1.8548298E-1,7.467003E-1,3.4883673E0,5.826874E0,1.1672776E1,0E0,0E0,7.024719E0,0E0,0E0,8.014669E0,1.0036987E1,2.660411E0,4.436203E0,9.561737E0,6.24187E-1,1.21938095E1,2.5616941E0,8.370865E0,0E0,1.361866E0,1.1068482E1,1.865686E1,6.4128475E0,4.0116302E1,3.1022156E1,3.6172662E0,0E0,1.2518555E1,1.6321655E1,3.2982193E1,4.1891693E1,2.3868042E1,0E0,1.2312084E1,2.9277039E1,2.4107971E1,4.013307E1,6.1732544E1,2.6741943E1,4.6935898E1,0E0,1.4031742E1,6.4642914E1,2.5008057E1,1.55362015E1,4.470865E1,1.5489822E1,3.256096E1,3.8380676E1,6.539697E1,0E0,2.507164E1,1.5883507E1,1.9406406E1,3.0205345E0,0E0,7.7958984E1,2.5260208E1,0E0,0E0,0E0,0E0,0E0,2.0516663E0,3.449301E1,1.6796967E1,6.5986786E0,5.314795E1,0E0,3.3161354E-1,5.085373E-2,6.102487E-1,1.8575155E0,0E0,1.0081177E0,1.6128845E0,3.1850743E-1,0E0,0E0,0E0,9.6645355E-2,1.1776242E0,9.8988056E-2,0E0,5.0066223E0,6.80822E0,0E0,0E0,0E0,3.934555E0,1.3807198E1,8.546373E0,4.439787E0,0E0,0E0,1.6724415E0,1.5962982E-1,4.4687004E0,6.410004E1,7.721164E0,0E0,1.9476032E-1,9.069977E0,2.7722733E1,4.174149E-1,3.4434652E0,4.7383385E0,0E0,0E0,0E0,2.1773289E1,5.2061477E0,3.796709E1,1.2157394E1,1.8745052E1,3.944952E0,2.864459E0,4.8965103E1,1.4605316E1,0E0,3.5697496E0,7.095581E0,1.5564032E0,2.0901672E1,1.6652405E1,7.5709133E0,5.0650154E1,5.2224503E1,7.412479E1,4.5578796E1,1.8856735E1,4.2497263E0,0E0,7.810753E0,0E0,0E0,2.0640747E1,4.4290857E0,2.086426E1,3.8200317E1,0E0,2.3928467E1,2.963794E1,3.049199E1,0E0,3.605842E1,1.0781509E1,2.736602E0,0E0,7.324024E1,2.307544E1,3.0773754E0,2.7674434E0,3.0777016E0,0E0,9.833248E0,1.3619743E1,9.412281E0,0E0,0E0,4.8177307E1,2.989853E1,7.605078E1,4.451468E1,2.1670273E1,1.1352142E1,7.8325996E0,1.6281036E1,1.0762976E1,3.10822E1,0E0,0E0,6.5142334E1,5.1615723E1,1.0912052E1,0E0,0E0,0E0,0E0,0E0,0E0,0E0,0E0,0E0,0E0,1.003313E2,0E0,0E0,0E0,0E0,0E0,0E0,0E0,0E0,0E0,0E0,0E0,0E0,0E0,0E0,0E0,0E0,0E0,0E0,0E0,0E0,0E0,0E0,0E0,0E0,0E0,0E0,0E0,0E0,0E0,0E0,0E0,0E0,0E0,0E0,0E0,0E0,0E0,0E0,0E0,0E0,0E0,0E0,0E0,0E0,0E0,0E0,0E0,0E0,0E0,0E0,0E0,0E0,0E0,0E0,0E0,0E0,0E0,0E0,0E0,0E0,0E0,0E0,0E0,0E0,0E0,0E0,0E0,0E0,0E0,0E0,0E0,0E0,0E0,0E0,0E0,0E0,0E0,0E0,0E0,0E0,0E0,0E0,0E0,0E0,0E0,0E0,0E0,0E0,0E0,0E0,0E0,0E0,0E0,0E0,0E0,0E0,0E0,0E0,0E0,0E0,0E0,0E0,0E0,0E0,0E0,0E0,0E0,0E0,0E0,0E0,0E0,0E0,0E0,0E0,0E0,0E0,0E0,0E0,0E0,0E0,0E0,0E0,0E0,0E0,0E0,0E0,0E0,0E0,0E0,0E0,0E0,0E0,0E0,0E0,0E0,0E0,0E0,0E0,0E0,0E0,0E0,0E0,0E0,0E0,0E0,0E0,0E0,0E0,0E0,0E0,0E0,0E0,0E0,0E0,0E0,0E0,0E0,0E0,0E0,0E0,0E0,0E0],"parents":[2147483647,0,0,1,1,2,2,3,3,4,4,5,5,6,6,7,7,8,8,9,9,10,10,11,11,12,12,13,13,14,14,15,15,16,16,17,17,18,18,19,19,20,20,21,21,22,22,23,23,24,24,25,25,26,26,27,27,28,28,29,29,30,30,31,31,32,32,33,33,35,35,36,36,37,37,38,38,39,39,40,40,41,41,42,42,44,44,45,45,47,47,48,48,49,49,50,50,51,51,52,52,53,53,54,54,55,55,56,56,57,57,58,58,59,59,61,61,64,64,65,65,67,67,68,68,69,69,70,70,74,74,75,75,76,76,77,77,78,78,80,80,81,81,82,82,83,83,85,85,86,86,87,87,88,88,89,89,90,90,91,91,92,92,93,93,95,95,96,96,97,97,98,98,99,99,100,100,101,101,103,103,104,104,105,105,106,106,110,110,111,111,112,112,117,117,118,118,119,119,121,121,122,122,124,124,125,125,126,126,127,127,128,128,131,131,134,134,135,135,136,136,137,137,138,138,139,139,140,140,141,141,142,142,144,144,145,145,146,146,147,147,148,148,149,149,150,150,152,152,153,153,154,154,155,155,156,156,158,158,159,159,160,160,161,161,162,162,163,163,164,164,166,166,167,167,168,168,169,169,170,170,171,171,172,172,173,173,174,174,176,176,177,177,178,178,179,179,181,181,182,182,188,188,189,189,190,190,191,191,192,192,194,194,195,195,196,196,197,197,199,199,200,200,201,201,205,205,206,206,207,207,209,209,210,210,214,214,215,215,216,216,217,217,220,220,221,221,222,222,223,223,224,224,226,226,227,227,228,228,229,229,230,230,231,231,235,235,236,236,237,237,238,238,239,239,240,240,241,241,242,242,243,243,245,245,246,246,247,247,248,248,249,249,250,250,251,251,252,252,253,253,254,254,255,255,256,256,258,258,261,261,262,262,263,263,264,264,266,266,267,267,268,268,270,270,271,271,272,272,274,274,275,275,276,276,277,277,278,278,280,280,281,281,282,282,285,285,286,286,287,287,288,288,289,289,290,290,291,291,292,292,293,293,294,294,297,297,298,298,299,299,310,310],"right_children":[2,4,6,8,10,12,14,16,18,20,22,24,26,28,30,32,34,36,38,40,42,44,46,48,50,52,54,56,58,60,62,64,66,68,-1,70,72,74,76,78,80,82,84,-1,86,88,-1,90,92,94,96,98,100,102,104,106,108,110,112,114,-1,116,-1,-1,118,120,-1,122,124,126,128,-1,-1,-1,130,132,134,136,138,-1,140,142,144,146,-1,148,150,152,154,156,158,160,162,164,-1,166,168,170,172,174,176,178,-1,180,182,184,186,-1,-1,-1,188,190,192,-1,-1,-1,-1,194,196,198,-1,200,202,-1,204,206,208,210,212,-1,-1,214,-1,-1,216,218,220,222,224,226,228,230,232,-1,234,236,238,240,242,244,246,-1,248,250,252,254,256,-1,258,260,262,264,266,268,270,-1,272,274,276,278,280,282,284,286,288,-1,290,292,294,296,-1,298,300,-1,-1,-1,-1,-1,302,304,306,308,310,-1,312,314,316,318,-1,320,322,324,-1,-1,-1,326,328,330,-1,332,334,-1,-1,-1,336,338,340,342,-1,-1,344,346,348,350,352,-1,354,356,358,360,362,364,-1,-1,-1,366,368,370,372,374,376,378,380,382,-1,384,386,388,390,392,394,396,398,400,402,404,406,-1,408,-1,-1,410,412,414,416,-1,418,420,422,-1,424,426,428,-1,430,432,434,436,438,-1,440,442,444,-1,-1,446,448,450,452,454,456,458,460,462,464,-1,-1,466,468,470,-1,-1,-1,-1,-1,-1,-1,-1,-1,-1,472,-1,-1,-1,-1,-1,-1,-1,-1,-1,-1,-1,-1,-1,-1,-1,-1,-1,-1,-1,-1,-1,-1,-1,-1,-1,-1,-1,-1,-1,-1,-1,-1,-1,-1,-1,-1,-1,-1,-1,-1,-1,-1,-1,-1,-1,-1,-1,-1,-1,-1,-1,-1,-1,-1,-1,-1,-1,-1,-1,-1,-1,-1,-1,-1,-1,-1,-1,-1,-1,-1,-1,-1,-1,-1,-1,-1,-1,-1,-1,-1,-1,-1,-1,-1,-1,-1,-1,-1,-1,-1,-1,-1,-1,-1,-1,-1,-1,-1,-1,-1,-1,-1,-1,-1,-1,-1,-1,-1,-1,-1,-1,-1,-1,-1,-1,-1,-1,-1,-1,-1,-1,-1,-1,-1,-1,-1,-1,-1,-1,-1,-1,-1,-1,-1,-1,-1,-1,-1,-1,-1,-1,-1,-1,-1,-1,-1,-1,-1,-1,-1,-1,-1,-1,-1,-1,-1,-1,-1,-1,-1,-1,-1],"split_conditions":[1.6480565E2,6.642021E1,5.500606E2,3.0168854E1,1.0706563E2,2.937885E2,8.684211E-1,7.895194E-3,4.5282074E1,9.035421E1,1.2594785E2,2.1318427E2,3.393276E2,5.727264E2,1.06748536E-1,3.1726157E2,9.8150185E1,1.377041E2,7.5918506E-3,7.463938E1,1.1066926E0,5.368596E1,2.5498375E2,9.2087E1,2.5326387E2,2.8001074E2,2.613763E2,1.6990341E2,5.852322E2,8.333333E-1,1.3334422E-1,1.3079102E2,4.6219044E1,5.24461E1,5.27226E-2,1.3708028E-2,3.7557404E1,-2.0092397E0,5.618518E1,7.649246E1,3.2201836E1,1.6461691E2,1.6820573E2,6.874908E-2,1.2698413E-1,1.4195912E2,9.820554E-2,9.064341E1,1.8464975E2,3.4451974E2,2.2115837E2,3.0733826E2,6E-1,2.7222905E0,2.80556E2,1.6564085E2,5.294482E2,4.173463E-2,1.2907101E2,1E0,2.7123407E-1,1.805778E2,1.714131E-1,-1.6788902E-2,1.6666667E-1,6.73422E-2,1.900868E-2,1.4438971E2,1.6186465E-1,5.502113E2,8.236117E1,1.1823759E-1,-1.6156873E-2,-2.154521E-3,5.956395E-3,1.377041E2,3.7973409E0,8.926771E1,7.096042E1,4.6217076E-2,4.1567683E-3,7.872356E1,9.460034E1,8.496424E1,5.243615E-2,1.3787863E2,1.5857901E2,5.5840508E1,1.9730122E2,1.8919032E2,2E-1,1.0827964E2,1.233836E2,1.92002E2,1.2418085E-1,1.772093E2,2.289816E2,2.9403638E2,1E0,3.1473953E2,2.5216685E2,4.5833334E-1,1.4581946E-1,1.8091619E-1,5.559218E2,1.0491154E2,1.4644553E2,1.2283542E-2,8.707606E-2,2.4903408E-1,2.0959388E-1,8.9042716E-2,5.4096204E2,1.5606256E-1,5.7291955E-2,2.3956548E-1,3.569342E-1,1.5934695E-1,2.9774908E2,5E-1,-1.6583115E-2,4.9875283E0,2.2171886E1,5.465148E-2,2.2943928E1,1.1190756E-2,5.306715E1,3.4763527E1,4.351809E1,-1.6560279E-2,-9.249381E-3,5.6699715E0,2.923206E-2,4.3257423E-2,4.0714187E-3,1.16177E2,2.1449043E1,4.358775E-2,5.5751114E1,2.5332489E-3,1.4954181E2,8.385023E1,1.5804564E2,8.488341E-2,8.929703E-2,5.7111835E1,3.2443073E1,9.524199E1,1.149944E2,1.9026746E2,5.231708E-1,6.127695E-2,7.983514E1,1.915154E2,2.099261E2,4.616632E0,1.6402787E-1,1.7929699E-1,1.6246352E2,1.7722575E2,2.3667818E2,1.7877638E2,1.12245255E2,2.7273953E2,1.5718059E2,1.01464204E-1,5.2918887E0,2.1904352E2,3.128615E2,2.981293E2,2.5032935E2,3.165634E2,3.809524E-1,2.8142554E2,2.776962E1,1.1001652E-1,6.593764E0,3.8063278E2,5.0793654E-1,3.4331686E2,-3.5244697E-3,4.4732535E2,5.8210614E2,1.374454E-1,3.3514705E-2,1.9841152E-1,1.1032497E-1,5.0424438E-2,7.80682E-1,5.3353416E1,2.5997633E-1,5.3968257E-1,1.5768579E2,2.0132544E-2,6.984127E-1,4.086975E-2,2.110455E1,2.6085178E1,-1.6022818E-2,-1.5922171E0,1.1627549E1,1.3183727E0,5.5371623E-2,-1.44262165E-2,-5.7149385E-3,4.4485405E1,7.663078E-2,4.5287636E1,1.720704E-2,7.3144E1,8.7186104E1,-1.2631476E-2,5.658595E-2,3.4671824E-2,4.371036E1,8.072675E-3,5.722071E1,1.5097102E2,3.750463E-2,1.8588817E-2,6.4391975E1,7.283091E-2,9.083231E1,6.5277664E1,-9.665943E0,-2.671177E-3,6.1389957E1,6.3846115E1,6.242162E1,1.0593171E2,5E-1,9.080261E1,3.810662E-2,-1.2620823E-2,1.0348048E-2,8.911957E1,7.463938E1,1.16241255E1,8.145636E1,1.12245255E2,1.4527013E2,2.0833333E-1,1.22250114E2,5.4908077E1,8.185689E-2,6.6044205E1,1.2074641E0,1.4101752E-2,7.114256E1,1.2492914E2,1.3008861E2,1.2179533E1,6.666667E-1,2.0728462E2,5.714286E-1,2.3635643E2,1.1299589E-1,4.956167E-3,1.7172397E2,1.2713186E-1,2.0032862E-2,2.26437E2,5E-1,1.9352809E2,2.3004709E2,1.3297328E-1,1.3239824E2,8.851017E1,1.6434226E-2,1.7352141E-1,2.502596E2,2.7275317E2,6.593764E0,1.9746059E-1,2.2845764E2,1.8012729E2,8E-1,2.613763E2,1.5701891E-1,1.6307928E-1,1.3654556E0,1.2907101E2,1.805778E2,3.3523764E-2,1.3872571E-1,8.333333E-1,4.2105263E-1,8.597757E1,3.2984833E2,3.567657E2,3.2763364E2,2.587516E-1,3.9498627E2,1.422242E2,6.031746E-1,7.878326E-2,3.770782E-2,1.19625145E2,3.9961942E2,5.727264E2,1.143889E-1,7.859413E-2,1.3121288E-1,2.1621995E-1,1.0549444E-1,3.2341044E-2,1.1602044E-1,1.5749244E-1,8.368886E-2,3.3230948E-1,6.3492066E-1,-1.608139E-2,-6.647689E-3,-1.4229682E-2,-1.6537445E-2,-1.6146911E-2,-1.3059315E-3,1.1652179E-2,-1.1721486E-2,5.506184E-3,-9.989481E-3,-1.4634355E-2,-1.2493699E-2,-1.5737107E-2,-5.5830185E-3,-1.6679375E-2,-1.10831335E-2,-1.6698092E-3,-1.476119E-2,-1.5996795E-2,-8.647483E-3,-9.662444E-3,4.8114797E-3,-7.141044E-3,3.2289978E-2,-7.1250387E-3,-4.7214045E-3,3.5060223E-3,6.622697E-2,-5.265186E-3,-1.8117629E-3,-1.1194529E-3,2.1404898E-2,-9.66664E-3,-4.260379E-3,-9.912244E-3,-1.5868204E-2,-2.779803E-3,9.671679E-3,1.3158917E-1,-3.5916397E-3,4.2511728E-2,2.2673677E-3,-1.7547136E-2,-9.453589E-3,7.897227E-3,2.6689435E-3,9.830322E-2,-4.9509195E-4,-5.056895E-3,-1.2087326E-2,2.4283553E-2,5.644707E-4,2.3778463E-3,6.5316074E-3,-6.7923605E-3,8.830934E-2,-3.6190895E-3,4.933789E-3,-1.2220162E-2,1.2128725E-1,2.6234353E-3,1.0818819E-2,7.990084E-2,6.3784875E-4,1.1919289E-2,4.033331E-2,3.7202474E-2,3.3583634E-3,3.08436E-2,1.8031155E-1,5.3828586E-2,1.1994287E-2,1.8869113E-2,-5.334097E-3,1.5230939E-3,2.4114804E-2,3.5442226E-3,-1.3203527E-2,8.275732E-2,1.6510382E-2,1.5238141E-2,2.2956865E-2,3.5090134E-2,7.3141656E-3,1.8027982E-2,8.3176665E-2,3.0980635E-2,1.6317041E-1,2.506918E-2,1.2864546E-1,1.0302633E-1,4.3730494E-2,2.854752E-2,6.702522E-2,1.6687825E-2,-1.2062668E-2,9.212933E-2,2.9852336E-2,2.8842036E-2,8.957505E-3,1.2742477E-2,-9.464589E-3,8.435491E-2,-2.0550748E-3,5.631428E-2,1.9274674E-1,4.8874225E-4,3.4752857E-2,2.289451E-2,4.687241E-2,7.84831E-2,2.725231E-2,2.6297078E-2,1.224945E-1,5.4453123E-2,2.879354E-3,1.3184628E-2,-9.3048345E-3,1.7468661E-1,3.3010945E-2,1.2586878E-1,5.709069E-2,2.1288702E-2,-1.2442025E-2,-8.223767E-3,2.6128042E-2,9.21071E-2,4.544745E-2,1.0314485E-1,4.3284476E-2,7.2053075E-2,3.2682475E-2,6.65686E-3,5.004872E-2,6.620809E-2,1.4977805E-1,4.196485E-2,7.327979E-2,1.942134E-1,7.991319E-2,2.3922315E-1,1.04022555E-1,4.4209313E-2,9.687445E-2,3.409637E-2,-5.1198746E-3,7.617513E-2,2.084037E-2,1.4312755E-1,5.1324774E-2,-1.9746633E-2,2.9373351E-2,1.2688015E-1,2.0290498E-2,1.1237805E-1,8.596777E-2,8.277761E-2,1.2686971E-1,5.409005E-2,-1.94299E-3,2.4304955E-1,1.5785582E-1],"split_indices":[16,16,16,16,16,16,9,2,16,16,16,16,16,21,2,60,44,44,58,22,57,42,31,55,16,23,44,55,32,15,2,60,21,25,0,58,16,25,16,20,25,44,23,0,4,31,0,55,16,22,19,24,3,65,29,47,44,2,47,3,0,47,0,0,15,8,0,55,13,60,30,0,0,0,58,44,38,44,21,0,61,24,19,22,0,30,44,44,23,31,3,20,30,60,0,42,19,32,7,29,20,0,0,8,22,55,55,0,0,0,13,2,31,0,0,0,0,23,57,15,0,60,23,0,20,2,28,25,21,0,0,20,0,0,2,21,30,58,32,8,32,38,32,0,8,21,30,23,19,42,58,0,31,38,22,60,8,0,31,28,30,21,24,28,42,0,60,26,47,19,38,26,4,25,60,0,57,22,4,19,0,21,20,0,0,0,0,0,60,60,57,4,47,0,4,8,31,42,0,21,16,65,0,0,0,16,8,20,0,44,21,0,0,0,23,65,25,55,0,0,30,8,42,24,22,0,57,26,19,23,7,19,0,0,0,32,22,57,21,24,26,0,22,21,0,24,57,8,25,24,23,57,4,38,4,23,57,0,29,0,0,44,9,31,25,0,26,47,2,0,28,38,57,0,29,31,3,44,2,0,60,47,47,0,0,15,9,55,30,30,20,65,24,47,4,0,0,55,30,21,0,0,0,0,0,0,0,0,0,0,4,0,0,0,0,0,0,0,0,0,0,0,0,0,0,0,0,0,0,0,0,0,0,0,0,0,0,0,0,0,0,0,0,0,0,0,0,0,0,0,0,0,0,0,0,0,0,0,0,0,0,0,0,0,0,0,0,0,0,0,0,0,0,0,0,0,0,0,0,0,0,0,0,0,0,0,0,0,0,0,0,0,0,0,0,0,0,0,0,0,0,0,0,0,0,0,0,0,0,0,0,0,0,0,0,0,0,0,0,0,0,0,0,0,0,0,0,0,0,0,0,0,0,0,0,0,0,0,0,0,0,0,0,0,0,0,0,0,0,0,0,0,0,0,0,0,0,0,0,0,0,0,0,0,0,0,0,0,0,0,0,0,0],"split_type":[0,0,0,0,0,0,0,0,0,0,0,0,0,0,0,0,0,0,0,0,0,0,0,0,0,0,0,0,0,0,0,0,0,0,0,0,0,0,0,0,0,0,0,0,0,0,0,0,0,0,0,0,0,0,0,0,0,0,0,0,0,0,0,0,0,0,0,0,0,0,0,0,0,0,0,0,0,0,0,0,0,0,0,0,0,0,0,0,0,0,0,0,0,0,0,0,0,0,0,0,0,0,0,0,0,0,0,0,0,0,0,0,0,0,0,0,0,0,0,0,0,0,0,0,0,0,0,0,0,0,0,0,0,0,0,0,0,0,0,0,0,0,0,0,0,0,0,0,0,0,0,0,0,0,0,0,0,0,0,0,0,0,0,0,0,0,0,0,0,0,0,0,0,0,0,0,0,0,0,0,0,0,0,0,0,0,0,0,0,0,0,0,0,0,0,0,0,0,0,0,0,0,0,0,0,0,0,0,0,0,0,0,0,0,0,0,0,0,0,0,0,0,0,0,0,0,0,0,0,0,0,0,0,0,0,0,0,0,0,0,0,0,0,0,0,0,0,0,0,0,0,0,0,0,0,0,0,0,0,0,0,0,0,0,0,0,0,0,0,0,0,0,0,0,0,0,0,0,0,0,0,0,0,0,0,0,0,0,0,0,0,0,0,0,0,0,0,0,0,0,0,0,0,0,0,0,0,0,0,0,0,0,0,0,0,0,0,0,0,0,0,0,0,0,0,0,0,0,0,0,0,0,0,0,0,0,0,0,0,0,0,0,0,0,0,0,0,0,0,0,0,0,0,0,0,0,0,0,0,0,0,0,0,0,0,0,0,0,0,0,0,0,0,0,0,0,0,0,0,0,0,0,0,0,0,0,0,0,0,0,0,0,0,0,0,0,0,0,0,0,0,0,0,0,0,0,0,0,0,0,0,0,0,0,0,0,0,0,0,0,0,0,0,0,0,0,0,0,0,0,0,0,0,0,0,0,0,0,0,0,0,0,0,0,0,0,0,0,0,0,0,0,0,0,0,0,0,0,0,0,0,0,0,0,0,0,0,0,0,0,0,0,0],"sum_hessian":[1.56479E5,1.41714E5,1.4765E4,9.4745E4,4.6969E4,1.4163E4,6.02E2,6.6713E4,2.8032E4,2.746E4,1.9509E4,1.1057E4,3.106E3,4.31E2,1.71E2,5.8913E4,7.8E3,1.0984E4,1.7048E4,1.7667E4,9.793E3,9.082E3,1.0427E4,6.13E3,4.927E3,1.24E3,1.866E3,7.6E1,3.55E2,4.3E1,1.28E2,5.8787E4,1.26E2,7.789E3,1.1E1,1.096E4,2.4E1,2.2E2,1.6828E4,7.306E3,1.0361E4,4.648E3,5.145E3,1.3E1,9.069E3,1.0408E4,1.9E1,6.97E2,5.433E3,3.072E3,1.855E3,3.04E2,9.36E2,1.38E2,1.728E3,4.8E1,2.8E1,5E1,3.05E2,2.2E1,2.1E1,1.08E2,2E1,5.8232E4,5.55E2,1.16E2,1E1,7.745E3,4.4E1,6.2E2,1.034E4,1E1,1.4E1,1.9E1,2.01E2,8.952E3,7.876E3,4.655E3,2.651E3,1.8E1,1.0343E4,4.612E3,3.6E1,5.126E3,1.9E1,3.71E2,8.698E3,4.882E3,5.526E3,6.49E2,4.8E1,2.714E3,2.719E3,3.058E3,1.4E1,1.14E2,1.741E3,9.6E1,2.08E2,7.23E2,2.13E2,1.26E2,1.2E1,4.1E1,1.687E3,2.7E1,2.1E1,1.1E1,1.7E1,1E1,4E1,6.4E1,2.41E2,1E1,1.2E1,1.2E1,9.6E1,9.4E1,4.61E2,5.1E1,6.5E1,7.696E3,4.9E1,1.1E1,3.3E1,5.74E2,4.6E1,1.0317E4,2.3E1,1.84E2,1.7E1,8.936E3,1.6E1,1.3E1,7.863E3,4.029E3,6.26E2,7.49E2,1.902E3,8.4E1,1.0259E4,4.66E2,4.146E3,1.2E1,2.4E1,8.16E2,4.31E3,3.24E2,4.7E1,8.355E3,3.43E2,1.7E1,4.865E3,5.3E3,2.26E2,3.57E2,2.92E2,1.3E1,3.5E1,2.9E1,2.685E3,4.9E1,2.67E3,3.003E3,5.5E1,1.5E1,9.9E1,6.3E1,1.678E3,4.3E1,5.3E1,1.77E2,3.1E1,4.04E2,3.19E2,1.3E1,2E2,5E1,7.6E1,2.4E1,1.7E1,1.598E3,8.9E1,1.4E1,1.3E1,1E1,1.1E1,1.8E1,2.2E1,3.5E1,2.9E1,2.2E1,2.19E2,1E1,8.4E1,4.28E2,3.3E1,3.2E1,1.9E1,1.214E3,6.482E3,3.9E1,1E1,2.2E1,1.1E1,4.88E2,8.6E1,3.5E1,1.1E1,4.505E3,5.812E3,1.3E1,1E1,1E1,8.926E3,5.4E1,7.809E3,4.013E3,1.6E1,1E1,6.16E2,7.4E1,6.75E2,5.3E1,1.849E3,1E1,7.4E1,1.0229E4,3E1,9.9E1,3.67E2,4.127E3,1.9E1,1.3E1,1.1E1,2.3E1,7.93E2,2E1,4.29E3,2.9E1,2.95E2,2.5E1,2.2E1,8.34E3,1.5E1,1.63E2,1.8E2,5.7E1,4.808E3,4.991E3,3.09E2,1.95E2,3.1E1,2.21E2,1.36E2,2.38E2,5.4E1,1.2E1,2.3E1,1.9E1,1E1,2.597E3,8.8E1,2.7E1,2.2E1,1.5E1,2.655E3,2.608E3,3.95E2,1.1E1,4.4E1,4.6E1,5.3E1,1.1E1,5.2E1,1.651E3,2.7E1,2.2E1,2.1E1,1.6E1,3.7E1,1.03E2,7.4E1,1.9E1,1.2E1,7.6E1,3.28E2,2.9E2,2.9E1,1.24E2,7.6E1,2.8E1,2.2E1,4.8E1,2.8E1,1E1,1.4E1,1.082E3,5.16E2,7.2E1,1.7E1,1.1E1,1.1E1,1.8E1,1.7E1,1E1,1.9E1,1.2E1,1E1,1.5E1,2.04E2,7.1E1,1.3E1,9.1E1,3.37E2,2.3E1,1E1,1.6E1,1.6E1,1E1,1.204E3,1.103E3,5.379E3,2.6E1,1.3E1,4.72E2,1.6E1,2.4E1,6.2E1,2.4E1,1.1E1,4.445E3,6E1,5.802E3,1E1,2.299E3,6.627E3,4.4E1,1E1,2.785E3,5.024E3,3.992E3,2.1E1,2.29E2,3.87E2,2.4E1,5E1,5.94E2,8.1E1,1E1,4.3E1,1.1E1,1.838E3,6.1E1,1.3E1,9.1E2,9.319E3,1E1,2E1,6.7E1,3.2E1,1.5E1,3.52E2,8.72E2,3.255E3,1.3E1,1E1,2.68E2,5.25E2,1E1,1E1,5.15E2,3.775E3,1.3E1,1.6E1,2.83E2,1.2E1,1E1,1.5E1,1.1E1,1.1E1,2E1,8.32E3,1.6E1,1.47E2,1.34E2,4.6E1,2.2E1,3.5E1,1.1E1,4.797E3,8.51E2,4.14E3,2.6E1,2.83E2,1.59E2,3.6E1,1.9E1,1.2E1,2.03E2,1.8E1,5.8E1,7.8E1,2E2,3.8E1,1.9E1,3.5E1,1.3E1,1E1,2.458E3,1.39E2,4.2E1,4.6E1,1.2E1,1.5E1,1.1E1,1.1E1,5.2E1,2.603E3,1.39E2,2.469E3,3.1E1,3.64E2,3E1,1.4E1,3.1E1,1.5E1,2.3E1,3E1,1.1E1,4.1E1,1.2E1,1.639E3,1.7E1,1E1,1E1,1.2E1,1E1,1.1E1,1E1,2.7E1,3.4E1,6.9E1,5.9E1,1.5E1,4.6E1,3E1,1.35E2,1.93E2,1.5E1,2.75E2,1.2E1,1.7E1,9.9E1,2.5E1,4.6E1,3E1,1E1,1.8E1,1.1E1,1.1E1,1.6E1,3.2E1,1.1E1,1.7E1,3.78E2,7.04E2,8.8E1,4.28E2,6.2E1,1E1,1.48E2,5.6E1],"tree_param":{"num_deleted":"0","num_feature":"67","num_nodes":"473","size_leaf_vector":"1"}},{"base_weights":[-8.986375E-4,-1.0852912E-1,1.0904416E0,-2.4941115E-1,1.7040725E-1,9.565336E-1,3.9214876E0,-3.1162965E-1,-1.1620526E-1,7.1298845E-2,3.0634516E-1,7.771277E-1,1.5728325E0,3.2575765E0,5.700045E0,-3.187979E-1,-2.3863134E-1,-1.737866E-1,-8.359963E-2,3.2622997E-2,1.4229845E-1,2.2610877E-1,3.7338194E-1,6.502735E-1,9.5770985E-1,1.2707042E0,1.835799E0,5.346252E0,3.0533304E0,6.291932E0,3.535403E0,-3.1886348E-1,-5.5151726E-3,-2.420779E-1,5.9796777E-2,-1.7675395E-1,1.3002571E0,-1.0490167E-1,-5.9639707E-2,-1.2934384E-2,5.9155304E-2,-9.6085005E-2,1.4819796E-1,2.6054016E-1,1.5270643E-1,3.6480102E-1,6.6845137E-1,6.451553E-1,1.2790385E-1,9.435465E-1,2.0298455E0,1.3136827E0,3.8960195E-1,2.2126973E0,1.6992183E0,2.1495333E-1,3.003814E-1,2.132626E0,3.3799553E0,1.8449883E-1,6.496289E0,2.7637502E-2,4.5448437E0,-1.5951088E-2,-2.75138E-1,-1.436605E-1,-2.5145042E-1,-2.070779E-1,-1.4888659E-1,-2.2767007E-3,1.3250938E-1,4.1032088E-1,-1.06566444E-1,-6.1434858E-2,3.918518E-1,-1.4566514E-2,4.067707E-2,-2.9522592E-1,6.3270725E-2,-1.446503E-1,1.0228711E-1,1.8479405E-1,1.0861582E-1,2.0237973E-1,3.101764E-1,1.7099516E-1,-8.316776E-3,3.6340898E-1,8.4025465E-2,1.2607601E0,4.6984097E-1,1.2565714E0,6.366027E-1,4.1178077E-1,9.6218175E-1,1.1862695E0,3.2412882E0,1.9561492E0,1.2576575E0,-2.0061709E-2,7.1279876E-2,1.9065133E0,3.0965858E0,1.133661E0,1.8314925E0,2.771308E0,1.3971074E0,2.7165523E0,4.07832E0,5.7653203E0,3.5145757E-1,1.7876902E-1,2.6056588E-1,-3.111706E-1,-1.366534E-1,4.194702E-2,-1.6529325E-1,-2.552559E-1,-7.756344E-2,-2.2980393E-1,-1.7002931E-1,4.4623688E-2,-1.5088484E-1,-5.7986896E-2,6.7610405E-2,3.696498E-2,-1.0755705E-1,-2.2046247E-1,-5.732335E-2,6.508744E-2,-1.7903554E-1,-2.984152E-2,4.920097E-2,-3.203794E-1,-2.0456222E-1,6.2380046E-2,4.809813E-2,-1.777415E-1,6.974766E-3,2.6030695E-2,-9.096104E-2,1.4474829E-1,2.7100718E-1,6.690438E-3,1.2890291E-1,3.886592E-2,2.1874125E-1,7.408258E-1,2.9608718E-1,5.608606E-2,1.6511945E-1,-4.8947357E-2,4.0431643E-1,9.784233E-1,3.6059293E-1,4.5771155E-1,2.162629E0,8.9052E-2,3.9058563E-1,2.366196E-1,2.199861E0,5.3470045E-1,7.031464E-1,5.676953E-1,-2.3145305E-1,1.0288334E0,8.162098E-1,1.06849946E-1,5.49172E-3,2.1334787E-1,1.015492E-1,1.1461306E0,2.3066216E0,2.7761304E0,1.2291977E0,6.4820313E-1,-2.5164291E-2,7.8555256E-1,2.0201578E0,2.758917E0,2.5833616E-1,1.8334715E0,9.0594125E-1,1.1721661E0,1.9377041E0,6.3147984E-2,3.202915E0,5.970625E-1,2.266501E0,3.3384364E-2,2.9045818E0,3.0485988E0,4.5477037E0,4.5766273E0,3.1657982E-1,-9.089391E-3,-1.5899647E-2,1.033819E-2,-1.5204579E-2,1.3802791E-2,-1.7687796E-1,-2.686247E-1,-2.3258068E-1,2.578926E-2,-1.7969981E-1,-2.3183948E-1,1.9273287E-2,-1.7417666E-1,1.2276707E-2,7.054656E-2,-1.5471941E-1,7.389334E-3,-1.4795116E-2,-7.2765104E-2,-1.2659338E-1,-1.8465911E-1,-2.749171E-1,5.4776076E-2,-6.2615186E-2,-1.9083488E-3,-1.4223004E-2,-3.1689283E-2,3.6238924E-2,1.9042195E-1,-3.6736436E-2,-1.656889E-2,-1.0063349E-2,-4.612188E-3,-1.2682733E-2,6.1334144E-2,4.1804556E-2,-2.0751129E-1,-5.5898782E-2,1.6519258E-2,-1.5502104E-1,-2.3132494E-1,1.0539815E-2,1.4019884E-1,8.0188084E-1,2.4422112E-1,7.8581524E-1,3.0506043E-2,-2.3611698E-1,1.21368006E-1,6.4153564E-1,2.1799543E-1,-8.9336105E-2,8.7691975E-1,2.1102418E-1,1.4110756E-1,4.9462366E-1,8.905124E-2,2.9097328E-1,1.6031589E-1,5.235657E-2,-1.864996E-1,1.9347211E-2,5.781308E-4,4.131963E-2,9.4366336E-4,1.4576086E0,3.584384E-1,1.2240287E0,7.698233E-2,-1.382433E-1,1.6350143E-1,3.662962E-2,3.2266238E-1,6.859161E-2,3.9223984E-2,3.4584753E-2,8.9199466E-1,3.2983537E0,-7.881899E-2,5.569231E-1,6.965612E-1,1.2413897E-1,1.0214517E-1,4.1073284E-1,-7.543772E-4,-1.9164708E-2,1.0924667E0,7.3933053E-1,8.0128264E-1,1.1081411E-1,9.309354E-2,2.7600938E-2,1.8176827E0,1.9674306E-1,2.3234533E-1,2.414542E-2,1.1565385E0,1.6021626E0,4.529183E-2,1.6582107E-2,6.244878E-2,2.3907407E-3,2.6674113E0,1.6894543E0,5.437714E-2,3.0587056E0,8.669995E-1,2.40491E0,1.6803423E0,7.3293865E-1,4.9921495E-1,1.382925E0,1.3579069E0,2.038041E0,2.562753E0,2.1215235E-1,4.96213E-2,-3.9342376E-3,6.5803066E-2,1.7214566E-1,2.5042295E-1,2.666649E0,7.134557E-2,3.769778E0,2.6416345E0,5.0150266E0,2.7219763E-1,1.6071983E-1,-3.2939978E-3,-9.381231E-3,-1.2809642E-2,-1.45171005E-2,-1.190088E-2,1.768174E-2,9.159989E-3,-1.1151011E-2,-7.881439E-3,-1.1982801E-2,6.151287E-4,-9.110457E-3,-8.628613E-3,2.6305357E-2,-8.061901E-3,-2.0523805E-3,-3.8771282E-3,2.3027686E-2,-7.845738E-3,-5.189102E-3,-8.980819E-4,-1.0614618E-2,-1.4700189E-2,-7.109295E-3,-5.349545E-3,1.1668571E-2,8.584812E-3,-3.2658228E-3,-1.394792E-3,-9.351462E-3,2.3510003E-2,2.266455E-4,2.8186604E-2,-2.2963658E-3,-1.2909519E-3,3.5234012E-3,-1.6389538E-2,-9.003613E-3,-7.860743E-3,3.4703554E-3,-1.3505118E-3,-1.3063008E-2,-1.5208225E-2,-6.210615E-3,9.630025E-5,8.1786495E-3,-3.6573373E-3,8.81553E-2,6.1732507E-3,1.5092057E-2,1.9671304E-2,1.19073115E-1,2.9089437E-3,-7.10952E-3,-6.035631E-3,-1.739855E-2,4.5517622E-3,1.1229947E-2,-2.3674334E-3,9.746411E-2,5.0194063E-3,5.4390233E-2,-6.1512627E-3,1.5978549E-2,7.147937E-2,-1.0382524E-2,1.2026189E-3,1.1154718E-2,7.490872E-3,1.2517509E-1,5.6053758E-2,1.4209749E-2,7.734727E-3,4.586341E-2,-3.2657862E-3,-1.4451926E-2,8.618928E-3,-4.142399E-3,1.18684985E-1,3.529389E-2,1.9283572E-2,1.485291E-2,1.2252146E-1,-1.1011853E-4,3.9474224E-3,-1.4171158E-2,2.5076216E-2,-4.380669E-3,-5.56015E-3,1.54881375E-2,-2.714584E-3,8.7859534E-2,2.4335256E-1,7.273966E-2,2.8484408E-2,-1.0279176E-2,1.12861864E-1,2.7424702E-2,3.684465E-2,2.6654527E-2,1.3680969E-2,5.367408E-2,4.8056066E-2,6.165229E-2,1.5327582E-1,3.432322E-2,4.3637916E-2,2.3652533E-2,2.959992E-2,1.0971093E-1,4.64569E-2,6.865054E-2,9.516859E-2,4.9690705E-2,1.899191E-1,9.627614E-2,3.343523E-2,9.79309E-2,2.5777712E-1,1.3427535E-1,2.023307E-2,6.0927976E-2,4.293408E-2,1.5066968E-1,1.3068824E-1,3.2094922E-2,2.9445222E-2,9.2420295E-2,6.8217614E-3,5.7647076E-2,1.0087407E-1,4.9831055E-2,1.1017337E-1,5.0229747E-2,9.577397E-2,1.3087621E-1,1.6605859E-1,7.0229486E-2,7.505504E-2,1.4453003E-1,1.3215165E-1,2.595313E-1,1.9484124E-1,5.1609386E-2,3.213235E-1,1.8872134E-1],"categories":[],"categories_nodes":[],"categories_segments":[],"categories_sizes":[],"default_left":[0,0,0,0,0,0,0,0,0,0,0,0,0,0,0,0,0,0,0,0,0,0,0,0,0,0,0,0,0,0,0,0,0,0,0,0,0,0,0,0,0,0,0,0,0,0,0,0,0,0,0,0,0,0,0,0,0,0,0,0,0,0,0,0,0,0,0,0,0,0,0,0,0,0,0,0,0,0,0,0,0,0,0,0,0,0,0,0,0,0,0,0,0,0,0,0,0,0,0,0,0,0,0,0,0,0,0,0,0,0,0,0,0,0,0,0,0,0,0,0,0,0,0,0,0,0,0,0,0,0,0,0,0,0,0,0,0,0,0,0,0,0,0,0,0,0,0,0,0,0,0,0,0,0,0,0,0,0,0,0,0,0,0,0,0,0,0,0,0,0,0,0,0,0,0,0,0,0,0,0,0,0,0,0,0,0,0,0,0,0,0,0,0,0,0,0,0,0,0,0,0,0,0,0,0,0,0,0,0,0,0,0,0,0,0,0,0,0,0,0,0,0,0,0,0,0,0,0,0,0,0,0,0,0,0,0,0,0,0,0,0,0,0,0,0,0,0,0,0,0,0,0,0,0,0,0,0,0,0,0,0,0,0,0,0,0,0,0,0,0,0,0,0,0,0,0,0,0,0,0,0,0,0,0,0,0,0,0,0,0,0,0,0,0,0,0,0,0,0,0,0,0,0,0,0,0,0,0,0,0,0,0,0,0,0,0,0,0,0,0,0,0,0,0,0,0,0,0,0,0,0,0,0,0,0,0,0,0,0,0,0,0,0,0,0,0,0,0,0,0,0,0,0,0,0,0,0,0,0,0,0,0,0,0,0,0,0,0,0,0,0,0,0,0,0,0,0,0,0,0,0,0,0,0,0,0,0,0,0,0,0,0,0,0,0,0,0,0,0,0,0,0,0,0,0,0,0,0,0,0,0,0,0,0,0,0,0,0,0,0,0,0,0,0,0,0,0,0,0,0,0,0,0,0,0,0,0,0,0,0,0,0,0,0,0,0,0,0,0,0,0,0,0,0,0,0,0,0,0,0,0,0,0,0,0,0,0,0,0],"id":3,"left_children":[1,3,5,7,9,11,13,15,17,19,21,23,25,27,29,31,33,35,37,39,41,43,45,47,49,51,53,55,57,59,61,63,-1,65,-1,67,69,71,73,75,77,79,81,83,85,87,89,91,-1,93,95,97,99,101,103,-1,-1,105,107,-1,109,-1,111,-1,113,115,117,119,121,-1,-1,123,125,127,129,131,-1,133,135,137,139,141,143,145,147,149,151,153,-1,155,157,159,161,163,165,167,169,171,173,175,-1,177,179,181,183,185,187,189,191,193,-1,-1,-1,195,197,-1,199,201,203,205,207,-1,209,211,-1,-1,213,215,217,-1,219,221,223,225,227,229,-1,231,233,-1,235,237,239,241,243,245,247,249,251,-1,253,255,257,259,261,263,265,-1,267,269,271,273,275,277,279,281,283,-1,-1,-1,-1,285,287,289,291,293,-1,295,297,299,-1,301,303,305,307,-1,309,311,313,-1,315,317,319,321,-1,-1,-1,-1,-1,-1,323,325,327,-1,329,331,-1,333,-1,335,337,-1,-1,339,341,343,345,347,349,-1,-1,351,-1,353,355,-1,-1,-1,-1,357,-1,359,361,-1,363,365,-1,367,369,371,373,375,377,379,381,383,385,387,389,-1,391,-1,393,395,-1,397,399,-1,-1,-1,401,403,405,-1,407,-1,-1,409,-1,-1,411,413,415,417,419,421,-1,-1,423,-1,-1,425,427,429,-1,-1,-1,431,-1,-1,-1,433,435,-1,-1,-1,-1,437,439,-1,441,443,445,447,449,451,453,455,457,459,-1,-1,-1,-1,-1,-1,461,-1,463,465,467,-1,-1,-1,-1,-1,-1,-1,-1,-1,-1,-1,-1,-1,-1,-1,-1,-1,-1,-1,-1,-1,-1,-1,-1,-1,-1,-1,-1,-1,-1,-1,-1,-1,-1,-1,-1,-1,-1,-1,-1,-1,-1,-1,-1,-1,-1,-1,-1,-1,-1,-1,-1,-1,-1,-1,-1,-1,-1,-1,-1,-1,-1,-1,-1,-1,-1,-1,-1,-1,-1,-1,-1,-1,-1,-1,-1,-1,-1,-1,-1,-1,-1,-1,-1,-1,-1,-1,-1,-1,-1,-1,-1,-1,-1,-1,-1,-1,-1,-1,-1,-1,-1,-1,-1,-1,-1,-1,-1,-1,-1,-1,-1,-1,-1,-1,-1,-1,-1,-1,-1,-1,-1,-1,-1,-1,-1,-1,-1,-1,-1,-1,-1,-1,-1,-1,-1,-1,-1,-1,-1,-1,-1,-1,-1,-1,-1,-1,-1],"loss_changes":[1.8377672E4,5.596425E3,5.320701E3,7.841787E2,6.438468E2,1.4817119E3,7.3006055E2,3.3671875E1,5.6548218E1,7.589671E1,1.08303345E2,2.373872E2,2.3784326E2,1.816206E2,1.9684473E2,7.680664E-1,2.8823181E1,4.7867218E1,9.81221E0,2.1631208E1,1.3721893E1,2.314862E1,2.754956E1,5.7972412E1,6.3152832E1,5.2882812E1,7.932373E1,1.8760986E0,1.2059985E2,4.6748535E1,1.14909454E2,3.1884766E-1,0E0,5.2751465E0,0E0,9.154846E0,4.0088604E1,8.777115E0,7.3639183E0,8.897158E0,1.651204E1,2.2884195E0,1.375856E1,1.79628E1,8.635902E0,1.8929565E1,3.5757996E1,3.1051025E1,0E0,4.153125E1,5.2361862E1,4.5916016E1,2.8464056E1,1.093855E2,8.687109E1,0E0,0E0,4.968109E1,1.3346948E2,0E0,6.994629E0,0E0,1.05041504E-1,0E0,1.0502777E0,1.0830623E1,3.4582214E0,4.34169E0,1.1929161E1,0E0,0E0,1.4634481E1,8.584465E0,5.885681E0,1.8933212E1,6.4058385E0,0E0,2.3092747E-1,8.888977E0,9.5455647E-1,3.8468769E0,1.701944E1,9.45298E0,7.6911087E0,2.020996E1,1.4523224E1,5.0494485E0,1.8107666E1,0E0,5.4776962E1,2.3517601E1,7.9334595E1,4.037085E1,1.4673374E1,3.892383E1,3.456083E1,1.8644043E1,2.7448547E1,5.013159E1,1.6149393E1,0E0,3.9050903E1,6.1239624E1,3.467325E1,6.50957E1,3.5015656E1,3.6902214E1,6.0855957E1,5.863623E1,9.390991E0,0E0,0E0,0E0,9.4898224E-2,2.7654295E0,0E0,2.5694895E0,1.496582E0,7.0013695E0,4.1246033E0,3.4587097E0,0E0,4.8151093E0,1.1697347E0,0E0,0E0,6.705963E0,3.918066E-1,5.220728E0,0E0,3.30716E-1,7.4200487E0,1.543206E1,6.4310074E-2,1.4753544E-1,8.987747E0,0E0,5.5424833E-1,1.8849059E0,0E0,1.4465051E0,9.980392E0,2.140271E1,4.401983E0,1.4650375E1,6.0592084E0,1.3102203E1,5.2921333E1,2.4252808E1,0E0,1.092408E1,2.5775836E0,4.46629E0,2.2042995E1,1.9302612E1,2.729379E1,5.461479E1,0E0,1.4286884E1,4.511029E0,5.8835175E1,3.2465576E1,4.083484E1,2.625253E1,9.4695914E-1,5.0811035E1,2.510028E1,0E0,0E0,0E0,0E0,1.3430027E1,5.0963684E1,9.213829E1,3.115393E1,1.4122772E0,0E0,1.0538706E1,5.735376E1,4.427417E1,0E0,2.8290314E1,2.2079788E1,1.8598572E1,4.5343506E1,0E0,1.975534E1,8.0930605E0,2.4539734E1,0E0,6.1230835E1,5.30972E1,7.671777E1,8.493927E0,0E0,0E0,0E0,0E0,0E0,0E0,5.614033E-1,7.973938E-1,6.1876907E0,0E0,1.581511E0,1.8254242E0,0E0,2.942604E0,0E0,1.0834062E1,4.114731E0,0E0,0E0,9.177618E0,4.515541E0,6.4108133E-1,1.8113613E-1,1.1494628E1,5.3272476E0,0E0,0E0,3.1138077E0,0E0,2.5013567E1,4.3912888E0,0E0,0E0,0E0,0E0,8.882511E0,0E0,3.5351753E-1,4.1716793E-1,0E0,3.1933737E-1,1.4166582E-1,0E0,1.0839844E1,1.9474236E1,1.0330109E1,4.72739E1,3.3201187E0,8.357692E-1,1.1750038E1,4.964103E1,1.1143349E1,2.1607783E0,1.8279057E1,5.832924E0,0E0,6.6121605E1,0E0,1.7979431E1,1.0942604E1,0E0,1.1118925E0,2.8918693E0,0E0,0E0,0E0,2.036139E1,1.7582275E1,3.910551E1,0E0,9.05268E-1,0E0,0E0,1.5307552E1,0E0,0E0,1.2780917E0,1.7288586E1,5.943521E1,7.022565E0,3.165393E1,2.3473877E1,0E0,0E0,9.429554E0,0E0,0E0,4.1190674E1,6.0367767E1,2.9475952E1,0E0,0E0,0E0,2.5468842E1,0E0,0E0,0E0,4.9082397E1,3.4023468E1,0E0,0E0,0E0,0E0,7.323529E1,5.1991516E1,0E0,4.875769E1,3.0827675E0,2.9401505E1,2.8370735E1,2.2047302E1,7.9060955E0,2.3237885E1,3.512973E1,4.4914795E1,2.2564667E1,0E0,0E0,0E0,0E0,0E0,0E0,3.1160522E1,0E0,4.071277E1,4.0421295E1,1.1582678E2,0E0,0E0,0E0,0E0,0E0,0E0,0E0,0E0,0E0,0E0,0E0,0E0,0E0,0E0,0E0,0E0,0E0,0E0,0E0,0E0,0E0,0E0,0E0,0E0,0E0,0E0,0E0,0E0,0E0,0E0,0E0,0E0,0E0,0E0,0E0,0E0,0E0,0E0,0E0,0E0,0E0,0E0,0E0,0E0,0E0,0E0,0E0,0E0,0E0,0E0,0E0,0E0,0E0,0E0,0E0,0E0,0E0,0E0,0E0,0E0,0E0,0E0,0E0,0E0,0E0,0E0,0E0,0E0,0E0,0E0,0E0,0E0,0E0,0E0,0E0,0E0,0E0,0E0,0E0,0E0,0E0,0E0,0E0,0E0,0E0,0E0,0E0,0E0,0E0,0E0,0E0,0E0,0E0,0E0,0E0,0E0,0E0,0E0,0E0,0E0,0E0,0E0,0E0,0E0,0E0,0E0,0E0,0E0,0E0,0E0,0E0,0E0,0E0,0E0,0E0,0E0,0E0,0E0,0E0,0E0,0E0,0E0,0E0,0E0,0E0,0E0,0E0,0E0,0E0,0E0,0E0,0E0,0E0,0E0,0E0,0E0,0E0,0E0,0E0,0E0,0E0,0E0,0E0,0E0,0E0,0E0,0E0,0E0],"parents":[2147483647,0,0,1,1,2,2,3,3,4,4,5,5,6,6,7,7,8,8,9,9,10,10,11,11,12,12,13,13,14,14,15,15,16,16,17,17,18,18,19,19,20,20,21,21,22,22,23,23,24,24,25,25,26,26,27,27,28,28,29,29,30,30,31,31,33,33,35,35,36,36,37,37,38,38,39,39,40,40,41,41,42,42,43,43,44,44,45,45,46,46,47,47,49,49,50,50,51,51,52,52,53,53,54,54,57,57,58,58,60,60,62,62,64,64,65,65,66,66,67,67,68,68,71,71,72,72,73,73,74,74,75,75,77,77,78,78,79,79,80,80,81,81,82,82,83,83,84,84,85,85,86,86,87,87,89,89,90,90,91,91,92,92,93,93,94,94,95,95,96,96,97,97,98,98,99,99,101,101,102,102,103,103,104,104,105,105,106,106,107,107,108,108,109,109,113,113,114,114,116,116,117,117,118,118,119,119,120,120,122,122,123,123,126,126,127,127,128,128,130,130,131,131,132,132,133,133,134,134,135,135,137,137,138,138,140,140,141,141,142,142,143,143,144,144,145,145,146,146,147,147,148,148,150,150,151,151,152,152,153,153,154,154,155,155,156,156,158,158,159,159,160,160,161,161,162,162,163,163,164,164,165,165,166,166,171,171,172,172,173,173,174,174,175,175,177,177,178,178,179,179,181,181,182,182,183,183,184,184,186,186,187,187,188,188,190,190,191,191,192,192,193,193,200,200,201,201,202,202,204,204,205,205,207,207,209,209,210,210,213,213,214,214,215,215,216,216,217,217,218,218,221,221,223,223,224,224,229,229,231,231,232,232,234,234,235,235,237,237,238,238,239,239,240,240,241,241,242,242,243,243,244,244,245,245,246,246,247,247,248,248,250,250,252,252,253,253,255,255,256,256,260,260,261,261,262,262,264,264,267,267,270,270,271,271,272,272,273,273,274,274,275,275,278,278,281,281,282,282,283,283,287,287,291,291,292,292,297,297,298,298,300,300,301,301,302,302,303,303,304,304,305,305,306,306,307,307,308,308,309,309,316,316,318,318,319,319,320,320],"right_children":[2,4,6,8,10,12,14,16,18,20,22,24,26,28,30,32,34,36,38,40,42,44,46,48,50,52,54,56,58,60,62,64,-1,66,-1,68,70,72,74,76,78,80,82,84,86,88,90,92,-1,94,96,98,100,102,104,-1,-1,106,108,-1,110,-1,112,-1,114,116,118,120,122,-1,-1,124,126,128,130,132,-1,134,136,138,140,142,144,146,148,150,152,154,-1,156,158,160,162,164,166,168,170,172,174,176,-1,178,180,182,184,186,188,190,192,194,-1,-1,-1,196,198,-1,200,202,204,206,208,-1,210,212,-1,-1,214,216,218,-1,220,222,224,226,228,230,-1,232,234,-1,236,238,240,242,244,246,248,250,252,-1,254,256,258,260,262,264,266,-1,268,270,272,274,276,278,280,282,284,-1,-1,-1,-1,286,288,290,292,294,-1,296,298,300,-1,302,304,306,308,-1,310,312,314,-1,316,318,320,322,-1,-1,-1,-1,-1,-1,324,326,328,-1,330,332,-1,334,-1,336,338,-1,-1,340,342,344,346,348,350,-1,-1,352,-1,354,356,-1,-1,-1,-1,358,-1,360,362,-1,364,366,-1,368,370,372,374,376,378,380,382,384,386,388,390,-1,392,-1,394,396,-1,398,400,-1,-1,-1,402,404,406,-1,408,-1,-1,410,-1,-1,412,414,416,418,420,422,-1,-1,424,-1,-1,426,428,430,-1,-1,-1,432,-1,-1,-1,434,436,-1,-1,-1,-1,438,440,-1,442,444,446,448,450,452,454,456,458,460,-1,-1,-1,-1,-1,-1,462,-1,464,466,468,-1,-1,-1,-1,-1,-1,-1,-1,-1,-1,-1,-1,-1,-1,-1,-1,-1,-1,-1,-1,-1,-1,-1,-1,-1,-1,-1,-1,-1,-1,-1,-1,-1,-1,-1,-1,-1,-1,-1,-1,-1,-1,-1,-1,-1,-1,-1,-1,-1,-1,-1,-1,-1,-1,-1,-1,-1,-1,-1,-1,-1,-1,-1,-1,-1,-1,-1,-1,-1,-1,-1,-1,-1,-1,-1,-1,-1,-1,-1,-1,-1,-1,-1,-1,-1,-1,-1,-1,-1,-1,-1,-1,-1,-1,-1,-1,-1,-1,-1,-1,-1,-1,-1,-1,-1,-1,-1,-1,-1,-1,-1,-1,-1,-1,-1,-1,-1,-1,-1,-1,-1,-1,-1,-1,-1,-1,-1,-1,-1,-1,-1,-1,-1,-1,-1,-1,-1,-1,-1,-1,-1,-1,-1,-1,-1,-1,-1,-1],"split_conditions":[1.6830637E2,6.642021E1,5.500606E2,2.2571041E1,1.0706563E2,2.937885E2,9.2105263E-1,8.072675E-3,4.2188046E1,9.035421E1,1.2594785E2,2.1980362E2,3.318031E2,2.5E-1,6.239232E0,4.053702E1,1.0566694E2,1.1496725E2,5.3982697E1,7.360585E1,6.962217E1,1.2284059E2,1.9856728E2,3.3694064E2,2.4350212E2,8.947368E-1,1.3002084E2,4.7368422E-1,5.527143E2,5.2918887E0,7.5537254E1,2.4350212E2,-5.5151726E-3,3.4337652E0,5.9796777E-2,3.4062878E1,2.0960414E0,-4.0579348E0,1.16383934E2,1.8325023E2,3.9686024E1,5.6790247E0,1.0220764E2,8.820544E-2,1.5678899E2,2.9091052E2,1.2308434E2,1.2100198E2,1.2790385E-1,1.841329E2,2.2492523E2,9.017457E1,3.7531757E2,3.9473686E-1,3.460454E2,2.1495333E-1,3.003814E-1,1.6186465E-1,4.7368422E-1,1.8449883E-1,7.5E-1,2.7637502E-2,2.9937872E2,-1.5951088E-2,1.1942436E1,4.1625623E-2,5.3982697E1,2.552433E-1,-4.7900114E0,-2.2767007E-3,1.3250938E-1,6.6258097E-1,-1.8596882E0,3.3197453E1,9.1524586E-2,8.545339E1,4.067707E-2,2.2380716E-1,1.9798387E2,1.5477325E0,7.132867E0,5.8245144E0,8.835123E1,9.173005E1,7.971755E1,6.415598E1,1.4692213E2,7.203007E1,8.4025465E-2,1.1617027E2,1.0571723E2,6.1478677E0,1.8282779E2,6.5789473E-1,1.8501125E2,2.4408638E2,1.3525523E2,1.574899E0,1.9188107E2,3.3333334E-1,7.1279876E-2,7.609783E1,1.2475501E2,5.2752084E-1,3.1116885E2,5.469473E-1,5.306111E2,8.511626E1,1.997607E2,6.182919E0,3.5145757E-1,1.7876902E-1,2.6056588E-1,4.9352452E-1,2.6111517E1,4.194702E-2,-2.0306717E1,1.5731087E1,7.185134E1,8.126674E1,5.8807663E1,4.4623688E-2,6.745352E1,-2.6488423E0,6.7610405E-2,3.696498E-2,7.72996E1,6.168152E1,1.130135E0,6.508744E-2,5.7397858E1,1.2849487E2,7.557587E1,3.6052895E1,6.306753E1,1.630455E2,4.809813E-2,8.3296455E1,7.255829E1,2.6030695E-2,5.263158E-1,1.6461691E2,1.3212923E2,5.3353416E1,8.4210527E-1,1.116327E2,7.286296E1,7.1979324E1,5.8242542E1,5.608606E-2,1.8101938E2,7.5E-1,1.1630707E1,1.1530614E2,2.407378E2,5.1899123E0,1.3599199E2,8.9052E-2,1.3079102E2,1.6085638E2,1.7868248E2,1.2726736E2,2.8340112E2,5E-1,7.631579E-1,1.4303641E1,3.4383438E2,1.06849946E-1,5.49172E-3,2.1334787E-1,1.015492E-1,9.021773E1,9.890938E1,3.1950287E2,3.851244E2,3.109245E2,-2.5164291E-2,7.295028E1,5.543478E-1,3.152256E2,2.5833616E-1,3.1523254E2,3.3333334E-1,1.3716121E2,1.1775427E2,6.3147984E-2,5.5849316E2,7.105263E-1,6.3416135E-1,3.3384364E-2,9.686745E1,6.0633435E0,4.441057E-1,5.6914896E-1,3.1657982E-1,-9.089391E-3,-1.5899647E-2,1.033819E-2,-1.5204579E-2,1.3802791E-2,1.7271256E-1,2.3010086E1,1.5819444E2,2.578926E-2,7.405174E1,1.670013E1,1.9273287E-2,8.124237E-2,1.2276707E-2,6.043016E-1,6.9380206E-1,7.389334E-3,-1.4795116E-2,9.295593E1,4.627331E1,1.8421052E-1,5.75112E-1,5.6734215E1,1.0647604E-2,-1.9083488E-3,-1.4223004E-2,1.3813336E2,3.6238924E-2,7.221342E1,2.6044499E-3,-1.656889E-2,-1.0063349E-2,-4.612188E-3,-1.2682733E-2,6.421264E1,4.1804556E-2,1.8139607E-1,1.0010488E2,1.6519258E-2,9.189234E1,7.3081665E1,1.0539815E-2,8.564069E1,1.0714233E2,6.793248E-2,6.466235E-1,1.2030921E2,5.7894737E-1,1.0104461E1,1.0901895E2,9.617182E1,3.3531956E1,1.27366745E2,9.4202385E1,1.4110756E-1,7.814025E1,8.905124E-2,9.1524586E-2,1.6979742E2,5.235657E-2,6.666667E-1,1.15528404E2,5.781308E-4,4.131963E-2,9.4366336E-4,1.3212923E2,1.359486E2,5.8788157E-1,7.698233E-2,9.156038E1,1.6350143E-1,3.662962E-2,5.7894737E-1,6.859161E-2,3.9223984E-2,5.9898245E-1,1.4484044E2,1.9479169E2,1.5877142E2,7.495654E1,1.8197383E2,1.2413897E-1,1.0214517E-1,2.5071677E2,-7.543772E-4,-1.9164708E-2,1.3632303E-1,1.3212923E2,3.3333334E-1,1.1081411E-1,9.309354E-2,2.7600938E-2,2.625204E2,1.9674306E-1,2.3234533E-1,2.414542E-2,1.7509352E2,1.6937483E2,4.529183E-2,1.6582107E-2,6.244878E-2,2.3907407E-3,3.737571E2,3.275011E2,5.437714E-2,3.1447644E2,2.2880374E2,3.0037372E2,3.561843E2,8.683105E1,6.1702126E-1,7.5E-1,3.737571E2,8.479548E0,1.24048225E2,2.1215235E-1,4.96213E-2,-3.9342376E-3,6.5803066E-2,1.7214566E-1,2.5042295E-1,1.359486E2,7.134557E-2,1.3431209E2,5.5263156E-1,6.8421054E-1,2.7219763E-1,1.6071983E-1,-3.2939978E-3,-9.381231E-3,-1.2809642E-2,-1.45171005E-2,-1.190088E-2,1.768174E-2,9.159989E-3,-1.1151011E-2,-7.881439E-3,-1.1982801E-2,6.151287E-4,-9.110457E-3,-8.628613E-3,2.6305357E-2,-8.061901E-3,-2.0523805E-3,-3.8771282E-3,2.3027686E-2,-7.845738E-3,-5.189102E-3,-8.980819E-4,-1.0614618E-2,-1.4700189E-2,-7.109295E-3,-5.349545E-3,1.1668571E-2,8.584812E-3,-3.2658228E-3,-1.394792E-3,-9.351462E-3,2.3510003E-2,2.266455E-4,2.8186604E-2,-2.2963658E-3,-1.2909519E-3,3.5234012E-3,-1.6389538E-2,-9.003613E-3,-7.860743E-3,3.4703554E-3,-1.3505118E-3,-1.3063008E-2,-1.5208225E-2,-6.210615E-3,9.630025E-5,8.1786495E-3,-3.6573373E-3,8.81553E-2,6.1732507E-3,1.5092057E-2,1.9671304E-2,1.19073115E-1,2.9089437E-3,-7.10952E-3,-6.035631E-3,-1.739855E-2,4.5517622E-3,1.1229947E-2,-2.3674334E-3,9.746411E-2,5.0194063E-3,5.4390233E-2,-6.1512627E-3,1.5978549E-2,7.147937E-2,-1.0382524E-2,1.2026189E-3,1.1154718E-2,7.490872E-3,1.2517509E-1,5.6053758E-2,1.4209749E-2,7.734727E-3,4.586341E-2,-3.2657862E-3,-1.4451926E-2,8.618928E-3,-4.142399E-3,1.18684985E-1,3.529389E-2,1.9283572E-2,1.485291E-2,1.2252146E-1,-1.1011853E-4,3.9474224E-3,-1.4171158E-2,2.5076216E-2,-4.380669E-3,-5.56015E-3,1.54881375E-2,-2.714584E-3,8.7859534E-2,2.4335256E-1,7.273966E-2,2.8484408E-2,-1.0279176E-2,1.12861864E-1,2.7424702E-2,3.684465E-2,2.6654527E-2,1.3680969E-2,5.367408E-2,4.8056066E-2,6.165229E-2,1.5327582E-1,3.432322E-2,4.3637916E-2,2.3652533E-2,2.959992E-2,1.0971093E-1,4.64569E-2,6.865054E-2,9.516859E-2,4.9690705E-2,1.899191E-1,9.627614E-2,3.343523E-2,9.79309E-2,2.5777712E-1,1.3427535E-1,2.023307E-2,6.0927976E-2,4.293408E-2,1.5066968E-1,1.3068824E-1,3.2094922E-2,2.9445222E-2,9.2420295E-2,6.8217614E-3,5.7647076E-2,1.0087407E-1,4.9831055E-2,1.1017337E-1,5.0229747E-2,9.577397E-2,1.3087621E-1,1.6605859E-1,7.0229486E-2,7.505504E-2,1.4453003E-1,1.3215165E-1,2.595313E-1,1.9484124E-1,5.1609386E-2,3.213235E-1,1.8872134E-1],"split_indices":[16,16,16,36,16,16,9,65,16,16,16,16,37,14,62,35,28,44,25,25,49,35,20,36,60,9,48,9,35,60,62,60,0,60,0,16,60,25,35,34,35,62,51,13,35,35,43,20,0,25,40,55,27,9,18,0,0,13,9,0,14,0,55,0,36,13,25,65,37,0,0,11,37,35,13,28,0,65,37,65,62,62,36,52,43,20,32,52,0,39,19,62,20,9,55,16,49,60,39,1,0,47,48,11,35,11,38,47,49,60,0,0,0,11,39,0,43,36,51,38,27,0,51,27,0,0,48,19,60,0,44,22,18,35,28,35,0,55,51,0,9,44,32,60,9,25,34,32,48,0,28,14,62,36,28,60,32,0,60,19,39,35,18,14,9,62,32,0,0,0,0,47,47,18,18,36,0,47,11,27,0,34,1,52,55,0,34,9,13,0,52,60,62,11,0,0,